{"learner":{"attributes":{"best_iteration":"99","best_ntree_limit":"100","scikit_learn":"{\"use_label_encoder\": null, \"n_estimators\": 100, \"objective\": \"multi:softprob\", \"max_depth\": null, \"max_leaves\": null, \"max_bin\": null, \"grow_policy\": null, \"learning_rate\": null, \"verbosity\": null, \"booster\": null, \"tree_method\": null, \"gamma\": null, \"min_child_weight\": null, \"max_delta_step\": null, \"subsample\": null, \"sampling_method\": null, \"colsample_bytree\": null, \"colsample_bylevel\": null, \"colsample_bynode\": null, \"reg_alpha\": null, \"reg_lambda\": null, \"scale_pos_weight\": null, \"base_score\": null, \"missing\": NaN, \"num_parallel_tree\": null, \"random_state\": null, \"n_jobs\": null, \"monotone_constraints\": null, \"interaction_constraints\": null, \"importance_type\": null, \"gpu_id\": null, \"validate_parameters\": null, \"predictor\": null, \"enable_categorical\": false, \"feature_types\": null, \"max_cat_to_onehot\": null, \"max_cat_threshold\": null, \"eval_metric\": null, \"early_stopping_rounds\": null, \"callbacks\": null, \"classes_\": [0, 1, 2], \"n_classes_\": 3, \"_estimator_type\": \"classifier\"}"},"feature_names":[],"feature_types":[],"gradient_booster":{"model":{"gbtree_model_param":{"num_parallel_tree":"1","num_trees":"300","size_leaf_vector":"0"},"tree_info":[0,1,2,0,1,2,0,1,2,0,1,2,0,1,2,0,1,2,0,1,2,0,1,2,0,1,2,0,1,2,0,1,2,0,1,2,0,1,2,0,1,2,0,1,2,0,1,2,0,1,2,0,1,2,0,1,2,0,1,2,0,1,2,0,1,2,0,1,2,0,1,2,0,1,2,0,1,2,0,1,2,0,1,2,0,1,2,0,1,2,0,1,2,0,1,2,0,1,2,0,1,2,0,1,2,0,1,2,0,1,2,0,1,2,0,1,2,0,1,2,0,1,2,0,1,2,0,1,2,0,1,2,0,1,2,0,1,2,0,1,2,0,1,2,0,1,2,0,1,2,0,1,2,0,1,2,0,1,2,0,1,2,0,1,2,0,1,2,0,1,2,0,1,2,0,1,2,0,1,2,0,1,2,0,1,2,0,1,2,0,1,2,0,1,2,0,1,2,0,1,2,0,1,2,0,1,2,0,1,2,0,1,2,0,1,2,0,1,2,0,1,2,0,1,2,0,1,2,0,1,2,0,1,2,0,1,2,0,1,2,0,1,2,0,1,2,0,1,2,0,1,2,0,1,2,0,1,2,0,1,2,0,1,2,0,1,2,0,1,2,0,1,2,0,1,2,0,1,2,0,1,2,0,1,2,0,1,2,0,1,2,0,1,2,0,1,2,0,1,2],"trees":[{"base_weights":[-4.388072E-8,1.4201183E0,-7.2948337E-1],"categories":[],"categories_nodes":[],"categories_segments":[],"categories_sizes":[],"default_left":[1,0,0],"id":0,"left_children":[1,-1,-1],"loss_changes":[5.732271E1,0E0,0E0],"parents":[2147483647,0,0],"right_children":[2,-1,-1],"split_conditions":[2.45E0,4.2603552E-1,-2.1884502E-1],"split_indices":[2,0,0],"split_type":[0,0,0],"sum_hessian":[5.333333E1,1.7777777E1,3.5555553E1],"tree_param":{"num_deleted":"0","num_feature":"4","num_nodes":"3","size_leaf_vector":"0"}},{"base_weights":[1.8404864E-2,-7.100592E-1,3.9209723E-1,1.1904762E0,-6.4429533E-1,1.3636364E0,-3.2511625E-8,-2.5544848E-8,-7.0072997E-1,-4.2857146E-1,4.285714E-1],"categories":[],"categories_nodes":[],"categories_segments":[],"categories_sizes":[],"default_left":[1,0,1,1,1,0,1,0,0,0,0],"id":1,"left_children":[1,-1,3,5,7,-1,9,-1,-1,-1,-1],"loss_changes":[1.5069112E1,0E0,3.1014328E1,4.3290043E0,6.019697E-1,0E0,8.5714287E-1,0E0,0E0,0E0,0E0],"parents":[2147483647,0,0,2,2,3,3,4,4,6,6],"right_children":[2,-1,4,6,8,-1,10,-1,-1,-1,-1],"split_conditions":[2.45E0,-2.1301778E-1,1.75E0,4.95E0,4.8500004E0,4.0909094E-1,1.55E0,-7.663455E-9,-2.10219E-1,-1.2857145E-1,1.2857142E-1],"split_indices":[2,0,3,2,2,0,3,0,0,0,0],"split_type":[0,0,0,0,0,0,0,0,0,0,0],"sum_hessian":[5.333333E1,1.7777777E1,3.5555553E1,1.9999998E1,1.5555554E1,1.7333332E1,2.6666665E0,1.3333333E0,1.4222221E1,1.3333333E0,1.3333333E0],"tree_param":{"num_deleted":"0","num_feature":"4","num_nodes":"11","size_leaf_vector":"0"}},{"base_weights":[-1.8404953E-2,-7.0031554E-1,1.1767956E0,-7.2631586E-1,-3.658537E-1,2.926829E-1,1.3489933E0,-2.5544848E-8,-5.172414E-1,-1.2000003E-1,5.9999996E-1,4.285714E-1,1.4014598E0],"categories":[],"categories_nodes":[],"categories_segments":[],"categories_sizes":[],"default_left":[1,1,1,0,1,1,1,0,0,0,0,0,0],"id":2,"left_children":[1,3,5,-1,7,9,11,-1,-1,-1,-1,-1,-1],"loss_changes":[4.510687E1,4.0575027E-2,2.666933E0,0E0,2.5231284E-1,6.497562E-1,1.9886589E-1,0E0,0E0,0E0,0E0,0E0,0E0],"parents":[2147483647,0,0,1,1,2,2,4,4,5,5,6,6],"right_children":[2,4,6,-1,8,10,12,-1,-1,-1,-1,-1,-1],"split_conditions":[4.75E0,1.45E0,1.75E0,-2.1789476E-1,5.75E0,5.05E0,4.8500004E0,-7.663455E-9,-1.5517244E-1,-3.600001E-2,1.7999999E-1,1.2857142E-1,4.2043796E-1],"split_indices":[2,3,3,0,0,2,2,0,0,0,0,0,0],"split_type":[0,0,0,0,0,0,0,0,0,0,0,0,0],"sum_hessian":[5.333333E1,3.422222E1,1.911111E1,3.0666664E1,3.5555553E0,3.5555553E0,1.5555554E1,1.3333333E0,2.222222E0,1.7777777E0,1.7777777E0,1.3333333E0,1.4222221E1],"tree_param":{"num_deleted":"0","num_feature":"4","num_nodes":"13","size_leaf_vector":"0"}},{"base_weights":[-2.3916746E-3,9.775956E-1,-6.527633E-1],"categories":[],"categories_nodes":[],"categories_segments":[],"categories_sizes":[],"default_left":[1,0,0],"id":3,"left_children":[1,-1,-1],"loss_changes":[3.352948E1,0E0,0E0],"parents":[2147483647,0,0],"right_children":[2,-1,-1],"split_conditions":[2.45E0,2.932787E-1,-1.95829E-1],"split_indices":[2,0,0],"split_type":[0,0,0],"sum_hessian":[5.0605927E1,1.9986664E1,3.0619263E1],"tree_param":{"num_deleted":"0","num_feature":"4","num_nodes":"3","size_leaf_vector":"0"}},{"base_weights":[1.3115215E-2,-6.316788E-1,2.9828495E-1,8.3162E-1,-5.672999E-1,9.4395816E-1,-1.5993206E-2,-8.60127E-3,-6.2337E-1,3.6544994E-1,9.866477E-1,-4.1133583E-1,3.6812136E-1],"categories":[],"categories_nodes":[],"categories_segments":[],"categories_sizes":[],"default_left":[1,0,1,1,1,1,1,0,0,0,0,0,0],"id":4,"left_children":[1,-1,3,5,7,9,11,-1,-1,-1,-1,-1,-1],"loss_changes":[9.757689E0,0E0,1.7443207E1,2.2196712E0,4.5232153E-1,1.4471245E-1,7.1219367E-1,0E0,0E0,0E0,0E0,0E0,0E0],"parents":[2147483647,0,0,2,2,3,3,4,4,5,5,6,6],"right_children":[2,-1,4,6,8,10,12,-1,-1,-1,-1,-1,-1],"split_conditions":[2.45E0,-1.8950365E-1,1.75E0,4.95E0,4.8500004E0,5.05E0,1.55E0,-2.580381E-3,-1.87011E-1,1.0963499E-1,2.9599434E-1,-1.23400755E-1,1.1043641E-1],"split_indices":[2,0,3,2,2,0,3,0,0,0,0,0,0],"split_type":[0,0,0,0,0,0,0,0,0,0,0,0,0],"sum_hessian":[5.104204E1,1.5279237E1,3.5762806E1,2.2152597E1,1.3610209E1,1.945983E1,2.692768E0,1.3465171E0,1.2263692E1,1.9943278E0,1.7465502E1,1.2920661E0,1.400702E0],"tree_param":{"num_deleted":"0","num_feature":"4","num_nodes":"13","size_leaf_vector":"0"}},{"base_weights":[-1.0826227E-2,-6.20765E-1,8.351053E-1,-6.482378E-1,-2.970924E-1,2.4062534E-1,9.400166E-1,4.121017E-2,-4.5491034E-1,-1.0436003E-1,4.820972E-1],"categories":[],"categories_nodes":[],"categories_segments":[],"categories_sizes":[],"default_left":[1,1,1,0,1,1,0,0,0,0,0],"id":5,"left_children":[1,3,5,-1,7,9,-1,-1,-1,-1,-1],"loss_changes":[2.7165405E1,7.9351425E-2,1.1498299E0,0E0,2.4505293E-1,4.3797573E-1,0E0,0E0,0E0,0E0,0E0],"parents":[2147483647,0,0,1,1,2,2,4,4,5,5],"right_children":[2,4,6,-1,8,10,-1,-1,-1,-1,-1],"split_conditions":[4.75E0,1.45E0,1.75E0,-1.9447136E-1,5.75E0,5.05E0,2.82005E-1,1.2363052E-2,-1.364731E-1,-3.130801E-2,1.4462917E-1],"split_indices":[2,3,3,0,0,2,0,0,0,0,0],"split_type":[0,0,0,0,0,0,0,0,0,0,0],"sum_hessian":[5.0644836E1,2.9581778E1,2.106306E1,2.634306E1,3.2387176E0,3.653592E0,1.7409468E1,1.2652882E0,1.9734294E0,1.7381516E0,1.9154408E0],"tree_param":{"num_deleted":"0","num_feature":"4","num_nodes":"11","size_leaf_vector":"0"}},{"base_weights":[-5.5183982E-3,7.830637E-1,-6.019143E-1],"categories":[],"categories_nodes":[],"categories_segments":[],"categories_sizes":[],"default_left":[1,0,0],"id":6,"left_children":[1,-1,-1],"loss_changes":[2.1936876E1,0E0,0E0],"parents":[2147483647,0,0],"right_children":[2,-1,-1],"split_conditions":[2.45E0,2.3491912E-1,-1.805743E-1],"split_indices":[2,0,0],"split_type":[0,0,0],"sum_hessian":[4.4641537E1,1.9088652E1,2.5552885E1],"tree_param":{"num_deleted":"0","num_feature":"4","num_nodes":"3","size_leaf_vector":"0"}},{"base_weights":[1.2369962E-2,-5.7759595E-1,2.4918893E-1,6.8825793E-1,-4.6550077E-1,7.995513E-1,-2.0255084E-1,-1.5132634E-1,-5.6276655E-1,-5.034869E-1,3.931847E-1],"categories":[],"categories_nodes":[],"categories_segments":[],"categories_sizes":[],"default_left":[1,0,1,1,1,0,0,1,0,0,0],"id":7,"left_children":[1,-1,3,5,7,-1,-1,9,-1,-1,-1],"loss_changes":[6.6718316E0,0E0,1.1001609E1,2.2923374E0,3.2890773E-1,0E0,0E0,1.0744917E0,0E0,0E0,0E0],"parents":[2147483647,0,0,2,2,3,3,4,4,7,7],"right_children":[2,-1,4,6,8,-1,-1,10,-1,-1,-1],"split_conditions":[2.45E0,-1.732788E-1,1.6500001E0,4.95E0,5.05E0,2.398654E-1,-6.0765255E-2,2.9E0,-1.6882998E-1,-1.5104607E-1,1.1795541E-1],"split_indices":[2,0,3,2,2,0,0,1,0,0,0],"split_type":[0,0,0,0,0,0,0,0,0,0,0],"sum_hessian":[4.572294E1,1.2684414E1,3.3038525E1,2.0488447E1,1.2550077E1,1.830407E1,2.1843784E0,3.5710783E0,8.978999E0,2.2143178E0,1.3567606E0],"tree_param":{"num_deleted":"0","num_feature":"4","num_nodes":"11","size_leaf_vector":"0"}},{"base_weights":[-7.0466395E-3,-5.648598E-1,6.630533E-1,-5.959551E-1,-2.3931739E-1,2.0348948E-1,7.4588674E-1,6.780907E-2,-4.0268254E-1,-8.827589E-2,3.9843774E-1,2.2879478E-1,7.7926725E-1],"categories":[],"categories_nodes":[],"categories_segments":[],"categories_sizes":[],"default_left":[1,1,1,0,1,1,1,0,0,0,0,0,0],"id":8,"left_children":[1,3,5,-1,7,9,11,-1,-1,-1,-1,-1,-1],"loss_changes":[1.7672132E1,1.1848545E-1,6.659889E-1,0E0,2.2398736E-1,2.999949E-1,1.2940502E-1,0E0,0E0,0E0,0E0,0E0,0E0],"parents":[2147483647,0,0,1,1,2,2,4,4,5,5,6,6],"right_children":[2,4,6,-1,8,10,12,-1,-1,-1,-1,-1,-1],"split_conditions":[4.75E0,1.45E0,1.75E0,-1.7878653E-1,5.75E0,5.05E0,4.8500004E0,2.034272E-2,-1.20804764E-1,-2.6482766E-2,1.19531326E-1,6.863844E-2,2.3378019E-1],"split_indices":[2,3,3,0,0,2,2,0,0,0,0,0,0],"split_type":[0,0,0,0,0,0,0,0,0,0,0,0,0],"sum_hessian":[4.5276184E1,2.4793945E1,2.048224E1,2.1873932E1,2.9200134E0,3.6558778E0,1.6826363E1,1.216992E0,1.7030214E0,1.6834939E0,1.972384E0,1.496619E0,1.5329744E1],"tree_param":{"num_deleted":"0","num_feature":"4","num_nodes":"13","size_leaf_vector":"0"}},{"base_weights":[-8.355572E-3,6.747591E-1,-5.652522E-1],"categories":[],"categories_nodes":[],"categories_segments":[],"categories_sizes":[],"default_left":[1,0,0],"id":9,"left_children":[1,-1,-1],"loss_changes":[1.5088844E1,0E0,0E0],"parents":[2147483647,0,0],"right_children":[2,-1,-1],"split_conditions":[2.45E0,2.0242773E-1,-1.6957566E-1],"split_indices":[2,0,0],"split_type":[0,0,0],"sum_hessian":[3.7660618E1,1.6818563E1,2.0842054E1],"tree_param":{"num_deleted":"0","num_feature":"4","num_nodes":"3","size_leaf_vector":"0"}},{"base_weights":[9.854281E-3,-5.370024E-1,2.1417749E-1,5.8356065E-1,-4.1906425E-1,6.883654E-1,-1.8237701E-1,-1.2960984E-1,-5.204589E-1,-4.6845582E-1,3.4309545E-1],"categories":[],"categories_nodes":[],"categories_segments":[],"categories_sizes":[],"default_left":[1,0,1,1,1,0,0,1,0,0,0],"id":10,"left_children":[1,-1,3,5,7,-1,-1,9,-1,-1,-1],"loss_changes":[4.631863E0,0E0,7.2954445E0,1.6873746E0,2.7556086E-1,0E0,0E0,8.5966086E-1,0E0,0E0,0E0],"parents":[2147483647,0,0,2,2,3,3,4,4,7,7],"right_children":[2,-1,4,6,8,-1,-1,10,-1,-1,-1],"split_conditions":[2.45E0,-1.6110072E-1,1.6500001E0,4.95E0,5.05E0,2.0650963E-1,-5.4713104E-2,2.9E0,-1.5613768E-1,-1.4053676E-1,1.0292864E-1],"split_indices":[2,0,3,2,2,0,0,1,0,0,0],"split_type":[0,0,0,0,0,0,0,0,0,0,0],"sum_hessian":[3.942448E1,1.0280704E1,2.9143778E1,1.8456291E1,1.0687486E1,1.6323933E1,2.1323595E0,3.3635955E0,7.32389E0,1.9644339E0,1.3991616E0],"tree_param":{"num_deleted":"0","num_feature":"4","num_nodes":"11","size_leaf_vector":"0"}},{"base_weights":[-1.8848197E-3,-5.215734E-1,5.6064063E-1,-5.5718285E-1,-1.957634E-1,1.6901983E-1,6.3793844E-1,7.366898E-2,-3.578979E-1,3.2639426E-1,-1.06357984E-1,1.9375922E-1,6.702834E-1],"categories":[],"categories_nodes":[],"categories_segments":[],"categories_sizes":[],"default_left":[1,1,1,0,1,1,1,0,0,0,0,0,0],"id":11,"left_children":[1,3,5,-1,7,9,11,-1,-1,-1,-1,-1,-1],"loss_changes":[1.1975413E1,1.3793945E-1,4.8770618E-1,0E0,1.8534961E-1,2.3421407E-1,1.00997925E-1,0E0,0E0,0E0,0E0,0E0,0E0],"parents":[2147483647,0,0,1,1,2,2,4,4,5,5,6,6],"right_children":[2,4,6,-1,8,10,12,-1,-1,-1,-1,-1,-1],"split_conditions":[4.75E0,1.45E0,1.75E0,-1.6715486E-1,5.75E0,1.55E0,4.8500004E0,2.2100694E-2,-1.0736938E-1,9.791828E-2,-3.19074E-2,5.812777E-2,2.0108502E-1],"split_indices":[2,3,3,0,0,3,2,0,0,0,0,0,0],"split_type":[0,0,0,0,0,0,0,0,0,0,0,0,0],"sum_hessian":[3.8964E1,2.0290989E1,1.8673012E1,1.7651611E1,2.639378E0,3.6033983E0,1.50696125E1,1.1965694E0,1.4428086E0,2.1751003E0,1.428298E0,1.4973633E0,1.3572249E1],"tree_param":{"num_deleted":"0","num_feature":"4","num_nodes":"13","size_leaf_vector":"0"}},{"base_weights":[-1.1602606E-2,6.0609764E-1,-5.374139E-1],"categories":[],"categories_nodes":[],"categories_segments":[],"categories_sizes":[],"default_left":[1,0,0],"id":12,"left_children":[1,-1,-1],"loss_changes":[1.069278E1,0E0,0E0],"parents":[2147483647,0,0],"right_children":[2,-1,-1],"split_conditions":[2.45E0,1.818293E-1,-1.6122417E-1],"split_indices":[2,0,0],"split_type":[0,0,0],"sum_hessian":[3.0918882E1,1.4146959E1,1.6771923E1],"tree_param":{"num_deleted":"0","num_feature":"4","num_nodes":"3","size_leaf_vector":"0"}},{"base_weights":[8.054735E-3,-5.0414014E-1,1.8851195E-1,5.122632E-1,-3.7905788E-1,6.195077E-1,-1.7135718E-1,-1.12073824E-1,-4.85308E-1,-4.3780506E-1,3.0232894E-1],"categories":[],"categories_nodes":[],"categories_segments":[],"categories_sizes":[],"default_left":[1,0,1,1,1,0,0,1,0,0,0],"id":13,"left_children":[1,-1,3,5,7,-1,-1,9,-1,-1,-1],"loss_changes":[3.2633123E0,0E0,4.985542E0,1.3546529E0,2.3058367E-1,0E0,0E0,6.939072E-1,0E0,0E0,0E0],"parents":[2147483647,0,0,2,2,3,3,4,4,7,7],"right_children":[2,-1,4,6,8,-1,-1,10,-1,-1,-1],"split_conditions":[2.45E0,-1.5124205E-1,1.6500001E0,4.95E0,5.05E0,1.858523E-1,-5.140716E-2,2.9E0,-1.455924E-1,-1.3134152E-1,9.069869E-2],"split_indices":[2,0,3,2,2,0,0,1,0,0,0],"split_type":[0,0,0,0,0,0,0,0,0,0,0],"sum_hessian":[3.3277847E1,8.202595E0,2.507525E1,1.6029312E1,9.045939E0,1.3936738E1,2.0925736E0,3.1600964E0,5.8858433E0,1.7377264E0,1.4223701E0],"tree_param":{"num_deleted":"0","num_feature":"4","num_nodes":"11","size_leaf_vector":"0"}},{"base_weights":[2.7798521E-3,-4.8579422E-1,4.874123E-1,-5.271611E-1,-1.5843011E-1,1.3905722E-1,5.6624454E-1,7.7693395E-2,-3.1860214E-1,2.889419E-1,-1.12798505E-1,1.6645263E-1,6.0050184E-1],"categories":[],"categories_nodes":[],"categories_segments":[],"categories_sizes":[],"default_left":[1,1,1,0,1,1,1,0,0,0,0,0,0],"id":14,"left_children":[1,3,5,-1,7,9,11,-1,-1,-1,-1,-1,-1],"loss_changes":[8.264024E0,1.5188456E-1,4.023528E-1,0E0,1.5257955E-1,2.0466833E-1,9.124279E-2,0E0,0E0,0E0,0E0,0E0,0E0],"parents":[2147483647,0,0,1,1,2,2,4,4,5,5,6,6],"right_children":[2,4,6,-1,8,10,12,-1,-1,-1,-1,-1,-1],"split_conditions":[4.75E0,1.45E0,1.75E0,-1.5814835E-1,5.75E0,1.55E0,4.8500004E0,2.330802E-2,-9.5580645E-2,8.668257E-2,-3.3839554E-2,4.993579E-2,1.8015055E-1],"split_indices":[2,3,3,0,0,3,2,0,0,0,0,0,0],"split_type":[0,0,0,0,0,0,0,0,0,0,0,0,0],"sum_hessian":[3.2901855E1,1.6383104E1,1.651875E1,1.4003281E1,2.3798242E0,3.5583918E0,1.2960358E1,1.1699853E0,1.209839E0,2.1384835E0,1.4199083E0,1.4853079E0,1.147505E1],"tree_param":{"num_deleted":"0","num_feature":"4","num_nodes":"13","size_leaf_vector":"0"}},{"base_weights":[-1.5157602E-2,5.581557E-1,-5.148976E-1],"categories":[],"categories_nodes":[],"categories_segments":[],"categories_sizes":[],"default_left":[1,0,0],"id":15,"left_children":[1,-1,-1],"loss_changes":[7.727017E0,0E0,0E0],"parents":[2147483647,0,0],"right_children":[2,-1,-1],"split_conditions":[2.45E0,1.6744672E-1,-1.5446928E-1],"split_indices":[2,0,0],"split_type":[0,0,0],"sum_hessian":[2.4966583E1,1.1572943E1,1.3393641E1],"tree_param":{"num_deleted":"0","num_feature":"4","num_nodes":"3","size_leaf_vector":"0"}},{"base_weights":[6.4827926E-3,-4.754903E-1,1.6786654E-1,4.5862278E-1,-3.4319308E-1,5.7205164E-1,-1.6019972E-1,-9.792744E-2,-4.5404103E-1,-4.1021767E-1,2.6843524E-1],"categories":[],"categories_nodes":[],"categories_segments":[],"categories_sizes":[],"default_left":[1,0,1,1,1,0,0,1,0,0,0],"id":16,"left_children":[1,-1,3,5,7,-1,-1,9,-1,-1,-1],"loss_changes":[2.31951E0,0E0,3.4725807E0,1.1198308E0,1.9103825E-1,0E0,0E0,5.644781E-1,0E0,0E0,0E0],"parents":[2147483647,0,0,2,2,3,3,4,4,7,7],"right_children":[2,-1,4,6,8,-1,-1,10,-1,-1,-1],"split_conditions":[2.45E0,-1.426471E-1,1.6500001E0,4.95E0,5.05E0,1.716155E-1,-4.8059918E-2,2.9E0,-1.3621232E-1,-1.2306531E-1,8.053058E-2],"split_indices":[2,0,3,2,2,0,0,1,0,0,0],"split_type":[0,0,0,0,0,0,0,0,0,0,0],"sum_hessian":[2.7794235E1,6.483853E0,2.1310383E1,1.3648162E1,7.6622205E0,1.1597876E1,2.050286E0,2.9712899E0,4.6909304E0,1.5393947E0,1.4318951E0],"tree_param":{"num_deleted":"0","num_feature":"4","num_nodes":"11","size_leaf_vector":"0"}},{"base_weights":[7.2542797E-3,-4.5404333E-1,4.305357E-1,-1.2636356E-1,-5.070557E-1,1.9820513E-1,5.723806E-1,-2.9841125E-1,1.09908506E-1,-9.84413E-2,3.7330922E-1,4.6226072E-1,7.31594E-2],"categories":[],"categories_nodes":[],"categories_segments":[],"categories_sizes":[],"default_left":[1,1,1,1,0,1,0,0,0,0,1,0,0],"id":17,"left_children":[1,3,5,7,-1,9,-1,-1,-1,-1,11,-1,-1],"loss_changes":[5.7651806E0,1.814866E-1,3.936813E-1,1.6696031E-1,0E0,4.192295E-1,0E0,0E0,0E0,0E0,9.537345E-2,0E0,0E0],"parents":[2147483647,0,0,1,1,2,2,3,3,5,5,10,10],"right_children":[2,4,6,8,-1,10,-1,-1,-1,-1,12,-1,-1],"split_conditions":[4.75E0,2.55E0,5.1499996E0,3.9E0,-1.5211672E-1,1.75E0,1.7171419E-1,-8.9523375E-2,3.2972552E-2,-2.9532392E-2,2.9E0,1.3867822E-1,2.194782E-2],"split_indices":[2,1,2,2,0,3,0,0,0,0,1,0,0],"split_type":[0,0,0,0,0,0,0,0,0,0,0,0,0],"sum_hessian":[2.7524714E1,1.3136122E1,1.4388592E1,2.3004227E0,1.0835699E1,6.363321E0,8.02527E0,1.1789448E0,1.1214778E0,2.524441E0,3.8388798E0,2.544654E0,1.2942258E0],"tree_param":{"num_deleted":"0","num_feature":"4","num_nodes":"13","size_leaf_vector":"0"}},{"base_weights":[-1.9112792E-2,5.2170974E-1,-4.9543604E-1],"categories":[],"categories_nodes":[],"categories_segments":[],"categories_sizes":[],"default_left":[1,0,0],"id":18,"left_children":[1,-1,-1],"loss_changes":[5.6644225E0,0E0,0E0],"parents":[2147483647,0,0],"right_children":[2,-1,-1],"split_conditions":[2.45E0,1.5651293E-1,-1.4863081E-1],"split_indices":[2,0,0],"split_type":[0,0,0],"sum_hessian":[1.998531E1,9.314379E0,1.0670931E1],"tree_param":{"num_deleted":"0","num_feature":"4","num_nodes":"3","size_leaf_vector":"0"}},{"base_weights":[4.1058017E-3,-4.488115E-1,1.4912732E-1,4.1447845E-1,-3.1071338E-1,5.3430104E-1,-1.4311278E-1,-8.663243E-2,-4.249629E-1,-3.8242748E-1,2.361428E-1],"categories":[],"categories_nodes":[],"categories_segments":[],"categories_sizes":[],"default_left":[1,0,1,1,1,0,0,1,0,0,0],"id":19,"left_children":[1,-1,3,5,7,-1,-1,9,-1,-1,-1],"loss_changes":[1.6522558E0,0E0,2.4511561E0,9.114213E-1,1.5610826E-1,0E0,0E0,4.5318785E-1,0E0,0E0,0E0],"parents":[2147483647,0,0,2,2,3,3,4,4,7,7],"right_children":[2,-1,4,6,8,-1,-1,10,-1,-1,-1],"split_conditions":[2.45E0,-1.3464345E-1,1.6500001E0,4.95E0,5.05E0,1.6029032E-1,-4.2933837E-2,2.9E0,-1.2748888E-1,-1.1472825E-1,7.084284E-2],"split_indices":[2,0,3,2,2,0,0,1,0,0,0],"split_type":[0,0,0,0,0,0,0,0,0,0,0],"sum_hessian":[2.3136103E1,5.103269E0,1.8032833E1,1.1497087E1,6.5357475E0,9.497834E0,1.999252E0,2.8007767E0,3.7349708E0,1.3650334E0,1.4357433E0],"tree_param":{"num_deleted":"0","num_feature":"4","num_nodes":"11","size_leaf_vector":"0"}},{"base_weights":[1.25950165E-2,-4.2345792E-1,3.8544235E-1,-4.8109674E-1,-7.645605E-2,1.671657E-1,5.313312E-1,-9.2353605E-2,3.3147487E-1,4.1698253E-1,6.613676E-2],"categories":[],"categories_nodes":[],"categories_segments":[],"categories_sizes":[],"default_left":[1,1,1,0,0,1,0,0,1,0,0],"id":20,"left_children":[1,3,5,-1,-1,7,-1,-1,9,-1,-1],"loss_changes":[4.0614033E0,1.9378972E-1,3.3944118E-1,0E0,0E0,3.2256708E-1,0E0,0E0,7.248503E-2,0E0,0E0],"parents":[2147483647,0,0,1,1,2,2,5,5,8,8],"right_children":[2,4,6,-1,-1,8,-1,-1,10,-1,-1],"split_conditions":[4.75E0,1.45E0,5.1499996E0,-1.4432903E-1,-2.2936815E-2,1.75E0,1.5939936E-1,-2.7706083E-2,2.9E0,1.2509477E-1,1.984103E-2],"split_indices":[2,3,2,0,0,3,0,0,1,0,0],"split_type":[0,0,0,0,0,0,0,0,0,0,0],"sum_hessian":[2.2976852E1,1.052818E1,1.2448673E1,8.697107E0,1.831073E0,5.8467293E0,6.6019435E0,2.4364264E0,3.410303E0,2.1469233E0,1.2633796E0],"tree_param":{"num_deleted":"0","num_feature":"4","num_nodes":"11","size_leaf_vector":"0"}},{"base_weights":[-2.3482334E-2,4.9165913E-1,-4.775989E-1],"categories":[],"categories_nodes":[],"categories_segments":[],"categories_sizes":[],"default_left":[1,0,0],"id":21,"left_children":[1,-1,-1],"loss_changes":[4.198912E0,0E0,0E0],"parents":[2147483647,0,0],"right_children":[2,-1,-1],"split_conditions":[2.45E0,1.4749774E-1,-1.4327967E-1],"split_indices":[2,0,0],"split_type":[0,0,0],"sum_hessian":[1.5945342E1,7.431975E0,8.513367E0],"tree_param":{"num_deleted":"0","num_feature":"4","num_nodes":"3","size_leaf_vector":"0"}},{"base_weights":[1.310862E-3,-4.227252E-1,1.3176915E-1,3.77084E-1,-2.8237063E-1,5.043245E-1,-1.2734202E-1,-3.719726E-1,9.087359E-3,-4.7302747E-1,-6.12277E-2],"categories":[],"categories_nodes":[],"categories_segments":[],"categories_sizes":[],"default_left":[1,0,1,1,1,0,0,1,0,0,0],"id":22,"left_children":[1,-1,3,5,7,-1,-1,9,-1,-1,-1],"loss_changes":[1.1791948E0,0E0,1.7618034E0,7.4845016E-1,1.7660016E-1,0E0,0E0,1.3109845E-1,0E0,0E0,0E0],"parents":[2147483647,0,0,2,2,3,3,4,4,7,7],"right_children":[2,-1,4,6,8,-1,-1,10,-1,-1,-1],"split_conditions":[2.45E0,-1.2681757E-1,1.6500001E0,4.95E0,3.15E0,1.5129736E-1,-3.8202606E-2,6.6E0,2.7262077E-3,-1.4190824E-1,-1.8368311E-2],"split_indices":[2,0,3,2,1,0,0,0,0,0,0],"split_type":[0,0,0,0,0,0,0,0,0,0,0],"sum_hessian":[1.9309343E1,4.0159054E0,1.5293437E1,9.660522E0,5.6329145E0,7.7147045E0,1.9458182E0,4.0971065E0,1.5358078E0,2.6976035E0,1.3995032E0],"tree_param":{"num_deleted":"0","num_feature":"4","num_nodes":"11","size_leaf_vector":"0"}},{"base_weights":[1.8352896E-2,-3.9287215E-1,3.4650838E-1,-4.7430836E-2,-4.6315235E-1,1.4150378E-1,4.9716935E-1,-8.69016E-2,2.960768E-1,7.511261E-2,4.3150693E-1],"categories":[],"categories_nodes":[],"categories_segments":[],"categories_sizes":[],"default_left":[1,1,1,0,0,1,0,0,1,0,0],"id":23,"left_children":[1,3,5,-1,-1,7,-1,-1,9,-1,-1],"loss_changes":[2.8661835E0,2.0739698E-1,2.9358625E-1,0E0,0E0,2.513038E-1,0E0,0E0,8.840862E-2,0E0,0E0],"parents":[2147483647,0,0,1,1,2,2,5,5,8,8],"right_children":[2,4,6,-1,-1,8,-1,-1,10,-1,-1],"split_conditions":[4.75E0,2.55E0,5.1499996E0,-1.4229251E-2,-1.3894571E-1,1.75E0,1.491508E-1,-2.6070481E-2,5.95E0,2.2533784E-2,1.2945208E-1],"split_indices":[2,1,2,0,0,3,0,0,0,0,0],"split_type":[0,0,0,0,0,0,0,0,0,0,0],"sum_hessian":[1.9230724E1,8.447546E0,1.0783178E1,1.7112569E0,6.7362885E0,5.3892446E0,5.3939333E0,2.351838E0,3.0374064E0,1.744975E0,1.2924316E0],"tree_param":{"num_deleted":"0","num_feature":"4","num_nodes":"11","size_leaf_vector":"0"}},{"base_weights":[-2.9154072E-2,4.651852E-1,-4.6081477E-1],"categories":[],"categories_nodes":[],"categories_segments":[],"categories_sizes":[],"default_left":[1,0,0],"id":24,"left_children":[1,-1,-1],"loss_changes":[3.1541152E0,0E0,0E0],"parents":[2147483647,0,0],"right_children":[2,-1,-1],"split_conditions":[2.45E0,1.3955556E-1,-1.3824444E-1],"split_indices":[2,0,0],"split_type":[0,0,0],"sum_hessian":[1.27766285E1,5.919702E0,6.8569264E0],"tree_param":{"num_deleted":"0","num_feature":"4","num_nodes":"3","size_leaf_vector":"0"}},{"base_weights":[-4.96237E-4,-3.9648268E-1,1.1580525E-1,2.8016868E-1,-4.07089E-1,4.1797546E-1,-9.261203E-2,4.7775874E-1,3.911098E-2,-3.597667E-1,1.9608903E-1],"categories":[],"categories_nodes":[],"categories_segments":[],"categories_sizes":[],"default_left":[1,0,1,1,0,1,1,0,0,0,0],"id":25,"left_children":[1,-1,3,5,-1,7,9,-1,-1,-1,-1],"loss_changes":[8.459721E-1,0E0,1.3346629E0,6.2424505E-1,0E0,1.7390716E-1,3.709533E-1,0E0,0E0,0E0,0E0],"parents":[2147483647,0,0,2,2,3,3,5,5,6,6],"right_children":[2,-1,4,6,-1,8,10,-1,-1,-1,-1],"split_conditions":[2.45E0,-1.1894481E-1,5.1499996E0,1.6500001E0,-1.22126706E-1,4.95E0,2.9E0,1.4332762E-1,1.1733294E-2,-1.0793001E-1,5.882671E-2],"split_indices":[2,0,2,3,0,2,1,0,0,0,0],"split_type":[0,0,0,0,0,0,0,0,0,0,0],"sum_hessian":[1.6372229E1,3.1699624E0,1.3202266E1,1.0398013E1,2.8042524E0,7.5030904E0,2.894923E0,6.255042E0,1.2480484E0,1.3757197E0,1.5192033E0],"tree_param":{"num_deleted":"0","num_feature":"4","num_nodes":"11","size_leaf_vector":"0"}},{"base_weights":[2.3576617E-2,-3.625143E-1,3.0711114E-1,-4.399385E-1,-1.0286176E-2,1.06173605E-1,4.7038054E-1,2.3613067E-1,-1.2584223E-1,4.2485062E-2,3.4618437E-1],"categories":[],"categories_nodes":[],"categories_segments":[],"categories_sizes":[],"default_left":[1,1,1,0,0,1,0,1,0,0,0],"id":26,"left_children":[1,3,5,-1,-1,7,-1,9,-1,-1,-1],"loss_changes":[2.0162728E0,2.089194E-1,2.9698044E-1,0E0,0E0,2.1159288E-1,0E0,7.509923E-2,0E0,0E0,0E0],"parents":[2147483647,0,0,1,1,2,2,5,5,7,7],"right_children":[2,4,6,-1,-1,8,-1,10,-1,-1,-1],"split_conditions":[4.75E0,1.45E0,5.1499996E0,-1.3198155E-1,-3.0858528E-3,2.9E0,1.4111418E-1,1.7E0,-3.775267E-2,1.2745519E-2,1.0385532E-1],"split_indices":[2,3,2,0,0,1,0,3,0,0,0],"split_type":[0,0,0,0,0,0,0,0,0,0,0],"sum_hessian":[1.6401468E1,6.826806E0,9.574663E0,5.39246E0,1.4343463E0,5.032008E0,4.5426545E0,3.2140274E0,1.817981E0,1.6669592E0,1.5470682E0],"tree_param":{"num_deleted":"0","num_feature":"4","num_nodes":"11","size_leaf_vector":"0"}},{"base_weights":[-3.32187E-2,4.4025975E-1,-4.4318205E-1],"categories":[],"categories_nodes":[],"categories_segments":[],"categories_sizes":[],"default_left":[1,0,0],"id":27,"left_children":[1,-1,-1],"loss_changes":[2.3768427E0,0E0,0E0],"parents":[2147483647,0,0],"right_children":[2,-1,-1],"split_conditions":[2.45E0,1.3207793E-1,-1.3295463E-1],"split_indices":[2,0,0],"split_type":[0,0,0],"sum_hessian":[1.0239715E1,4.717471E0,5.5222435E0],"tree_param":{"num_deleted":"0","num_feature":"4","num_nodes":"3","size_leaf_vector":"0"}},{"base_weights":[-2.725485E-3,-3.698844E-1,1.0197675E-1,2.4700445E-1,-3.766964E-1,3.8630372E-1,-9.1470756E-2,4.5407006E-1,3.2731224E-2,-3.391131E-1,1.6182277E-1],"categories":[],"categories_nodes":[],"categories_segments":[],"categories_sizes":[],"default_left":[1,0,1,1,0,1,1,0,0,0,0],"id":28,"left_children":[1,-1,3,5,-1,7,9,-1,-1,-1,-1],"loss_changes":[6.0967666E-1,0E0,9.511436E-1,5.110983E-1,0E0,1.6100669E-1,2.9013297E-1,0E0,0E0,0E0,0E0],"parents":[2147483647,0,0,2,2,3,3,5,5,6,6],"right_children":[2,-1,4,6,-1,8,10,-1,-1,-1,-1],"split_conditions":[2.45E0,-1.1096533E-1,5.1499996E0,1.6500001E0,-1.13008924E-1,4.95E0,2.9E0,1.3622102E-1,9.819368E-3,-1.0173393E-1,4.8546832E-2],"split_indices":[2,0,2,3,0,2,1,0,0,0,0],"split_type":[0,0,0,0,0,0,0,0,0,0,0],"sum_hessian":[1.3878301E1,2.5174925E0,1.1360808E1,9.0905485E0,2.27026E0,6.3400135E0,2.750535E0,5.0817933E0,1.25822E0,1.2194638E0,1.5310712E0],"tree_param":{"num_deleted":"0","num_feature":"4","num_nodes":"11","size_leaf_vector":"0"}},{"base_weights":[2.7695503E-2,-2.555147E-1,3.5461965E-1,-4.4287893E-1,2.1651219E-1,4.331713E-1,6.7812026E-2,5.0403297E-1,1.4390774E-1],"categories":[],"categories_nodes":[],"categories_segments":[],"categories_sizes":[],"default_left":[1,1,1,0,0,1,0,0,0],"id":29,"left_children":[1,3,5,-1,-1,7,-1,-1,-1],"loss_changes":[1.4743707E0,8.555309E-1,1.363517E-1,0E0,0E0,4.2025447E-2,0E0,0E0,0E0],"parents":[2147483647,0,0,1,1,2,2,5,5],"right_children":[2,4,6,-1,-1,8,-1,-1,-1],"split_conditions":[1.6500001E0,4.95E0,3.15E0,-1.3286369E-1,6.495366E-2,6.6E0,2.034361E-2,1.5120989E-1,4.3172322E-2],"split_indices":[3,2,1,0,0,0,0,0,0],"split_type":[0,0,0,0,0,0,0,0,0],"sum_hessian":[1.3945309E1,7.5892587E0,6.3560495E0,5.4769955E0,2.1122627E0,4.5889072E0,1.7671424E0,3.0895762E0,1.4993311E0],"tree_param":{"num_deleted":"0","num_feature":"4","num_nodes":"9","size_leaf_vector":"0"}},{"base_weights":[-3.809945E-2,4.156928E-1,-4.2480135E-1],"categories":[],"categories_nodes":[],"categories_segments":[],"categories_sizes":[],"default_left":[1,0,0],"id":30,"left_children":[1,-1,-1],"loss_changes":[1.8017458E0,0E0,0E0],"parents":[2147483647,0,0],"right_children":[2,-1,-1],"split_conditions":[2.45E0,1.2470785E-1,-1.2744041E-1],"split_indices":[2,0,0],"split_type":[0,0,0],"sum_hessian":[8.261097E0,3.7663453E0,4.494752E0],"tree_param":{"num_deleted":"0","num_feature":"4","num_nodes":"3","size_leaf_vector":"0"}},{"base_weights":[-4.9042464E-3,9.204942E-2,-3.564962E-1,-3.4311187E-1,2.3039608E-1,3.5727665E-1,-5.919438E-2,4.2737192E-1,4.093484E-2,-3.059679E-1,1.6491356E-1],"categories":[],"categories_nodes":[],"categories_segments":[],"categories_sizes":[],"default_left":[1,1,0,0,1,1,1,0,0,0,0],"id":31,"left_children":[1,3,-1,-1,5,7,9,-1,-1,-1,-1],"loss_changes":[4.6960118E-1,7.3156756E-1,0E0,0E0,3.4530887E-1,1.2168419E-1,2.4654528E-1,0E0,0E0,0E0,0E0],"parents":[2147483647,0,0,1,1,4,4,5,5,6,6],"right_children":[2,4,-1,-1,6,8,10,-1,-1,-1,-1],"split_conditions":[5.1499996E0,2.45E0,-1.0694887E-1,-1.0293356E-1,1.6500001E0,4.95E0,2.9E0,1.2821159E-1,1.2280452E-2,-9.179037E-2,4.947407E-2],"split_indices":[2,2,0,0,3,2,1,0,0,0,0],"split_type":[0,0,0,0,0,0,0,0,0,0,0],"sum_hessian":[1.1813431E1,9.838574E0,1.9748555E0,2.016308E0,7.8222666E0,5.2766395E0,2.545627E0,4.0322003E0,1.2444394E0,1.0377034E0,1.5079237E0],"tree_param":{"num_deleted":"0","num_feature":"4","num_nodes":"11","size_leaf_vector":"0"}},{"base_weights":[3.2094054E-2,-3.9091286E-1,2.111049E-1,4.6813786E-2,4.1852927E-1,2.3531593E-1,-1.9793817E-1,3.6299217E-1,-3.3606704E-2,-3.154016E-1,1.4098988E-2],"categories":[],"categories_nodes":[],"categories_segments":[],"categories_sizes":[],"default_left":[1,0,1,1,0,1,1,0,0,0,0],"id":32,"left_children":[1,-1,3,5,-1,7,9,-1,-1,-1,-1],"loss_changes":[1.0632801E0,0E0,3.1266704E-1,3.4953746E-1,0E0,1.5525416E-1,8.9133605E-2,0E0,0E0,0E0,0E0],"parents":[2147483647,0,0,2,2,3,3,5,5,6,6],"right_children":[2,-1,4,6,-1,8,10,-1,-1,-1,-1],"split_conditions":[4.45E0,-1.1727386E-1,5.1499996E0,2.85E0,1.255588E-1,5.05E0,1.75E0,1.08897656E-1,-1.0082012E-2,-9.462049E-2,4.2296965E-3],"split_indices":[2,0,2,1,0,2,3,0,0,0,0],"split_type":[0,0,0,0,0,0,0,0,0,0,0],"sum_hessian":[1.1951927E1,3.2019365E0,8.749991E0,5.566622E0,3.183369E0,3.1664505E0,2.4001715E0,1.9098911E0,1.2565594E0,1.2308358E0,1.1693357E0],"tree_param":{"num_deleted":"0","num_feature":"4","num_nodes":"11","size_leaf_vector":"0"}},{"base_weights":[-3.9740242E-2,3.9180866E-1,-4.0545806E-1],"categories":[],"categories_nodes":[],"categories_segments":[],"categories_sizes":[],"default_left":[1,0,0],"id":33,"left_children":[1,-1,-1],"loss_changes":[1.3745152E0,0E0,0E0],"parents":[2147483647,0,0],"right_children":[2,-1,-1],"split_conditions":[2.45E0,1.175426E-1,-1.2163743E-1],"split_indices":[2,0,0],"split_type":[0,0,0],"sum_hessian":[6.7025323E0,3.0418236E0,3.660709E0],"tree_param":{"num_deleted":"0","num_feature":"4","num_nodes":"3","size_leaf_vector":"0"}},{"base_weights":[-5.3234003E-3,8.343961E-2,-3.27971E-1,-3.165507E-1,2.053203E-1,3.2982227E-1,-5.5893824E-2,2.2439461E-2,4.000609E-1,2.0061795E-2,-1.1206058E-1,4.7588623E-1,1.3180771E-1],"categories":[],"categories_nodes":[],"categories_segments":[],"categories_sizes":[],"default_left":[1,1,0,0,1,1,1,0,1,0,0,0,0],"id":34,"left_children":[1,3,-1,-1,5,7,9,-1,11,-1,-1,-1,-1],"loss_changes":[3.481318E-1,5.320763E-1,0E0,0E0,2.7698016E-1,1.1038941E-1,1.684351E-2,0E0,2.7605474E-2,0E0,0E0,0E0,0E0],"parents":[2147483647,0,0,1,1,4,4,5,5,6,6,8,8],"right_children":[2,4,-1,-1,6,8,10,-1,12,-1,-1,-1,-1],"split_conditions":[5.1499996E0,2.45E0,-9.839131E-2,-9.496521E-2,1.6500001E0,2.45E0,5.95E0,6.7318385E-3,6.25E0,6.0185385E-3,-3.3618174E-2,1.4276588E-1,3.9542317E-2],"split_indices":[2,2,0,0,3,1,0,0,0,0,0,0,0],"split_type":[0,0,0,0,0,0,0,0,0,0,0,0,0],"sum_hessian":[1.0200254E1,8.580955E0,1.6193002E0,1.6310211E0,6.949933E0,4.5287523E0,2.4211807E0,1.0877864E0,3.440966E0,1.3025411E0,1.1186397E0,2.079226E0,1.3617399E0],"tree_param":{"num_deleted":"0","num_feature":"4","num_nodes":"13","size_leaf_vector":"0"}},{"base_weights":[3.2217514E-2,-3.6655167E-1,1.8945146E-1,4.244949E-2,3.9019924E-1,3.211823E-1,-9.580791E-2,-2.9509988E-1,1.4781441E-1],"categories":[],"categories_nodes":[],"categories_segments":[],"categories_sizes":[],"default_left":[1,0,1,1,0,0,1,0,0],"id":35,"left_children":[1,-1,3,5,-1,-1,7,-1,-1],"loss_changes":[7.811957E-1,0E0,2.4314994E-1,2.6979876E-1,0E0,0E0,2.8231466E-1,0E0,0E0],"parents":[2147483647,0,0,2,2,3,3,6,6],"right_children":[2,-1,4,6,-1,-1,8,-1,-1],"split_conditions":[4.45E0,-1.099655E-1,5.1499996E0,2.6E0,1.17059775E-1,9.63547E-2,1.75E0,-8.852997E-2,4.4344325E-2],"split_indices":[2,0,2,1,0,0,3,0,0],"split_type":[0,0,0,0,0,0,0,0,0],"sum_hessian":[1.0351697E1,2.5509214E0,7.8007755E0,5.202551E0,2.5982246E0,1.28628E0,3.9162707E0,2.0378962E0,1.8783746E0],"tree_param":{"num_deleted":"0","num_feature":"4","num_nodes":"9","size_leaf_vector":"0"}},{"base_weights":[-4.3961234E-2,3.6814693E-1,-3.870999E-1],"categories":[],"categories_nodes":[],"categories_segments":[],"categories_sizes":[],"default_left":[1,0,0],"id":36,"left_children":[1,-1,-1],"loss_changes":[1.0663278E0,0E0,0E0],"parents":[2147483647,0,0],"right_children":[2,-1,-1],"split_conditions":[2.45E0,1.10444084E-1,-1.1612997E-1],"split_indices":[2,0,0],"split_type":[0,0,0],"sum_hessian":[5.532894E0,2.480701E0,3.0521932E0],"tree_param":{"num_deleted":"0","num_feature":"4","num_nodes":"3","size_leaf_vector":"0"}},{"base_weights":[-4.707394E-3,7.500661E-2,-3.0090523E-1,-2.9074302E-1,1.7994145E-1,2.9316154E-1,-4.461645E-2,3.8567674E-1,1.0830878E-2,3.2560777E-2,-1.0746595E-1],"categories":[],"categories_nodes":[],"categories_segments":[],"categories_sizes":[],"default_left":[1,1,0,0,1,1,1,0,0,0,0],"id":37,"left_children":[1,3,-1,-1,5,7,9,-1,-1,-1,-1],"loss_changes":[2.6096174E-1,3.8837197E-1,0E0,0E0,2.0177144E-1,1.2814796E-1,1.9775597E-2,0E0,0E0,0E0,0E0],"parents":[2147483647,0,0,1,1,4,4,5,5,6,6],"right_children":[2,4,-1,-1,6,8,10,-1,-1,-1,-1],"split_conditions":[5.1499996E0,2.45E0,-9.027157E-2,-8.722291E-2,1.6500001E0,4.95E0,5.95E0,1.15703024E-1,3.2492636E-3,9.768234E-3,-3.2239787E-2],"split_indices":[2,2,0,0,3,2,0,0,0,0,0],"split_type":[0,0,0,0,0,0,0,0,0,0,0],"sum_hessian":[9.096594E0,7.756027E0,1.3405662E0,1.3343742E0,6.4216533E0,4.0660706E0,2.3555825E0,2.7868264E0,1.2792442E0,1.2735847E0,1.0819978E0],"tree_param":{"num_deleted":"0","num_feature":"4","num_nodes":"11","size_leaf_vector":"0"}},{"base_weights":[3.28154E-2,-3.436728E-1,1.7197871E-1,4.2903405E-2,3.630866E-1,2.0130363E-1,-1.7028059E-1,3.085216E-1,-1.7826257E-2],"categories":[],"categories_nodes":[],"categories_segments":[],"categories_sizes":[],"default_left":[1,0,1,1,0,1,0,0,0],"id":38,"left_children":[1,-1,3,5,-1,7,-1,-1,-1],"loss_changes":[5.9352416E-1,0E0,1.8456867E-1,2.361084E-1,0E0,9.683061E-2,0E0,0E0,0E0],"parents":[2147483647,0,0,2,2,3,3,5,5],"right_children":[2,-1,4,6,-1,8,-1,-1,-1],"split_conditions":[4.45E0,-1.0310185E-1,5.1499996E0,2.85E0,1.0892599E-1,5.05E0,-5.108418E-2,9.2556484E-2,-5.3478773E-3],"split_indices":[2,0,2,1,0,2,0,0,0],"split_type":[0,0,0,0,0,0,0,0,0],"sum_hessian":[9.200145E0,2.086318E0,7.1138268E0,4.9769E0,2.1369267E0,2.887302E0,2.0895982E0,1.6647955E0,1.2225063E0],"tree_param":{"num_deleted":"0","num_feature":"4","num_nodes":"9","size_leaf_vector":"0"}},{"base_weights":[-4.503757E-2,3.4484616E-1,-3.6750838E-1],"categories":[],"categories_nodes":[],"categories_segments":[],"categories_sizes":[],"default_left":[1,0,0],"id":39,"left_children":[1,-1,-1],"loss_changes":[8.2912916E-1,0E0,0E0],"parents":[2147483647,0,0],"right_children":[2,-1,-1],"split_conditions":[2.45E0,1.0345385E-1,-1.1025252E-1],"split_indices":[2,0,0],"split_type":[0,0,0],"sum_hessian":[4.5867095E0,2.0449152E0,2.5417943E0],"tree_param":{"num_deleted":"0","num_feature":"4","num_nodes":"3","size_leaf_vector":"0"}},{"base_weights":[-5.9441826E-3,6.607664E-2,-2.7557808E-1,-2.6618832E-1,1.5759173E-1,2.7044296E-1,-4.6213254E-2,3.644783E-1,1.3556688E-2,3.0298892E-2,-1.0801136E-1],"categories":[],"categories_nodes":[],"categories_segments":[],"categories_sizes":[],"default_left":[1,1,0,0,1,1,1,0,0,0,0],"id":40,"left_children":[1,3,-1,-1,5,7,9,-1,-1,-1,-1],"loss_changes":[1.9583163E-1,2.8597292E-1,0E0,0E0,1.7166197E-1,1.0617682E-1,1.8972185E-2,0E0,0E0,0E0,0E0],"parents":[2147483647,0,0,1,1,4,4,5,5,6,6],"right_children":[2,4,-1,-1,6,8,10,-1,-1,-1,-1],"split_conditions":[5.1499996E0,2.45E0,-8.267343E-2,-7.98565E-2,1.6500001E0,4.95E0,5.95E0,1.0934349E-1,4.0670065E-3,9.089668E-3,-3.240341E-2],"split_indices":[2,2,0,0,3,2,0,0,0,0,0],"split_type":[0,0,0,0,0,0,0,0,0,0,0],"sum_hessian":[8.146712E0,7.025183E0,1.1215287E0,1.104906E0,5.9202776E0,3.5999422E0,2.3203354E0,2.328679E0,1.2712631E0,1.2644873E0,1.0558481E0],"tree_param":{"num_deleted":"0","num_feature":"4","num_nodes":"11","size_leaf_vector":"0"}},{"base_weights":[3.3071157E-2,-3.1890404E-1,1.543604E-1,2.3171899E-1,-8.9137316E-2,4.6221662E-2,4.0199286E-1,2.795502E-1,-1.5149303E-1],"categories":[],"categories_nodes":[],"categories_segments":[],"categories_sizes":[],"default_left":[1,0,1,1,0,1,0,0,0],"id":41,"left_children":[1,-1,3,5,-1,7,-1,-1,-1],"loss_changes":[4.4421038E-1,0E0,1.6296318E-1,1.712851E-1,0E0,2.2719854E-1,0E0,0E0,0E0],"parents":[2147483647,0,0,2,2,3,3,5,5],"right_children":[2,-1,4,6,-1,8,-1,-1,-1],"split_conditions":[4.45E0,-9.5671214E-2,3.05E0,1.75E0,-2.6741195E-2,2.65E0,1.2059786E-1,8.386506E-2,-4.544791E-2],"split_indices":[2,0,1,3,0,1,0,0,0],"split_type":[0,0,0,0,0,0,0,0,0],"sum_hessian":[8.252208E0,1.6973372E0,6.5548706E0,5.011199E0,1.5436718E0,3.0069094E0,2.0042894E0,1.1893811E0,1.8175282E0],"tree_param":{"num_deleted":"0","num_feature":"4","num_nodes":"9","size_leaf_vector":"0"}},{"base_weights":[-4.6870276E-2,3.222124E-1,-3.4870178E-1],"categories":[],"categories_nodes":[],"categories_segments":[],"categories_sizes":[],"default_left":[1,0,0],"id":42,"left_children":[1,-1,-1],"loss_changes":[6.535909E-1,0E0,0E0],"parents":[2147483647,0,0],"right_children":[2,-1,-1],"split_conditions":[2.45E0,9.666372E-2,-1.0461054E-1],"split_indices":[2,0,0],"split_type":[0,0,0],"sum_hessian":[3.858448E0,1.7054644E0,2.1529834E0],"tree_param":{"num_deleted":"0","num_feature":"4","num_nodes":"3","size_leaf_vector":"0"}},{"base_weights":[-5.7404554E-3,6.502479E-2,-2.622331E-1,-2.0906769E-1,1.6105103E-1,2.3991933E-1,-4.7288593E-2],"categories":[],"categories_nodes":[],"categories_segments":[],"categories_sizes":[],"default_left":[1,1,0,0,1,0,0],"id":43,"left_children":[1,3,-1,-1,5,-1,-1],"loss_changes":[1.6955398E-1,2.2808276E-1,0E0,0E0,1.10507786E-1,0E0,0E0],"parents":[2147483647,0,0,1,1,4,4],"right_children":[2,4,-1,-1,6,-1,-1],"split_conditions":[5.1499996E0,5.3500004E0,-7.8669935E-2,-6.2720306E-2,1.75E0,7.1975805E-2,-1.4186579E-2],"split_indices":[2,0,0,0,3,0,0],"split_type":[0,0,0,0,0,0,0],"sum_hessian":[7.401977E0,6.386463E0,1.0155139E0,1.35153E0,5.034933E0,3.5423687E0,1.4925644E0],"tree_param":{"num_deleted":"0","num_feature":"4","num_nodes":"7","size_leaf_vector":"0"}},{"base_weights":[3.238639E-2,-2.9468557E-1,1.3792413E-1,2.1380526E-1,-9.236784E-2,4.296408E-2,3.784426E-1,2.6272577E-1,-1.4161685E-1],"categories":[],"categories_nodes":[],"categories_segments":[],"categories_sizes":[],"default_left":[1,0,1,1,0,1,0,0,0],"id":44,"left_children":[1,-1,3,5,-1,7,-1,-1,-1],"loss_changes":[3.3475816E-1,0E0,1.4422262E-1,1.4292079E-1,0E0,1.9562538E-1,0E0,0E0,0E0],"parents":[2147483647,0,0,2,2,3,3,5,5],"right_children":[2,-1,4,6,-1,8,-1,-1,-1],"split_conditions":[4.45E0,-8.8405676E-2,3.05E0,1.75E0,-2.7710354E-2,2.65E0,1.1353278E-1,7.881773E-2,-4.248506E-2],"split_indices":[2,0,1,3,0,1,0,0,0],"split_type":[0,0,0,0,0,0,0,0,0],"sum_hessian":[7.520487E0,1.3974429E0,6.123044E0,4.659373E0,1.4636713E0,2.905426E0,1.7539465E0,1.1330523E0,1.7723737E0],"tree_param":{"num_deleted":"0","num_feature":"4","num_nodes":"9","size_leaf_vector":"0"}},{"base_weights":[-4.6865795E-2,3.029155E-1,-3.3157676E-1],"categories":[],"categories_nodes":[],"categories_segments":[],"categories_sizes":[],"default_left":[1,0,0],"id":45,"left_children":[1,-1,-1],"loss_changes":[5.317766E-1,0E0,0E0],"parents":[2147483647,0,0],"right_children":[2,-1,-1],"split_conditions":[2.45E0,9.087466E-2,-9.947304E-2],"split_indices":[2,0,0],"split_type":[0,0,0],"sum_hessian":[3.3312745E0,1.4661263E0,1.8651481E0],"tree_param":{"num_deleted":"0","num_feature":"4","num_nodes":"3","size_leaf_vector":"0"}},{"base_weights":[-7.29715E-3,-1.889195E-1,5.3867124E-2,2.1391146E-1,-1.1531179E-1,3.0983824E-1,3.6126625E-2,5.4569446E-2,-2.066098E-1],"categories":[],"categories_nodes":[],"categories_segments":[],"categories_sizes":[],"default_left":[1,0,1,1,1,0,0,0,0],"id":46,"left_children":[1,-1,3,5,7,-1,-1,-1,-1],"loss_changes":[9.783626E-2,0E0,2.0556736E-1,5.3332284E-2,7.172651E-2,0E0,0E0,0E0,0E0],"parents":[2147483647,0,0,2,2,3,3,4,4],"right_children":[2,-1,4,6,8,-1,-1,-1,-1],"split_conditions":[5.3500004E0,-5.667585E-2,4.95E0,5.95E0,2.75E0,9.295148E-2,1.0837988E-2,1.6370835E-2,-6.198294E-2],"split_indices":[0,0,2,0,1,0,0,0,0],"split_type":[0,0,0,0,0,0,0,0,0],"sum_hessian":[6.891016E0,1.2098227E0,5.6811934E0,2.7835383E0,2.897655E0,1.3255466E0,1.4579917E0,1.1535324E0,1.7441226E0],"tree_param":{"num_deleted":"0","num_feature":"4","num_nodes":"9","size_leaf_vector":"0"}},{"base_weights":[3.2754306E-2,-1.5985762E-1,2.1052861E-1,5.7767496E-2,-3.822939E-1,1.5447714E-2,2.846941E-1,-2.6160043E-1,3.4504592E-1],"categories":[],"categories_nodes":[],"categories_segments":[],"categories_sizes":[],"default_left":[1,1,1,1,0,0,0,0,0],"id":47,"left_children":[1,3,5,7,-1,-1,-1,-1,-1],"loss_changes":[3.0605376E-1,2.344335E-1,6.1701328E-2,3.734016E-1,0E0,0E0,0E0,0E0,0E0],"parents":[2147483647,0,0,1,1,2,2,3,3],"right_children":[2,4,6,8,-1,-1,-1,-1,-1],"split_conditions":[4.95E0,3.05E0,2.75E0,1.6E0,-1.1468818E-1,4.6343147E-3,8.540823E-2,-7.848013E-2,1.03513785E-1],"split_indices":[2,1,1,3,0,0,0,0,0],"split_type":[0,0,0,0,0,0,0,0,0],"sum_hessian":[6.955246E0,3.3866827E0,3.568563E0,2.0860498E0,1.3006331E0,1.3158114E0,2.2527516E0,1.0301802E0,1.0558696E0],"tree_param":{"num_deleted":"0","num_feature":"4","num_nodes":"9","size_leaf_vector":"0"}},{"base_weights":[-4.702182E-2,2.8377837E-1,-3.1457675E-1],"categories":[],"categories_nodes":[],"categories_segments":[],"categories_sizes":[],"default_left":[1,0,0],"id":48,"left_children":[1,-1,-1],"loss_changes":[4.3343136E-1,0E0,0E0],"parents":[2147483647,0,0],"right_children":[2,-1,-1],"split_conditions":[2.45E0,8.5133515E-2,-9.4373025E-2],"split_indices":[2,0,0],"split_type":[0,0,0],"sum_hessian":[2.8885107E0,1.2644862E0,1.6240245E0],"tree_param":{"num_deleted":"0","num_feature":"4","num_nodes":"3","size_leaf_vector":"0"}},{"base_weights":[-1.6268435E-3,-1.6258116E-1,5.6926813E-2,2.03982E-1,-9.10365E-2,3.046563E-1,2.8787266E-2,5.0451536E-2,-1.7265946E-1],"categories":[],"categories_nodes":[],"categories_segments":[],"categories_sizes":[],"default_left":[1,0,1,1,1,0,0,0,0],"id":49,"left_children":[1,-1,3,5,7,-1,-1,-1,-1],"loss_changes":[7.9370655E-2,0E0,1.5338379E-1,5.1480487E-2,5.236268E-2,0E0,0E0,0E0,0E0],"parents":[2147483647,0,0,2,2,3,3,4,4],"right_children":[2,-1,4,6,8,-1,-1,-1,-1],"split_conditions":[5.45E0,-4.877435E-2,4.95E0,5.95E0,6.05E0,9.139689E-2,8.63618E-3,1.5135461E-2,-5.179784E-2],"split_indices":[0,0,2,0,0,0,0,0,0],"split_type":[0,0,0,0,0,0,0,0,0],"sum_hessian":[6.439727E0,1.2438822E0,5.1958447E0,2.416037E0,2.7798073E0,1.0650542E0,1.350983E0,1.1566777E0,1.6231296E0],"tree_param":{"num_deleted":"0","num_feature":"4","num_nodes":"9","size_leaf_vector":"0"}},{"base_weights":[2.624316E-2,-1.4570908E-1,1.8070075E-1,5.8979295E-2,-3.53689E-1,3.0410763E-2,2.9566982E-1],"categories":[],"categories_nodes":[],"categories_segments":[],"categories_sizes":[],"default_left":[1,1,1,0,0,0,0],"id":50,"left_children":[1,3,5,-1,-1,-1,-1],"loss_changes":[2.2362743E-1,1.9407384E-1,6.633937E-2,0E0,0E0,0E0,0E0],"parents":[2147483647,0,0,1,1,2,2],"right_children":[2,4,6,-1,-1,-1,-1],"split_conditions":[4.95E0,3.05E0,1.75E0,1.769379E-2,-1.061067E-1,9.123229E-3,8.870095E-2],"split_indices":[2,1,3,0,0,0,0],"split_type":[0,0,0,0,0,0,0],"sum_hessian":[6.4285645E0,3.068808E0,3.3597567E0,1.9077091E0,1.1610988E0,2.0042593E0,1.3554972E0],"tree_param":{"num_deleted":"0","num_feature":"4","num_nodes":"7","size_leaf_vector":"0"}},{"base_weights":[-4.7377177E-2,2.6593125E-1,-2.988132E-1],"categories":[],"categories_nodes":[],"categories_segments":[],"categories_sizes":[],"default_left":[1,0,0],"id":51,"left_children":[1,-1,-1],"loss_changes":[3.578539E-1,0E0,0E0],"parents":[2147483647,0,0],"right_children":[2,-1,-1],"split_conditions":[2.45E0,7.977938E-2,-8.964396E-2],"split_indices":[2,0,0],"split_type":[0,0,0],"sum_hessian":[2.5339003E0,1.1024783E0,1.4314219E0],"tree_param":{"num_deleted":"0","num_feature":"4","num_nodes":"3","size_leaf_vector":"0"}},{"base_weights":[2.2992115E-3,7.26814E-2,-1.3070406E-1,-1.4406462E-1,1.6774847E-1,-1.027675E-3,3.3511686E-1],"categories":[],"categories_nodes":[],"categories_segments":[],"categories_sizes":[],"default_left":[1,1,0,0,1,0,0],"id":52,"left_children":[1,3,-1,-1,5,-1,-1],"loss_changes":[7.6402016E-2,1.3371143E-1,0E0,0E0,1.1778381E-1,0E0,0E0],"parents":[2147483647,0,0,1,1,4,4],"right_children":[2,4,-1,-1,6,-1,-1],"split_conditions":[1.75E0,5.45E0,-3.921122E-2,-4.3219388E-2,1.55E0,-3.0830252E-4,1.00535065E-1],"split_indices":[3,0,0,0,3,0,0],"split_type":[0,0,0,0,0,0,0],"sum_hessian":[6.1468673E0,4.3163133E0,1.830554E0,1.1588408E0,3.1574726E0,2.0669734E0,1.0904992E0],"tree_param":{"num_deleted":"0","num_feature":"4","num_nodes":"7","size_leaf_vector":"0"}},{"base_weights":[2.1294989E-2,-7.0748985E-2,2.729977E-1,4.933189E-2,-3.2679018E-1,-9.597116E-2,3.071307E-1,1.3373902E-1,-2.411922E-1],"categories":[],"categories_nodes":[],"categories_segments":[],"categories_sizes":[],"default_left":[1,1,0,1,0,1,0,0,0],"id":53,"left_children":[1,3,-1,5,-1,7,-1,-1,-1],"loss_changes":[1.8358704E-1,2.0016913E-1,0E0,2.1466702E-1,0E0,1.6314638E-1,0E0,0E0,0E0],"parents":[2147483647,0,0,1,1,3,3,5,5],"right_children":[2,4,-1,6,-1,8,-1,-1,-1],"split_conditions":[5.1499996E0,3.05E0,8.1899315E-2,1.75E0,-9.803706E-2,2.55E0,9.2139214E-2,4.0121708E-2,-7.235766E-2],"split_indices":[2,1,0,3,0,1,0,0,0],"split_type":[0,0,0,0,0,0,0,0,0],"sum_hessian":[6.090587E0,4.9861455E0,1.1044415E0,3.9438472E0,1.0422984E0,2.9236946E0,1.0201526E0,1.1630507E0,1.7606441E0],"tree_param":{"num_deleted":"0","num_feature":"4","num_nodes":"9","size_leaf_vector":"0"}},{"base_weights":[-4.8822917E-2,2.2795448E-1,-2.7846244E-1],"categories":[],"categories_nodes":[],"categories_segments":[],"categories_sizes":[],"default_left":[1,0,0],"id":54,"left_children":[1,-1,-1],"loss_changes":[2.6914796E-1,0E0,0E0],"parents":[2147483647,0,0],"right_children":[2,-1,-1],"split_conditions":[3.4E0,6.8386346E-2,-8.353873E-2],"split_indices":[2,0,0],"split_type":[0,0,0],"sum_hessian":[2.2359083E0,1.0172212E0,1.2186872E0],"tree_param":{"num_deleted":"0","num_feature":"4","num_nodes":"3","size_leaf_vector":"0"}},{"base_weights":[2.459855E-3,6.229492E-2,-1.1248892E-1,-1.274176E-1,1.4427164E-1,-1.1278006E-2,3.0188784E-1],"categories":[],"categories_nodes":[],"categories_segments":[],"categories_sizes":[],"default_left":[1,1,0,0,1,0,0],"id":55,"left_children":[1,3,-1,-1,5,-1,-1],"loss_changes":[5.403058E-2,9.831816E-2,0E0,0E0,1.02895424E-1,0E0,0E0],"parents":[2147483647,0,0,1,1,4,4],"right_children":[2,4,-1,-1,6,-1,-1],"split_conditions":[1.75E0,5.45E0,-3.374668E-2,-3.822528E-2,1.55E0,-3.383402E-3,9.056635E-2],"split_indices":[3,0,0,0,3,0,0],"split_type":[0,0,0,0,0,0,0],"sum_hessian":[5.8367715E0,4.139877E0,1.6968946E0,1.0818708E0,3.0580063E0,2.0063796E0,1.0516267E0],"tree_param":{"num_deleted":"0","num_feature":"4","num_nodes":"7","size_leaf_vector":"0"}},{"base_weights":[2.0996032E-2,-1.3439943E-1,1.6251163E-1,-2.9745954E-1,8.723687E-2,5.3069186E-3,2.2874139E-1],"categories":[],"categories_nodes":[],"categories_segments":[],"categories_sizes":[],"default_left":[1,1,1,0,0,0,0],"id":56,"left_children":[1,3,5,-1,-1,-1,-1],"loss_changes":[1.6969822E-1,1.6154544E-1,4.0136784E-2,0E0,0E0,0E0,0E0],"parents":[2147483647,0,0,1,1,2,2],"right_children":[2,4,6,-1,-1,-1,-1],"split_conditions":[4.95E0,1.6500001E0,6.05E0,-8.923787E-2,2.617106E-2,1.5920757E-3,6.862242E-2],"split_indices":[2,3,0,0,0,0,0],"split_type":[0,0,0,0,0,0,0],"sum_hessian":[5.723548E0,2.7519605E0,2.9715874E0,1.3883963E0,1.3635641E0,1.2009972E0,1.7705902E0],"tree_param":{"num_deleted":"0","num_feature":"4","num_nodes":"7","size_leaf_vector":"0"}},{"base_weights":[-5.1146172E-2,1.7626294E-1,-2.5347313E-1],"categories":[],"categories_nodes":[],"categories_segments":[],"categories_sizes":[],"default_left":[1,0,0],"id":57,"left_children":[1,-1,-1],"loss_changes":[1.830625E-1,0E0,0E0],"parents":[2147483647,0,0],"right_children":[2,-1,-1],"split_conditions":[1.25E0,5.2878886E-2,-7.6041944E-2],"split_indices":[3,0,0],"split_type":[0,0,0],"sum_hessian":[2.0076413E0,1.0058824E0,1.0017588E0],"tree_param":{"num_deleted":"0","num_feature":"4","num_nodes":"3","size_leaf_vector":"0"}},{"base_weights":[6.1259107E-3,8.337076E-2,-8.681101E-2,-1.1637861E-1,1.865028E-1,3.448622E-2,-1.5670681E-1,2.3701783E-1,4.2808324E-2],"categories":[],"categories_nodes":[],"categories_segments":[],"categories_sizes":[],"default_left":[1,1,1,0,1,0,0,0,0],"id":58,"left_children":[1,3,5,-1,7,-1,-1,-1,-1],"loss_changes":[5.4527774E-2,1.0632199E-1,3.4907293E-2,0E0,1.2305863E-2,0E0,0E0,0E0,0E0],"parents":[2147483647,0,0,1,1,2,2,4,4],"right_children":[2,4,6,-1,8,-1,-1,-1,-1],"split_conditions":[4.95E0,5.45E0,2.75E0,-3.4913585E-2,1.55E0,1.0345866E-2,-4.7012046E-2,7.110535E-2,1.2842498E-2],"split_indices":[2,0,1,0,3,0,0,0,0],"split_type":[0,0,0,0,0,0,0,0,0],"sum_hessian":[5.5873995E0,3.107512E0,2.4798875E0,1.0143821E0,2.0931299E0,1.0917935E0,1.3880941E0,1.0681654E0,1.0249645E0],"tree_param":{"num_deleted":"0","num_feature":"4","num_nodes":"9","size_leaf_vector":"0"}},{"base_weights":[1.7627094E-2,-1.3392602E-1,1.5471713E-1,-2.84793E-1,6.944165E-2,9.884365E-3,2.1514131E-1],"categories":[],"categories_nodes":[],"categories_segments":[],"categories_sizes":[],"default_left":[1,1,1,0,0,0,0],"id":59,"left_children":[1,3,5,-1,-1,-1,-1],"loss_changes":[1.5447147E-1,1.3003162E-1,3.1514563E-2,0E0,0E0,0E0,0E0],"parents":[2147483647,0,0,1,1,2,2],"right_children":[2,4,6,-1,-1,-1,-1],"split_conditions":[4.95E0,1.6500001E0,6.05E0,-8.54379E-2,2.0832494E-2,2.9653097E-3,6.45424E-2],"split_indices":[2,3,0,0,0,0,0],"split_type":[0,0,0,0,0,0,0],"sum_hessian":[5.4376245E0,2.593542E0,2.8440824E0,1.2591013E0,1.3344408E0,1.1797888E0,1.6642935E0],"tree_param":{"num_deleted":"0","num_feature":"4","num_nodes":"7","size_leaf_vector":"0"}},{"base_weights":[-5.073984E-2],"categories":[],"categories_nodes":[],"categories_segments":[],"categories_sizes":[],"default_left":[0],"id":60,"left_children":[-1],"loss_changes":[0E0],"parents":[2147483647],"right_children":[-1],"split_conditions":[-1.5221952E-2],"split_indices":[0],"split_type":[0],"sum_hessian":[1.8293759E0],"tree_param":{"num_deleted":"0","num_feature":"4","num_nodes":"1","size_leaf_vector":"0"}},{"base_weights":[1.00175645E-2,7.632793E-2,-6.912501E-2,-7.832369E-2,1.6379975E-1,3.3248547E-2,-1.312975E-1],"categories":[],"categories_nodes":[],"categories_segments":[],"categories_sizes":[],"default_left":[1,1,1,0,0,0,0],"id":61,"left_children":[1,3,5,-1,-1,-1,-1],"loss_changes":[3.855895E-2,6.593908E-2,2.6107788E-2,0E0,0E0,0E0,0E0],"parents":[2147483647,0,0,1,1,2,2],"right_children":[2,4,6,-1,-1,-1,-1],"split_conditions":[4.95E0,5.55E0,2.75E0,-2.3497108E-2,4.9139928E-2,9.974564E-3,-3.9389253E-2],"split_indices":[2,0,1,0,0,0,0],"split_type":[0,0,0,0,0,0,0],"sum_hessian":[5.3420253E0,2.9260066E0,2.4160185E0,1.0948598E0,1.8311468E0,1.0886546E0,1.3273638E0],"tree_param":{"num_deleted":"0","num_feature":"4","num_nodes":"7","size_leaf_vector":"0"}},{"base_weights":[1.297787E-2,-1.2222785E-1,1.3328514E-1,-2.678168E-1,6.29278E-2,7.987474E-3,1.8720974E-1],"categories":[],"categories_nodes":[],"categories_segments":[],"categories_sizes":[],"default_left":[1,1,1,0,0,0,0],"id":62,"left_children":[1,3,5,-1,-1,-1,-1],"loss_changes":[1.16599016E-1,1.0918416E-1,2.3784317E-2,0E0,0E0,0E0,0E0],"parents":[2147483647,0,0,1,1,2,2],"right_children":[2,4,6,-1,-1,-1,-1],"split_conditions":[4.95E0,1.6500001E0,6.05E0,-8.034505E-2,1.887834E-2,2.3962422E-3,5.6162924E-2],"split_indices":[2,3,0,0,0,0,0],"split_type":[0,0,0,0,0,0,0],"sum_hessian":[5.166632E0,2.4251716E0,2.7414608E0,1.1077219E0,1.3174497E0,1.1703026E0,1.5711582E0],"tree_param":{"num_deleted":"0","num_feature":"4","num_nodes":"7","size_leaf_vector":"0"}},{"base_weights":[-4.786495E-2],"categories":[],"categories_nodes":[],"categories_segments":[],"categories_sizes":[],"default_left":[0],"id":63,"left_children":[-1],"loss_changes":[0E0],"parents":[2147483647],"right_children":[-1],"split_conditions":[-1.4359486E-2],"split_indices":[0],"split_type":[0],"sum_hessian":[1.7697811E0],"tree_param":{"num_deleted":"0","num_feature":"4","num_nodes":"1","size_leaf_vector":"0"}},{"base_weights":[9.935295E-3,6.0818963E-2,-8.6377636E-2,-6.047837E-2,2.1269928E-1,7.726247E-2,-1.8648292E-1],"categories":[],"categories_nodes":[],"categories_segments":[],"categories_sizes":[],"default_left":[1,1,0,1,0,0,0],"id":64,"left_children":[1,3,-1,5,-1,-1,-1],"loss_changes":[3.563638E-2,9.840654E-2,0E0,7.272769E-2,0E0,0E0,0E0],"parents":[2147483647,0,0,1,1,3,3],"right_children":[2,4,-1,6,-1,-1,-1],"split_conditions":[1.75E0,1.55E0,-2.5913293E-2,4.6499996E0,6.380979E-2,2.3178741E-2,-5.594488E-2],"split_indices":[3,3,0,2,0,0,0],"split_type":[0,0,0,0,0,0,0],"sum_hessian":[5.1996536E0,3.643344E0,1.5563097E0,2.3602011E0,1.2831429E0,1.3123952E0,1.0478059E0],"tree_param":{"num_deleted":"0","num_feature":"4","num_nodes":"7","size_leaf_vector":"0"}},{"base_weights":[1.1827836E-2,9.392685E-2,-1.8130422E-1,-4.1173752E-2,2.9824373E-1,1.4633292E-1,-1.7411962E-1],"categories":[],"categories_nodes":[],"categories_segments":[],"categories_sizes":[],"default_left":[1,1,0,1,0,0,0],"id":65,"left_children":[1,3,-1,5,-1,-1,-1],"loss_changes":[1.1218171E-1,1.4670046E-1,0E0,1.2045823E-1,0E0,0E0,0E0],"parents":[2147483647,0,0,1,1,3,3],"right_children":[2,4,-1,6,-1,-1,-1],"split_conditions":[3.05E0,1.75E0,-5.439127E-2,2.65E0,8.947312E-2,4.389988E-2,-5.223589E-2],"split_indices":[1,3,0,1,0,0,0],"split_type":[0,0,0,0,0,0,0],"sum_hessian":[5.001051E0,3.8697248E0,1.1313264E0,2.8100886E0,1.0596361E0,1.1240436E0,1.686045E0],"tree_param":{"num_deleted":"0","num_feature":"4","num_nodes":"7","size_leaf_vector":"0"}},{"base_weights":[-4.1065276E-2],"categories":[],"categories_nodes":[],"categories_segments":[],"categories_sizes":[],"default_left":[0],"id":66,"left_children":[-1],"loss_changes":[0E0],"parents":[2147483647],"right_children":[-1],"split_conditions":[-1.2319583E-2],"split_indices":[0],"split_type":[0],"sum_hessian":[1.7483559E0],"tree_param":{"num_deleted":"0","num_feature":"4","num_nodes":"1","size_leaf_vector":"0"}},{"base_weights":[7.4861757E-3,-8.249144E-2,5.3183567E-2,-9.530658E-2,1.3912676E-1,2.808446E-1,-4.3717872E-2],"categories":[],"categories_nodes":[],"categories_segments":[],"categories_sizes":[],"default_left":[1,0,1,0,1,0,0],"id":67,"left_children":[1,-1,3,-1,5,-1,-1],"loss_changes":[2.9453473E-2,0E0,7.261394E-2,0E0,9.914802E-2,0E0,0E0],"parents":[2147483647,0,0,2,2,4,4],"right_children":[2,-1,4,-1,6,-1,-1],"split_conditions":[5.8500004E0,-2.4747433E-2,1.55E0,-2.8591976E-2,1.75E0,8.4253386E-2,-1.3115362E-2],"split_indices":[0,0,3,0,3,0,0],"split_type":[0,0,0,0,0,0,0],"sum_hessian":[5.0962677E0,1.4453074E0,3.6509604E0,1.2985005E0,2.35246E0,1.0233306E0,1.3291293E0],"tree_param":{"num_deleted":"0","num_feature":"4","num_nodes":"7","size_leaf_vector":"0"}},{"base_weights":[1.1462165E-2,9.1867074E-2,-1.7317407E-1,-2.2916326E-2,1.9637893E-1,-3.343631E-2,-1.6233573E-3],"categories":[],"categories_nodes":[],"categories_segments":[],"categories_sizes":[],"default_left":[1,1,0,1,0,0,0],"id":68,"left_children":[1,3,-1,5,-1,-1,-1],"loss_changes":[1.0297538E-1,6.13501E-2,0E0,6.5222266E-4,0E0,0E0,0E0],"parents":[2147483647,0,0,1,1,3,3],"right_children":[2,4,-1,6,-1,-1,-1],"split_conditions":[3.05E0,1.6500001E0,-5.1952224E-2,5.05E0,5.891368E-2,-1.0030894E-2,-4.870072E-4],"split_indices":[1,3,0,2,0,0,0],"split_type":[0,0,0,0,0,0,0],"sum_hessian":[4.8647714E0,3.738975E0,1.1257962E0,2.1540034E0,1.5849715E0,1.060002E0,1.0940014E0],"tree_param":{"num_deleted":"0","num_feature":"4","num_nodes":"7","size_leaf_vector":"0"}},{"base_weights":[-4.1843656E-2],"categories":[],"categories_nodes":[],"categories_segments":[],"categories_sizes":[],"default_left":[0],"id":69,"left_children":[-1],"loss_changes":[0E0],"parents":[2147483647],"right_children":[-1],"split_conditions":[-1.2553098E-2],"split_indices":[0],"split_type":[0],"sum_hessian":[1.7223978E0],"tree_param":{"num_deleted":"0","num_feature":"4","num_nodes":"1","size_leaf_vector":"0"}},{"base_weights":[9.172441E-3,7.2117396E-2,-6.61631E-2,-7.851588E-2,1.6119243E-1,2.9130265E-2,-1.2196699E-1],"categories":[],"categories_nodes":[],"categories_segments":[],"categories_sizes":[],"default_left":[1,1,1,0,0,0,0],"id":70,"left_children":[1,3,5,-1,-1,-1,-1],"loss_changes":[3.3377964E-2,6.317414E-2,2.0928899E-2,0E0,0E0,0E0,0E0],"parents":[2147483647,0,0,1,1,2,2],"right_children":[2,4,6,-1,-1,-1,-1],"split_conditions":[4.95E0,5.55E0,6.05E0,-2.3554765E-2,4.8357733E-2,8.73908E-3,-3.65901E-2],"split_indices":[2,0,0,0,0,0,0],"split_type":[0,0,0,0,0,0,0],"sum_hessian":[5.0325828E0,2.7650356E0,2.2675471E0,1.0715306E0,1.6935049E0,1.0139931E0,1.253554E0],"tree_param":{"num_deleted":"0","num_feature":"4","num_nodes":"7","size_leaf_vector":"0"}},{"base_weights":[1.0121471E-2,-1.230841E-1,1.277257E-1,8.46467E-3,1.7627028E-1],"categories":[],"categories_nodes":[],"categories_segments":[],"categories_sizes":[],"default_left":[1,0,1,0,0],"id":71,"left_children":[1,-1,3,-1,-1],"loss_changes":[1.0638978E-1,0E0,1.91454E-2,0E0,0E0],"parents":[2147483647,0,0,2,2],"right_children":[2,-1,4,-1,-1],"split_conditions":[4.95E0,-3.692523E-2,6.05E0,2.539401E-3,5.2881084E-2],"split_indices":[2,0,0,0,0],"split_type":[0,0,0,0,0],"sum_hessian":[4.787786E0,2.2231348E0,2.5646513E0,1.0816634E0,1.4829879E0],"tree_param":{"num_deleted":"0","num_feature":"4","num_nodes":"5","size_leaf_vector":"0"}},{"base_weights":[-3.8463794E-2],"categories":[],"categories_nodes":[],"categories_segments":[],"categories_sizes":[],"default_left":[0],"id":72,"left_children":[-1],"loss_changes":[0E0],"parents":[2147483647],"right_children":[-1],"split_conditions":[-1.1539139E-2],"split_indices":[0],"split_type":[0],"sum_hessian":[1.685043E0],"tree_param":{"num_deleted":"0","num_feature":"4","num_nodes":"1","size_leaf_vector":"0"}},{"base_weights":[6.321009E-3,5.09588E-2,-7.906121E-2,-5.7774916E-2,1.856989E-1,5.0985266E-2,-1.4599118E-1],"categories":[],"categories_nodes":[],"categories_segments":[],"categories_sizes":[],"default_left":[1,1,0,1,0,0,0],"id":73,"left_children":[1,3,-1,5,-1,-1,-1],"loss_changes":[2.6714178E-2,7.6902926E-2,0E0,3.8743407E-2,0E0,0E0,0E0],"parents":[2147483647,0,0,1,1,3,3],"right_children":[2,4,-1,6,-1,-1,-1],"split_conditions":[1.75E0,1.55E0,-2.3718365E-2,4.55E0,5.570967E-2,1.529558E-2,-4.3797355E-2],"split_indices":[3,3,0,2,0,0,0],"split_type":[0,0,0,0,0,0,0],"sum_hessian":[4.9521604E0,3.5167654E0,1.4353952E0,2.262315E0,1.2544503E0,1.2021943E0,1.0601208E0],"tree_param":{"num_deleted":"0","num_feature":"4","num_nodes":"7","size_leaf_vector":"0"}},{"base_weights":[1.1517224E-2,8.623431E-2,-1.6113667E-1,-2.1692138E-2,1.8335909E-1,-2.8846007E-2,-4.044141E-3],"categories":[],"categories_nodes":[],"categories_segments":[],"categories_sizes":[],"default_left":[1,1,0,1,0,0,0],"id":74,"left_children":[1,3,-1,5,-1,-1,-1],"loss_changes":[8.742998E-2,5.250984E-2,0E0,2.7310953E-4,0E0,0E0,0E0],"parents":[2147483647,0,0,1,1,3,3],"right_children":[2,4,-1,6,-1,-1,-1],"split_conditions":[3.05E0,1.6500001E0,-4.8341002E-2,5.05E0,5.500773E-2,-8.653803E-3,-1.2132424E-3],"split_indices":[1,3,0,2,0,0,0],"split_type":[0,0,0,0,0,0,0],"sum_hessian":[4.7002597E0,3.6299233E0,1.0703362E0,2.0872254E0,1.5426979E0,1.0336858E0,1.0535396E0],"tree_param":{"num_deleted":"0","num_feature":"4","num_nodes":"7","size_leaf_vector":"0"}},{"base_weights":[-3.403194E-2],"categories":[],"categories_nodes":[],"categories_segments":[],"categories_sizes":[],"default_left":[0],"id":75,"left_children":[-1],"loss_changes":[0E0],"parents":[2147483647],"right_children":[-1],"split_conditions":[-1.0209582E-2],"split_indices":[0],"split_type":[0],"sum_hessian":[1.6731929E0],"tree_param":{"num_deleted":"0","num_feature":"4","num_nodes":"1","size_leaf_vector":"0"}},{"base_weights":[7.0346235E-3,-8.140332E-2,5.270876E-2,-8.850689E-2,1.324205E-1,2.6460123E-1,-4.4663284E-2],"categories":[],"categories_nodes":[],"categories_segments":[],"categories_sizes":[],"default_left":[1,0,1,0,1,0,0],"id":76,"left_children":[1,-1,3,-1,5,-1,-1],"loss_changes":[2.8102705E-2,0E0,6.2311217E-2,0E0,8.843851E-2,0E0,0E0],"parents":[2147483647,0,0,2,2,4,4],"right_children":[2,-1,4,-1,6,-1,-1],"split_conditions":[5.8500004E0,-2.4420997E-2,1.55E0,-2.6552068E-2,1.75E0,7.938037E-2,-1.3398985E-2],"split_indices":[0,0,3,0,3,0,0],"split_type":[0,0,0,0,0,0,0],"sum_hessian":[4.895051E0,1.4006796E0,3.4943714E0,1.2209768E0,2.2733946E0,1.018752E0,1.2546426E0],"tree_param":{"num_deleted":"0","num_feature":"4","num_nodes":"7","size_leaf_vector":"0"}},{"base_weights":[8.803985E-3,-1.3487634E-1,9.541772E-2,-5.304879E-2,1.7004316E-1],"categories":[],"categories_nodes":[],"categories_segments":[],"categories_sizes":[],"default_left":[1,0,1,0,0],"id":77,"left_children":[1,-1,3,-1,-1],"loss_changes":[8.284442E-2,0E0,5.437705E-2,0E0,0E0],"parents":[2147483647,0,0,2,2],"right_children":[2,-1,4,-1,-1],"split_conditions":[5.95E0,-4.0462904E-2,2.75E0,-1.5914638E-2,5.101295E-2],"split_indices":[0,0,1,0,0],"split_type":[0,0,0,0,0],"sum_hessian":[4.6228666E0,1.5290935E0,3.0937731E0,1.1315999E0,1.9621732E0],"tree_param":{"num_deleted":"0","num_feature":"4","num_nodes":"5","size_leaf_vector":"0"}},{"base_weights":[-3.4828834E-2],"categories":[],"categories_nodes":[],"categories_segments":[],"categories_sizes":[],"default_left":[0],"id":78,"left_children":[-1],"loss_changes":[0E0],"parents":[2147483647],"right_children":[-1],"split_conditions":[-1.044865E-2],"split_indices":[0],"split_type":[0],"sum_hessian":[1.6475596E0],"tree_param":{"num_deleted":"0","num_feature":"4","num_nodes":"1","size_leaf_vector":"0"}},{"base_weights":[8.320776E-3,-8.171307E-2,5.498721E-2,-7.809294E-2,1.2967357E-1,2.512294E-1,-3.849272E-2],"categories":[],"categories_nodes":[],"categories_segments":[],"categories_sizes":[],"default_left":[1,0,1,0,1,0,0],"id":79,"left_children":[1,-1,3,-1,5,-1,-1],"loss_changes":[2.9037522E-2,0E0,5.430907E-2,0E0,7.555721E-2,0E0,0E0],"parents":[2147483647,0,0,2,2,4,4],"right_children":[2,-1,4,-1,6,-1,-1],"split_conditions":[5.8500004E0,-2.4513923E-2,1.55E0,-2.3427883E-2,1.75E0,7.536882E-2,-1.1547817E-2],"split_indices":[0,0,3,0,3,0,0],"split_type":[0,0,0,0,0,0,0],"sum_hessian":[4.8417244E0,1.3964813E0,3.4452431E0,1.2220743E0,2.2231688E0,1.0037168E0,1.2194521E0],"tree_param":{"num_deleted":"0","num_feature":"4","num_nodes":"7","size_leaf_vector":"0"}},{"base_weights":[7.848703E-3,-1.1047378E-1,1.1406119E-1,1.7935747E-2,1.4843194E-1],"categories":[],"categories_nodes":[],"categories_segments":[],"categories_sizes":[],"default_left":[1,0,1,0,0],"id":80,"left_children":[1,-1,3,-1,-1],"loss_changes":[8.241754E-2,0E0,8.635573E-3,0E0,0E0],"parents":[2147483647,0,0,2,2],"right_children":[2,-1,4,-1,-1],"split_conditions":[4.95E0,-3.3142135E-2,2.75E0,5.3807246E-3,4.4529583E-2],"split_indices":[2,0,1,0,0],"split_type":[0,0,0,0,0],"sum_hessian":[4.55542E0,2.1358864E0,2.4195337E0,1.0380965E0,1.3814371E0],"tree_param":{"num_deleted":"0","num_feature":"4","num_nodes":"5","size_leaf_vector":"0"}},{"base_weights":[-3.5103347E-2],"categories":[],"categories_nodes":[],"categories_segments":[],"categories_sizes":[],"default_left":[0],"id":81,"left_children":[-1],"loss_changes":[0E0],"parents":[2147483647],"right_children":[-1],"split_conditions":[-1.05310045E-2],"split_indices":[0],"split_type":[0],"sum_hessian":[1.6233876E0],"tree_param":{"num_deleted":"0","num_feature":"4","num_nodes":"1","size_leaf_vector":"0"}},{"base_weights":[7.213058E-3,-8.010802E-2,5.2994963E-2,-7.226793E-2,1.2271101E-1],"categories":[],"categories_nodes":[],"categories_segments":[],"categories_sizes":[],"default_left":[1,0,1,0,0],"id":82,"left_children":[1,-1,3,-1,-1],"loss_changes":[2.7368391E-2,0E0,4.7261372E-2,0E0,0E0],"parents":[2147483647,0,0,2,2],"right_children":[2,-1,4,-1,-1],"split_conditions":[5.8500004E0,-2.4032407E-2,1.55E0,-2.168038E-2,3.6813304E-2],"split_indices":[0,0,3,0,0],"split_type":[0,0,0,0,0],"sum_hessian":[4.7840567E0,1.3876258E0,3.396431E0,1.2013291E0,2.195102E0],"tree_param":{"num_deleted":"0","num_feature":"4","num_nodes":"5","size_leaf_vector":"0"}},{"base_weights":[9.182349E-3,8.3636105E-2,-1.602258E-1,-1.7459413E-2,1.7355841E-1],"categories":[],"categories_nodes":[],"categories_segments":[],"categories_sizes":[],"default_left":[1,1,0,0,0],"id":83,"left_children":[1,3,-1,-1,-1],"loss_changes":[8.258553E-2,4.364332E-2,0E0,0E0,0E0],"parents":[2147483647,0,0,1,1],"right_children":[2,4,-1,-1,-1],"split_conditions":[3.05E0,1.6500001E0,-4.806774E-2,-5.2378243E-3,5.2067526E-2],"split_indices":[1,3,0,0,0],"split_type":[0,0,0,0,0],"sum_hessian":[4.4851713E0,3.4675224E0,1.0176489E0,2.0117E0,1.4558225E0],"tree_param":{"num_deleted":"0","num_feature":"4","num_nodes":"5","size_leaf_vector":"0"}},{"base_weights":[-3.6570784E-2],"categories":[],"categories_nodes":[],"categories_segments":[],"categories_sizes":[],"default_left":[0],"id":84,"left_children":[-1],"loss_changes":[0E0],"parents":[2147483647],"right_children":[-1],"split_conditions":[-1.0971235E-2],"split_indices":[0],"split_type":[0],"sum_hessian":[1.6038977E0],"tree_param":{"num_deleted":"0","num_feature":"4","num_nodes":"1","size_leaf_vector":"0"}},{"base_weights":[6.3464404E-3,5.9128925E-2,-5.822681E-2,-7.6113686E-2,1.424042E-1,-4.4044866E-3,-8.1898175E-2],"categories":[],"categories_nodes":[],"categories_segments":[],"categories_sizes":[],"default_left":[1,1,1,0,0,0,0],"id":85,"left_children":[1,3,5,-1,-1,-1,-1],"loss_changes":[2.3070304E-2,5.2112862E-2,3.581034E-3,0E0,0E0,0E0,0E0],"parents":[2147483647,0,0,1,1,2,2],"right_children":[2,4,6,-1,-1,-1,-1],"split_conditions":[4.95E0,5.55E0,6.25E0,-2.2834107E-2,4.272126E-2,-1.321346E-3,-2.4569454E-2],"split_indices":[2,0,0,0,0,0,0],"split_type":[0,0,0,0,0,0,0],"sum_hessian":[4.7586484E0,2.664767E0,2.0938811E0,1.0482932E0,1.6164739E0,1.0018995E0,1.0919818E0],"tree_param":{"num_deleted":"0","num_feature":"4","num_nodes":"7","size_leaf_vector":"0"}},{"base_weights":[1.0766472E-2,-1.0553335E-1,1.1477154E-1,3.6716763E-2,1.3476329E-1],"categories":[],"categories_nodes":[],"categories_segments":[],"categories_sizes":[],"default_left":[1,0,1,0,0],"id":86,"left_children":[1,-1,3,-1,-1],"loss_changes":[7.803817E-2,0E0,2.8924644E-4,0E0,0E0],"parents":[2147483647,0,0,2,2],"right_children":[2,-1,4,-1,-1],"split_conditions":[4.95E0,-3.1660005E-2,6.1499996E0,1.101503E-2,4.042899E-2],"split_indices":[2,0,0,0,0],"split_type":[0,0,0,0,0],"sum_hessian":[4.4503303E0,2.094046E0,2.356284E0,1.0588313E0,1.2974527E0],"tree_param":{"num_deleted":"0","num_feature":"4","num_nodes":"5","size_leaf_vector":"0"}},{"base_weights":[-3.402193E-2],"categories":[],"categories_nodes":[],"categories_segments":[],"categories_sizes":[],"default_left":[0],"id":87,"left_children":[-1],"loss_changes":[0E0],"parents":[2147483647],"right_children":[-1],"split_conditions":[-1.0206579E-2],"split_indices":[0],"split_type":[0],"sum_hessian":[1.5745913E0],"tree_param":{"num_deleted":"0","num_feature":"4","num_nodes":"1","size_leaf_vector":"0"}},{"base_weights":[3.798682E-3,4.9683683E-2,-8.432311E-2,-4.345089E-2,1.5949146E-1,2.3987286E-2,-8.9058265E-2],"categories":[],"categories_nodes":[],"categories_segments":[],"categories_sizes":[],"default_left":[1,1,0,1,0,0,0],"id":88,"left_children":[1,3,-1,5,-1,-1,-1],"loss_changes":[2.7222555E-2,5.1674057E-2,0E0,1.1834448E-2,0E0,0E0,0E0],"parents":[2147483647,0,0,1,1,3,3],"right_children":[2,4,-1,6,-1,-1,-1],"split_conditions":[1.75E0,1.55E0,-2.5296934E-2,4.45E0,4.7847442E-2,7.196186E-3,-2.671748E-2],"split_indices":[3,3,0,2,0,0,0],"split_type":[0,0,0,0,0,0,0],"sum_hessian":[4.6963654E0,3.3751292E0,1.3212361E0,2.1531847E0,1.2219446E0,1.0599374E0,1.0932472E0],"tree_param":{"num_deleted":"0","num_feature":"4","num_nodes":"7","size_leaf_vector":"0"}},{"base_weights":[1.2246638E-2,-1.2019236E-1,9.097294E-2,-3.9425235E-2,1.5373671E-1],"categories":[],"categories_nodes":[],"categories_segments":[],"categories_sizes":[],"default_left":[1,0,1,0,0],"id":89,"left_children":[1,-1,3,-1,-1],"loss_changes":[6.708451E-2,0E0,3.8362794E-2,0E0,0E0],"parents":[2147483647,0,0,2,2],"right_children":[2,-1,4,-1,-1],"split_conditions":[5.95E0,-3.6057707E-2,2.75E0,-1.1827571E-2,4.6121016E-2],"split_indices":[0,0,1,0,0],"split_type":[0,0,0,0,0],"sum_hessian":[4.385377E0,1.4385813E0,2.9467955E0,1.0783209E0,1.8684746E0],"tree_param":{"num_deleted":"0","num_feature":"4","num_nodes":"5","size_leaf_vector":"0"}},{"base_weights":[-3.0587727E-2],"categories":[],"categories_nodes":[],"categories_segments":[],"categories_sizes":[],"default_left":[0],"id":90,"left_children":[-1],"loss_changes":[0E0],"parents":[2147483647],"right_children":[-1],"split_conditions":[-9.1763185E-3],"split_indices":[0],"split_type":[0],"sum_hessian":[1.5620991E0],"tree_param":{"num_deleted":"0","num_feature":"4","num_nodes":"1","size_leaf_vector":"0"}},{"base_weights":[4.601843E-3,-8.29482E-2,5.187826E-2,-6.46956E-2,1.1505076E-1],"categories":[],"categories_nodes":[],"categories_segments":[],"categories_sizes":[],"default_left":[1,0,1,0,0],"id":91,"left_children":[1,-1,3,-1,-1],"loss_changes":[2.7717777E-2,0E0,3.9025705E-2,0E0,0E0],"parents":[2147483647,0,0,2,2],"right_children":[2,-1,4,-1,-1],"split_conditions":[5.8500004E0,-2.488446E-2,1.55E0,-1.940868E-2,3.451523E-2],"split_indices":[0,0,3,0,0],"split_type":[0,0,0,0,0],"sum_hessian":[4.656988E0,1.3683805E0,3.2886074E0,1.1473194E0,2.141288E0],"tree_param":{"num_deleted":"0","num_feature":"4","num_nodes":"5","size_leaf_vector":"0"}},{"base_weights":[9.824161E-3,-6.8601854E-2,1.260068E-1,1.2769674E-1,-1.8822202E-1],"categories":[],"categories_nodes":[],"categories_segments":[],"categories_sizes":[],"default_left":[1,1,0,0,0],"id":92,"left_children":[1,3,-1,-1,-1],"loss_changes":[5.7183813E-2,1.13917544E-1,0E0,0E0,0E0],"parents":[2147483647,0,0,1,1],"right_children":[2,4,-1,-1,-1],"split_conditions":[1.75E0,2.65E0,3.780204E-2,3.8309023E-2,-5.646661E-2],"split_indices":[3,1,0,0,0],"split_type":[0,0,0,0,0],"sum_hessian":[4.3271394E0,2.8278253E0,1.4993143E0,1.0451685E0,1.7826568E0],"tree_param":{"num_deleted":"0","num_feature":"4","num_nodes":"5","size_leaf_vector":"0"}},{"base_weights":[-3.2094117E-2],"categories":[],"categories_nodes":[],"categories_segments":[],"categories_sizes":[],"default_left":[0],"id":93,"left_children":[-1],"loss_changes":[0E0],"parents":[2147483647],"right_children":[-1],"split_conditions":[-9.628235E-3],"split_indices":[0],"split_type":[0],"sum_hessian":[1.535516E0],"tree_param":{"num_deleted":"0","num_feature":"4","num_nodes":"1","size_leaf_vector":"0"}},{"base_weights":[2.221788E-3,-7.473191E-2,4.4177994E-2,1.3068126E-1,-4.1612327E-2],"categories":[],"categories_nodes":[],"categories_segments":[],"categories_sizes":[],"default_left":[1,0,1,0,0],"id":94,"left_children":[1,-1,3,-1,-1],"loss_changes":[2.1435061E-2,0E0,3.707559E-2,0E0,0E0],"parents":[2147483647,0,0,2,2],"right_children":[2,-1,4,-1,-1],"split_conditions":[5.8500004E0,-2.2419574E-2,4.95E0,3.920438E-2,-1.2483698E-2],"split_indices":[0,0,2,0,0],"split_type":[0,0,0,0,0],"sum_hessian":[4.6163893E0,1.3532134E0,3.263176E0,1.3642875E0,1.8988885E0],"tree_param":{"num_deleted":"0","num_feature":"4","num_nodes":"5","size_leaf_vector":"0"}},{"base_weights":[1.3073416E-2,-1.1768285E-1,9.159669E-2,-3.521093E-2,1.5122879E-1],"categories":[],"categories_nodes":[],"categories_segments":[],"categories_sizes":[],"default_left":[1,0,1,0,0],"id":95,"left_children":[1,-1,3,-1,-1],"loss_changes":[6.488781E-2,0E0,3.447513E-2,0E0,0E0],"parents":[2147483647,0,0,2,2],"right_children":[2,-1,4,-1,-1],"split_conditions":[5.95E0,-3.5304856E-2,2.75E0,-1.05632795E-2,4.5368638E-2],"split_indices":[0,0,1,0,0],"split_type":[0,0,0,0,0],"sum_hessian":[4.2699213E0,1.4149909E0,2.8549304E0,1.0441264E0,1.8108041E0],"tree_param":{"num_deleted":"0","num_feature":"4","num_nodes":"5","size_leaf_vector":"0"}},{"base_weights":[-3.183494E-2],"categories":[],"categories_nodes":[],"categories_segments":[],"categories_sizes":[],"default_left":[0],"id":96,"left_children":[-1],"loss_changes":[0E0],"parents":[2147483647],"right_children":[-1],"split_conditions":[-9.550483E-3],"split_indices":[0],"split_type":[0],"sum_hessian":[1.5103412E0],"tree_param":{"num_deleted":"0","num_feature":"4","num_nodes":"1","size_leaf_vector":"0"}},{"base_weights":[3.5466405E-3,4.6232194E-2,-7.9695575E-2,-7.626032E-2,1.0875093E-1],"categories":[],"categories_nodes":[],"categories_segments":[],"categories_sizes":[],"default_left":[1,1,0,0,0],"id":97,"left_children":[1,3,-1,-1,-1],"loss_changes":[2.3466578E-2,4.1323062E-2,0E0,0E0,0E0],"parents":[2147483647,0,0,1,1],"right_children":[2,4,-1,-1,-1],"split_conditions":[1.75E0,5.55E0,-2.3908673E-2,-2.2878097E-2,3.262528E-2],"split_indices":[3,0,0,0,0],"split_type":[0,0,0,0,0],"sum_hessian":[4.567335E0,3.313051E0,1.2542841E0,1.0452671E0,2.2677839E0],"tree_param":{"num_deleted":"0","num_feature":"4","num_nodes":"5","size_leaf_vector":"0"}},{"base_weights":[1.1530357E-2,-6.6062294E-2,1.2613507E-1,1.16754174E-1,-1.7778246E-1],"categories":[],"categories_nodes":[],"categories_segments":[],"categories_sizes":[],"default_left":[1,1,0,0,0],"id":98,"left_children":[1,3,-1,-1,-1],"loss_changes":[5.473841E-2,9.7715855E-2,0E0,0E0,0E0],"parents":[2147483647,0,0,1,1],"right_children":[2,4,-1,-1,-1],"split_conditions":[1.75E0,2.65E0,3.7840523E-2,3.5026252E-2,-5.333474E-2],"split_indices":[3,1,0,0,0],"split_type":[0,0,0,0,0],"sum_hessian":[4.2185235E0,2.7680144E0,1.450509E0,1.0328394E0,1.735175E0],"tree_param":{"num_deleted":"0","num_feature":"4","num_nodes":"5","size_leaf_vector":"0"}},{"base_weights":[-3.0576948E-2],"categories":[],"categories_nodes":[],"categories_segments":[],"categories_sizes":[],"default_left":[0],"id":99,"left_children":[-1],"loss_changes":[0E0],"parents":[2147483647],"right_children":[-1],"split_conditions":[-9.173085E-3],"split_indices":[0],"split_type":[0],"sum_hessian":[1.4800664E0],"tree_param":{"num_deleted":"0","num_feature":"4","num_nodes":"1","size_leaf_vector":"0"}},{"base_weights":[1.0159768E-3,4.1730173E-2,-7.733868E-2,-6.927821E-2,9.893626E-2],"categories":[],"categories_nodes":[],"categories_segments":[],"categories_sizes":[],"default_left":[1,1,0,0,0],"id":100,"left_children":[1,3,-1,-1,-1],"loss_changes":[2.0778595E-2,3.3970073E-2,0E0,0E0,0E0],"parents":[2147483647,0,0,1,1],"right_children":[2,4,-1,-1,-1],"split_conditions":[5.05E0,5.55E0,-2.3201605E-2,-2.0783463E-2,2.968088E-2],"split_indices":[2,0,0,0,0],"split_type":[0,0,0,0,0],"sum_hessian":[4.5017033E0,3.2699893E0,1.2317137E0,1.0402861E0,2.2297032E0],"tree_param":{"num_deleted":"0","num_feature":"4","num_nodes":"5","size_leaf_vector":"0"}},{"base_weights":[1.3656929E-2,-1.1928084E-1,9.423505E-2,-2.7108504E-2,1.4915045E-1],"categories":[],"categories_nodes":[],"categories_segments":[],"categories_sizes":[],"default_left":[1,0,1,0,0],"id":101,"left_children":[1,-1,3,-1,-1],"loss_changes":[6.633598E-2,0E0,2.9105183E-2,0E0,0E0],"parents":[2147483647,0,0,2,2],"right_children":[2,-1,4,-1,-1],"split_conditions":[5.95E0,-3.5784252E-2,2.75E0,-8.132552E-3,4.4745136E-2],"split_indices":[0,0,1,0,0],"split_type":[0,0,0,0,0],"sum_hessian":[4.1434083E0,1.3824046E0,2.761004E0,1.0179825E0,1.7430214E0],"tree_param":{"num_deleted":"0","num_feature":"4","num_nodes":"5","size_leaf_vector":"0"}},{"base_weights":[-2.9410953E-2],"categories":[],"categories_nodes":[],"categories_segments":[],"categories_sizes":[],"default_left":[0],"id":102,"left_children":[-1],"loss_changes":[0E0],"parents":[2147483647],"right_children":[-1],"split_conditions":[-8.823286E-3],"split_indices":[0],"split_type":[0],"sum_hessian":[1.457337E0],"tree_param":{"num_deleted":"0","num_feature":"4","num_nodes":"1","size_leaf_vector":"0"}},{"base_weights":[7.5700524E-4,-7.2292514E-2,4.179676E-2,-7.325301E-2,1.0784147E-1],"categories":[],"categories_nodes":[],"categories_segments":[],"categories_sizes":[],"default_left":[1,0,1,0,0],"id":103,"left_children":[1,-1,3,-1,-1],"loss_changes":[1.9369775E-2,0E0,3.924484E-2,0E0,0E0],"parents":[2147483647,0,0,2,2],"right_children":[2,-1,4,-1,-1],"split_conditions":[5.8500004E0,-2.1687755E-2,1.55E0,-2.1975905E-2,3.2352444E-2],"split_indices":[0,0,3,0,0],"split_type":[0,0,0,0,0],"sum_hessian":[4.4531493E0,1.3279371E0,3.1252122E0,1.099953E0,2.025259E0],"tree_param":{"num_deleted":"0","num_feature":"4","num_nodes":"5","size_leaf_vector":"0"}},{"base_weights":[1.3384593E-2,-8.934443E-2,1.05670825E-1],"categories":[],"categories_nodes":[],"categories_segments":[],"categories_sizes":[],"default_left":[1,0,0],"id":104,"left_children":[1,-1,-1],"loss_changes":[5.7708077E-2,0E0,0E0],"parents":[2147483647,0,0],"right_children":[2,-1,-1],"split_conditions":[4.95E0,-2.680333E-2,3.170125E-2],"split_indices":[2,0,0],"split_type":[0,0,0],"sum_hessian":[4.091199E0,1.9511454E0,2.1400533E0],"tree_param":{"num_deleted":"0","num_feature":"4","num_nodes":"3","size_leaf_vector":"0"}},{"base_weights":[-2.987739E-2],"categories":[],"categories_nodes":[],"categories_segments":[],"categories_sizes":[],"default_left":[0],"id":105,"left_children":[-1],"loss_changes":[0E0],"parents":[2147483647],"right_children":[-1],"split_conditions":[-8.963218E-3],"split_indices":[0],"split_type":[0],"sum_hessian":[1.440275E0],"tree_param":{"num_deleted":"0","num_feature":"4","num_nodes":"1","size_leaf_vector":"0"}},{"base_weights":[7.449097E-5,4.0534128E-2,-7.755059E-2,-3.6408562E-2,1.3023104E-1,2.546555E-2,-8.039285E-2],"categories":[],"categories_nodes":[],"categories_segments":[],"categories_sizes":[],"default_left":[1,1,0,1,0,0,0],"id":106,"left_children":[1,3,-1,5,-1,-1,-1],"loss_changes":[2.0190716E-2,3.3899453E-2,0E0,1.0363086E-2,0E0,0E0,0E0],"parents":[2147483647,0,0,1,1,3,3],"right_children":[2,4,-1,6,-1,-1,-1],"split_conditions":[1.75E0,1.55E0,-2.3265177E-2,4.45E0,3.9069314E-2,7.639665E-3,-2.4117857E-2],"split_indices":[3,3,0,2,0,0,0],"split_type":[0,0,0,0,0,0,0],"sum_hessian":[4.427887E0,3.2248545E0,1.2030324E0,2.055621E0,1.1692337E0,1.0290517E0,1.0265692E0],"tree_param":{"num_deleted":"0","num_feature":"4","num_nodes":"7","size_leaf_vector":"0"}},{"base_weights":[1.4334716E-2,-1.0550034E-1,8.6227305E-2,-2.8890235E-2,1.3999188E-1],"categories":[],"categories_nodes":[],"categories_segments":[],"categories_sizes":[],"default_left":[1,0,1,0,0],"id":107,"left_children":[1,-1,3,-1,-1],"loss_changes":[5.2672803E-2,0E0,2.7016643E-2,0E0,0E0],"parents":[2147483647,0,0,2,2],"right_children":[2,-1,4,-1,-1],"split_conditions":[5.95E0,-3.1650104E-2,2.75E0,-8.667071E-3,4.1997567E-2],"split_indices":[0,0,1,0,0],"split_type":[0,0,0,0,0],"sum_hessian":[4.0579815E0,1.3463424E0,2.7116392E0,1.0105537E0,1.7010854E0],"tree_param":{"num_deleted":"0","num_feature":"4","num_nodes":"5","size_leaf_vector":"0"}},{"base_weights":[-2.6795214E-2],"categories":[],"categories_nodes":[],"categories_segments":[],"categories_sizes":[],"default_left":[0],"id":108,"left_children":[-1],"loss_changes":[0E0],"parents":[2147483647],"right_children":[-1],"split_conditions":[-8.038565E-3],"split_indices":[0],"split_type":[0],"sum_hessian":[1.4322449E0],"tree_param":{"num_deleted":"0","num_feature":"4","num_nodes":"1","size_leaf_vector":"0"}},{"base_weights":[1.1743474E-3,-7.805055E-2,4.624575E-2,-5.812047E-2,1.0318602E-1],"categories":[],"categories_nodes":[],"categories_segments":[],"categories_sizes":[],"default_left":[1,0,1,0,0],"id":109,"left_children":[1,-1,3,-1,-1],"loss_changes":[2.2872586E-2,0E0,3.0162483E-2,0E0,0E0],"parents":[2147483647,0,0,2,2],"right_children":[2,-1,4,-1,-1],"split_conditions":[5.8500004E0,-2.3415165E-2,1.55E0,-1.7436141E-2,3.0955806E-2],"split_indices":[0,0,3,0,0],"split_type":[0,0,0,0,0],"sum_hessian":[4.394646E0,1.3282273E0,3.066419E0,1.0751119E0,1.991307E0],"tree_param":{"num_deleted":"0","num_feature":"4","num_nodes":"5","size_leaf_vector":"0"}},{"base_weights":[1.17427E-2,-8.0721475E-2,9.6627936E-2],"categories":[],"categories_nodes":[],"categories_segments":[],"categories_sizes":[],"default_left":[1,0,0],"id":110,"left_children":[1,-1,-1],"loss_changes":[4.7126323E-2,0E0,0E0],"parents":[2147483647,0,0],"right_children":[2,-1,-1],"split_conditions":[4.95E0,-2.4216443E-2,2.8988382E-2],"split_indices":[2,0,0],"split_type":[0,0,0],"sum_hessian":[4.0104675E0,1.9430187E0,2.0674486E0],"tree_param":{"num_deleted":"0","num_feature":"4","num_nodes":"3","size_leaf_vector":"0"}},{"base_weights":[-2.774713E-2],"categories":[],"categories_nodes":[],"categories_segments":[],"categories_sizes":[],"default_left":[0],"id":111,"left_children":[-1],"loss_changes":[0E0],"parents":[2147483647],"right_children":[-1],"split_conditions":[-8.32414E-3],"split_indices":[0],"split_type":[0],"sum_hessian":[1.4161301E0],"tree_param":{"num_deleted":"0","num_feature":"4","num_nodes":"1","size_leaf_vector":"0"}},{"base_weights":[4.229294E-4,4.2043306E-2,-8.002148E-2,-7.410245E-2,1.0369535E-1],"categories":[],"categories_nodes":[],"categories_segments":[],"categories_sizes":[],"default_left":[1,1,0,0,0],"id":112,"left_children":[1,3,-1,-1,-1],"loss_changes":[2.1347744E-2,3.772529E-2,0E0,0E0,0E0],"parents":[2147483647,0,0,1,1],"right_children":[2,4,-1,-1,-1],"split_conditions":[1.75E0,5.55E0,-2.4006445E-2,-2.2230735E-2,3.1108605E-2],"split_indices":[3,0,0,0,0],"split_type":[0,0,0,0,0],"sum_hessian":[4.3711762E0,3.1953344E0,1.1758419E0,1.0379684E0,2.157366E0],"tree_param":{"num_deleted":"0","num_feature":"4","num_nodes":"5","size_leaf_vector":"0"}},{"base_weights":[1.3002489E-2,-6.0838994E-2,1.2231373E-1,1.1327006E-1,-1.7062436E-1],"categories":[],"categories_nodes":[],"categories_segments":[],"categories_sizes":[],"default_left":[1,1,0,0,0],"id":113,"left_children":[1,3,-1,-1,-1],"loss_changes":[4.7649525E-2,8.892023E-2,0E0,0E0,0E0],"parents":[2147483647,0,0,1,1],"right_children":[2,4,-1,-1,-1],"split_conditions":[1.75E0,2.65E0,3.669412E-2,3.3981018E-2,-5.118731E-2],"split_indices":[3,1,0,0,0],"split_type":[0,0,0,0,0],"sum_hessian":[3.9813623E0,2.6408558E0,1.3405067E0,1.0089759E0,1.6318798E0],"tree_param":{"num_deleted":"0","num_feature":"4","num_nodes":"5","size_leaf_vector":"0"}},{"base_weights":[-2.6868343E-2],"categories":[],"categories_nodes":[],"categories_segments":[],"categories_sizes":[],"default_left":[0],"id":114,"left_children":[-1],"loss_changes":[0E0],"parents":[2147483647],"right_children":[-1],"split_conditions":[-8.060504E-3],"split_indices":[0],"split_type":[0],"sum_hessian":[1.3903561E0],"tree_param":{"num_deleted":"0","num_feature":"4","num_nodes":"1","size_leaf_vector":"0"}},{"base_weights":[-1.6126886E-3,-6.967198E-2,3.7938572E-2,1.1901557E-1,-4.2953093E-2],"categories":[],"categories_nodes":[],"categories_segments":[],"categories_sizes":[],"default_left":[1,0,1,0,0],"id":115,"left_children":[1,-1,3,-1,-1],"loss_changes":[1.6940411E-2,0E0,3.138941E-2,0E0,0E0],"parents":[2147483647,0,0,2,2],"right_children":[2,-1,4,-1,-1],"split_conditions":[5.8500004E0,-2.0901594E-2,4.95E0,3.5704672E-2,-1.2885928E-2],"split_indices":[0,0,2,0,0],"split_type":[0,0,0,0,0],"sum_hessian":[4.3113127E0,1.3046782E0,3.0066347E0,1.266219E0,1.7404157E0],"tree_param":{"num_deleted":"0","num_feature":"4","num_nodes":"5","size_leaf_vector":"0"}},{"base_weights":[1.4811727E-2,-1.0498972E-1,8.769748E-2],"categories":[],"categories_nodes":[],"categories_segments":[],"categories_sizes":[],"default_left":[1,0,0],"id":116,"left_children":[1,-1,-1],"loss_changes":[5.2118804E-2,0E0,0E0],"parents":[2147483647,0,0],"right_children":[2,-1,-1],"split_conditions":[5.95E0,-3.149692E-2,2.6309246E-2],"split_indices":[0,0,0],"split_type":[0,0,0],"sum_hessian":[3.9143791E0,1.314039E0,2.6003401E0],"tree_param":{"num_deleted":"0","num_feature":"4","num_nodes":"3","size_leaf_vector":"0"}},{"base_weights":[-2.7256824E-2],"categories":[],"categories_nodes":[],"categories_segments":[],"categories_sizes":[],"default_left":[0],"id":117,"left_children":[-1],"loss_changes":[0E0],"parents":[2147483647],"right_children":[-1],"split_conditions":[-8.177048E-3],"split_indices":[0],"split_type":[0],"sum_hessian":[1.3718195E0],"tree_param":{"num_deleted":"0","num_feature":"4","num_nodes":"1","size_leaf_vector":"0"}},{"base_weights":[9.1129914E-4,-6.928013E-2,4.1317355E-2,-5.904431E-2,9.6273854E-2],"categories":[],"categories_nodes":[],"categories_segments":[],"categories_sizes":[],"default_left":[1,0,1,0,0],"id":118,"left_children":[1,-1,3,-1,-1],"loss_changes":[1.7828722E-2,0E0,2.7611198E-2,0E0,0E0],"parents":[2147483647,0,0,2,2],"right_children":[2,-1,4,-1,-1],"split_conditions":[5.8500004E0,-2.078404E-2,1.55E0,-1.7713293E-2,2.8882157E-2],"split_indices":[0,0,3,0,0],"split_type":[0,0,0,0,0],"sum_hessian":[4.276943E0,1.3014792E0,2.975464E0,1.0264947E0,1.9489694E0],"tree_param":{"num_deleted":"0","num_feature":"4","num_nodes":"5","size_leaf_vector":"0"}},{"base_weights":[1.225971E-2,-9.7157985E-2,7.909302E-2,9.7383365E-2,2.821158E-2],"categories":[],"categories_nodes":[],"categories_segments":[],"categories_sizes":[],"default_left":[1,0,1,0,0],"id":119,"left_children":[1,-1,3,-1,-1],"loss_changes":[4.3377556E-2,0E0,5.8561563E-4,0E0,0E0],"parents":[2147483647,0,0,2,2],"right_children":[2,-1,4,-1,-1],"split_conditions":[5.95E0,-2.9147396E-2,6.25E0,2.921501E-2,8.463475E-3],"split_indices":[0,0,0,0,0],"split_type":[0,0,0,0,0],"sum_hessian":[3.8809342E0,1.2995727E0,2.5813615E0,1.2265328E0,1.3548287E0],"tree_param":{"num_deleted":"0","num_feature":"4","num_nodes":"5","size_leaf_vector":"0"}},{"base_weights":[-2.8951136E-2],"categories":[],"categories_nodes":[],"categories_segments":[],"categories_sizes":[],"default_left":[0],"id":120,"left_children":[-1],"loss_changes":[0E0],"parents":[2147483647],"right_children":[-1],"split_conditions":[-8.685341E-3],"split_indices":[0],"split_type":[0],"sum_hessian":[1.3611448E0],"tree_param":{"num_deleted":"0","num_feature":"4","num_nodes":"1","size_leaf_vector":"0"}},{"base_weights":[4.6986295E-4,4.093086E-2,-7.8185715E-2,-6.5820314E-2,9.737958E-2],"categories":[],"categories_nodes":[],"categories_segments":[],"categories_sizes":[],"default_left":[1,1,0,0,0],"id":121,"left_children":[1,3,-1,-1,-1],"loss_changes":[1.9952372E-2,3.131029E-2,0E0,0E0,0E0],"parents":[2147483647,0,0,1,1],"right_children":[2,4,-1,-1,-1],"split_conditions":[1.75E0,5.55E0,-2.3455715E-2,-1.9746095E-2,2.9213876E-2],"split_indices":[3,0,0,0,0],"split_type":[0,0,0,0,0],"sum_hessian":[4.2638655E0,3.1322386E0,1.1316268E0,1.0259767E0,2.106262E0],"tree_param":{"num_deleted":"0","num_feature":"4","num_nodes":"5","size_leaf_vector":"0"}},{"base_weights":[1.3542798E-2,-5.7431053E-2,1.1885343E-1,-1.2072396E-1,1.6659385E-2],"categories":[],"categories_nodes":[],"categories_segments":[],"categories_sizes":[],"default_left":[1,1,0,0,0],"id":122,"left_children":[1,3,-1,-1,-1],"loss_changes":[4.3188497E-2,1.8801719E-2,0E0,0E0,0E0],"parents":[2147483647,0,0,1,1],"right_children":[2,4,-1,-1,-1],"split_conditions":[1.75E0,4.95E0,3.565603E-2,-3.621719E-2,4.9978155E-3],"split_indices":[3,2,0,0,0],"split_type":[0,0,0,0,0],"sum_hessian":[3.86502E0,2.5805292E0,1.2844908E0,1.0522311E0,1.5282983E0],"tree_param":{"num_deleted":"0","num_feature":"4","num_nodes":"5","size_leaf_vector":"0"}},{"base_weights":[-2.7624095E-2],"categories":[],"categories_nodes":[],"categories_segments":[],"categories_sizes":[],"default_left":[0],"id":123,"left_children":[-1],"loss_changes":[0E0],"parents":[2147483647],"right_children":[-1],"split_conditions":[-8.287229E-3],"split_indices":[0],"split_type":[0],"sum_hessian":[1.3403084E0],"tree_param":{"num_deleted":"0","num_feature":"4","num_nodes":"1","size_leaf_vector":"0"}},{"base_weights":[-1.5746163E-4,-6.9586106E-2,4.029678E-2,-6.143841E-2,9.644772E-2],"categories":[],"categories_nodes":[],"categories_segments":[],"categories_sizes":[],"default_left":[1,0,1,0,0],"id":124,"left_children":[1,-1,3,-1,-1],"loss_changes":[1.7442161E-2,0E0,2.8354453E-2,0E0,0E0],"parents":[2147483647,0,0,2,2],"right_children":[2,-1,4,-1,-1],"split_conditions":[5.8500004E0,-2.0875832E-2,1.55E0,-1.8431524E-2,2.8934317E-2],"split_indices":[0,0,3,0,0],"split_type":[0,0,0,0,0],"sum_hessian":[4.2117186E0,1.2854596E0,2.9262588E0,1.0072113E0,1.9190475E0],"tree_param":{"num_deleted":"0","num_feature":"4","num_nodes":"5","size_leaf_vector":"0"}},{"base_weights":[1.3616111E-2,-9.391975E-2,7.928196E-2],"categories":[],"categories_nodes":[],"categories_segments":[],"categories_sizes":[],"default_left":[1,0,0],"id":125,"left_children":[1,-1,-1],"loss_changes":[4.1398868E-2,0E0,0E0],"parents":[2147483647,0,0],"right_children":[2,-1,-1],"split_conditions":[5.95E0,-2.8175926E-2,2.378459E-2],"split_indices":[0,0,0],"split_type":[0,0,0],"sum_hessian":[3.8081918E0,1.2806702E0,2.5275216E0],"tree_param":{"num_deleted":"0","num_feature":"4","num_nodes":"3","size_leaf_vector":"0"}},{"base_weights":[-2.895258E-2],"categories":[],"categories_nodes":[],"categories_segments":[],"categories_sizes":[],"default_left":[0],"id":126,"left_children":[-1],"loss_changes":[0E0],"parents":[2147483647],"right_children":[-1],"split_conditions":[-8.685774E-3],"split_indices":[0],"split_type":[0],"sum_hessian":[1.3286284E0],"tree_param":{"num_deleted":"0","num_feature":"4","num_nodes":"1","size_leaf_vector":"0"}},{"base_weights":[6.9546263E-4,-6.877363E-2,4.1009333E-2,1.1214183E-1,-3.293199E-2],"categories":[],"categories_nodes":[],"categories_segments":[],"categories_sizes":[],"default_left":[1,0,1,0,0],"id":127,"left_children":[1,-1,3,-1,-1],"loss_changes":[1.738008E-2,0E0,2.4290852E-2,0E0,0E0],"parents":[2147483647,0,0,2,2],"right_children":[2,-1,4,-1,-1],"split_conditions":[5.8500004E0,-2.0632088E-2,4.95E0,3.3642553E-2,-9.879597E-3],"split_indices":[0,0,2,0,0],"split_type":[0,0,0,0,0],"sum_hessian":[4.198845E0,1.2826391E0,2.9162056E0,1.223016E0,1.6931896E0],"tree_param":{"num_deleted":"0","num_feature":"4","num_nodes":"5","size_leaf_vector":"0"}},{"base_weights":[1.3317052E-2,-7.093049E-2,9.0290055E-2],"categories":[],"categories_nodes":[],"categories_segments":[],"categories_sizes":[],"default_left":[1,0,0],"id":128,"left_children":[1,-1,-1],"loss_changes":[3.7474874E-2,0E0,0E0],"parents":[2147483647,0,0],"right_children":[2,-1,-1],"split_conditions":[4.95E0,-2.1279147E-2,2.7087018E-2],"split_indices":[2,0,0],"split_type":[0,0,0],"sum_hessian":[3.7913008E0,1.8475953E0,1.9437054E0],"tree_param":{"num_deleted":"0","num_feature":"4","num_nodes":"3","size_leaf_vector":"0"}},{"base_weights":[-2.8553605E-2],"categories":[],"categories_nodes":[],"categories_segments":[],"categories_sizes":[],"default_left":[0],"id":129,"left_children":[-1],"loss_changes":[0E0],"parents":[2147483647],"right_children":[-1],"split_conditions":[-8.5660815E-3],"split_indices":[0],"split_type":[0],"sum_hessian":[1.3116337E0],"tree_param":{"num_deleted":"0","num_feature":"4","num_nodes":"1","size_leaf_vector":"0"}},{"base_weights":[1.3577129E-3,4.1951224E-2,-7.805866E-2,-6.381683E-2,9.814982E-2],"categories":[],"categories_nodes":[],"categories_segments":[],"categories_sizes":[],"default_left":[1,1,0,0,0],"id":130,"left_children":[1,3,-1,-1,-1],"loss_changes":[1.9914594E-2,3.0432705E-2,0E0,0E0,0E0],"parents":[2147483647,0,0,1,1],"right_children":[2,4,-1,-1,-1],"split_conditions":[1.75E0,5.55E0,-2.34176E-2,-1.914505E-2,2.9444948E-2],"split_indices":[3,0,0,0,0],"split_type":[0,0,0,0,0],"sum_hessian":[4.1616073E0,3.0661218E0,1.0954856E0,1.016836E0,2.049286E0],"tree_param":{"num_deleted":"0","num_feature":"4","num_nodes":"5","size_leaf_vector":"0"}},{"base_weights":[1.2409316E-2,-5.7199106E-2,1.1649048E-1,-1.09832E-1,7.929348E-3],"categories":[],"categories_nodes":[],"categories_segments":[],"categories_sizes":[],"default_left":[1,1,0,0,0],"id":131,"left_children":[1,3,-1,-1,-1],"loss_changes":[4.1108742E-2,1.2936137E-2,0E0,0E0,0E0],"parents":[2147483647,0,0,1,1],"right_children":[2,4,-1,-1,-1],"split_conditions":[1.75E0,4.95E0,3.4947146E-2,-3.2949604E-2,2.3788046E-3],"split_indices":[3,2,0,0,0],"split_type":[0,0,0,0,0],"sum_hessian":[3.7544436E0,2.519719E0,1.2347248E0,1.0139307E0,1.5057881E0],"tree_param":{"num_deleted":"0","num_feature":"4","num_nodes":"5","size_leaf_vector":"0"}},{"base_weights":[-2.724448E-2],"categories":[],"categories_nodes":[],"categories_segments":[],"categories_sizes":[],"default_left":[0],"id":132,"left_children":[-1],"loss_changes":[0E0],"parents":[2147483647],"right_children":[-1],"split_conditions":[-8.173345E-3],"split_indices":[0],"split_type":[0],"sum_hessian":[1.293296E0],"tree_param":{"num_deleted":"0","num_feature":"4","num_nodes":"1","size_leaf_vector":"0"}},{"base_weights":[5.0316675E-4,-6.726295E-2,4.0241104E-2,8.836253E-2,-4.6391584E-2],"categories":[],"categories_nodes":[],"categories_segments":[],"categories_sizes":[],"default_left":[1,0,1,0,0],"id":133,"left_children":[1,-1,3,-1,-1],"loss_changes":[1.64812E-2,0E0,2.014969E-2,0E0,0E0],"parents":[2147483647,0,0,2,2],"right_children":[2,-1,4,-1,-1],"split_conditions":[5.8500004E0,-2.0178884E-2,5.05E0,2.650876E-2,-1.3917476E-2],"split_indices":[0,0,2,0,0],"split_type":[0,0,0,0,0],"sum_hessian":[4.115132E0,1.2650857E0,2.8500462E0,1.8194422E0,1.0306039E0],"tree_param":{"num_deleted":"0","num_feature":"4","num_nodes":"5","size_leaf_vector":"0"}},{"base_weights":[1.2734375E-2,-8.827101E-2,7.463564E-2],"categories":[],"categories_nodes":[],"categories_segments":[],"categories_sizes":[],"default_left":[1,0,0],"id":134,"left_children":[1,-1,-1],"loss_changes":[3.6000017E-2,0E0,0E0],"parents":[2147483647,0,0],"right_children":[2,-1,-1],"split_conditions":[5.95E0,-2.6481302E-2,2.2390693E-2],"split_indices":[0,0,0],"split_type":[0,0,0],"sum_hessian":[3.704119E0,1.2456208E0,2.4584982E0],"tree_param":{"num_deleted":"0","num_feature":"4","num_nodes":"3","size_leaf_vector":"0"}},{"base_weights":[-2.7725058E-2],"categories":[],"categories_nodes":[],"categories_segments":[],"categories_sizes":[],"default_left":[0],"id":135,"left_children":[-1],"loss_changes":[0E0],"parents":[2147483647],"right_children":[-1],"split_conditions":[-8.317518E-3],"split_indices":[0],"split_type":[0],"sum_hessian":[1.2790774E0],"tree_param":{"num_deleted":"0","num_feature":"4","num_nodes":"1","size_leaf_vector":"0"}},{"base_weights":[1.3795E-3,-6.638239E-2,4.1096292E-2,8.351504E-2,-3.817586E-2],"categories":[],"categories_nodes":[],"categories_segments":[],"categories_sizes":[],"default_left":[1,0,1,0,0],"id":136,"left_children":[1,-1,3,-1,-1],"loss_changes":[1.642179E-2,0E0,1.6052194E-2,0E0,0E0],"parents":[2147483647,0,0,2,2],"right_children":[2,-1,4,-1,-1],"split_conditions":[5.8500004E0,-1.9914718E-2,5.05E0,2.5054513E-2,-1.1452758E-2],"split_indices":[0,0,2,0,0],"split_type":[0,0,0,0,0],"sum_hessian":[4.088171E0,1.2626078E0,2.825563E0,1.8057683E0,1.0197948E0],"tree_param":{"num_deleted":"0","num_feature":"4","num_nodes":"5","size_leaf_vector":"0"}},{"base_weights":[1.2007551E-2,-5.0698098E-2,1.0628311E-1,2.3638047E-3,-8.401973E-2],"categories":[],"categories_nodes":[],"categories_segments":[],"categories_sizes":[],"default_left":[1,1,0,0,0],"id":137,"left_children":[1,3,-1,-1,-1],"loss_changes":[3.304074E-2,6.362614E-3,0E0,0E0,0E0],"parents":[2147483647,0,0,1,1],"right_children":[2,4,-1,-1,-1],"split_conditions":[1.75E0,1.55E0,3.1884935E-2,7.0914143E-4,-2.520592E-2],"split_indices":[3,3,0,0,0],"split_type":[0,0,0,0,0],"sum_hessian":[3.6776407E0,2.4862154E0,1.1914253E0,1.3174105E0,1.1688048E0],"tree_param":{"num_deleted":"0","num_feature":"4","num_nodes":"5","size_leaf_vector":"0"}},{"base_weights":[-2.6929002E-2],"categories":[],"categories_nodes":[],"categories_segments":[],"categories_sizes":[],"default_left":[0],"id":138,"left_children":[-1],"loss_changes":[0E0],"parents":[2147483647],"right_children":[-1],"split_conditions":[-8.078701E-3],"split_indices":[0],"split_type":[0],"sum_hessian":[1.2676759E0],"tree_param":{"num_deleted":"0","num_feature":"4","num_nodes":"1","size_leaf_vector":"0"}},{"base_weights":[4.418594E-4,5.7735413E-2,-4.3042175E-2,-1.2062252E-1,4.9817663E-2],"categories":[],"categories_nodes":[],"categories_segments":[],"categories_sizes":[],"default_left":[1,0,1,0,0],"id":139,"left_children":[1,-1,3,-1,-1],"loss_changes":[1.5093108E-2,0E0,3.0863225E-2,0E0,0E0],"parents":[2147483647,0,0,2,2],"right_children":[2,-1,4,-1,-1],"split_conditions":[2.75E0,1.7320625E-2,1.6500001E0,-3.618676E-2,1.4945299E-2],"split_indices":[1,0,3,0,0],"split_type":[0,0,0,0,0],"sum_hessian":[4.0607195E0,1.6107261E0,2.4499936E0,1.1719263E0,1.2780674E0],"tree_param":{"num_deleted":"0","num_feature":"4","num_nodes":"5","size_leaf_vector":"0"}},{"base_weights":[1.2646967E-2,1.1881915E-1,-4.902246E-2,-1.523018E-1,9.5199995E-2],"categories":[],"categories_nodes":[],"categories_segments":[],"categories_sizes":[],"default_left":[1,0,1,0,0],"id":140,"left_children":[1,-1,3,-1,-1],"loss_changes":[3.6282957E-2,0E0,6.8874694E-2,0E0,0E0],"parents":[2147483647,0,0,2,2],"right_children":[2,-1,4,-1,-1],"split_conditions":[2.65E0,3.5645746E-2,1.75E0,-4.5690544E-2,2.856E-2],"split_indices":[1,0,3,0,0],"split_type":[0,0,0,0,0],"sum_hessian":[3.65182E0,1.0012769E0,2.6505432E0,1.5118617E0,1.1386814E0],"tree_param":{"num_deleted":"0","num_feature":"4","num_nodes":"5","size_leaf_vector":"0"}},{"base_weights":[-2.8546115E-2],"categories":[],"categories_nodes":[],"categories_segments":[],"categories_sizes":[],"default_left":[0],"id":141,"left_children":[-1],"loss_changes":[0E0],"parents":[2147483647],"right_children":[-1],"split_conditions":[-8.563835E-3],"split_indices":[0],"split_type":[0],"sum_hessian":[1.2419211E0],"tree_param":{"num_deleted":"0","num_feature":"4","num_nodes":"1","size_leaf_vector":"0"}},{"base_weights":[-5.764015E-4,5.5654846E-2,-4.2912308E-2,-1.188821E-1,4.872603E-2],"categories":[],"categories_nodes":[],"categories_segments":[],"categories_sizes":[],"default_left":[1,0,1,0,0],"id":142,"left_children":[1,-1,3,-1,-1],"loss_changes":[1.433515E-2,0E0,2.9654622E-2,0E0,0E0],"parents":[2147483647,0,0,2,2],"right_children":[2,-1,4,-1,-1],"split_conditions":[2.75E0,1.6696455E-2,1.6500001E0,-3.566463E-2,1.4617809E-2],"split_indices":[1,0,3,0,0],"split_type":[0,0,0,0,0],"sum_hessian":[4.0184274E0,1.5908426E0,2.4275846E0,1.1647172E0,1.2628675E0],"tree_param":{"num_deleted":"0","num_feature":"4","num_nodes":"5","size_leaf_vector":"0"}},{"base_weights":[1.4504734E-2,-8.8917464E-2,7.829406E-2],"categories":[],"categories_nodes":[],"categories_segments":[],"categories_sizes":[],"default_left":[1,0,0],"id":143,"left_children":[1,-1,-1],"loss_changes":[3.7386227E-2,0E0,0E0],"parents":[2147483647,0,0],"right_children":[2,-1,-1],"split_conditions":[5.95E0,-2.6675241E-2,2.348822E-2],"split_indices":[0,0,0],"split_type":[0,0,0],"sum_hessian":[3.611709E0,1.2275491E0,2.38416E0],"tree_param":{"num_deleted":"0","num_feature":"4","num_nodes":"3","size_leaf_vector":"0"}},{"base_weights":[-3.0112347E-2],"categories":[],"categories_nodes":[],"categories_segments":[],"categories_sizes":[],"default_left":[0],"id":144,"left_children":[-1],"loss_changes":[0E0],"parents":[2147483647],"right_children":[-1],"split_conditions":[-9.033704E-3],"split_indices":[0],"split_type":[0],"sum_hessian":[1.2217658E0],"tree_param":{"num_deleted":"0","num_feature":"4","num_nodes":"1","size_leaf_vector":"0"}},{"base_weights":[8.645554E-4,-6.362335E-2,3.89594E-2,1.00687556E-1,-2.7211292E-2],"categories":[],"categories_nodes":[],"categories_segments":[],"categories_sizes":[],"default_left":[1,0,1,0,0],"id":145,"left_children":[1,-1,3,-1,-1],"loss_changes":[1.4745612E-2,0E0,1.8094782E-2,0E0,0E0],"parents":[2147483647,0,0,2,2],"right_children":[2,-1,4,-1,-1],