{"learner":{"attributes":{"scikit_learn":"{\"_estimator_type\": \"classifier\"}"},"feature_names":[],"feature_types":[],"gradient_booster":{"model":{"gbtree_model_param":{"num_parallel_tree":"1","num_trees":"50"},"iteration_indptr":[0,1,2,3,4,5,6,7,8,9,10,11,12,13,14,15,16,17,18,19,20,21,22,23,24,25,26,27,28,29,30,31,32,33,34,35,36,37,38,39,40,41,42,43,44,45,46,47,48,49,50],"tree_info":[0,0,0,0,0,0,0,0,0,0,0,0,0,0,0,0,0,0,0,0,0,0,0,0,0,0,0,0,0,0,0,0,0,0,0,0,0,0,0,0,0,0,0,0,0,0,0,0,0,0],"trees":[{"base_weights":[1.1680293E-2,1.2017697E0,-2.3514183E0,1.4261186E0,-1.674377E0,3.549795E-2,-7.520508E-1,1.4817464E0,-6.1041277E-2,-1.7834349E-2,-6.240666E-1,4.660264E-1,2.3273145E-1],"categories":[],"categories_nodes":[],"categories_segments":[],"categories_sizes":[],"default_left":[0,0,0,0,0,0,0,0,0,0,0,0,0],"id":0,"left_children":[1,3,5,7,9,-1,-1,11,-1,-1,-1,-1,-1],"loss_changes":[3.052833E2,4.8968056E1,1.4253098E1,6.420822E0,3.6013193E0,0E0,0E0,2.1040497E0,0E0,0E0,0E0,0E0,0E0],"parents":[2147483647,0,0,1,1,2,2,3,3,4,4,7,7],"right_children":[2,4,6,8,10,-1,-1,12,-1,-1,-1,-1,-1],"split_conditions":[1.424E-1,9.67E2,1.485E1,4.314E1,1.935E-1,3.549795E-2,-7.520508E-1,2.247E1,-6.1041277E-2,-1.7834349E-2,-6.240666E-1,4.660264E-1,2.3273145E-1],"split_indices":[27,23,20,13,26,0,0,1,0,0,0,0,0],"split_type":[0,0,0,0,0,0,0,0,0,0,0,0,0],"sum_hessian":[1.0654813E2,7.1188194E1,3.535993E1,6.650476E1,4.683434E0,2.1075454E0,3.325238E1,6.439722E1,2.1075454E0,1.1708585E0,3.5125756E0,5.7372066E1,7.0251513E0],"tree_param":{"num_deleted":"0","num_feature":"30","num_nodes":"13","size_leaf_vector":"1"}},{"base_weights":[3.4720607E-2,1.1308663E0,-1.4496496E0,1.2837791E0,-6.147493E-1,-1.2671445E-1,-1.6761717E0,1.3162371E0,-4.1037817E-2,1.8236074E-1,-4.0599504E-1,3.375547E-1,-3.6278233E-1,-3.2591194E-1,-5.3227025E-1,1.1426146E-1,4.002312E-1,2.522398E-1,-3.3621714E-1],"categories":[],"categories_nodes":[],"categories_segments":[],"categories_sizes":[],"default_left":[0,0,0,0,0,0,0,0,0,0,0,0,0,0,0,0,0,0,0],"id":1,"left_children":[1,3,5,7,9,11,13,15,-1,-1,-1,-1,-1,17,-1,-1,-1,-1,-1],"loss_changes":[1.6482715E2,1.6338615E1,1.2685898E1,2.6646423E0,5.6699514E0,1.1354497E1,4.276825E0,3.7386322E-1,0E0,0E0,0E0,0E0,0E0,4.3804746E0,0E0,0E0,0E0,0E0,0E0],"parents":[2147483647,0,0,1,1,2,2,3,3,4,4,5,5,6,6,7,7,13,13],"right_children":[2,4,6,8,10,12,14,16,-1,-1,-1,-1,-1,18,-1,-1,-1,-1,-1],"split_conditions":[5.074E-2,1.684E1,2.288E1,4.106E0,1.83E1,1.466E-1,7.259E2,3.338E-3,-4.1037817E-2,1.8236074E-1,-4.0599504E-1,3.375547E-1,-3.6278233E-1,2.668E-1,-5.3227025E-1,1.1426146E-1,4.002312E-1,2.522398E-1,-3.3621714E-1],"split_indices":[7,20,21,12,1,27,23,14,0,0,0,0,0,28,0,0,0,0,0],"split_type":[0,0,0,0,0,0,0,0,0,0,0,0,0,0,0,0,0,0,0],"sum_hessian":[9.92945E1,5.72534E1,4.2041103E1,5.2885307E1,4.3680906E0,6.3741517E0,3.5666954E1,5.1775757E1,1.1095507E0,1.7116318E0,2.6564589E0,2.9376338E0,3.4365177E0,2.7076585E0,3.2959293E1,1.3887563E0,5.0387E1,1.0737021E0,1.6339563E0],"tree_param":{"num_deleted":"0","num_feature":"30","num_nodes":"19","size_leaf_vector":"1"}},{"base_weights":[3.5883106E-2,9.88035E-1,-1.1680876E0,1.138677E0,-4.8099706E-1,2.8398505E-1,-1.3105056E0,1.173714E0,-3.4301482E-2,2.1507809E-1,-9.848547E-1,2.8422645E-1,-2.3474279E-1,-1.8560857E-2,-1.422633E0,3.5746744E-1,7.294281E-2,-3.7098557E-1,-5.8691572E-2,2.5014457E-1,-2.687447E-1,-4.3445984E-1,-1.12640955E-1],"categories":[],"categories_nodes":[],"categories_segments":[],"categories_sizes":[],"default_left":[0,0,0,0,0,0,0,0,0,0,0,0,0,0,0,0,0,0,0,0,0,0,0],"id":2,"left_children":[1,3,5,7,9,11,13,15,-1,-1,17,-1,-1,19,21,-1,-1,-1,-1,-1,-1,-1,-1],"loss_changes":[1.0021419E2,1.1345745E1,8.358486E0,2.0901604E0,3.8696032E0,3.763361E0,5.094063E0,4.3144608E-1,0E0,0E0,5.7485485E-1,0E0,0E0,3.6153133E0,3.2662964E-1,0E0,0E0,0E0,0E0,0E0,0E0,0E0,0E0],"parents":[2147483647,0,0,1,1,2,2,3,3,4,4,5,5,6,6,7,7,10,10,13,13,14,14],"right_children":[2,4,6,8,10,12,14,16,-1,-1,18,-1,-1,20,22,-1,-1,-1,-1,-1,-1,-1,-1],"split_conditions":[5.074E-2,1.684E1,1.022E2,4.106E0,1.573E1,2.548E1,1.929E1,1.648E-1,-3.4301482E-2,2.1507809E-1,1.807E1,2.8422645E-1,-2.3474279E-1,8.591E-2,9.96E-2,3.5746744E-1,7.294281E-2,-3.7098557E-1,-5.8691572E-2,2.5014457E-1,-2.687447E-1,-4.3445984E-1,-1.12640955E-1],"split_indices":[7,20,22,12,1,21,21,24,0,0,20,0,0,7,16,0,0,0,0,0,0,0,0],"split_type":[0,0,0,0,0,0,0,0,0,0,0,0,0,0,0,0,0,0,0,0,0,0,0],"sum_hessian":[8.541249E1,4.7794163E1,3.7618332E1,4.3552906E1,4.2412567E0,3.2712402E0,3.434709E1,4.2429764E1,1.1231413E0,1.1305331E0,3.1107237E0,2.0854936E0,1.1857468E0,2.8359952E0,3.1511095E1,4.135628E1,1.0734813E0,1.9285973E0,1.1821265E0,1.4635088E0,1.3724865E0,3.0386248E1,1.1248463E0],"tree_param":{"num_deleted":"0","num_feature":"30","num_nodes":"23","size_leaf_vector":"1"}},{"base_weights":[3.1911135E-2,1.0051831E0,-8.8369954E-1,1.0794039E0,-9.2644766E-2,5.7234716E-1,-1.0610535E0,3.376988E-1,-5.9323143E-2,2.9700866E-1,-1.4670007E-1,1.764086E-1,-1.1948909E0,2.5703517E-1,-2.3644349E-1,3.1195117E-2,-3.771004E-1],"categories":[],"categories_nodes":[],"categories_segments":[],"categories_sizes":[],"default_left":[0,0,0,0,0,0,0,0,0,0,0,0,0,0,0,0,0],"id":3,"left_children":[1,3,5,7,-1,9,11,-1,-1,-1,-1,13,15,-1,-1,-1,-1],"loss_changes":[6.501365E1,3.7807808E0,1.03195305E1,2.2124748E0,0E0,2.5824099E0,5.8213997E0,0E0,0E0,0E0,0E0,3.4169097E0,2.6073074E0,0E0,0E0,0E0,0E0],"parents":[2147483647,0,0,1,1,2,2,3,3,5,5,6,6,11,11,12,12],"right_children":[2,4,6,8,-1,10,12,-1,-1,-1,-1,14,16,-1,-1,-1,-1],"split_conditions":[1.017E2,5.669E-2,2.085E-1,4.009E1,-9.2644766E-2,1.954E1,1.962E1,3.376988E-1,-5.9323143E-2,2.9700866E-1,-1.4670007E-1,7.34E-2,1.028E-1,2.5703517E-1,-2.3644349E-1,3.1195117E-2,-3.771004E-1],"split_indices":[22,7,26,13,0,1,21,0,0,0,0,7,24,0,0,0,0],"split_type":[0,0,0,0,0,0,0,0,0,0,0,0,0,0,0,0,0],"sum_hessian":[7.0958954E1,3.4348988E1,3.660997E1,3.268152E1,1.6674684E0,3.733274E0,3.2876698E1,3.1653625E1,1.0278916E0,2.7272074E0,1.0060666E0,3.177684E0,2.9699013E1,1.9288473E0,1.2488369E0,1.3245888E0,2.8374424E1],"tree_param":{"num_deleted":"0","num_feature":"30","num_nodes":"17","size_leaf_vector":"1"}},{"base_weights":[3.2836083E-2,7.2011375E-1,-1.0453746E0,8.8746214E-1,-2.761056E-1,-1.4893247E-1,-3.5180524E-1,1.0564904E0,5.3984873E-2,1.922175E-1,-2.74485E-1,-1.3826934E-3,3.3491287E-1,2.5921872E-1,-2.2412725E-1],"categories":[],"categories_nodes":[],"categories_segments":[],"categories_sizes":[],"default_left":[0,0,0,0,0,0,0,0,0,0,0,0,0,0,0],"id":4,"left_children":[1,3,5,7,-1,9,-1,11,13,-1,-1,-1,-1,-1,-1],"loss_changes":[4.4771828E1,1.0938707E1,2.510992E0,4.728163E0,0E0,3.0492663E0,0E0,1.7961826E0,5.0457854E0,0E0,0E0,0E0,0E0,0E0,0E0],"parents":[2147483647,0,0,1,1,2,2,3,3,5,5,7,7,8,8],"right_children":[2,4,6,8,-1,10,-1,12,14,-1,-1,-1,-1,-1,-1],"split_conditions":[8.765E2,1.583E-1,7.16E-2,3.012E1,-2.761056E-1,1.954E1,-3.5180524E-1,1.987E-1,1.935E-1,1.922175E-1,-2.74485E-1,-1.3826934E-3,3.3491287E-1,2.5921872E-1,-2.2412725E-1],"split_indices":[23,27,6,21,0,1,0,28,26,0,0,0,0,0,0],"split_type":[0,0,0,0,0,0,0,0,0,0,0,0,0,0,0],"sum_hessian":[5.8402493E1,3.5870125E1,2.2532368E1,3.2966175E1,2.9039507E0,3.0718637E0,1.9460503E1,2.7185429E1,5.7807465E0,1.5931308E0,1.4787328E0,1.5016223E0,2.5683805E1,2.8351302E0,2.9456165E0],"tree_param":{"num_deleted":"0","num_feature":"30","num_nodes":"15","size_leaf_vector":"1"}},{"base_weights":[2.6371278E-2,7.370464E-1,-8.452939E-1,8.9342546E-1,-3.2350066E-1,-7.6003864E-2,-1.0425987E0,9.762199E-1,-3.3270887E-3,9.17731E-2,-2.590398E-1,2.1570697E-1,-2.500662E-1,-8.539422E-2,-3.2898265E-1,2.7102655E-2,3.043824E-1],"categories":[],"categories_nodes":[],"categories_segments":[],"categories_sizes":[],"default_left":[0,0,0,0,0,0,0,0,0,0,0,0,0,0,0,0,0],"id":5,"left_children":[1,3,5,7,9,11,13,15,-1,-1,-1,-1,-1,-1,-1,-1,-1],"loss_changes":[3.0707357E1,4.814502E0,3.3021507E0,1.8116341E0,1.7053664E0,3.9877355E0,4.104557E-1,6.5789604E-1,0E0,0E0,0E0,0E0,0E0,0E0,0E0,0E0,0E0],"parents":[2147483647,0,0,1,1,2,2,3,3,4,4,5,5,6,6,7,7],"right_children":[2,4,6,8,10,12,14,16,-1,-1,-1,-1,-1,-1,-1,-1,-1],"split_conditions":[5.074E-2,1.684E1,2.384E1,3.444E1,1.954E1,1.583E-1,9.943E1,1.345E-3,-3.3270887E-3,9.17731E-2,-2.590398E-1,2.1570697E-1,-2.500662E-1,-8.539422E-2,-3.2898265E-1,2.7102655E-2,3.043824E-1],"split_indices":[7,20,21,13,1,27,22,19,0,0,0,0,0,0,0,0,0],"split_type":[0,0,0,0,0,0,0,0,0,0,0,0,0,0,0,0,0],"sum_hessian":[4.756458E1,2.6287016E1,2.1277563E1,2.3046377E1,3.2406373E0,4.626006E0,1.6651556E1,2.1041115E1,2.0052624E0,1.696534E0,1.5441034E0,2.281985E0,2.344021E0,1.524715E0,1.5126842E1,1.0131936E0,2.0027922E1],"tree_param":{"num_deleted":"0","num_feature":"30","num_nodes":"17","size_leaf_vector":"1"}},{"base_weights":[1.7519882E-2,5.883513E-1,-8.930738E-1,8.522585E-1,-2.5986063E-1,3.348697E-2,-1.0030144E0,9.2345214E-1,-6.818947E-2,6.0343397E-1,-8.257343E-1,-6.770009E-2,-3.1444982E-1,3.1702533E-2,2.9004434E-1,2.1182805E-1,5.623621E-2,-5.655807E-2,-2.8836393E-1],"categories":[],"categories_nodes":[],"categories_segments":[],"categories_sizes":[],"default_left":[0,0,0,0,0,0,0,0,0,0,0,0,0,0,0,0,0,0,0],"id":6,"left_children":[1,3,5,7,9,-1,11,13,-1,15,17,-1,-1,-1,-1,-1,-1,-1,-1],"loss_changes":[2.132034E1,5.861004E0,1.8585596E0,1.7046776E0,3.7932038E0,0E0,2.67231E-1,5.5183315E-1,0E0,6.3580275E-3,2.0695448E-1,0E0,0E0,0E0,0E0,0E0,0E0,0E0,0E0],"parents":[2147483647,0,0,1,1,2,2,3,3,4,4,6,6,7,7,9,9,10,10],"right_children":[2,4,6,8,10,-1,12,14,-1,16,18,-1,-1,-1,-1,-1,-1,-1,-1],"split_conditions":[8.765E2,1.325E-1,2.177E-1,5.506E-1,2.62E1,3.348697E-2,1.56E1,1.36E-3,-6.818947E-2,1.547E1,1.807E-1,-6.770009E-2,-3.1444982E-1,3.1702533E-2,2.9004434E-1,2.1182805E-1,5.623621E-2,-5.655807E-2,-2.8836393E-1],"split_indices":[23,27,26,10,21,0,1,19,0,20,8,0,0,0,0,0,0,0,0],"split_type":[0,0,0,0,0,0,0,0,0,0,0,0,0,0,0,0,0,0,0],"sum_hessian":[3.9005924E1,2.4193453E1,1.48124695E1,1.8448679E1,5.744774E0,1.4594976E0,1.3352972E1,1.7442966E1,1.0057124E0,2.24834E0,3.4964342E0,1.0622826E0,1.2290689E1,1.0514028E0,1.6391563E1,1.2439291E0,1.0044107E0,1.0323706E0,2.4640636E0],"tree_param":{"num_deleted":"0","num_feature":"30","num_nodes":"19","size_leaf_vector":"1"}},{"base_weights":[1.1614103E-2,5.992488E-1,-7.180985E-1,8.427822E-1,-1.6850848E-1,-1.2118238E-1,-2.962389E-1,9.333234E-1,-1.7464504E-2,2.1067727E-1,-7.937766E-1,1.986524E-1,-2.308358E-1,2.969984E-1,4.2602364E-2,-4.0540138E-1,-1.3910715E-2],"categories":[],"categories_nodes":[],"categories_segments":[],"categories_sizes":[],"default_left":[0,0,0,0,0,0,0,0,0,0,0,0,0,0,0,0,0],"id":7,"left_children":[1,3,5,7,9,11,-1,13,-1,-1,15,-1,-1,-1,-1,-1,-1],"loss_changes":[1.4616874E1,3.6704445E0,2.3263717E0,1.2366629E0,3.4854574E0,3.4905636E0,0E0,4.5264816E-1,0E0,0E0,1.4373736E0,0E0,0E0,0E0,0E0,0E0,0E0],"parents":[2147483647,0,0,1,1,2,2,3,3,4,4,5,5,7,7,10,10],"right_children":[2,4,6,8,10,12,-1,14,-1,-1,16,-1,-1,-1,-1,-1,-1],"split_conditions":[5.074E-2,2.158E1,1.146E2,9.67E2,1.438E1,2.548E1,-2.962389E-1,1.978E0,-1.7464504E-2,2.1067727E-1,6.373E-2,1.986524E-1,-2.308358E-1,2.969984E-1,4.2602364E-2,-4.0540138E-1,-1.3910715E-2],"split_indices":[7,1,22,23,20,21,0,11,0,0,5,0,0,0,0,0,0],"split_type":[0,0,0,0,0,0,0,0,0,0,0,0,0,0,0,0,0],"sum_hessian":[3.208397E1,1.7871172E1,1.4212797E1,1.3493349E1,4.377824E0,4.8702106E0,9.3425865E0,1.2228618E1,1.2647315E0,1.7782508E0,2.599573E0,2.1956193E0,2.6745915E0,1.1177079E1,1.0515381E0,1.0260856E0,1.5734872E0],"tree_param":{"num_deleted":"0","num_feature":"30","num_nodes":"17","size_leaf_vector":"1"}},{"base_weights":[5.4513644E-3,6.414604E-1,-5.792223E-1,7.680728E-1,-5.5428226E-2,4.0197706E-1,-7.742489E-1,-6.403099E-2,8.811619E-1,1.7515296E-1,3.849841E-3,4.2141326E-2,-9.015884E-1,2.8725657E-1,3.130828E-2,-5.2411824E-2,-2.8765136E-1],"categories":[],"categories_nodes":[],"categories_segments":[],"categories_sizes":[],"default_left":[0,0,0,0,0,0,0,0,0,0,0,0,0,0,0,0,0],"id":8,"left_children":[1,3,5,7,-1,9,11,-1,13,-1,-1,-1,15,-1,-1,-1,-1],"loss_changes":[1.0623525E1,1.5729299E0,3.160584E0,1.526238E0,0E0,2.1382064E-1,1.6132698E0,0E0,5.528631E-1,0E0,0E0,0E0,3.0430317E-1,0E0,0E0,0E0,0E0],"parents":[2147483647,0,0,1,1,2,2,3,3,5,5,6,6,8,8,12,12],"right_children":[2,4,6,8,-1,10,12,-1,14,-1,-1,-1,16,-1,-1,-1,-1],"split_conditions":[7.393E2,5.669E-2,2.085E-1,1.987E-1,-5.5428226E-2,3.658E1,1.962E1,-6.403099E-2,3.321E1,1.7515296E-1,3.849841E-3,4.2141326E-2,1.094E-1,2.8725657E-1,3.130828E-2,-5.2411824E-2,-2.8765136E-1],"split_indices":[23,7,26,28,0,13,21,0,21,0,0,0,24,0,0,0,0],"split_type":[0,0,0,0,0,0,0,0,0,0,0,0,0,0,0,0,0],"sum_hessian":[2.6569618E1,1.2679601E1,1.3890018E1,1.1055764E1,1.6238362E0,2.127119E0,1.1762899E1,1.050558E0,1.0005206E1,1.1086617E0,1.0184574E0,1.4248229E0,1.0338077E1,8.897891E0,1.1073152E0,1.0505937E0,9.287482E0],"tree_param":{"num_deleted":"0","num_feature":"30","num_nodes":"17","size_leaf_vector":"1"}},{"base_weights":[9.872339E-3,3.9251485E-1,-8.3715266E-1,7.506978E-1,-1.6003911E-1,-2.7397966E-1,-7.177427E-2,8.5745084E-1,-3.7717007E-2,1.9012067E-1,-6.755025E-1,2.8225476E-1,2.4530374E-2,-2.7541667E-1,3.0862172E-3],"categories":[],"categories_nodes":[],"categories_segments":[],"categories_sizes":[],"default_left":[0,0,0,0,0,0,0,0,0,0,0,0,0,0,0],"id":9,"left_children":[1,3,5,7,9,-1,-1,11,-1,-1,13,-1,-1,-1,-1],"loss_changes":[7.9664884E0,3.4675956E0,1.2974834E-1,1.0843291E0,3.4870641E0,0E0,0E0,5.3322744E-1,0E0,0E0,8.439367E-1,0E0,0E0,0E0,0E0],"parents":[2147483647,0,0,1,1,2,2,3,3,4,4,7,7,10,10],"right_children":[2,4,6,8,10,-1,-1,12,-1,-1,14,-1,-1,-1,-1],"split_conditions":[1.515E-1,1.998E1,6.43E-2,4.953E-1,6.536E2,-2.7397966E-1,-7.177427E-2,9.67E2,-3.7717007E-2,1.9012067E-1,2.589E-2,2.8225476E-1,2.4530374E-2,-2.7541667E-1,3.0862172E-3],"split_indices":[27,1,16,10,23,0,0,23,0,0,15,0,0,0,0],"split_type":[0,0,0,0,0,0,0,0,0,0,0,0,0,0,0],"sum_hessian":[2.2565907E1,1.5913568E1,6.652339E0,9.43737E0,6.4761972E0,5.433249E0,1.2190896E0,8.431955E0,1.0054147E0,2.4594233E0,4.016774E0,7.421135E0,1.0108203E0,2.7170966E0,1.2996775E0],"tree_param":{"num_deleted":"0","num_feature":"30","num_nodes":"15","size_leaf_vector":"1"}},{"base_weights":[4.374501E-3,6.554552E-1,-4.2184857E-1,2.6664707E-1,-5.5921048E-2,1.5132853E-3,-2.603316E-1,5.8856326E-1,-6.367276E-1,2.2900786E-1,6.7792353E-3,2.3921593E-3,-2.6089725E-1],"categories":[],"categories_nodes":[],"categories_segments":[],"categories_sizes":[],"default_left":[0,0,0,0,0,0,0,0,0,0,0,0,0],"id":10,"left_children":[1,3,5,-1,-1,7,-1,9,11,-1,-1,-1,-1],"loss_changes":[5.891327E0,1.8153048E0,2.424692E0,0E0,0E0,3.2159965E0,0E0,4.2492425E-1,6.246604E-1,0E0,0E0,0E0,0E0],"parents":[2147483647,0,0,1,1,2,2,5,5,7,7,8,8],"right_children":[2,4,6,-1,-1,8,-1,10,12,-1,-1,-1,-1],"split_conditions":[2.085E-1,4.276E1,1.159E2,2.6664707E-1,-5.5921048E-2,2.737E1,-2.603316E-1,1.466E-1,8.853E-2,2.2900786E-1,6.7792353E-3,2.3921593E-3,-2.6089725E-1],"split_indices":[26,13,22,0,0,21,0,27,4,0,0,0,0],"split_type":[0,0,0,0,0,0,0,0,0,0,0,0,0],"sum_hessian":[1.9233192E1,7.3966126E0,1.183658E1,5.7475653E0,1.6490473E0,6.5831304E0,5.25345E0,3.4696257E0,3.113505E0,2.3844306E0,1.0851948E0,1.082669E0,2.0308359E0],"tree_param":{"num_deleted":"0","num_feature":"30","num_nodes":"13","size_leaf_vector":"1"}},{"base_weights":[2.3906368E-3,2.9140717E-1,-2.4107416E-1,6.3945824E-1,-1.8894951E-1,7.692239E-1,-1.2678865E-2,1.6006795E-1,-5.912109E-1,2.5870636E-1,3.591243E-2,-2.853249E-1,-5.986535E-2],"categories":[],"categories_nodes":[],"categories_segments":[],"categories_sizes":[],"default_left":[0,0,0,0,0,0,0,0,0,0,0,0,0],"id":11,"left_children":[1,3,-1,5,7,9,-1,-1,11,-1,-1,-1,-1],"loss_changes":[4.255738E0,2.3680873E0,0E0,7.421851E-1,2.1811295E0,3.0758238E-1,0E0,0E0,4.582677E-1,0E0,0E0,0E0,0E0],"parents":[2147483647,0,0,1,1,3,3,4,4,5,5,8,8],"right_children":[2,4,-1,6,8,10,-1,-1,12,-1,-1,-1,-1],"split_conditions":[1.583E-1,2.02E1,-2.4107416E-1,9.67E2,6.536E2,1.781E0,-1.2678865E-2,1.6006795E-1,6.678E-2,2.5870636E-1,3.591243E-2,-2.853249E-1,-5.986535E-2],"split_indices":[27,1,0,23,23,11,0,0,5,0,0,0,0],"split_type":[0,0,0,0,0,0,0,0,0,0,0,0,0],"sum_hessian":[1.6264473E1,1.2441473E1,3.8229992E0,7.0221972E0,5.4192758E0,5.791441E0,1.2307566E0,1.8214086E0,3.597867E0,4.778578E0,1.0128629E0,1.1306462E0,2.4672208E0],"tree_param":{"num_deleted":"0","num_feature":"30","num_nodes":"13","size_leaf_vector":"1"}},{"base_weights":[-4.165307E-3,5.711119E-1,-3.7375596E-1,2.4585402E-1,-3.8213115E-2,1.2343193E-1,-5.4844457E-1,-1.1989452E-1,-2.505397E-1,9.126836E-2,-1.8708715E-1],"categories":[],"categories_nodes":[],"categories_segments":[],"categories_sizes":[],"default_left":[0,0,0,0,0,0,0,0,0,0,0],"id":12,"left_children":[1,3,5,-1,-1,-1,7,9,-1,-1,-1],"loss_changes":[3.4540565E0,1.2074258E0,1.5814055E0,0E0,0E0,0E0,9.458971E-1,1.1682646E0,0E0,0E0,0E0],"parents":[2147483647,0,0,1,1,2,2,6,6,7,7],"right_children":[2,4,6,-1,-1,-1,8,10,-1,-1,-1],"split_conditions":[2.085E-1,4.276E1,9.163E1,2.4585402E-1,-3.8213115E-2,1.2343193E-1,1.353E-1,9.67E2,-2.505397E-1,9.126836E-2,-1.8708715E-1],"split_indices":[26,13,22,0,0,0,24,23,0,0,0],"split_type":[0,0,0,0,0,0,0,0,0,0,0],"sum_hessian":[1.4241486E1,5.3573613E0,8.884124E0,3.8241313E0,1.5332302E0,1.3701694E0,7.5139546E0,3.5802648E0,3.9336898E0,2.1587346E0,1.4215301E0],"tree_param":{"num_deleted":"0","num_feature":"30","num_nodes":"11","size_leaf_vector":"1"}},{"base_weights":[-3.6160883E-3,5.328389E-1,-3.1508136E-1,2.288645E-1,-1.6699282E-2,2.7358797E-1,-5.513903E-1,1.6226022E-1,-3.8224876E-2,1.7537042E-2,-6.7805624E-1,-6.310876E-2,-2.4494295E-1],"categories":[],"categories_nodes":[],"categories_segments":[],"categories_sizes":[],"default_left":[0,0,0,0,0,0,0,0,0,0,0,0,0],"id":13,"left_children":[1,3,5,-1,-1,7,9,-1,-1,-1,11,-1,-1],"loss_changes":[2.4131634E0,7.6102173E-1,1.420921E0,0E0,0E0,4.2085397E-1,5.6850576E-1,0E0,0E0,0E0,2.0038414E-1,0E0,0E0],"parents":[2147483647,0,0,1,1,2,2,5,5,6,6,10,10],"right_children":[2,4,6,-1,-1,8,10,-1,-1,-1,12,-1,-1],"split_conditions":[1.927E-1,4.276E1,2.384E1,2.288645E-1,-1.6699282E-2,8.097E2,1.434E1,1.6226022E-1,-3.8224876E-2,1.7537042E-2,8.946E-2,-6.310876E-2,-2.4494295E-1],"split_indices":[26,13,21,0,0,23,20,0,0,0,4,0,0],"split_type":[0,0,0,0,0,0,0,0,0,0,0,0,0],"sum_hessian":[1.2437758E1,4.307665E0,8.130094E0,2.8840115E0,1.4236532E0,2.2836173E0,5.8464766E0,1.1609994E0,1.1226178E0,1.0980915E0,4.748385E0,1.659845E0,3.0885398E0],"tree_param":{"num_deleted":"0","num_feature":"30","num_nodes":"13","size_leaf_vector":"1"}},{"base_weights":[2.0383913E-3,2.2437301E-1,-1.8940146E-1,-4.1228467E-1,4.5039493E-1,6.101771E-3,-1.9477011E-1,6.653358E-1,-8.629957E-2,2.31704E-1,4.848849E-2],"categories":[],"categories_nodes":[],"categories_segments":[],"categories_sizes":[],"default_left":[0,0,0,0,0,0,0,0,0,0,0],"id":14,"left_children":[1,3,-1,5,7,-1,-1,9,-1,-1,-1],"loss_changes":[1.8607203E0,1.5920712E0,0E0,3.292141E-1,1.4114405E0,0E0,0E0,2.1248507E-1,0E0,0E0,0E0],"parents":[2147483647,0,0,1,1,3,3,4,4,7,7],"right_children":[2,4,-1,6,8,-1,-1,10,-1,-1,-1],"split_conditions":[1.204E2,1.203E-2,-1.8940146E-1,1.376E-2,1.491E-1,6.101771E-3,-1.9477011E-1,2.233E1,-8.629957E-2,2.31704E-1,4.848849E-2],"split_indices":[22,15,0,16,24,0,0,1,0,0,0],"split_type":[0,0,0,0,0,0,0,0,0,0,0],"sum_hessian":[1.1207401E1,8.773414E0,2.433987E0,2.0827212E0,6.690693E0,1.0605396E0,1.0221817E0,5.2579775E0,1.432715E0,3.896794E0,1.3611835E0],"tree_param":{"num_deleted":"0","num_feature":"30","num_nodes":"11","size_leaf_vector":"1"}},{"base_weights":[-1.1674893E-2,2.846352E-1,-4.5773304E-1,-2.9132155E-1,6.1642736E-1,1.993158E-2,-1.9255546E-1,5.5472586E-2,-1.8187182E-1,2.2063984E-1,2.5533585E-2],"categories":[],"categories_nodes":[],"categories_segments":[],"categories_sizes":[],"default_left":[0,0,0,0,0,0,0,0,0,0,0],"id":15,"left_children":[1,3,5,7,9,-1,-1,-1,-1,-1,-1],"loss_changes":[1.6126468E0,1.5851932E0,5.116769E-1,6.171458E-1,2.528727E-1,0E0,0E0,0E0,0E0,0E0,0E0],"parents":[2147483647,0,0,1,1,2,2,3,3,4,4],"right_children":[2,4,6,8,10,-1,-1,-1,-1,-1,-1],"split_conditions":[5.259E-2,1.203E-2,2.384E1,1.938E1,3.157E-1,1.993158E-2,-1.9255546E-1,5.5472586E-2,-1.8187182E-1,2.2063984E-1,2.5533585E-2],"split_indices":[7,15,21,1,28,0,0,0,0,0,0],"split_type":[0,0,0,0,0,0,0,0,0,0,0],"sum_hessian":[1.0215426E1,6.3554673E0,3.859959E0,2.3675764E0,3.9878907E0,1.1695343E0,2.6904247E0,1.1067479E0,1.2608286E0,2.944053E0,1.0438377E0],"tree_param":{"num_deleted":"0","num_feature":"30","num_nodes":"11","size_leaf_vector":"1"}},{"base_weights":[-1.2206425E-2,4.0743592E-1,-2.7527308E-1,2.052905E-1,-3.843162E-2,3.555204E-2,-1.9100873E-1,1.2690333E-1,-1.211259E-1],"categories":[],"categories_nodes":[],"categories_segments":[],"categories_sizes":[],"default_left":[0,0,0,0,0,0,0,0,0],"id":16,"left_children":[1,3,5,-1,-1,7,-1,-1,-1],"loss_changes":[1.2524397E0,7.375943E-1,8.0293095E-1,0E0,0E0,9.676343E-1,0E0,0E0,0E0],"parents":[2147483647,0,0,1,1,2,2,5,5],"right_children":[2,4,6,-1,-1,8,-1,-1,-1],"split_conditions":[2.085E-1,4.276E1,8.693E2,2.052905E-1,-3.843162E-2,2.987E1,-1.9100873E-1,1.2690333E-1,-1.211259E-1],"split_indices":[26,13,23,0,0,21,0,0,0],"split_type":[0,0,0,0,0,0,0,0,0],"sum_hessian":[9.3292265E0,3.3833437E0,5.9458823E0,2.0472004E0,1.3361431E0,3.681451E0,2.2644315E0,1.9758646E0,1.7055863E0],"tree_param":{"num_deleted":"0","num_feature":"30","num_nodes":"9","size_leaf_vector":"1"}},{"base_weights":[-9.784942E-3,1.7000203E-1,-1.7412579E-1,-1.8156128E-1,5.1367927E-1,1.5566924E-1,-5.2701235E-1,2.0593579E-1,4.9988154E-2,-3.457651E-2,-2.1201049E-1],"categories":[],"categories_nodes":[],"categories_segments":[],"categories_sizes":[],"default_left":[0,0,0,0,0,0,0,0,0,0,0],"id":17,"left_children":[1,3,-1,5,7,-1,9,-1,-1,-1,-1],"loss_changes":[1.0732973E0,1.0595441E0,0E0,1.4088551E0,1.4376426E-1,0E0,1.8775868E-1,0E0,0E0,0E0,0E0],"parents":[2147483647,0,0,1,1,3,3,4,4,6,6],"right_children":[2,4,-1,6,8,-1,10,-1,-1,-1,-1],"split_conditions":[1.583E-1,1.77E-2,-1.7412579E-1,1.814E1,4.079E-2,1.5566924E-1,1.882E-1,2.0593579E-1,4.9988154E-2,-3.457651E-2,-2.1201049E-1],"split_indices":[27,15,0,1,7,0,26,0,0,0,0],"split_type":[0,0,0,0,0,0,0,0,0,0,0],"sum_hessian":[8.499949E0,6.9973965E0,1.502553E0,3.6921923E0,3.3052042E0,1.0536524E0,2.63854E0,1.5537475E0,1.7514567E0,1.300306E0,1.338234E0],"tree_param":{"num_deleted":"0","num_feature":"30","num_nodes":"11","size_leaf_vector":"1"}},{"base_weights":[-8.106001E-3,4.3948457E-1,-2.0656341E-1,1.5906665E-1,3.849437E-2,2.216149E-1,-5.145595E-1,-9.878207E-2,1.8440321E-1,-5.938968E-2,-2.0884366E-1],"categories":[],"categories_nodes":[],"categories_segments":[],"categories_sizes":[],"default_left":[0,0,0,0,0,0,0,0,0,0,0],"id":18,"left_children":[1,3,5,-1,-1,7,9,-1,-1,-1,-1],"loss_changes":[8.712915E-1,1.7203331E-2,1.0065624E0,0E0,0E0,9.6686107E-1,1.0579145E-1,0E0,0E0,0E0,0E0],"parents":[2147483647,0,0,1,1,2,2,5,5,6,6],"right_children":[2,4,6,-1,-1,8,10,-1,-1,-1,-1],"split_conditions":[2.303E1,1.096E-1,9.029E-2,1.5906665E-1,3.849437E-2,5.592E-2,3.444E1,-9.878207E-2,1.8440321E-1,-5.938968E-2,-2.0884366E-1],"split_indices":[21,27,4,0,0,9,13,0,0,0,0],"split_type":[0,0,0,0,0,0,0,0,0,0,0],"sum_hessian":[7.7867904E0,2.0189197E0,5.7678704E0,1.0180827E0,1.000837E0,2.5304642E0,3.2374063E0,1.1212653E0,1.4091988E0,1.9419073E0,1.2954991E0],"tree_param":{"num_deleted":"0","num_feature":"30","num_nodes":"11","size_leaf_vector":"1"}},{"base_weights":[-3.1001E-3,1.5420091E-1,-1.5179665E-1,-1.6153729E-1,4.5533213E-1,8.780967E-2,-4.2686546E-1,1.6884896E-1,2.5461009E-2,-3.1541187E-2,-1.624004E-1],"categories":[],"categories_nodes":[],"categories_segments":[],"categories_sizes":[],"default_left":[0,0,0,0,0,0,0,0,0,0,0],"id":19,"left_children":[1,3,-1,5,7,-1,9,-1,-1,-1,-1],"loss_changes":[7.286382E-1,7.420949E-1,0E0,6.275924E-1,1.0598636E-1,0E0,5.5025518E-2,0E0,0E0,0E0,0E0],"parents":[2147483647,0,0,1,1,3,3,4,4,6,6],"right_children":[2,4,-1,6,8,-1,10,-1,-1,-1,-1],"split_conditions":[1.583E-1,1.77E-2,-1.5179665E-1,2.704E-2,8.113E2,8.780967E-2,2.365E-3,1.6884896E-1,2.5461009E-2,-3.1541187E-2,-1.624004E-1],"split_indices":[27,15,0,7,23,0,19,0,0,0,0],"split_type":[0,0,0,0,0,0,0,0,0,0,0],"sum_hessian":[7.224701E0,6.031461E0,1.1932402E0,3.1706145E0,2.8608465E0,1.1310769E0,2.0395377E0,1.8149378E0,1.0459086E0,1.0386826E0,1.000855E0],"tree_param":{"num_deleted":"0","num_feature":"30","num_nodes":"11","size_leaf_vector":"1"}},{"base_weights":[-9.45925E-3,1.2013039E-1,-1.9555883E-1,1.6901779E-1,-4.4384864E-1,-8.335436E-2,1.6446707E-1,-4.7880076E-2,-1.832512E-1],"categories":[],"categories_nodes":[],"categories_segments":[],"categories_sizes":[],"default_left":[0,0,0,0,0,0,0,0,0],"id":20,"left_children":[1,-1,3,5,7,-1,-1,-1,-1],"loss_changes":[6.730511E-1,0E0,6.212261E-1,6.892873E-1,8.5980415E-2,0E0,0E0,0E0,0E0],"parents":[2147483647,0,0,2,2,3,3,4,4],"right_children":[2,-1,4,6,8,-1,-1,-1,-1],"split_conditions":[2.303E1,1.2013039E-1,9.029E-2,5.669E-2,3.444E1,-8.335436E-2,1.6446707E-1,-4.7880076E-2,-1.832512E-1],"split_indices":[21,0,4,9,13,0,0,0,0],"split_type":[0,0,0,0,0,0,0,0,0],"sum_hessian":[6.7967253E0,1.7626582E0,5.034067E0,2.1687918E0,2.8652756E0,1.1182765E0,1.0505152E0,1.7841121E0,1.0811634E0],"tree_param":{"num_deleted":"0","num_feature":"30","num_nodes":"9","size_leaf_vector":"1"}},{"base_weights":[-1.036088E-2,3.3682153E-1,-2.3727152E-1,1.6913989E-1,-2.110548E-2,-3.8637197E-1,5.3677406E-2,8.2368305E-4,-1.5620506E-1],"categories":[],"categories_nodes":[],"categories_segments":[],"categories_sizes":[],"default_left":[0,0,0,0,0,0,0,0,0],"id":21,"left_children":[1,3,5,-1,-1,7,-1,-1,-1],"loss_changes":[6.618909E-1,3.4771293E-1,3.827708E-1,0E0,0E0,2.1244913E-1,0E0,0E0,0E0],"parents":[2147483647,0,0,1,1,2,2,5,5],"right_children":[2,4,6,-1,-1,8,-1,-1,-1],"split_conditions":[2.085E-1,4.276E1,3.916E-2,1.6913989E-1,-2.110548E-2,2.78E-1,5.3677406E-2,8.2368305E-4,-1.5620506E-1],"split_indices":[26,13,15,0,0,28,0,0,0],"split_type":[0,0,0,0,0,0,0,0,0],"sum_hessian":[6.3873734E0,2.333162E0,4.0542116E0,1.2510808E0,1.0820812E0,3.0376468E0,1.0165646E0,1.0308118E0,2.006835E0],"tree_param":{"num_deleted":"0","num_feature":"30","num_nodes":"9","size_leaf_vector":"1"}},{"base_weights":[-9.418866E-5,1.8988183E-1,-1.0499068E-1,-8.665091E-2,4.4898012E-1,1.6844915E-1,2.110149E-2],"categories":[],"categories_nodes":[],"categories_segments":[],"categories_sizes":[],"default_left":[0,0,0,0,0,0,0],"id":22,"left_children":[1,3,-1,-1,5,-1,-1],"loss_changes":[5.355304E-1,7.773951E-1,0E0,0E0,1.2153345E-1,0E0,0E0],"parents":[2147483647,0,0,1,1,4,4],"right_children":[2,4,-1,-1,6,-1,-1],"split_conditions":[5.596E-2,6.053E-2,-1.0499068E-1,-8.665091E-2,1.684E1,1.6844915E-1,2.110149E-2],"split_indices":[7,5,0,0,20,0,0],"split_type":[0,0,0,0,0,0,0],"sum_hessian":[6.0572147E0,4.2220173E0,1.8351972E0,1.4423362E0,2.7796812E0,1.770605E0,1.0090762E0],"tree_param":{"num_deleted":"0","num_feature":"30","num_nodes":"7","size_leaf_vector":"1"}},{"base_weights":[1.6637545E-3,1.19434446E-1,-1.5988687E-1,1.7688814E-1,-1.307724E-1,1.5043E-1,-6.738686E-2],"categories":[],"categories_nodes":[],"categories_segments":[],"categories_sizes":[],"default_left":[0,0,0,0,0,0,0],"id":23,"left_children":[1,-1,3,5,-1,-1,-1],"loss_changes":[4.9724385E-1,0E0,5.905421E-1,5.295194E-1,0E0,0E0,0E0],"parents":[2147483647,0,0,2,2,3,3],"right_children":[2,-1,4,6,-1,-1,-1],"split_conditions":[1.084E-1,1.19434446E-1,2.472E1,2.987E1,-1.307724E-1,1.5043E-1,-6.738686E-2],"split_indices":[24,0,13,21,0,0,0],"split_type":[0,0,0,0,0,0,0],"sum_hessian":[5.76989E0,1.2465289E0,4.523361E0,2.1992242E0,2.3241367E0,1.0785536E0,1.1206707E0],"tree_param":{"num_deleted":"0","num_feature":"30","num_nodes":"7","size_leaf_vector":"1"}},{"base_weights":[1.3276664E-2,1.0577028E-1,-1.5095091E-1,4.691583E-2,-3.6007687E-1,-1.3307282E-1,-2.757872E-2],"categories":[],"categories_nodes":[],"categories_segments":[],"categories_sizes":[],"default_left":[0,0,0,0,0,0,0],"id":24,"left_children":[1,-1,3,-1,5,-1,-1],"loss_changes":[4.1253787E-1,0E0,3.8059476E-1,0E0,3.32278E-2,0E0,0E0],"parents":[2147483647,0,0,2,2,4,4],"right_children":[2,-1,4,-1,6,-1,-1],"split_conditions":[2.288E1,1.0577028E-1,9.029E-2,4.691583E-2,1.689E-2,-1.3307282E-1,-2.757872E-2],"split_indices":[21,0,4,0,18,0,0],"split_type":[0,0,0,0,0,0,0],"sum_hessian":[5.44852E0,1.4030412E0,4.045479E0,1.740211E0,2.3052678E0,1.2590021E0,1.0462657E0],"tree_param":{"num_deleted":"0","num_feature":"30","num_nodes":"7","size_leaf_vector":"1"}},{"base_weights":[8.314628E-3,2.411812E-1,-2.3009284E-1,1.342512E-1,-3.346197E-2,1.7613616E-2,-1.2329102E-1],"categories":[],"categories_nodes":[],"categories_segments":[],"categories_sizes":[],"default_left":[0,0,0,0,0,0,0],"id":25,"left_children":[1,3,5,-1,-1,-1,-1],"loss_changes":[4.0555266E-1,3.1757963E-1,2.1361813E-1,0E0,0E0,0E0,0E0],"parents":[2147483647,0,0,1,1,2,2],"right_children":[2,4,6,-1,-1,-1,-1],"split_conditions":[2.806E-1,3.658E1,1.374E-1,1.342512E-1,-3.346197E-2,1.7613616E-2,-1.2329102E-1],"split_indices":[28,13,24,0,0,0,0],"split_type":[0,0,0,0,0,0,0],"sum_hessian":[5.3054166E0,2.6780114E0,2.6274052E0,1.5201098E0,1.1579015E0,1.2719303E0,1.3554748E0],"tree_param":{"num_deleted":"0","num_feature":"30","num_nodes":"7","size_leaf_vector":"1"}},{"base_weights":[5.867404E-3,8.696714E-2,-1.7515995E-1,4.6587322E-2,-3.5534814E-1,-2.5473852E-2,-1.3307501E-1],"categories":[],"categories_nodes":[],"categories_segments":[],"categories_sizes":[],"default_left":[0,0,0,0,0,0,0],"id":26,"left_children":[1,-1,3,-1,5,-1,-1],"loss_changes":[3.642399E-1,0E0,3.1400374E-1,0E0,3.6712766E-2,0E0,0E0],"parents":[2147483647,0,0,2,2,4,4],"right_children":[2,-1,4,-1,6,-1,-1],"split_conditions":[1.927E-1,8.696714E-2,7.259E2,4.6587322E-2,8.765E2,-2.5473852E-2,-1.3307501E-1],"split_indices":[26,0,23,0,23,0,0],"split_type":[0,0,0,0,0,0,0],"sum_hessian":[5.096606E0,1.7498358E0,3.34677E0,1.2297245E0,2.1170454E0,1.0035564E0,1.113489E0],"tree_param":{"num_deleted":"0","num_feature":"30","num_nodes":"7","size_leaf_vector":"1"}},{"base_weights":[-6.303446E-4,9.4843656E-2,-1.5128233E-1,-1.1326212E-1,3.681027E-2],"categories":[],"categories_nodes":[],"categories_segments":[],"categories_sizes":[],"default_left":[0,0,0,0,0],"id":27,"left_children":[1,-1,3,-1,-1],"loss_changes":[3.2935917E-1,0E0,3.360893E-1,0E0,0E0],"parents":[2147483647,0,0,2,2],"right_children":[2,-1,4,-1,-1],"split_conditions":[2.303E1,9.4843656E-2,1.77E-2,-1.1326212E-1,3.681027E-2],"split_indices":[21,0,15,0,0],"split_type":[0,0,0,0,0],"sum_hessian":[4.899304E0,1.224994E0,3.67431E0,1.8054131E0,1.8688968E0],"tree_param":{"num_deleted":"0","num_feature":"30","num_nodes":"5","size_leaf_vector":"1"}},{"base_weights":[2.7693145E-3,7.825115E-2,-1.716419E-1,3.6366817E-2,-9.83217E-2],"categories":[],"categories_nodes":[],"categories_segments":[],"categories_sizes":[],"default_left":[0,0,0,0,0],"id":28,"left_children":[1,-1,3,-1,-1],"loss_changes":[3.0578926E-1,0E0,2.2549662E-1,0E0,0E0],"parents":[2147483647,0,0,2,2],"right_children":[2,-1,4,-1,-1],"split_conditions":[2.085E-1,7.825115E-2,7.259E2,3.6366817E-2,-9.83217E-2],"split_indices":[26,0,23,0,0],"split_type":[0,0,0,0,0],"sum_hessian":[4.799136E0,1.7355689E0,3.0635672E0,1.1428329E0,1.9207343E0],"tree_param":{"num_deleted":"0","num_feature":"30","num_nodes":"5","size_leaf_vector":"1"}},{"base_weights":[4.6491916E-3,1.8600631E-1,-6.735965E-2,1.09623455E-1,-3.244706E-2],"categories":[],"categories_nodes":[],"categories_segments":[],"categories_sizes":[],"default_left":[0,0,0,0,0],"id":29,"left_children":[1,3,-1,-1,-1],"loss_changes":[2.7671665E-1,2.3492359E-1,0E0,0E0,0E0],"parents":[2147483647,0,0,1,1],"right_children":[2,4,-1,-1,-1],"split_conditions":[3.219E1,1.38E-1,-6.735965E-2,1.09623455E-1,-3.244706E-2],"split_indices":[13,24,0,0,0],"split_type":[0,0,0,0,0],"sum_hessian":[4.652827E0,2.7025876E0,1.9502392E0,1.5282977E0,1.17429E0],"tree_param":{"num_deleted":"0","num_feature":"30","num_nodes":"5","size_leaf_vector":"1"}},{"base_weights":[5.8436464E-3,-8.2182705E-2,1.5034498E-1,1.3111266E-1,-6.3771635E-2],"categories":[],"categories_nodes":[],"categories_segments":[],"categories_sizes":[],"default_left":[0,0,0,0,0],"id":30,"left_children":[1,-1,3,-1,-1],"loss_changes":[2.6468545E-1,0E0,5.393752E-1,0E0,0E0],"parents":[2147483647,0,0,2,2],"right_children":[2,-1,4,-1,-1],"split_conditions":[1.203E-2,-8.2182705E-2,5.252E-2,1.3111266E-1,-6.3771635E-2],"split_indices":[15,0,7,0,0],"split_type":[0,0,0,0,0],"sum_hessian":[4.5281386E0,1.2370887E0,3.2910497E0,1.7244898E0,1.56656E0],"tree_param":{"num_deleted":"0","num_feature":"30","num_nodes":"5","size_leaf_vector":"1"}},{"base_weights":[2.6878177E-3,2.0424634E-1,-2.095804E-1,1.03889264E-1,-1.4709761E-2,1.2011047E-2,-1.04452886E-1],"categories":[],"categories_nodes":[],"categories_segments":[],"categories_sizes":[],"default_left":[0,0,0,0,0,0,0],"id":31,"left_children":[1,3,5,-1,-1,-1,-1],"loss_changes":[2.724215E-1,1.3424435E-1,1.2144692E-1,0E0,0E0,0E0,0E0],"parents":[2147483647,0,0,1,1,2,2],"right_children":[2,4,6,-1,-1,-1,-1],"split_conditions":[2.02E1,1.315E-2,1.549E1,1.03889264E-1,-1.4709761E-2,1.2011047E-2,-1.04452886E-1],"split_indices":[1,17,20,0,0,0,0],"split_type":[0,0,0,0,0,0,0],"sum_hessian":[4.366795E0,2.2592878E0,2.1075072E0,1.2121801E0,1.0471078E0,1.0062792E0,1.101228E0],"tree_param":{"num_deleted":"0","num_feature":"30","num_nodes":"7","size_leaf_vector":"1"}},{"base_weights":[1.3056459E-3,8.1447534E-2,-1.3097134E-1,-9.82143E-2,3.4324933E-2],"categories":[],"categories_nodes":[],"categories_segments":[],"categories_sizes":[],"default_left":[0,0,0,0,0],"id":32,"left_children":[1,-1,3,-1,-1],"loss_changes":[2.230689E-1,0E0,2.3972893E-1,0E0,0E0],"parents":[2147483647,0,0,2,2],"right_children":[2,-1,4,-1,-1],"split_conditions":[2.288E1,8.1447534E-2,1.77E-2,-9.82143E-2,3.4324933E-2],"split_indices":[21,0,15,0,0],"split_type":[0,0,0,0,0],"sum_hessian":[4.246624E0,1.0498251E0,3.1967988E0,1.5900098E0,1.6067891E0],"tree_param":{"num_deleted":"0","num_feature":"30","num_nodes":"5","size_leaf_vector":"1"}},{"base_weights":[4.3179695E-3,1.5912768E-1,-7.343006E-2,-4.8659667E-2,1.1935912E-1],"categories":[],"categories_nodes":[],"categories_segments":[],"categories_sizes":[],"default_left":[0,0,0,0,0],"id":33,"left_children":[1,3,-1,-1,-1],"loss_changes":[2.384194E-1,3.5574585E-1,0E0,0E0,0E0],"parents":[2147483647,0,0,1,1],"right_children":[2,4,-1,-1,-1],"split_conditions":[6.988E2,1.75E-2,-7.343006E-2,-4.8659667E-2,1.1935912E-1],"split_indices":[3,18,0,0,0],"split_type":[0,0,0,0,0],"sum_hessian":[4.1728816E0,2.7961721E0,1.3767096E0,1.3285732E0,1.467599E0],"tree_param":{"num_deleted":"0","num_feature":"30","num_nodes":"5","size_leaf_vector":"1"}},{"base_weights":[3.4453897E-3,2.0305222E-1,-6.1912905E-2,1.16042145E-1,-2.5263665E-2],"categories":[],"categories_nodes":[],"categories_segments":[],"categories_sizes":[],"default_left":[0,0,0,0,0],"id":34,"left_children":[1,3,-1,-1,-1],"loss_changes":[2.5266388E-1,1.9531095E-1,0E0,0E0,0E0],"parents":[2147483647,0,0,1,1],"right_children":[2,4,-1,-1,-1],"split_conditions":[2.829E-1,1.269E-2,-6.1912905E-2,1.16042145E-1,-2.5263665E-2],"split_indices":[28,17,0,0,0],"split_type":[0,0,0,0,0],"sum_hessian":[4.03222E0,2.0829442E0,1.9492756E0,1.0590076E0,1.0239365E0],"tree_param":{"num_deleted":"0","num_feature":"30","num_nodes":"5","size_leaf_vector":"1"}},{"base_weights":[8.983495E-3,1.5111588E-1,-6.669472E-2,-3.9068956E-2,1.07505746E-1],"categories":[],"categories_nodes":[],"categories_segments":[],"categories_sizes":[],"default_left":[0,0,0,0,0],"id":35,"left_children":[1,3,-1,-1,-1],"loss_changes":[1.960242E-1,2.5980818E-1,0E0,0E0,0E0],"parents":[2147483647,0,0,1,1],"right_children":[2,4,-1,-1,-1],"split_conditions":[6.988E2,1.75E-2,-6.669472E-2,-3.9068956E-2,1.07505746E-1],"split_indices":[3,18,0,0,0],"split_type":[0,0,0,0,0],"sum_hessian":[3.9407818E0,2.655595E0,1.2851868E0,1.2840073E0,1.3715879E0],"tree_param":{"num_deleted":"0","num_feature":"30","num_nodes":"5","size_leaf_vector":"1"}},{"base_weights":[7.4458607E-3,5.7535492E-2,-5.6003667E-2],"categories":[],"categories_nodes":[],"categories_segments":[],"categories_sizes":[],"default_left":[0,0,0],"id":36,"left_children":[1,-1,-1],"loss_changes":[2.0861882E-1,0E0,0E0],"parents":[2147483647,0,0],"right_children":[2,-1,-1],"split_conditions":[2.829E-1,5.7535492E-2,-5.6003667E-2],"split_indices":[28,0,0],"split_type":[0,0,0],"sum_hessian":[3.829332E0,1.9703544E0,1.8589778E0],"tree_param":{"num_deleted":"0","num_feature":"30","num_nodes":"3","size_leaf_vector":"1"}},{"base_weights":[5.6575425E-3,6.384036E-2,-1.4512917E-1,2.5273748E-2,-8.646029E-2],"categories":[],"categories_nodes":[],"categories_segments":[],"categories_sizes":[],"default_left":[0,0,0,0,0],"id":37,"left_children":[1,-1,3,-1,-1],"loss_changes":[1.8025285E-1,0E0,1.3461432E-1,0E0,0E0],"parents":[2147483647,0,0,2,2],"right_children":[2,-1,4,-1,-1],"split_conditions":[8.875E-2,6.384036E-2,2.518E1,2.5273748E-2,-8.646029E-2],"split_indices":[4,0,13,0,0],"split_type":[0,0,0,0,0],"sum_hessian":[3.7821844E0,1.420077E0,2.3621075E0,1.0653251E0,1.2967824E0],"tree_param":{"num_deleted":"0","num_feature":"30","num_nodes":"5","size_leaf_vector":"1"}},{"base_weights":[4.4246553E-3,1.5608904E-1,-5.587156E-2,7.802357E-2,-8.721098E-3],"categories":[],"categories_nodes":[],"categories_segments":[],"categories_sizes":[],"default_left":[0,0,0,0,0],"id":38,"left_children":[1,3,-1,-1,-1],"loss_changes":[1.6543296E-1,6.8607405E-2,0E0,0E0,0E0],"parents":[2147483647,0,0,1,1],"right_children":[2,4,-1,-1,-1],"split_conditions":[2.108E1,1.315E-2,-5.587156E-2,7.802357E-2,-8.721098E-3],"split_indices":[1,17,0,0,0],"split_type":[0,0,0,0,0],"sum_hessian":[3.7157059E0,2.1705015E0,1.5452045E0,1.1307998E0,1.0397016E0],"tree_param":{"num_deleted":"0","num_feature":"30","num_nodes":"5","size_leaf_vector":"1"}},{"base_weights":[6.198889E-3,1.428212E-1,-6.437829E-2,9.296775E-2,-4.0791515E-2],"categories":[],"categories_nodes":[],"categories_segments":[],"categories_sizes":[],"default_left":[0,0,0,0,0],"id":39,"left_children":[1,3,-1,-1,-1],"loss_changes":[1.7144941E-1,2.0440793E-1,0E0,0E0,0E0],"parents":[2147483647,0,0,1,1],"right_children":[2,4,-1,-1,-1],"split_conditions":[6.988E2,1.376E-1,-6.437829E-2,9.296775E-2,-4.0791515E-2],"split_indices":[3,24,0,0,0],"split_type":[0,0,0,0,0],"sum_hessian":[3.6676452E0,2.4838407E0,1.1838048E0,1.483361E0,1.0004796E0],"tree_param":{"num_deleted":"0","num_feature":"30","num_nodes":"5","size_leaf_vector":"1"}},{"base_weights":[2.2933031E-3,-6.275424E-2,1.2155637E-1,9.900086E-2,-6.048512E-2],"categories":[],"categories_nodes":[],"categories_segments":[],"categories_sizes":[],"default_left":[0,0,0,0,0],"id":40,"left_children":[1,-1,3,-1,-1],"loss_changes":[1.40397E-1,0E0,3.0548728E-1,0E0,0E0],"parents":[2147483647,0,0,2,2],"right_children":[2,-1,4,-1,-1],"split_conditions":[1.205E-2,-6.275424E-2,5.596E-2,9.900086E-2,-6.048512E-2],"split_indices":[15,0,7,0,0],"split_type":[0,0,0,0,0],"sum_hessian":[3.5584834E0,1.0113103E0,2.547173E0,1.5355881E0,1.0115849E0],"tree_param":{"num_deleted":"0","num_feature":"30","num_nodes":"5","size_leaf_vector":"1"}},{"base_weights":[-3.26578E-3,5.62787E-2,-1.3206515E-1,2.224994E-2,-8.456539E-2],"categories":[],"categories_nodes":[],"categories_segments":[],"categories_sizes":[],"default_left":[0,0,0,0,0],"id":41,"left_children":[1,-1,3,-1,-1],"loss_changes":[1.3452423E-1,0E0,1.2140003E-1,0E0,0E0],"parents":[2147483647,0,0,2,2],"right_children":[2,-1,4,-1,-1],"split_conditions":[2.085E-1,5.62787E-2,2.737E1,2.224994E-2,-8.456539E-2],"split_indices":[26,0,21,0,0],"split_type":[0,0,0,0,0],"sum_hessian":[3.464472E0,1.2119896E0,2.2524824E0,1.1602795E0,1.092203E0],"tree_param":{"num_deleted":"0","num_feature":"30","num_nodes":"5","size_leaf_vector":"1"}},{"base_weights":[-3.8699275E-3,5.3772353E-2,-1.4901981E-1,-5.5177994E-2,-1.1889421E-2],"categories":[],"categories_nodes":[],"categories_segments":[],"categories_sizes":[],"default_left":[0,0,0,0,0],"id":42,"left_children":[1,-1,3,-1,-1],"loss_changes":[1.4366524E-1,0E0,4.168384E-3,0E0,0E0],"parents":[2147483647,0,0,2,2],"right_children":[2,-1,4,-1,-1],"split_conditions":[2.472E1,5.3772353E-2,1.812E-1,-5.5177994E-2,-1.1889421E-2],"split_indices":[13,0,8,0,0],"split_type":[0,0,0,0,0],"sum_hessian":[3.400344E0,1.399704E0,2.00064E0,1.0000921E0,1.0005476E0],"tree_param":{"num_deleted":"0","num_feature":"30","num_nodes":"5","size_leaf_vector":"1"}},{"base_weights":[-5.696037E-3,4.444529E-2,-4.5751702E-2],"categories":[],"categories_nodes":[],"categories_segments":[],"categories_sizes":[],"default_left":[0,0,0],"id":43,"left_children":[1,-1,-1],"loss_changes":[1.2119335E-1,0E0,0E0],"parents":[2147483647,0,0],"right_children":[2,-1,-1],"split_conditions":[2.806E-1,4.444529E-2,-4.5751702E-2],"split_indices":[28,0,0],"split_type":[0,0,0],"sum_hessian":[3.3654704E0,1.6388866E0,1.7265838E0],"tree_param":{"num_deleted":"0","num_feature":"30","num_nodes":"3","size_leaf_vector":"1"}},{"base_weights":[-4.2874557E-3,1.1975824E-1,-5.8132213E-2,-4.1449424E-2,9.5063426E-2],"categories":[],"categories_nodes":[],"categories_segments":[],"categories_sizes":[],"default_left":[0,0,0,0,0],"id":44,"left_children":[1,3,-1,-1,-1],"loss_changes":[1.2513055E-1,2.0844352E-1,0E0,0E0,0E0],"parents":[2147483647,0,0,1,1],"right_children":[2,4,-1,-1,-1],"split_conditions":[6.988E2,1.75E-2,-5.8132213E-2,-4.1449424E-2,9.5063426E-2],"split_indices":[3,18,0,0,0],"split_type":[0,0,0,0,0],"sum_hessian":[3.336292E0,2.2387197E0,1.0975723E0,1.0993497E0,1.13937E0],"tree_param":{"num_deleted":"0","num_feature":"30","num_nodes":"5","size_leaf_vector":"1"}},{"base_weights":[-3.6554025E-3,1.1818544E-1,-5.7710063E-2,9.908535E-2,-3.9712753E-2],"categories":[],"categories_nodes":[],"categories_segments":[],"categories_sizes":[],"default_left":[0,0,0,0,0],"id":45,"left_children":[1,3,-1,-1,-1],"loss_changes":[1.20586365E-1,2.1407416E-1,0E0,0E0,0E0],"parents":[2147483647,0,0,1,1],"right_children":[2,4,-1,-1,-1],"split_conditions":[1.384E-2,2.829E-1,-5.7710063E-2,9.908535E-2,-3.9712753E-2],"split_indices":[17,28,0,0,0],"split_type":[0,0,0,0,0],"sum_hessian":[3.2557478E0,2.2054996E0,1.0502481E0,1.0221095E0,1.18339E0],"tree_param":{"num_deleted":"0","num_feature":"30","num_nodes":"5","size_leaf_vector":"1"}},{"base_weights":[-1.7167304E-3,-5.465492E-2,1.2187606E-1,9.793008E-2,-4.373053E-2],"categories":[],"categories_nodes":[],"categories_segments":[],"categories_sizes":[],"default_left":[0,0,0,0,0],"id":46,"left_children":[1,-1,3,-1,-1],"loss_changes":[1.155909E-1,0E0,2.1644098E-1,0E0,0E0],"parents":[2147483647,0,0,2,2],"right_children":[2,-1,4,-1,-1],"split_conditions":[7.175E-2,-5.465492E-2,1.362E-1,9.793008E-2,-4.373053E-2],"split_indices":[5,0,27,0,0],"split_type":[0,0,0,0,0],"sum_hessian":[3.1869502E0,1.1027256E0,2.0842245E0,1.0568402E0,1.0273843E0],"tree_param":{"num_deleted":"0","num_feature":"30","num_nodes":"5","size_leaf_vector":"1"}},{"base_weights":[-8.016295E-4,1.1707664E-1,-5.404002E-2,-3.3269584E-2,8.576511E-2],"categories":[],"categories_nodes":[],"categories_segments":[],"categories_sizes":[],"default_left":[0,0,0,0,0],"id":47,"left_children":[1,3,-1,-1,-1],"loss_changes":[1.0805866E-1,1.5055999E-1,0E0,0E0,0E0],"parents":[2147483647,0,0,1,1],"right_children":[2,4,-1,-1,-1],"split_conditions":[6.988E2,1.75E-2,-5.404002E-2,-3.3269584E-2,8.576511E-2],"split_indices":[3,18,0,0,0],"split_type":[0,0,0,0,0],"sum_hessian":[3.114099E0,2.0884624E0,1.0256367E0,1.0344604E0,1.0540019E0],"tree_param":{"num_deleted":"0","num_feature":"30","num_nodes":"5","size_leaf_vector":"1"}},{"base_weights":[-6.1198196E-4,4.9086515E-2,-3.981258E-2],"categories":[],"categories_nodes":[],"categories_segments":[],"categories_sizes":[],"default_left":[0,0,0],"id":48,"left_children":[1,-1,-1],"loss_changes":[1.09568425E-1,0E0,0E0],"parents":[2147483647,0,0],"right_children":[2,-1,-1],"split_conditions":[2.472E1,4.9086515E-2,-3.981258E-2],"split_indices":[13,0,0],"split_type":[0,0,0],"sum_hessian":[3.0495775E0,1.2530401E0,1.7965373E0],"tree_param":{"num_deleted":"0","num_feature":"30","num_nodes":"3","size_leaf_vector":"1"}},{"base_weights":[1.9354974E-3,4.9368683E-2,-3.9837923E-2],"categories":[],"categories_nodes":[],"categories_segments":[],"categories_sizes":[],"default_left":[0,0,0],"id":49,"left_children":[1,-1,-1],"loss_changes":[1.099597E-1,0E0,0E0],"parents":[2147483647,0,0],"right_children":[2,-1,-1],"split_conditions":[2.675E-1,4.9368683E-2,-3.9837923E-2],"split_indices":[28,0,0],"split_type":[0,0,0],"sum_hessian":[3.021227E0,1.2685559E0,1.752671E0],"tree_param":{"num_deleted":"0","num_feature":"30","num_nodes":"3","size_leaf_vector":"1"}}]},"name":"gbtree"},"learner_model_param":{"base_score":"6.2581056E-1","boost_from_average":"1","num_class":"0","num_feature":"30","num_target":"1"},"objective":{"name":"binary:logistic","reg_loss_param":{"scale_pos_weight":"1"}}},"version":[2,0,0]}