{"learner":{"attributes":{"best_iteration":"49","best_ntree_limit":"50","scikit_learn":"{\"use_label_encoder\": null, \"n_estimators\": 50, \"objective\": \"binary:logistic\", \"max_depth\": 4, \"max_leaves\": null, \"max_bin\": null, \"grow_policy\": null, \"learning_rate\": null, \"verbosity\": null, \"booster\": null, \"tree_method\": null, \"gamma\": null, \"min_child_weight\": null, \"max_delta_step\": null, \"subsample\": null, \"sampling_method\": null, \"colsample_bytree\": null, \"colsample_bylevel\": null, \"colsample_bynode\": null, \"reg_alpha\": null, \"reg_lambda\": null, \"scale_pos_weight\": null, \"base_score\": null, \"missing\": NaN, \"num_parallel_tree\": null, \"random_state\": null, \"n_jobs\": null, \"monotone_constraints\": null, \"interaction_constraints\": null, \"importance_type\": null, \"gpu_id\": null, \"validate_parameters\": null, \"predictor\": null, \"enable_categorical\": false, \"feature_types\": null, \"max_cat_to_onehot\": null, \"max_cat_threshold\": null, \"eval_metric\": null, \"early_stopping_rounds\": null, \"callbacks\": null, \"classes_\": [0, 1], \"n_classes_\": 2, \"_estimator_type\": \"classifier\"}"},"feature_names":[],"feature_types":[],"gradient_booster":{"model":{"gbtree_model_param":{"num_parallel_tree":"1","num_trees":"50","size_leaf_vector":"0"},"tree_info":[0,0,0,0,0,0,0,0,0,0,0,0,0,0,0,0,0,0,0,0,0,0,0,0,0,0,0,0,0,0,0,0,0,0,0,0,0,0,0,0,0,0,0,0,0,0,0,0,0,0],"trees":[{"base_weights":[2.8057554E-1,8.5714287E-1,-1.3469387E0,1.2272727E0,1.9607843E-1,-1.7142858E-1,-1.6551725E0,1.3469387E0,-2.6086956E-1,5.762712E-1,-9.74359E-1,7.2727275E-1,-1.2941177E0,-1.8181819E-1,-1.7431192E0,1.575E0,8.764045E-1,-8.5714287E-1,4.6153846E-1,9.4736844E-1,-8.695652E-2,-2.6086956E-1,-1.6E0,1.5E0,-8E-1,-5E-1,-1.7714286E0],"categories":[],"categories_nodes":[],"categories_segments":[],"categories_sizes":[],"default_left":[1,1,1,1,1,0,1,0,0,1,1,1,0,0,0,0,0,0,0,0,0,0,0,0,0,0,0],"id":0,"left_children":[1,3,5,7,9,11,13,15,17,19,21,23,-1,-1,25,-1,-1,-1,-1,-1,-1,-1,-1,-1,-1,-1,-1],"loss_changes":[1.3158817E2,2.5022537E1,1.3031944E1,1.2104668E1,1.7582432E1,9.769595E0,3.4408035E0,5.192436E0,2.872432E0,7.3429775E0,3.9348936E0,7.6909094E0,0E0,0E0,7.3265076E-2,0E0,0E0,0E0,0E0,0E0,0E0,0E0,0E0,0E0,0E0,0E0,0E0],"parents":[2147483647,0,0,1,1,2,2,3,3,4,4,5,5,6,6,7,7,8,8,9,9,10,10,11,11,14,14],"right_children":[2,4,6,8,10,12,14,16,18,20,22,24,-1,-1,26,-1,-1,-1,-1,-1,-1,-1,-1,-1,-1,-1,-1],"split_conditions":[2.5E0,1.2075E0,1.4175E0,1.0615E3,1.865E2,2.57E2,6.25E-2,2.245E2,3E2,4.125E0,5E-1,3.61E2,-3.8823533E-1,-5.454546E-2,1.879E1,4.7250003E-1,2.6292136E-1,-2.5714287E-1,1.3846155E-1,2.8421053E-1,-2.6086958E-2,-7.826087E-2,-4.8000002E-1,4.5000002E-1,-2.4000001E-1,-1.5E-1,-5.314286E-1],"split_indices":[2,3,4,0,0,1,3,1,1,4,2,0,0,0,5,0,0,0,0,0,0,0,0,0,0,0,0],"split_type":[0,0,0,0,0,0,0,0,0,0,0,0,0,0,0,0,0,0,0,0,0,0,0,0,0,0,0],"sum_hessian":[1.38E2,1.0225E2,3.575E1,6.5E1,3.725E1,7.75E0,2.8E1,6.025E1,4.75E0,2.85E1,8.75E0,4.5E0,3.25E0,1.75E0,2.625E1,3.9E1,2.125E1,2.5E0,2.25E0,1.8E1,1.05E1,4.75E0,4E0,3E0,1.5E0,1E0,2.525E1],"tree_param":{"num_deleted":"0","num_feature":"6","num_nodes":"27","size_leaf_vector":"0"}},{"base_weights":[1.998656E-1,5.85332E-1,-1.1661286E0,1.0072467E0,1.4730395E-1,1.3961682E-1,-1.3270439E0,1.0779554E0,-1.0943731E0,4.9674723E-1,-5.3512675E-1,1.1202446E0,-7.9996675E-1,-1.8094674E-1,-1.3751576E0,-2.0695247E-1,1.1717048E0,-1.8470928E-1,7.155971E-1,-1.4235966E-1,-1.2016029E0],"categories":[],"categories_nodes":[],"categories_segments":[],"categories_sizes":[],"default_left":[1,1,1,1,1,0,0,1,0,0,1,0,0,0,0,0,0,0,0,0,0],"id":1,"left_children":[1,3,5,7,9,11,13,15,-1,17,19,-1,-1,-1,-1,-1,-1,-1,-1,-1,-1],"loss_changes":[7.1187355E1,1.9274723E1,6.4474144E0,9.109428E0,1.2841661E1,4.742656E0,1.2195549E0,6.5218925E0,0E0,5.4108915E0,4.629849E0,0E0,0E0,0E0,0E0,0E0,0E0,0E0,0E0,0E0,0E0],"parents":[2147483647,0,0,1,1,2,2,3,3,4,4,5,5,6,6,7,7,9,9,10,10],"right_children":[2,4,6,8,10,12,14,16,-1,18,20,-1,-1,-1,-1,-1,-1,-1,-1,-1,-1],"split_conditions":[3.5E0,6.25E-1,1.875E-1,5.5E3,5E-1,3.7875E1,1.8585E1,8.2499996E-2,-3.2831195E-1,7.15E1,2.22E2,3.360734E-1,-2.3999004E-1,-5.4284025E-2,-4.125473E-1,-6.2085744E-2,3.5151145E-1,-5.5412788E-2,2.1467914E-1,-4.2707898E-2,-3.604809E-1],"split_indices":[2,3,3,0,2,5,5,4,0,1,0,0,0,0,0,0,0,0,0,0,0],"split_type":[0,0,0,0,0,0,0,0,0,0,0,0,0,0,0,0,0,0,0,0,0],"sum_hessian":[1.3290082E2,1.0409736E2,2.8803465E1,5.236202E1,5.1735336E1,3.1747055E0,2.562876E1,5.112888E1,1.2331406E0,3.4395153E1,1.7340181E1,1.4593394E0,1.7153662E0,1.2243673E0,2.4404392E1,3.3946753E0,4.7734203E1,8.398824E0,2.599633E1,1.1674046E1,5.666136E0],"tree_param":{"num_deleted":"0","num_feature":"6","num_nodes":"21","size_leaf_vector":"0"}},{"base_weights":[1.4530665E-1,4.3670073E-1,-9.4953185E-1,5.8074266E-1,-3.743587E-1,2.4394791E-1,-1.0774763E0,9.059803E-1,2.5859615E-1,-1.0047342E0,7.4190825E-2,-5.7448274E-1,9.704731E-1,1.946576E-1,-1.1515441E0,9.787554E-1,-4.769422E-1,-3.153346E-2,6.7053103E-1,-1.1594898E0,-2.6679033E-1,9.3483377E-1,-4.7757205E-1,-3.4632328E-1,-1.2041582E0],"categories":[],"categories_nodes":[],"categories_segments":[],"categories_sizes":[],"default_left":[1,1,1,1,0,0,0,1,1,1,1,0,0,0,1,0,0,0,0,0,0,0,0,0,0],"id":2,"left_children":[1,3,5,7,9,11,13,15,17,19,21,-1,-1,-1,23,-1,-1,-1,-1,-1,-1,-1,-1,-1,-1],"loss_changes":[4.034046E1,1.1844677E1,4.3279724E0,8.661886E0,4.4905653E0,2.5750303E0,2.5070934E0,4.678875E0,5.286496E0,4.4001198E-1,5.221833E0,0E0,0E0,0E0,5.590992E-1,0E0,0E0,0E0,0E0,0E0,0E0,0E0,0E0,0E0,0E0],"parents":[2147483647,0,0,1,1,2,2,3,3,4,4,5,5,6,6,7,7,8,8,9,9,10,10,14,14],"right_children":[2,4,6,8,10,12,14,16,18,20,22,-1,-1,-1,24,-1,-1,-1,-1,-1,-1,-1,-1,-1,-1],"split_conditions":[3.5E0,4.92E2,1.05000004E-1,6.25E-1,1.3E2,2.25E1,1.8125E1,5.65E1,5E-1,1.048E1,2.325E2,-1.7234483E-1,2.9114196E-1,5.8397282E-2,4.8000002E-1,2.9362664E-1,-1.4308266E-1,-9.4600385E-3,2.0115931E-1,-3.4784693E-1,-8.00371E-2,2.8045014E-1,-1.4327163E-1,-1.0389699E-1,-3.6124748E-1],"split_indices":[2,0,3,3,1,1,5,5,0,4,1,0,0,0,4,0,0,0,0,0,0,0,0,0,0],"split_type":[0,0,0,0,0,0,0,0,0,0,0,0,0,0,0,0,0,0,0,0,0,0,0,0,0],"sum_hessian":[1.241477E2,9.85259E1,2.5621796E1,8.3908035E1,1.4617867E1,2.3929949E0,2.32288E1,4.085186E1,4.3056175E1,5.5616965E0,9.056171E0,1.2237331E0,1.1692618E0,1.1884679E0,2.2040333E1,3.908719E1,1.7646737E0,2.5804953E1,1.7251223E1,4.125323E0,1.4363737E0,3.2666163E0,5.7895546E0,1.8168645E0,2.0223469E1],"tree_param":{"num_deleted":"0","num_feature":"6","num_nodes":"25","size_leaf_vector":"0"}},{"base_weights":[1.0786181E-1,5.054999E-1,-4.6079516E-1,5.8696085E-1,-5.311815E-1,3.3301532E-1,-7.311914E-1,3.858934E-1,8.890497E-1,-1.0067033E0,2.448794E-1,6.940396E-1,-6.2194914E-1,-3.3654207E-1,-1.1104587E0,-3.5832986E-1,5.9732974E-1,1.0760422E0,3.7813395E-1,9.44641E-1,-4.2681992E-2,-1.1796088E0,4.69126E-1,-9.294929E-1,2.8264064E-1],"categories":[],"categories_nodes":[],"categories_segments":[],"categories_sizes":[],"default_left":[1,1,1,1,0,0,1,1,0,0,0,1,1,1,0,0,0,0,0,0,0,0,0,0,0],"id":3,"left_children":[1,3,5,7,9,11,13,15,17,-1,-1,19,21,23,-1,-1,-1,-1,-1,-1,-1,-1,-1,-1,-1],"loss_changes":[2.6582615E1,6.1433067E0,1.0648566E1,3.574545E0,2.2967906E0,4.914984E0,5.0853367E0,6.5854945E0,1.9822388E0,0E0,0E0,1.8697772E0,3.044901E0,7.3517094E0,0E0,0E0,0E0,0E0,0E0,0E0,0E0,0E0,0E0,0E0,0E0],"parents":[2147483647,0,0,1,1,2,2,3,3,4,4,5,5,6,6,7,7,8,8,11,11,12,12,13,13],"right_children":[2,4,6,8,10,12,14,16,18,-1,-1,20,22,24,-1,-1,-1,-1,-1,-1,-1,-1,-1,-1,-1],"split_conditions":[5E-1,1.2805E3,4.375E-1,5E-1,1.88E2,4.0665E1,2.155E2,5E1,2.26E2,-3.0201098E-1,7.346382E-2,4.72E2,1.525E1,5E-1,-3.3313763E-1,-1.07498966E-1,1.7919892E-1,3.2281268E-1,1.1344019E-1,2.833923E-1,-1.2804599E-2,-3.5388267E-1,1.407378E-1,-2.7884787E-1,8.47922E-2],"split_indices":[2,0,3,0,1,5,0,1,1,0,0,0,4,0,0,0,0,0,0,0,0,0,0,0,0],"split_type":[0,0,0,0,0,0,0,0,0,0,0,0,0,0,0,0,0,0,0,0,0,0,0,0,0],"sum_hessian":[1.1552982E2,6.805374E1,4.7476078E1,6.3497967E1,4.555776E0,1.2003997E1,3.547208E1,3.949073E1,2.400724E1,2.6405904E0,1.9151856E0,8.909131E0,3.0948663E0,1.8308445E1,1.7163637E1,8.583477E0,3.0907251E1,1.6765171E1,7.2420683E0,6.437234E0,2.471897E0,1.9943764E0,1.1004897E0,9.096326E0,9.212118E0],"tree_param":{"num_deleted":"0","num_feature":"6","num_nodes":"25","size_leaf_vector":"0"}},{"base_weights":[8.035193E-2,3.899986E-1,-3.7454423E-1,4.3624106E-1,-9.905297E-1,2.0936604E-1,-6.289293E-1,5.8501256E-1,-1.5591987E-2,5.580653E-1,-5.040658E-1,-2.6435235E-1,-9.058458E-1,8.351187E-1,2.680677E-1,-9.250738E-1,2.5548196E-1,-4.829316E-1,8.327826E-1,-8.5206044E-1,3.371415E-1,-7.201946E-1,3.371147E-1,-4.9505654E-1,-1.0614805E0],"categories":[],"categories_nodes":[],"categories_segments":[],"categories_sizes":[],"default_left":[1,1,1,1,0,1,1,1,1,1,0,1,0,0,0,0,0,0,0,0,0,0,0,0,0],"id":4,"left_children":[1,3,5,7,-1,9,11,13,15,17,19,21,23,-1,-1,-1,-1,-1,-1,-1,-1,-1,-1,-1,-1],"loss_changes":[1.5342011E1,4.5611353E0,6.697544E0,4.2625723E0,0E0,3.8049145E0,2.894184E0,3.5516624E0,4.3406487E0,3.2586846E0,1.8023093E0,4.3035727E0,5.7596684E-1,0E0,0E0,0E0,0E0,0E0,0E0,0E0,0E0,0E0,0E0,0E0,0E0],"parents":[2147483647,0,0,1,1,2,2,3,3,5,5,6,6,7,7,8,8,9,9,10,10,11,11,12,12],"right_children":[2,4,6,8,-1,10,12,14,16,18,20,22,24,-1,-1,-1,-1,-1,-1,-1,-1,-1,-1,-1,-1],"split_conditions":[5E-1,5.249E3,6.875E-1,3.6545E1,-2.9715893E-1,4.72E2,8.35E1,2.52E0,6.675E-1,5E-1,3.1E2,5E-1,2.375E1,2.5053564E-1,8.042031E-2,-2.7752215E-1,7.664459E-2,-1.4487949E-1,2.4983479E-1,-2.5561816E-1,1.0114246E-1,-2.1605839E-1,1.0113441E-1,-1.4851697E-1,-3.1844416E-1],"split_indices":[2,0,3,5,0,0,0,4,4,0,1,0,5,0,0,0,0,0,0,0,0,0,0,0,0],"split_type":[0,0,0,0,0,0,0,0,0,0,0,0,0,0,0,0,0,0,0,0,0,0,0,0,0],"sum_hessian":[1.06881966E2,6.36787E1,4.320327E1,6.2276672E1,1.4020281E0,1.31639595E1,3.0039309E1,4.662882E1,1.5647855E1,8.98849E0,4.17547E0,1.3810972E1,1.6228336E1,2.5148691E1,2.1480127E1,3.0390143E0,1.260884E1,1.7185189E0,7.2699714E0,2.9444811E0,1.2309885E0,7.744297E0,6.066675E0,5.6077843E0,1.0620552E1],"tree_param":{"num_deleted":"0","num_feature":"6","num_nodes":"25","size_leaf_vector":"0"}},{"base_weights":[5.3266056E-2,1.9941217E-1,-6.244797E-1,4.031829E-1,-1.1238512E-1,6.397315E-2,-8.102314E-1,4.6048018E-1,-8.9494216E-1,7.307175E-2,-6.029153E-1,8.008504E-1,-5.9642583E-1,-9.942497E-2,-8.840043E-1,-2.6563448E-1,5.7603717E-1,4.047951E-1,-4.502494E-1,7.773656E-2,-8.1607825E-1,-9.4107205E-1,-1.4657305E-1],"categories":[],"categories_nodes":[],"categories_segments":[],"categories_sizes":[],"default_left":[1,1,1,1,1,1,1,1,0,1,0,0,0,0,1,0,0,0,0,0,0,0,0],"id":5,"left_children":[1,3,5,7,9,11,13,15,-1,17,19,-1,-1,-1,21,-1,-1,-1,-1,-1,-1,-1,-1],"loss_changes":[1.0081381E1,5.347331E0,2.3630848E0,4.1820545E0,3.115684E0,2.7974637E0,6.623068E-1,4.2815495E0,0E0,4.590447E0,1.4231288E0,0E0,0E0,0E0,4.0218258E-1,0E0,0E0,0E0,0E0,0E0,0E0,0E0,0E0],"parents":[2147483647,0,0,1,1,2,2,3,3,4,4,5,5,6,6,7,7,9,9,10,10,14,14],"right_children":[2,4,6,8,10,12,14,16,-1,18,20,-1,-1,-1,22,-1,-1,-1,-1,-1,-1,-1,-1],"split_conditions":[3.5E0,1.3125E0,1.25E0,5.249E3,1.125E2,3.61E2,6.25E-2,2.6999998E-1,-2.6848266E-1,4.3325E0,2.2875E1,2.4025513E-1,-1.7892775E-1,-2.9827492E-2,8.5625E0,-7.9690345E-2,1.7281115E-1,1.2143854E-1,-1.3507482E-1,2.3320967E-2,-2.4482349E-1,-2.8232163E-1,-4.397192E-2],"split_indices":[2,3,4,0,0,0,3,4,0,4,5,0,0,0,3,0,0,0,0,0,0,0,0],"split_type":[0,0,0,0,0,0,0,0,0,0,0,0,0,0,0,0,0,0,0,0,0,0,0],"sum_hessian":[9.9523575E1,8.245016E1,1.7073416E1,4.9685684E1,3.2764473E1,3.7670746E0,1.3306341E1,4.8203335E1,1.4823496E0,2.43931E1,8.371371E0,1.6799262E0,2.0871484E0,1.4719298E0,1.1834412E1,6.4397483E0,4.1763588E1,1.5068166E1,9.324936E0,2.147976E0,6.2233953E0,1.0728049E1,1.1063622E0],"tree_param":{"num_deleted":"0","num_feature":"6","num_nodes":"23","size_leaf_vector":"0"}},{"base_weights":[3.2267235E-2,2.4238303E-1,-2.9402006E-1,3.14009E-1,-2.9061162E-1,-2.373995E-2,-6.558023E-1,3.5393077E-1,-7.5743747E-1,2.7025324E-1,-8.0267537E-1,-6.066605E-1,3.7438145E-1,-2.4347126E-1,-9.4340664E-1,3.9715618E-1,-6.5020907E-1,-5.343343E-1,7.287771E-1,-1.0562121E0,-1.0372577E-1,-2.2232054E-1,-9.6244407E-1,5.65544E-1,-4.6115425E-1,2.690307E-1,-5.8722115E-1],"categories":[],"categories_nodes":[],"categories_segments":[],"categories_sizes":[],"default_left":[1,1,1,1,1,1,1,1,0,1,0,1,0,0,0,0,0,0,0,0,0,0,0,0,0,0,0],"id":6,"left_children":[1,3,5,7,9,11,13,15,-1,17,19,21,23,25,-1,-1,-1,-1,-1,-1,-1,-1,-1,-1,-1,-1,-1],"loss_changes":[6.5447206E0,2.3048828E0,3.645262E0,2.475047E0,2.338872E0,5.44105E0,1.6643691E0,2.4468603E0,0E0,1.9662977E0,6.195061E-1,1.0849338E0,2.4917822E0,1.5516211E0,0E0,0E0,0E0,0E0,0E0,0E0,0E0,0E0,0E0,0E0,0E0,0E0,0E0],"parents":[2147483647,0,0,1,1,2,2,3,3,4,4,5,5,6,6,7,7,9,9,10,10,11,11,12,12,13,13],"right_children":[2,4,6,8,10,12,14,16,-1,18,20,22,24,26,-1,-1,-1,-1,-1,-1,-1,-1,-1,-1,-1,-1,-1],"split_conditions":[5E-1,4.54E0,2.155E2,5.249E3,4.375E0,5E-1,2.48E0,5.3875E1,-2.2723125E-1,1.855E0,4.5E1,4.02E0,4.3625E1,2.546E1,-2.8302202E-1,1.1914686E-1,-1.9506273E-1,-1.603003E-1,2.1863315E-1,-3.1686363E-1,-3.1117732E-2,-6.669617E-2,-2.8873324E-1,1.696632E-1,-1.3834628E-1,8.070921E-2,-1.7616636E-1],"split_indices":[2,3,0,0,4,0,4,5,0,4,5,4,5,5,0,0,0,0,0,0,0,0,0,0,0,0,0],"split_type":[0,0,0,0,0,0,0,0,0,0,0,0,0,0,0,0,0,0,0,0,0,0,0,0,0,0,0],"sum_hessian":[9.342288E1,5.6984394E1,3.643849E1,5.0595963E1,6.3884315E0,2.1466745E1,1.4971746E1,4.9424107E1,1.1718563E0,3.274304E0,3.1141274E0,8.498956E0,1.296779E1,6.91066E0,8.061087E0,4.796388E1,1.4602296E0,1.128591E0,2.145713E0,1.910112E0,1.2040154E0,4.8666105E0,3.6323447E0,1.0816267E1,2.1515224E0,2.8616085E0,4.0490513E0],"tree_param":{"num_deleted":"0","num_feature":"6","num_nodes":"27","size_leaf_vector":"0"}},{"base_weights":[8.598155E-3,2.7924135E-1,-1.8198214E-1,5.1998746E-1,-9.129311E-2,1.2147586E-2,-5.4138464E-1,6.731706E-1,-7.6051724E-1,7.258047E-1,-5.1392597E-1,-2.500108E-1,6.291822E-1,-3.5469645E-1,-8.6065704E-1,8.231949E-1,9.103374E-4,8.889822E-1,5.3488344E-2,-9.333404E-1,3.139167E-2,-6.949703E-1,8.867067E-2,1.0552639E0,2.2971624E-1,-6.278442E-1,5.6375736E-1,-1.1586286E0,2.920796E-1],"categories":[],"categories_nodes":[],"categories_segments":[],"categories_sizes":[],"default_left":[1,0,1,1,1,1,0,1,0,0,1,0,1,0,0,0,0,0,0,0,0,0,0,0,0,0,0,0,0],"id":7,"left_children":[1,3,5,7,9,11,13,15,-1,17,19,21,23,25,27,-1,-1,-1,-1,-1,-1,-1,-1,-1,-1,-1,-1,-1,-1],"loss_changes":[4.6394806E0,3.3618505E0,3.6910698E0,4.9589353E0,5.720012E0,5.8619757E0,7.99942E-1,2.0949516E0,0E0,5.7701397E-1,2.4972641E0,3.8993485E0,1.5958099E0,3.7161002E0,2.4476461E0,0E0,0E0,0E0,0E0,0E0,0E0,0E0,0E0,0E0,0E0,0E0,0E0,0E0,0E0],"parents":[2147483647,0,0,1,1,2,2,3,3,4,4,5,5,6,6,7,7,9,9,10,10,11,11,12,12,13,13,14,14],"right_children":[2,4,6,8,10,12,14,16,-1,18,20,22,24,26,28,-1,-1,-1,-1,-1,-1,-1,-1,-1,-1,-1,-1,-1,-1],"split_conditions":[6.05E-1,2.245E2,8.35E1,1.1485E3,2.483E1,5E-1,2.21E2,9.855E0,-2.2815518E-1,4.35E2,1.4500001E-1,2.896E1,5E-1,1.635E2,3.8915E1,2.4695848E-1,2.7310124E-4,2.6669466E-1,1.6046504E-2,-2.8000212E-1,9.417501E-3,-2.084911E-1,2.6601203E-2,3.1657916E-1,6.8914875E-2,-1.8835327E-1,1.6912721E-1,-3.475886E-1,8.762388E-2],"split_indices":[3,1,0,0,5,0,1,4,0,1,3,5,2,1,5,0,0,0,0,0,0,0,0,0,0,0,0,0,0],"split_type":[0,0,0,0,0,0,0,0,0,0,0,0,0,0,0,0,0,0,0,0,0,0,0,0,0,0,0,0,0],"sum_hessian":[8.796335E1,3.615475E1,5.1808598E1,2.167111E1,1.4483641E1,3.4266106E1,1.7542492E1,1.9779264E1,1.8918447E0,4.693028E0,9.790613E0,2.446607E1,9.800035E0,1.240176E1,5.140731E0,1.5987019E1,3.792246E0,3.5171218E0,1.1759061E0,5.131965E0,4.658648E0,1.0119322E1,1.4346747E1,3.9476614E0,5.852374E0,9.802818E0,2.5989423E0,4.080777E0,1.0599537E0],"tree_param":{"num_deleted":"0","num_feature":"6","num_nodes":"29","size_leaf_vector":"0"}},{"base_weights":[1.0131539E-2,-2.5712502E-1,1.7028946E-1,-6.257666E-2,-6.1400765E-1,5.4415095E-1,-9.5058985E-2,-2.3920096E-1,6.78461E-1,-1.0116858E0,-9.788167E-2,9.1702944E-1,1.1166481E-1,7.408607E-1,-2.8258756E-1,9.827667E-2,-8.929892E-1,1.1071473E0,-1.423509E-1,8.475418E-2,-1.2767817E0,7.55334E-1,-6.596415E-1,7.9149015E-2,9.874357E-1,-2.7306592E-1,7.564406E-1,-7.074236E-3,9.6038836E-1,-3.6505863E-1,8.718951E-1],"categories":[],"categories_nodes":[],"categories_segments":[],"categories_sizes":[],"default_left":[1,1,0,0,1,1,1,0,1,0,1,1,0,0,1,0,0,0,0,0,0,0,0,0,0,0,0,0,0,0,0],"id":8,"left_children":[1,3,5,7,9,11,13,15,17,19,21,23,25,27,29,-1,-1,-1,-1,-1,-1,-1,-1,-1,-1,-1,-1,-1,-1,-1,-1],"loss_changes":[3.6640291E0,2.1896985E0,5.357878E0,3.0264103E0,2.2015405E0,3.5022573E0,5.2468176E0,4.149771E0,1.7313359E0,1.917162E0,3.3668432E0,6.217718E-1,3.0562484E0,1.0189242E0,2.8862205E0,0E0,0E0,0E0,0E0,0E0,0E0,0E0,0E0,0E0,0E0,0E0,0E0,0E0,0E0,0E0,0E0],"parents":[2147483647,0,0,1,1,2,2,3,3,4,4,5,5,6,6,7,7,8,8,9,9,10,10,11,11,12,12,13,13,14,14],"right_children":[2,4,6,8,10,12,14,16,18,20,22,24,26,28,30,-1,-1,-1,-1,-1,-1,-1,-1,-1,-1,-1,-1,-1,-1,-1,-1],"split_conditions":[1.05E2,8.5425E0,2.105E2,5.167E1,1.11875E1,1.02E0,2.279E1,3.6205E1,5.7125E1,1.8705E1,2.6545E1,3.125E-1,1.87E2,1.9E1,6.75E0,2.9483002E-2,-2.6789677E-1,3.321442E-1,-4.270527E-2,2.5426254E-2,-3.8303453E-1,2.2660021E-1,-1.9789246E-1,2.3744706E-2,2.9623073E-1,-8.191978E-2,2.2693218E-1,-2.1222709E-3,2.881165E-1,-1.095176E-1,2.6156855E-1],"split_indices":[1,4,1,5,4,3,5,5,5,5,5,4,1,5,3,0,0,0,0,0,0,0,0,0,0,0,0,0,0,0,0],"split_type":[0,0,0,0,0,0,0,0,0,0,0,0,0,0,0,0,0,0,0,0,0,0,0,0,0,0,0,0,0,0,0],"sum_hessian":[8.35787E1,3.1091187E1,5.248751E1,2.0882692E1,1.0208493E1,2.1352417E1,3.1135094E1,1.7410221E1,3.4724705E0,5.223558E0,4.9849353E0,1.0864744E1,1.0487672E1,5.164294E0,2.59708E1,1.2043298E1,5.366924E0,2.0519514E0,1.4205192E0,1.1495E0,4.074058E0,1.8422667E0,3.142669E0,1.0068423E0,9.857902E0,6.9294434E0,3.5582292E0,1.3914324E0,3.7728615E0,2.4877457E1,1.0933437E0],"tree_param":{"num_deleted":"0","num_feature":"6","num_nodes":"31","size_leaf_vector":"0"}},{"base_weights":[1.9098468E-2,9.533406E-2,-4.615596E-1,-3.215732E-1,1.7794453E-1,2.1262002E-1,-6.774124E-1,3.579319E-1,-7.140266E-1,4.0765294E-1,-1.4415531E-1,-2.8597444E-1,6.958861E-1,4.984336E-2,-7.9859287E-1,7.6245457E-1,-6.3276246E-2,-8.8519204E-1,-2.8410932E-1,5.370965E-1,-1.9505984E-1,-3.7678748E-1,2.2330257E-1,-8.88841E-1,-1.18680924E-1],"categories":[],"categories_nodes":[],"categories_segments":[],"categories_sizes":[],"default_left":[1,1,0,1,1,0,1,1,1,1,0,0,0,0,1,0,0,0,0,0,0,0,0,0,0],"id":9,"left_children":[1,3,5,7,9,11,13,15,17,19,21,-1,-1,-1,23,-1,-1,-1,-1,-1,-1,-1,-1,-1,-1],"loss_changes":[3.0450728E0,2.520328E0,1.8004956E0,3.5046575E0,4.5227575E0,1.0475706E0,8.207259E-1,9.217685E-1,3.4140396E-1,2.8727198E0,2.2942393E0,0E0,0E0,0E0,3.6418056E-1,0E0,0E0,0E0,0E0,0E0,0E0,0E0,0E0,0E0,0E0],"parents":[2147483647,0,0,1,1,2,2,3,3,4,4,5,5,6,6,7,7,8,8,9,9,10,10,14,14],"right_children":[2,4,6,8,10,12,14,16,18,20,22,-1,-1,-1,24,-1,-1,-1,-1,-1,-1,-1,-1,-1,-1],"split_conditions":[4.5E0,5.2E-1,2.375E1,2.3045E1,4.2075E0,2.246E1,6.25E-2,1.875E-1,2.6999998E-1,3.58E2,1.3E2,-8.579233E-2,2.0876583E-1,1.4953009E-2,8.25E0,2.2873639E-1,-1.8982874E-2,-2.6555762E-1,-8.52328E-2,1.6112895E-1,-5.851795E-2,-1.1303625E-1,6.699078E-2,-2.6665232E-1,-3.560428E-2],"split_indices":[2,4,5,5,4,5,3,3,4,1,1,0,0,0,3,0,0,0,0,0,0,0,0,0,0],"split_type":[0,0,0,0,0,0,0,0,0,0,0,0,0,0,0,0,0,0,0,0,0,0,0,0,0],"sum_hessian":[8.089967E1,7.051688E1,1.0382791E1,1.1183727E1,5.9333153E1,2.5216916E0,7.8610992E0,4.1266646E0,7.0570626E0,3.4478725E1,2.4854425E1,1.4420985E0,1.0795931E0,1.2068663E0,6.654233E0,1.6917601E0,2.4349043E0,4.2900553E0,2.767007E0,2.8472588E1,6.0061398E0,1.520376E1,9.650666E0,5.603204E0,1.0510296E0],"tree_param":{"num_deleted":"0","num_feature":"6","num_nodes":"25","size_leaf_vector":"0"}},{"base_weights":[1.1292374E-2,6.448597E-1,-3.1116316E-2,3.3328246E-2,8.261158E-1,6.426513E-3,-8.266584E-1,1.058722E-1,-2.529521E-1,-7.551972E-2,3.0214736E-1,-4.5837462E-1,1.685144E-1],"categories":[],"categories_nodes":[],"categories_segments":[],"categories_sizes":[],"default_left":[1,0,1,0,0,1,0,0,0,0,0,0,0],"id":10,"left_children":[1,3,5,-1,-1,7,-1,9,11,-1,-1,-1,-1],"loss_changes":[2.1386445E0,5.2588654E-1,2.24104E0,0E0,0E0,1.8962132E0,0E0,1.9131157E0,1.8418097E0,0E0,0E0,0E0,0E0],"parents":[2147483647,0,0,1,1,2,2,5,5,7,7,8,8],"right_children":[2,4,6,-1,-1,8,-1,10,12,-1,-1,-1,-1],"split_conditions":[1.746E1,1.629E1,4.5535E3,9.998474E-3,2.4783474E-1,2.4575E0,-2.4799754E-1,2.846E1,2.64E2,-2.2655915E-2,9.064421E-2,-1.3751239E-1,5.0554324E-2],"split_indices":[5,5,0,0,0,3,0,5,1,0,0,0,0],"split_type":[0,0,0,0,0,0,0,0,0,0,0,0,0],"sum_hessian":[7.7849144E1,3.9927883E0,7.385635E1,1.1835473E0,2.809241E0,7.147525E1,2.3811028E0,5.209418E1,1.9381071E1,2.7393305E1,2.4700876E1,1.2971297E1,6.409774E0],"tree_param":{"num_deleted":"0","num_feature":"6","num_nodes":"13","size_leaf_vector":"0"}},{"base_weights":[8.039677E-3,1.2637062E-1,-1.8682681E-1,-6.6159205E-3,3.262499E-1,3.0769667E-1,-3.001875E-1,-3.466508E-1,2.2237459E-1,8.564683E-1,6.664622E-2,7.746779E-1,-1.9244684E-1,-1.5769869E-1,-8.241092E-1,6.604783E-2,-6.9015396E-1,6.719315E-1,-2.8486276E-1,9.6406806E-1,2.1288188E-1,-4.893881E-1,2.0034878E-1,-5.497152E-1,3.7455672E-1,2.4949973E-2,-5.11329E-1,-1.2083347E-1,-1.0537953E0],"categories":[],"categories_nodes":[],"categories_segments":[],"categories_sizes":[],"default_left":[1,1,1,0,1,0,1,1,1,0,1,0,1,1,1,0,0,0,0,0,0,0,0,0,0,0,0,0,0],"id":11,"left_children":[1,3,5,7,9,11,13,15,17,19,21,-1,23,25,27,-1,-1,-1,-1,-1,-1,-1,-1,-1,-1,-1,-1,-1,-1],"loss_changes":[1.8084074E0,1.298127E0,1.7543788E0,2.4330022E0,2.626817E0,1.5557009E0,1.7083471E0,1.8270941E0,4.453262E0,2.3273706E-1,1.1517864E0,0E0,9.5724875E-1,1.3430691E0,6.849334E-1,0E0,0E0,0E0,0E0,0E0,0E0,0E0,0E0,0E0,0E0,0E0,0E0,0E0,0E0],"parents":[2147483647,0,0,1,1,2,2,3,3,4,4,5,5,6,6,7,7,8,8,9,9,10,10,12,12,13,13,14,14],"right_children":[2,4,6,8,10,12,14,16,18,20,22,-1,24,26,28,-1,-1,-1,-1,-1,-1,-1,-1,-1,-1,-1,-1,-1,-1],"split_conditions":[5E-1,5E-1,2.2999999E-1,2.621E1,3.6E1,3.604E1,1.00625E1,2.4775E0,3.5085E1,2.85E2,5.625E-1,2.3240337E-1,1.525E1,3.61E2,9E0,1.981435E-2,-2.070462E-1,2.0157947E-1,-8.545883E-2,2.8922042E-1,6.386457E-2,-1.4681643E-1,6.0104635E-2,-1.6491458E-1,1.1236702E-1,7.4849925E-3,-1.5339871E-1,-3.6250044E-2,-3.1613863E-1],"split_indices":[2,0,3,5,0,5,4,4,5,1,4,0,4,0,0,0,0,0,0,0,0,0,0,0,0,0,0,0,0],"split_type":[0,0,0,0,0,0,0,0,0,0,0,0,0,0,0,0,0,0,0,0,0,0,0,0,0,0,0,0,0],"sum_hessian":[7.640225E1,4.775497E1,2.8647282E1,2.925651E1,1.8498459E1,5.0225677E0,2.3624714E1,1.15668E1,1.768971E1,5.324495E0,1.3173965E1,2.3135283E0,2.7090392E0,1.959621E1,4.028503E0,5.621102E0,5.945698E0,9.205936E0,8.483774E0,4.1351814E0,1.1893134E0,2.0380342E0,1.1135931E1,1.6805912E0,1.0284481E0,1.3534923E1,6.0612884E0,1.3674843E0,2.6610184E0],"tree_param":{"num_deleted":"0","num_feature":"6","num_nodes":"29","size_leaf_vector":"0"}},{"base_weights":[6.983528E-3,5.7003606E-2,-3.675238E-1,1.9288452E-1,-1.384365E-1,-6.9915965E-2,-8.344642E-1,-7.255181E-2,5.427324E-1,7.242729E-1,-3.2906473E-1,3.5052744E-1,-4.5653492E-1,-5.4824173E-1,1.3855784E-1,7.759901E-1,1.48645E-1,9.516076E-2,8.849335E-1,-4.206308E-1,7.8663224E-1,-4.0638876E-1,8.0431163E-1,-8.3554035E-1,1.0019639E-1],"categories":[],"categories_nodes":[],"categories_segments":[],"categories_sizes":[],"default_left":[1,0,1,0,1,1,0,0,1,1,1,1,1,0,0,0,0,0,0,0,0,0,0,0,0],"id":12,"left_children":[1,3,5,7,9,11,-1,13,15,17,19,21,23,-1,-1,-1,-1,-1,-1,-1,-1,-1,-1,-1,-1],"loss_changes":[1.4219509E0,1.8017988E0,1.1848714E0,3.7396355E0,4.8423557E0,1.2255964E0,0E0,2.4397893E0,1.4756703E0,4.5945072E-1,2.7435412E0,1.5997679E0,8.959425E-1,0E0,0E0,0E0,0E0,0E0,0E0,0E0,0E0,0E0,0E0,0E0,0E0],"parents":[2147483647,0,0,1,1,2,2,3,3,4,4,5,5,7,7,8,8,9,9,10,10,11,11,12,12],"right_children":[2,4,6,8,10,12,-1,14,16,18,20,22,24,-1,-1,-1,-1,-1,-1,-1,-1,-1,-1,-1,-1],"split_conditions":[1.0615E3,2.14E2,3.625E1,1.05E2,2.279E1,3.3249998E-1,-2.5033927E-1,2.2125E1,3.645E0,2.5E2,6.52E0,6.25E-2,4E0,-1.6447252E-1,4.156735E-2,2.3279704E-1,4.45935E-2,2.854823E-2,2.6548004E-1,-1.2618925E-1,2.3598967E-1,-1.2191663E-1,2.412935E-1,-2.5066212E-1,3.0058919E-2],"split_indices":[0,1,5,1,5,3,0,5,4,1,3,3,4,0,0,0,0,0,0,0,0,0,0,0,0],"split_type":[0,0,0,0,0,0,0,0,0,0,0,0,0,0,0,0,0,0,0,0,0,0,0,0,0],"sum_hessian":[7.37883E1,6.5842064E1,7.946231E0,3.8846725E1,2.6995342E1,5.555271E0,2.39096E0,2.2538755E1,1.630797E1,4.378871E0,2.2616472E1,2.7059429E0,2.8493283E0,6.4371276E0,1.6101627E1,9.635625E0,6.6723447E0,1.214695E0,3.1641757E0,2.147684E1,1.1396323E0,1.0533651E0,1.6525778E0,1.397296E0,1.4520322E0],"tree_param":{"num_deleted":"0","num_feature":"6","num_nodes":"25","size_leaf_vector":"0"}},{"base_weights":[1.0443617E-2,7.5775884E-2,-3.0887592E-1,9.983002E-2,-6.2355655E-1,4.303096E-1,-4.4031805E-1,-2.7228686E-1,1.4705697E-1,-8.350014E-1,-1.18506186E-1,3.016166E-1,-6.790854E-1,9.668047E-2,9.0880984E-1,-1.083875E0,-4.070511E-1,-6.137565E-1,3.0293673E-1],"categories":[],"categories_nodes":[],"categories_segments":[],"categories_sizes":[],"default_left":[1,1,1,1,0,0,1,0,0,0,0,0,0,0,0,0,0,0,0],"id":13,"left_children":[1,3,5,7,-1,-1,9,11,13,15,17,-1,-1,-1,-1,-1,-1,-1,-1],"loss_changes":[1.5514256E0,1.0985959E0,1.4173282E0,1.1018703E0,0E0,0E0,1.3266201E0,1.8753262E0,1.9945365E0,7.8099966E-2,1.7196106E0,0E0,0E0,0E0,0E0,0E0,0E0,0E0,0E0],"parents":[2147483647,0,0,1,1,2,2,3,3,6,6,7,7,8,8,9,9,10,10],"right_children":[2,4,6,8,-1,-1,10,12,14,16,18,-1,-1,-1,-1,-1,-1,-1,-1],"split_conditions":[3.855E0,5.249E3,2.617E1,2.6999998E-1,-1.8706697E-1,1.2909289E-1,5.4375E0,2.3125E1,5.055E2,3.354E1,7.25E1,9.0484984E-2,-2.0372562E-1,2.9004142E-2,2.7264297E-1,-3.251625E-1,-1.2211533E-1,-1.8412694E-1,9.088102E-2],"split_indices":[3,0,5,4,0,0,3,5,1,5,1,0,0,0,0,0,0,0,0],"split_type":[0,0,0,0,0,0,0,0,0,0,0,0,0,0,0,0,0,0,0],"sum_hessian":[7.2244644E1,6.0607204E1,1.1637442E1,5.942063E1,1.1865734E0,1.4136726E0,1.0223769E1,6.155319E0,5.3265312E1,3.875728E0,6.348041E0,2.660499E0,3.49482E0,5.1018276E1,2.247039E0,1.4814702E0,2.3942578E0,2.7086742E0,3.6393669E0],"tree_param":{"num_deleted":"0","num_feature":"6","num_nodes":"19","size_leaf_vector":"0"}},{"base_weights":[1.5211398E-3,5.4278012E-2,-3.327483E-1,-3.3491305E-1,1.0316314E-1,1.8274972E-1,-5.9292877E-1,2.1552026E-1,-5.566362E-1,2.8088138E-1,-3.2044306E-2,-2.616128E-1,6.009754E-1,-3.9992943E-2,-6.8483615E-1,-1.0012757E0,-2.1207844E-1,5.077643E-1,-5.1479544E-2,-2.5038394E-1,2.3853602E-1,-7.7786463E-1,-1.2586243E-1],"categories":[],"categories_nodes":[],"categories_segments":[],"categories_sizes":[],"default_left":[1,1,0,1,1,0,1,0,0,1,1,0,0,0,1,0,0,0,0,0,0,0,0],"id":14,"left_children":[1,3,5,7,9,11,13,-1,15,17,19,-1,-1,-1,21,-1,-1,-1,-1,-1,-1,-1,-1],"loss_changes":[1.2852864E0,1.2317019E0,1.4409348E0,1.0056503E0,1.3706158E0,9.186257E-1,3.201375E-1,0E0,6.2297297E-1,1.8801217E0,2.0140138E0,0E0,0E0,0E0,2.0379376E-1,0E0,0E0,0E0,0E0,0E0,0E0,0E0,0E0],"parents":[2147483647,0,0,1,1,2,2,3,3,4,4,5,5,6,6,8,8,9,9,10,10,14,14],"right_children":[2,4,6,8,10,12,14,-1,16,18,20,-1,-1,-1,22,-1,-1,-1,-1,-1,-1,-1,-1],"split_conditions":[3.5E0,2.6999998E-1,2.4415E1,2.15E1,2.52E0,2.246E1,6.25E-2,6.465608E-2,2.717E1,1.4E1,5E-1,-7.848384E-2,1.8029262E-1,-1.1997883E-2,6.75E0,-3.003827E-1,-6.362353E-2,1.523293E-1,-1.5443864E-2,-7.511519E-2,7.156081E-2,-2.333594E-1,-3.775873E-2],"split_indices":[2,4,5,5,4,5,3,0,5,0,0,0,0,0,3,0,0,0,0,0,0,0,0],"split_type":[0,0,0,0,0,0,0,0,0,0,0,0,0,0,0,0,0,0,0,0,0,0,0],"sum_hessian":[7.085851E1,6.1922993E1,8.935522E0,6.2570972E0,5.5665894E1,3.0970037E0,5.8385186E0,1.8047462E0,4.452351E0,2.3586332E1,3.2079563E1,1.6831431E0,1.4138607E0,1.0366917E0,4.801827E0,1.1117302E0,3.340621E0,1.3703811E1,9.882522E0,1.7794926E1,1.42846365E1,3.7809753E0,1.0208517E0],"tree_param":{"num_deleted":"0","num_feature":"6","num_nodes":"23","size_leaf_vector":"0"}},{"base_weights":[-3.429513E-3,1.5604396E-1,-1.07691504E-1,4.3804353E-1,-6.780973E-2,-3.5926905E-1,2.7353825E-2,-1.1920202E-2,8.501695E-1,1.8841453E-1,-5.420584E-1,2.2195522E-3,-7.198144E-1,7.6643324E-1,-8.092059E-2,3.2047695E-1,-5.294669E-1,-1.8658908E-1,7.104791E-1,-1.2062653E0,4.2311862E-2,3.586857E-1,-3.875467E-1,1.3743095E-1,-8.84663E-1,-1.7602663E-2,-7.776934E-1],"categories":[],"categories_nodes":[],"categories_segments":[],"categories_sizes":[],"default_left":[1,1,1,1,1,0,1,0,0,0,0,1,1,0,1,0,0,0,0,0,0,0,0,0,0,0,0],"id":15,"left_children":[1,3,5,7,9,11,13,15,-1,17,19,21,23,-1,25,-1,-1,-1,-1,-1,-1,-1,-1,-1,-1,-1,-1],"loss_changes":[1.1838385E0,1.8070973E0,1.4718463E0,2.3455572E0,2.1146662E0,1.9698803E0,2.3771803E0,1.3750545E0,0E0,2.3829749E0,2.4060416E0,1.325269E0,1.190479E0,0E0,1.1395055E0,0E0,0E0,0E0,0E0,0E0,0E0,0E0,0E0,0E0,0E0,0E0,0E0],"parents":[2147483647,0,0,1,1,2,2,3,3,4,4,5,5,6,6,7,7,9,9,10,10,11,11,12,12,14,14],"right_children":[2,4,6,8,10,12,14,16,-1,18,20,22,24,-1,26,-1,-1,-1,-1,-1,-1,-1,-1,-1,-1,-1,-1],"split_conditions":[6.05E-1,1.4375E0,2.0625E0,4.8000002E-1,2.225E2,2.14E2,2.52E0,2.9E2,2.5505087E-1,1.1E2,2.95E2,1.625E0,2.275E1,2.2992998E-1,1.37075E1,9.614309E-2,-1.5884009E-1,-5.5976726E-2,2.1314374E-1,-3.6187962E-1,1.2693559E-2,1.0760572E-1,-1.1626401E-1,4.1229285E-2,-2.6539892E-1,-5.280799E-3,-2.3330803E-1],"split_indices":[3,4,4,4,1,1,4,1,0,1,1,3,5,0,4,0,0,0,0,0,0,0,0,0,0,0,0],"split_type":[0,0,0,0,0,0,0,0,0,0,0,0,0,0,0,0,0,0,0,0,0,0,0,0,0,0,0],"sum_hessian":[6.918899E1,2.7155998E1,4.203299E1,1.1593838E1,1.55621605E1,1.4101947E1,2.7931044E1,6.0067153E0,5.587123E0,1.0494801E1,5.0673594E0,7.538035E0,6.563912E0,2.7922912E0,2.5138754E1,3.8894632E0,2.117252E0,6.481602E0,4.0131984E0,1.873588E0,3.1937716E0,3.978857E0,3.5591776E0,1.0854863E0,5.4784255E0,2.3984472E1,1.154281E0],"tree_param":{"num_deleted":"0","num_feature":"6","num_nodes":"27","size_leaf_vector":"0"}},{"base_weights":[-1.8940624E-3,6.170933E-2,-2.6570287E-1,-8.581174E-2,2.8299114E-1,-5.763483E-1,-3.9239143E-4,-3.4849364E-1,1.353975E-1,9.10227E-1,8.445385E-2,2.3107616E-2,-8.418503E-1,5.5075645E-1,-3.2928053E-1,-5.7782286E-1,1.359905E-1,3.5368797E-1,-4.5423073E-1,4.6690977E-1,-1.791418E-1,1.4996974E-1,7.17385E-1,2.9478866E-1,-7.3025995E-1],"categories":[],"categories_nodes":[],"categories_segments":[],"categories_sizes":[],"default_left":[1,1,0,0,1,0,1,1,1,0,1,0,0,1,0,0,0,0,0,0,0,0,0,0,0],"id":16,"left_children":[1,3,5,7,9,11,13,15,17,-1,19,-1,-1,21,23,-1,-1,-1,-1,-1,-1,-1,-1,-1,-1],"loss_changes":[1.1685312E0,1.8568175E0,1.1146638E0,2.0489807E0,2.7484105E0,1.0110962E0,1.6852733E0,1.8594366E0,2.660384E0,0E0,1.9320827E0,0E0,0E0,1.2447202E-1,1.6721407E0,0E0,0E0,0E0,0E0,0E0,0E0,0E0,0E0,0E0,0E0],"parents":[2147483647,0,0,1,1,2,2,3,3,4,4,5,5,6,6,7,7,8,8,10,10,13,13,14,14],"right_children":[2,4,6,8,10,12,14,16,18,-1,20,-1,-1,22,24,-1,-1,-1,-1,-1,-1,-1,-1,-1,-1],"split_conditions":[3.875E2,5E-1,1.345E2,2.854E1,5.5E0,2.254E1,1.875E-1,6.375E0,4.125E0,2.730681E-1,1.16E2,6.932285E-3,-2.525551E-1,6.25E-2,2.325E2,-1.7334686E-1,4.079715E-2,1.0610639E-1,-1.3626923E-1,1.4007294E-1,-5.3742543E-2,4.4990923E-2,2.152155E-1,8.84366E-2,-2.1907799E-1],"split_indices":[0,0,1,5,0,5,3,4,3,0,1,0,0,3,1,0,0,0,0,0,0,0,0,0,0],"split_type":[0,0,0,0,0,0,0,0,0,0,0,0,0,0,0,0,0,0,0,0,0,0,0,0,0],"sum_hessian":[6.7664734E1,5.5137386E1,1.2527349E1,3.3449768E1,2.1687618E1,5.230608E0,7.296742E0,1.5028407E1,1.842136E1,4.3524194E0,1.73352E1,1.8857925E0,3.3448153E0,2.4748318E0,4.82191E0,1.0069419E1,4.9589877E0,1.3736152E1,4.6852083E0,6.758236E0,1.0576962E1,1.2847308E0,1.190101E0,1.9898349E0,2.832075E0],"tree_param":{"num_deleted":"0","num_feature":"6","num_nodes":"25","size_leaf_vector":"0"}},{"base_weights":[1.3896261E-3,9.3566015E-2,-1.5840377E-1,3.041058E-2,4.500246E-1,-3.5668302E-1,1.1345906E-2,-1.925453E-1,1.732424E-1,-1.7514177E-1,6.590347E-1,-1.477561E-1,-7.239887E-1,4.0682212E-1,-1.998373E-1,1.09799005E-1,-7.513079E-1,4.088092E-1,-5.462329E-2,9.125215E-1,1.6445164E-1,-3.2948893E-1,4.8962727E-1,-1.5965605E-1,-8.840524E-1,8.0148995E-1,-2.6114398E-1,-7.261807E-1,-5.9995033E-2],"categories":[],"categories_nodes":[],"categories_segments":[],"categories_sizes":[],"default_left":[1,1,0,0,1,1,1,0,1,0,1,1,1,1,1,0,0,0,0,0,0,0,0,0,0,0,0,0,0],"id":17,"left_children":[1,3,5,7,9,11,13,15,17,-1,19,21,23,25,27,-1,-1,-1,-1,-1,-1,-1,-1,-1,-1,-1,-1,-1,-1],"loss_changes":[1.0025496E0,9.578578E-1,8.4223425E-1,1.234979E0,9.546778E-1,7.76855E-1,1.2827879E0,2.6516428E0,1.2851303E0,0E0,4.7973585E-1,1.1572359E0,2.1289253E-1,1.6163473E0,6.960689E-1,0E0,0E0,0E0,0E0,0E0,0E0,0E0,0E0,0E0,0E0,0E0,0E0,0E0,0E0],"parents":[2147483647,0,0,1,1,2,2,3,3,4,4,5,5,6,6,7,7,8,8,10,10,11,11,12,12,13,13,14,14],"right_children":[2,4,6,8,10,12,14,16,18,-1,20,22,24,26,28,-1,-1,-1,-1,-1,-1,-1,-1,-1,-1,-1,-1,-1,-1],"split_conditions":[5E-1,1.075E1,1.24E2,2.621E1,6.25E-2,1.0125E1,2.01E2,2.3085E1,2.13E2,-5.2542534E-2,1.21675E1,9E0,8E0,4.5E0,2.475E-1,3.2939702E-2,-2.2539239E-1,1.2264277E-1,-1.6386988E-2,2.7375644E-1,4.9335495E-2,-9.884668E-2,1.4688818E-1,-4.7896817E-2,-2.6521572E-1,2.40447E-1,-7.83432E-2,-2.1785422E-1,-1.7998511E-2],"split_indices":[2,4,1,5,3,4,1,5,1,0,4,2,0,2,4,0,0,0,0,0,0,0,0,0,0,0,0,0,0],"split_type":[0,0,0,0,0,0,0,0,0,0,0,0,0,0,0,0,0,0,0,0,0,0,0,0,0,0,0,0,0],"sum_hessian":[6.6059296E1,4.2156113E1,2.3903183E1,3.6733227E1,5.4228845E0,1.0517174E1,1.3386009E1,1.4207587E1,2.252564E1,1.3993515E0,4.0235333E0,7.5977645E0,2.9194098E0,4.337296E0,9.048714E0,9.740523E0,4.4670634E0,1.0685219E1,1.1840423E1,2.1014524E0,1.9220809E0,6.287976E0,1.3097885E0,1.0864372E0,1.8329726E0,2.6007478E0,1.7365483E0,1.0193167E0,8.029397E0],"tree_param":{"num_deleted":"0","num_feature":"6","num_nodes":"29","size_leaf_vector":"0"}},{"base_weights":[-5.146543E-4,3.8555875E-1,-3.3324726E-2,5.8686197E-1,-1.5480204E-1,-2.4574351E-1,4.230176E-2,8.014476E-1,3.8486372E-3,-7.2826706E-2,-1.2253612E0,7.0487076E-1,-3.94501E-2,-4.130894E-1,3.757588E-1,8.150903E-1,1.9645359E-1,-8.0731946E-1,-9.715907E-4],"categories":[],"categories_nodes":[],"categories_segments":[],"categories_sizes":[],"default_left":[1,1,0,1,0,0,0,0,0,0,0,1,0,0,0,0,0,0,0],"id":18,"left_children":[1,3,5,7,-1,9,11,-1,-1,13,-1,15,17,-1,-1,-1,-1,-1,-1],"loss_changes":[8.513996E-1,6.6352946E-1,1.0053394E0,5.0291026E-1,0E0,2.6901116E0,2.5479789E0,0E0,0E0,2.4461908E0,0E0,1.2920594E-1,1.2509041E0,0E0,0E0,0E0,0E0,0E0,0E0],"parents":[2147483647,0,0,1,1,2,2,3,3,5,5,6,6,9,9,11,11,12,12],"right_children":[2,4,6,8,-1,10,12,-1,-1,14,-1,16,18,-1,-1,-1,-1,-1,-1],"split_conditions":[1.796E1,8.3125E0,2.346E1,5E-1,-4.6440613E-2,2.3125E1,2.504E1,2.4043427E-1,1.1545912E-3,1.305E2,-3.6760837E-1,2.37E2,2.521E1,-1.23926826E-1,1.1272764E-1,2.445271E-1,5.8936078E-2,-2.4219584E-1,-2.9147722E-4],"split_indices":[5,4,5,2,0,5,5,0,0,1,0,0,5,0,0,0,0,0,0],"split_type":[0,0,0,0,0,0,0,0,0,0,0,0,0,0,0,0,0,0,0],"sum_hessian":[6.5199135E1,4.2647653E0,6.0934372E1,3.04452E0,1.2202456E0,1.5407771E1,4.5526604E1,1.9515592E0,1.0929607E0,1.4009272E1,1.3984989E0,4.163212E0,4.136339E1,8.011494E0,5.9977784E0,2.9257483E0,1.2374636E0,1.0203545E0,4.0343037E1],"tree_param":{"num_deleted":"0","num_feature":"6","num_nodes":"19","size_leaf_vector":"0"}},{"base_weights":[-1.0628627E-3,2.347926E-2,-5.2028984E-1,-2.2487225E-2,4.622199E-1,8.377579E-3,-8.945884E-1,8.2926863E-1,-2.3421153E-1,2.2904892E-1,-8.43217E-2,2.2044569E-1,9.734757E-1],"categories":[],"categories_nodes":[],"categories_segments":[],"categories_sizes":[],"default_left":[1,0,0,0,1,1,0,1,0,0,0,0,0],"id":19,"left_children":[1,3,-1,5,7,9,-1,11,-1,-1,-1,-1,-1],"loss_changes":[8.4524894E-1,1.2885716E0,0E0,1.5773534E0,1.7424898E0,1.1918336E0,0E0,1.5296984E-1,0E0,0E0,0E0,0E0,0E0],"parents":[2147483647,0,0,1,1,3,3,4,4,5,5,7,7],"right_children":[2,4,-1,6,8,10,-1,12,-1,-1,-1,-1,-1],"split_conditions":[5.8625E1,4.8665E1,-1.5608695E-1,4.7955E1,7.3325E0,3.125E-1,-2.6837653E-1,1.4375E0,-7.026346E-2,6.871468E-2,-2.5296511E-2,6.613371E-2,2.9204273E-1],"split_indices":[5,5,0,5,4,3,0,4,0,0,0,0,0],"split_type":[0,0,0,0,0,0,0,0,0,0,0,0,0],"sum_hessian":[6.4372154E1,6.237851E1,1.9936433E0,5.732171E1,5.056801E0,5.63189E1,1.002806E0,3.1865926E0,1.8702085E0,1.6224789E1,4.0094112E1,1.0944874E0,2.0921052E0],"tree_param":{"num_deleted":"0","num_feature":"6","num_nodes":"13","size_leaf_vector":"0"}},{"base_weights":[-1.5057472E-3,2.0323422E-2,-5.707511E-1,4.137062E-2,-4.2318663E-1,5.366483E-3,3.9404562E-1,6.31434E-2,-3.8619262E-1,6.959422E-1,-4.2064264E-1],"categories":[],"categories_nodes":[],"categories_segments":[],"categories_sizes":[],"default_left":[1,1,0,0,0,0,1,0,0,0,0],"id":20,"left_children":[1,3,-1,5,-1,7,9,-1,-1,-1,-1],"loss_changes":[8.147069E-1,6.075424E-1,0E0,7.7570355E-1,0E0,1.3047578E0,1.6849504E0,0E0,0E0,0E0,0E0],"parents":[2147483647,0,0,1,1,3,3,5,5,6,6],"right_children":[2,4,-1,6,-1,8,10,-1,-1,-1,-1],"split_conditions":[4.5535E3,5.8625E1,-1.7122532E-1,4.8665E1,-1.26956E-1,4.096E1,1.885E2,1.8943021E-2,-1.1585779E-1,2.0878267E-1,-1.261928E-1],"split_indices":[0,5,0,5,0,5,0,0,0,0,0],"split_type":[0,0,0,0,0,0,0,0,0,0,0],"sum_hessian":[6.3630413E1,6.220914E1,1.4212712E0,6.025634E1,1.9528029E0,5.5595848E1,4.660492E0,4.9178062E1,6.4177833E0,3.5067594E0,1.1537329E0],"tree_param":{"num_deleted":"0","num_feature":"6","num_nodes":"11","size_leaf_vector":"0"}},{"base_weights":[-5.8404584E-3,1.1721088E-2,-5.552334E-1,-2.2672886E-2,3.1341198E-1,3.318496E-2,-5.0850075E-1,-3.8729915E-1,6.471679E-1,-1.9450916E-2,6.716127E-1,4.4524848E-1,-8.471412E-1,8.1729233E-1,9.68919E-2],"categories":[],"categories_nodes":[],"categories_segments":[],"categories_sizes":[],"default_left":[1,0,0,0,1,0,1,0,1,0,0,0,0,0,0],"id":21,"left_children":[1,3,-1,5,7,9,11,-1,13,-1,-1,-1,-1,-1,-1],"loss_changes":[6.234252E-1,6.6019315E-1,0E0,1.575408E0,1.7727817E0,1.7755336E0,2.3097298E0,0E0,3.685794E-1,0E0,0E0,0E0,0E0,0E0,0E0],"parents":[2147483647,0,0,1,1,3,3,4,4,5,5,6,6,8,8],"right_children":[2,4,-1,6,8,10,12,-1,14,-1,-1,-1,-1,-1,-1],"split_conditions":[5.249E3,4.37E2,-1.6657004E-1,3.58E2,5.825E-1,3.16E2,8.325E-1,-1.1618975E-1,2.4575E0,-5.835275E-3,2.0148382E-1,1.3357455E-1,-2.5414237E-1,2.4518771E-1,2.9067572E-2],"split_indices":[0,1,0,1,4,1,4,0,3,0,0,0,0,0,0],"split_type":[0,0,0,0,0,0,0,0,0,0,0,0,0,0,0],"sum_hessian":[6.2941246E1,6.193998E1,1.0012686E0,5.6431416E1,5.508561E0,5.144791E1,4.983507E0,1.7254989E0,3.7830625E0,4.842499E1,3.0229185E0,1.2233223E0,3.7601848E0,2.5190325E0,1.2640299E0],"tree_param":{"num_deleted":"0","num_feature":"6","num_nodes":"15","size_leaf_vector":"0"}},{"base_weights":[-2.3586692E-3,2.7695885E-2,-3.1730855E-1,-8.62835E-2,1.650556E-1,-6.491247E-1,2.0445938E-1,1.4912978E-1,-2.6889256E-1,7.7491736E-1,4.055549E-2,-7.83506E-1,-1.4789343E-1,3.4411532E-1,-3.598446E-1,-7.32192E-1,-5.5564128E-2,2.5385234E-1,-2.74321E-1],"categories":[],"categories_nodes":[],"categories_segments":[],"categories_sizes":[],"default_left":[1,1,0,1,1,1,0,1,0,0,1,0,0,0,0,0,0,0,0],"id":22,"left_children":[1,3,5,7,9,11,-1,13,15,-1,17,-1,-1,-1,-1,-1,-1,-1,-1],"loss_changes":[6.092698E-1,9.353134E-1,1.10339E0,1.4504975E0,2.020339E0,1.3109541E-1,0E0,1.6100254E0,1.8206995E0,0E0,1.6477145E0,0E0,0E0,0E0,0E0,0E0,0E0,0E0,0E0],"parents":[2147483647,0,0,1,1,2,2,3,3,4,4,5,5,7,7,8,8,10,10],"right_children":[2,4,6,8,10,12,-1,14,16,-1,18,-1,-1,-1,-1,-1,-1,-1,-1],"split_conditions":[1.224E3,5E-1,2.08E2,2.52E0,5.5E0,3.161E3,6.1337817E-2,3.625E1,2.3625E1,2.3247522E-1,2.15E2,-2.350518E-1,-4.436803E-2,1.032346E-1,-1.07953385E-1,-2.196576E-1,-1.666924E-2,7.615571E-2,-8.22963E-2],"split_indices":[0,0,1,4,0,0,0,5,5,0,1,0,0,0,0,0,0,0,0],"split_type":[0,0,0,0,0,0,0,0,0,0,0,0,0,0,0,0,0,0,0],"sum_hessian":[6.2437782E1,5.7831215E1,4.606566E0,3.1808643E1,2.6022573E1,2.6666405E0,1.9399257E0,1.397539E1,1.7833252E1,3.5260494E0,2.2496523E1,1.65876E0,1.0078804E0,1.033862E1,3.6367698E0,4.855662E0,1.2977591E1,1.3527094E1,8.96943E0],"tree_param":{"num_deleted":"0","num_feature":"6","num_nodes":"19","size_leaf_vector":"0"}},{"base_weights":[-4.1842395E-3,6.924918E-2,-1.3265051E-1,1.1328952E-1,-2.836578E-1,2.70983E-1,-2.1510063E-1,2.7344413E-2,4.800571E-1,-6.341541E-1,2.07448E-1,5.8394635E-1,-1.3759227E-2,-9.709281E-2,-6.673372E-1,-1.9363667E-1,1.790458E-1,-4.9405135E-2,6.2817496E-1,-1.4744057E-1,-8.0742896E-1,-3.3637622E-1,2.9172865E-1,-1.8293874E-1,3.4966367E-1,-8.621921E-1,-1.2750587E-1],"categories":[],"categories_nodes":[],"categories_segments":[],"categories_sizes":[],"default_left":[1,1,1,1,0,0,1,0,1,0,0,0,1,1,1,0,0,0,0,0,0,0,0,0,0,0,0],"id":23,"left_children":[1,3,5,7,9,11,13,15,17,19,-1,-1,21,23,25,-1,-1,-1,-1,-1,-1,-1,-1,-1,-1,-1,-1],"loss_changes":[5.978516E-1,6.5943915E-1,8.250084E-1,1.1405128E0,9.51483E-1,3.9571324E-1,9.859224E-1,1.0641825E0,5.711758E-1,1.3616025E-1,0E0,0E0,4.189161E-1,7.0768017E-1,3.007319E-1,0E0,0E0,0E0,0E0,0E0,0E0,0E0,0E0,0E0,0E0,0E0,0E0],"parents":[2147483647,0,0,1,1,2,2,3,3,4,4,5,5,6,6,7,7,8,8,9,9,12,12,13,13,14,14],"right_children":[2,4,6,8,10,12,14,16,18,20,-1,-1,22,24,26,-1,-1,-1,-1,-1,-1,-1,-1,-1,-1,-1,-1],"split_conditions":[5E-1,5.0625E0,2.2999999E-1,9.98E0,1.77E2,3.2665E1,1.00625E1,2.621E1,6.25E-2,1.2E1,6.2234405E-2,1.751839E-1,4.375E0,6.875E0,2.1875E0,-5.8091003E-2,5.3713743E-2,-1.48215415E-2,1.884525E-1,-4.423217E-2,-2.422287E-1,-1.0091287E-1,8.7518595E-2,-5.4881625E-2,1.0489911E-1,-2.5865763E-1,-3.825176E-2],"split_indices":[2,3,3,4,1,5,4,5,3,1,0,0,4,4,3,0,0,0,0,0,0,0,0,0,0,0,0],"split_type":[0,0,0,0,0,0,0,0,0,0,0,0,0,0,0,0,0,0,0,0,0,0,0,0,0,0,0],"sum_hessian":[6.1400173E1,3.936147E1,2.2038706E1,3.559806E1,3.7634084E0,3.3503726E0,1.8688334E1,2.9710512E1,5.8875465E0,2.026116E0,1.7372924E0,1.0955033E0,2.2548692E0,1.5784245E1,2.9040887E0,1.198122E1,1.7729292E1,1.4326922E0,4.4548545E0,1.0178822E0,1.0082337E0,1.0475112E0,1.207358E0,1.3735446E1,2.0487993E0,1.6950872E0,1.2090015E0],"tree_param":{"num_deleted":"0","num_feature":"6","num_nodes":"27","size_leaf_vector":"0"}},{"base_weights":[-4.825547E-3,2.5420142E-2,-2.788248E-1,1.2795251E-3,6.626227E-1,-4.2558286E-1,1.2809113E-1,4.3787393E-1,-2.8353725E-2,7.413404E-2,-6.774615E-1,6.635114E-1,-2.4721062E-2,-2.5891784E-1,5.2530874E-2],"categories":[],"categories_nodes":[],"categories_segments":[],"categories_sizes":[],"default_left":[1,1,1,0,0,1,0,1,0,0,0,0,0,0,0],"id":24,"left_children":[1,3,5,7,-1,9,-1,11,13,-1,-1,-1,-1,-1,-1],"loss_changes":[5.175022E-1,8.6647135E-1,4.251456E-1,7.282256E-1,0E0,6.5346175E-1,0E0,3.8980782E-1,9.973408E-1,0E0,0E0,0E0,0E0,0E0,0E0],"parents":[2147483647,0,0,1,1,2,2,3,3,5,5,7,7,8,8],"right_children":[2,4,6,8,-1,10,-1,12,14,-1,-1,-1,-1,-1,-1],"split_conditions":[1.0615E3,8.745E2,1.1125E1,1.796E1,1.9878681E-1,1.3975E0,3.8427338E-2,8.325E-1,2.346E1,2.2240212E-2,-2.0323846E-1,1.9905342E-1,-7.4163186E-3,-7.767536E-2,1.5759263E-2],"split_indices":[0,0,4,5,0,4,0,3,5,0,0,0,0,0,0],"split_type":[0,0,0,0,0,0,0,0,0,0,0,0,0,0,0],"sum_hessian":[6.058998E1,5.538363E1,5.206353E0,5.4327423E1,1.0562035E0,3.7926311E0,1.4137222E0,2.577405E0,5.175002E1,1.5074961E0,2.285135E0,1.4404701E0,1.1369349E0,1.2868079E1,3.8881943E1],"tree_param":{"num_deleted":"0","num_feature":"6","num_nodes":"15","size_leaf_vector":"0"}},{"base_weights":[-2.8290847E-4,1.1315568E-1,-7.076792E-2,2.8050616E-1,-1.4943005E-1,-3.5329217E-1,3.0446287E-2,1.7428238E-2,5.6006825E-1,2.542182E-1,-5.6660277E-1,1.132903E-1,-5.9879154E-1,6.33004E-1,-4.3094546E-2,2.2537382E-1,-4.9533758E-1,7.331534E-1,-1.2305707E-1,-2.4628095E-1,5.045631E-1,-1.0487494E0,2.1263027E-1,-4.358432E-1,9.017165E-1,-7.6600933E-1,1.5428324E-2,-1.5788298E-2,9.375601E-1,-2.3654592E-1,1.336382E-1],"categories":[],"categories_nodes":[],"categories_segments":[],"categories_sizes":[],"default_left":[1,1,0,0,1,1,1,0,1,1,1,1,1,0,1,0,0,0,0,0,0,0,0,0,0,0,0,0,0,0,0],"id":25,"left_children":[1,3,5,7,9,11,13,15,17,19,21,23,25,27,29,-1,-1,-1,-1,-1,-1,-1,-1,-1,-1,-1,-1,-1,-1,-1,-1],"loss_changes":[4.9757746E-1,1.0899565E0,1.1082343E0,1.0870976E0,1.8171313E0,1.2364594E0,1.3201964E0,1.0409509E0,9.4133306E-1,8.434733E-1,2.175056E0,2.2799187E0,7.1475315E-1,6.544945E-1,9.5266104E-1,0E0,0E0,0E0,0E0,0E0,0E0,0E0,0E0,0E0,0E0,0E0,0E0,0E0,0E0,0E0,0E0],"parents":[2147483647,0,0,1,1,2,2,3,3,4,4,5,5,6,6,7,7,8,8,9,9,10,10,11,11,12,12,13,13,14,14],"right_children":[2,4,6,8,10,12,14,16,18,20,22,24,26,28,30,-1,-1,-1,-1,-1,-1,-1,-1,-1,-1,-1,-1,-1,-1,-1,-1],"split_conditions":[6.05E-1,2.245E2,7.15E1,2.621E1,1.52E0,1.5625E0,8.4E1,2.3085E1,5.5665E1,4.8000002E-1,1.4500001E-1,1.4375E0,5.2E1,2.2415E1,1.9375E0,6.761215E-2,-1.4860128E-1,2.1994603E-1,-3.691712E-2,-7.3884286E-2,1.5136893E-1,-3.1462485E-1,6.3789085E-2,-1.3075297E-1,2.7051497E-1,-2.298028E-1,4.6284976E-3,-4.7364896E-3,2.8126803E-1,-7.096378E-2,4.0091462E-2],"split_indices":[3,1,1,5,4,3,1,5,5,4,3,3,5,5,3,0,0,0,0,0,0,0,0,0,0,0,0,0,0,0,0],"split_type":[0,0,0,0,0,0,0,0,0,0,0,0,0,0,0,0,0,0,0,0,0,0,0,0,0,0,0,0,0,0,0],"sum_hessian":[6.0228966E1,2.2849535E1,3.7379433E1,1.3913789E1,8.935746E0,9.202235E0,2.8177197E1,7.715535E0,6.198253E0,4.7400155E0,4.195731E0,3.3582542E0,5.843981E0,2.2374125E0,2.5939785E1,5.8881474E0,1.8273882E0,4.886831E0,1.3114223E0,1.5858189E0,3.1541965E0,2.3782973E0,1.8174338E0,2.2431288E0,1.1151255E0,4.399199E0,1.4447819E0,1.0176607E0,1.2197516E0,1.2222556E1,1.3717228E1],"tree_param":{"num_deleted":"0","num_feature":"6","num_nodes":"31","size_leaf_vector":"0"}},{"base_weights":[2.9447656E-3,4.607349E-2,-1.972348E-1,1.0774933E-2,6.8460816E-1,1.4495686E-1,-3.4480077E-1,4.5041006E-2,-7.130609E-1,-2.667219E-1,5.929568E-1,-7.757436E-1,-5.0689198E-2,-5.645646E-2,2.3283938E-1,4.401678E-1,-4.6707323E-1],"categories":[],"categories_nodes":[],"categories_segments":[],"categories_sizes":[],"default_left":[1,1,1,1,0,0,1,1,0,0,0,0,0,0,0,0,0],"id":26,"left_children":[1,3,5,7,-1,9,11,13,-1,-1,-1,-1,15,-1,-1,-1,-1],"loss_changes":[5.2875125E-1,1.1270908E0,5.9831107E-1,1.2403232E0,0E0,8.914301E-1,9.598179E-1,9.176094E-1,0E0,0E0,0E0,0E0,1.3818829E0,0E0,0E0,0E0,0E0],"parents":[2147483647,0,0,1,1,2,2,3,3,5,5,6,6,7,7,12,12],"right_children":[2,4,6,8,-1,10,12,14,-1,-1,-1,-1,16,-1,-1,-1,-1],"split_conditions":[3.875E2,3.15E2,2.254E1,2.465E2,2.0538245E-1,1.95E1,1.185E2,5E-1,-2.1391828E-1,-8.0016576E-2,1.7788704E-1,-2.3272309E-1,2.57E2,-1.693694E-2,6.9851816E-2,1.3205035E-1,-1.4012198E-1],"split_indices":[0,0,5,0,0,5,1,0,0,0,0,0,1,0,0,0,0],"split_type":[0,0,0,0,0,0,0,0,0,0,0,0,0,0,0,0,0],"sum_hessian":[5.9191654E1,4.933275E1,9.85891E0,4.771207E1,1.6206756E0,2.975857E0,6.8830523E0,4.6450882E1,1.2611898E0,1.7616602E0,1.2141968E0,2.127776E0,4.7552767E0,3.0607912E1,1.5842969E1,2.1562488E0,2.5990276E0],"tree_param":{"num_deleted":"0","num_feature":"6","num_nodes":"17","size_leaf_vector":"0"}},{"base_weights":[1.4674E-4,3.4393422E-2,-2.4028741E-1,-2.8933838E-1,7.5591125E-2,1.9796857E-1,-4.799073E-1,3.5467405E-2,-5.951718E-1,2.0945704E-2,4.1088414E-1,-3.1100315E-1,6.8061996E-1,-1.0117158E-1,-6.042034E-1,-2.1768229E-1,3.4952432E-1,-7.674897E-1,-1.17606826E-1,8.836099E-2,-8.496675E-1,5.6861E-2,8.876934E-1],"categories":[],"categories_nodes":[],"categories_segments":[],"categories_sizes":[],"default_left":[1,1,0,1,0,1,1,1,0,0,0,0,0,0,0,0,0,0,0,0,0,0,0],"id":27,"left_children":[1,3,5,7,9,11,13,15,17,19,21,-1,-1,-1,-1,-1,-1,-1,-1,-1,-1,-1,-1],"loss_changes":[4.9665102E-1,7.2596776E-1,8.847427E-1,6.337194E-1,8.64002E-1,1.038616E0,1.814971E-1,3.8889185E-1,1.7575145E-1,2.540472E0,1.067071E0,0E0,0E0,0E0,0E0,0E0,0E0,0E0,0E0,0E0,0E0,0E0,0E0],"parents":[2147483647,0,0,1,1,2,2,3,3,4,4,5,5,6,6,7,7,8,8,9,9,10,10],"right_children":[2,4,6,8,10,12,14,16,18,20,22,-1,-1,-1,-1,-1,-1,-1,-1,-1,-1,-1,-1],"split_conditions":[3.5E0,2.6999998E-1,2.375E1,1.875E-1,3.98E2,9E0,5.2E-1,2E-2,2.17E2,3.58E2,3.829E1,-9.3300946E-2,2.0418599E-1,-3.0351477E-2,-1.8126103E-1,-6.530469E-2,1.048573E-1,-2.3024692E-1,-3.528205E-2,2.6508298E-2,-2.5490025E-1,1.70583E-2,2.6630804E-1],"split_indices":[2,4,5,3,1,2,3,3,1,1,5,0,0,0,0,0,0,0,0,0,0,0,0],"split_type":[0,0,0,0,0,0,0,0,0,0,0,0,0,0,0,0,0,0,0,0,0,0,0],"sum_hessian":[5.831291E1,5.1792675E1,6.5202327E0,5.1670218E0,4.6625656E1,2.3662574E0,4.153975E0,2.934505E0,2.2325168E0,4.1005177E1,5.6204762E0,1.3248236E0,1.0414338E0,1.4746394E0,2.6793356E0,1.7947186E0,1.1397865E0,1.1944417E0,1.0380751E0,3.8892105E1,2.113074E0,3.8678863E0,1.7525901E0],"tree_param":{"num_deleted":"0","num_feature":"6","num_nodes":"23","size_leaf_vector":"0"}},{"base_weights":[-4.6539605E-3,7.81654E-2,-1.01098835E-1,4.1083732E-1,-8.07085E-5,-2.2483632E-1,1.699747E-1,-6.574554E-2,6.368474E-1,2.4992919E-1,-1.8396182E-1,-9.334809E-2,-9.2973E-1,3.362135E-1,-5.8116204E-1,8.0346346E-1,1.1003969E-1,5.0686294E-1,-3.6728618E-1,-7.350337E-1,2.5424803E-2,-1.8602544E-1,4.5315984E-1,-3.2920063E-1,5.130678E-1],"categories":[],"categories_nodes":[],"categories_segments":[],"categories_sizes":[],"default_left":[1,1,0,0,1,0,1,0,1,0,0,0,0,1,0,0,0,0,0,0,0,0,0,0,0],"id":28,"left_children":[1,3,5,7,9,11,13,-1,15,17,19,21,-1,23,-1,-1,-1,-1,-1,-1,-1,-1,-1,-1,-1],"loss_changes":[4.7467706E-1,8.331038E-1,9.584136E-1,6.983032E-1,1.2830682E0,1.69894E0,1.3401374E0,0E0,2.8265178E-1,2.0619128E0,1.8742793E0,9.630217E-1,0E0,1.1268106E0,0E0,0E0,0E0,0E0,0E0,0E0,0E0,0E0,0E0,0E0,0E0],"parents":[2147483647,0,0,1,1,2,2,3,3,4,4,5,5,6,6,8,8,9,9,10,10,11,11,13,13],"right_children":[2,4,6,8,10,12,14,-1,16,18,20,22,-1,24,-1,-1,-1,-1,-1,-1,-1,-1,-1,-1,-1],"split_conditions":[1.3125E0,2.004E1,2.64E2,1.8125E1,1.395E0,2.105E2,1.59E2,-1.9723663E-2,3.875E2,2.94E2,2.3375E1,1.87E2,-2.78919E-1,1.875E0,-1.7434862E-1,2.4103905E-1,3.301191E-2,1.5205888E-1,-1.10185854E-1,-2.2051011E-1,7.627441E-3,-5.5807635E-2,1.3594796E-1,-9.8760195E-2,1.5392034E-1],"split_indices":[3,5,1,5,4,1,0,0,0,1,5,1,0,3,0,0,0,0,0,0,0,0,0,0,0],"split_type":[0,0,0,0,0,0,0,0,0,0,0,0,0,0,0,0,0,0,0,0,0,0,0,0,0],"sum_hessian":[5.7438118E1,3.1003908E1,2.6434212E1,5.09431E0,2.5909597E1,1.8266594E1,8.167618E0,1.8668416E0,3.2274683E0,1.0828152E1,1.5081447E1,1.6349287E1,1.9173062E0,7.1398473E0,1.0277706E0,2.0530002E0,1.1744679E0,7.7717338E0,3.056418E0,3.461341E0,1.1620106E1,1.4542727E1,1.8065591E0,1.3183048E0,5.8215423E0],"tree_param":{"num_deleted":"0","num_feature":"6","num_nodes":"25","size_leaf_vector":"0"}},{"base_weights":[-5.8093923E-3,1.1471876E-1,-9.181004E-2,-1.9338546E-2,3.9961004E-1,-5.5826116E-1,-1.0730281E-2,9.578161E-2,-8.69316E-1,9.613525E-2,6.558451E-1,-8.705559E-1,-9.746724E-2,3.5718483E-1,-9.10977E-2,-1.19056895E-1,3.865472E-1,3.9757383E-1,-4.8213354E-1,2.01592E-1,8.14882E-1,2.6434875E-1,-4.0639853E-1,-1.5311743E-1,7.616366E-1,-4.609968E-1,-2.1542683E-3],"categories":[],"categories_nodes":[],"categories_segments":[],"categories_sizes":[],"default_left":[1,0,0,0,1,1,0,0,0,0,1,0,1,0,1,0,0,0,0,0,0,0,0,0,0,0,0],"id":29,"left_children":[1,3,5,7,9,11,13,15,-1,17,19,-1,21,23,25,-1,-1,-1,-1,-1,-1,-1,-1,-1,-1,-1,-1],"loss_changes":[6.042636E-1,9.3564713E-1,1.2792474E0,1.7932538E0,5.4508865E-1,6.3649833E-1,9.187187E-1,1.0637373E0,0E0,1.0200235E0,1.2965286E-1,0E0,4.596383E-1,1.267524E0,8.3447963E-1,0E0,0E0,0E0,0E0,0E0,0E0,0E0,0E0,0E0,0E0,0E0,0E0],"parents":[2147483647,0,0,1,1,2,2,3,3,4,4,5,5,6,6,7,7,9,9,10,10,12,12,13,13,14,14],"right_children":[2,4,6,8,10,12,14,16,-1,18,20,-1,22,24,26,-1,-1,-1,-1,-1,-1,-1,-1,-1,-1,-1,-1],"split_conditions":[2.571E1,2.346E1,2.779E1,2.3125E1,1.7075E0,1.52E0,2.9625E1,1.305E2,-2.6079482E-1,3.4E2,2.425E1,-2.6116678E-1,1.05E1,2.854E1,5.2E-1,-3.571707E-2,1.1596417E-1,1.1927215E-1,-1.4464007E-1,6.0477603E-2,2.444646E-1,7.930463E-2,-1.21919565E-1,-4.5935232E-2,2.28491E-1,-1.3829905E-1,-6.4628053E-4],"split_indices":[5,5,5,5,3,4,5,1,0,1,5,0,0,5,4,0,0,0,0,0,0,0,0,0,0,0,0],"split_type":[0,0,0,0,0,0,0,0,0,0,0,0,0,0,0,0,0,0,0,0,0,0,0,0,0,0,0],"sum_hessian":[5.6279568E1,2.3296322E1,3.2983246E1,1.64757E1,6.8206205E0,4.0127277E0,2.8970518E1,1.5291894E1,1.1838071E0,3.752038E0,3.0685828E0,1.8617252E0,2.1510026E0,4.5762844E0,2.4394234E1,9.133758E0,6.158136E0,2.6717763E0,1.0802616E0,1.3837608E0,1.684822E0,1.057171E0,1.0938317E0,2.2981267E0,2.2781577E0,3.9178004E0,2.0476433E1],"tree_param":{"num_deleted":"0","num_feature":"6","num_nodes":"27","size_leaf_vector":"0"}},{"base_weights":[-6.007124E-3,-2.679985E-2,3.8609678E-1,2.875177E-1,-5.1830266E-2,5.5118465E-1,-9.5001295E-2,-3.2008058E-1,-2.5287883E-3,-5.728523E-1,-1.4714601E-2,5.891188E-1,-6.449073E-2],"categories":[],"categories_nodes":[],"categories_segments":[],"categories_sizes":[],"default_left":[0,1,0,1,0,0,0,0,0,0,0,0,0],"id":30,"left_children":[1,3,-1,5,7,-1,-1,9,11,-1,-1,-1,-1],"loss_changes":[4.70649E-1,4.4407833E-1,0E0,4.7358492E-1,6.786203E-1,0E0,0E0,6.066132E-1,1.6659005E0,0E0,0E0,0E0,0E0],"parents":[2147483647,0,0,1,1,3,3,4,4,7,7,8,8],"right_children":[2,4,-1,6,8,-1,-1,10,12,-1,-1,-1,-1],"split_conditions":[7.155E2,1.796E1,1.15829036E-1,1.1875E0,2.104E1,1.653554E-1,-2.850039E-2,1.04E2,2.2625E1,-1.718557E-1,-4.4143805E-3,1.7673564E-1,-1.9347219E-2],"split_indices":[1,5,0,3,5,0,0,1,5,0,0,0,0],"split_type":[0,0,0,0,0,0,0,0,0,0,0,0,0],"sum_hessian":[5.545858E1,5.355052E1,1.9080588E0,3.176399E0,5.0374123E1,1.6192975E0,1.5571015E0,6.9681225E0,4.3406002E1,3.333122E0,3.6350005E0,3.3083408E0,4.009766E1],"tree_param":{"num_deleted":"0","num_feature":"6","num_nodes":"13","size_leaf_vector":"0"}},{"base_weights":[5.708404E-4,2.3883402E-2,-2.79256E-1,1.0667867E-1,-1.00914106E-1,-5.462053E-1,1.4619726E-1,1.5050828E-1,-4.027696E-1,-8.269913E-1,3.956243E-2,-1.3351077E-1,2.820693E-1,-1.0730668E-1,4.4870824E-1],"categories":[],"categories_nodes":[],"categories_segments":[],"categories_sizes":[],"default_left":[1,1,0,1,0,0,0,1,0,0,0,0,0,0,0],"id":31,"left_children":[1,3,5,7,9,-1,-1,11,-1,-1,13,-1,-1,-1,-1],"loss_changes":[3.7412083E-1,5.575369E-1,5.807831E-1,7.817975E-1,2.2377868E0,0E0,0E0,1.1760952E0,0E0,0E0,1.1940044E0,0E0,0E0,0E0,0E0],"parents":[2147483647,0,0,1,1,2,2,3,3,4,4,7,7,10,10],"right_children":[2,4,6,8,10,-1,-1,12,-1,-1,14,-1,-1,-1,-1],"split_conditions":[1.322E3,2.14E2,2.08E2,8.395E0,2.395E2,-1.6386159E-1,4.385918E-2,2.2125E1,-1.20830886E-1,-2.480974E-1,3.7625E1,-4.0053234E-2,8.462079E-2,-3.2192007E-2,1.3461247E-1],"split_indices":[0,1,1,3,1,0,0,5,0,0,5,0,0,0,0],"split_type":[0,0,0,0,0,0,0,0,0,0,0,0,0,0,0],"sum_hessian":[5.5327488E1,5.1916904E1,3.4105828E0,3.1297905E1,2.0619E1,1.9212689E0,1.4893137E0,2.9467297E1,1.830608E0,2.5502985E0,1.80687E1,9.323829E0,2.0143467E1,1.3838787E1,4.229913E0],"tree_param":{"num_deleted":"0","num_feature":"6","num_nodes":"15","size_leaf_vector":"0"}},{"base_weights":[-5.372559E-3,7.22957E-2,-9.643723E-2,3.7252873E-1,3.1573202E-3,-3.8803086E-2,-6.4223635E-1,-1.19020134E-1,6.223115E-1,2.1064267E-1,-1.4399351E-1,-1.2522912E-1,6.028698E-1,7.68746E-1,1.371804E-1,-9.460188E-2,6.6329426E-1,-2.638301E-1,3.7364298E-1,-3.36105E-2,-7.166814E-1,7.24192E-1,1.7973776E-1],"categories":[],"categories_nodes":[],"categories_segments":[],"categories_sizes":[],"default_left":[1,1,1,0,1,1,0,0,1,1,1,1,1,0,0,0,0,0,0,0,0,0,0],"id":32,"left_children":[1,3,5,7,9,11,-1,-1,13,15,17,19,21,-1,-1,-1,-1,-1,-1,-1,-1,-1,-1],"loss_changes":[4.0206212E-1,6.364802E-1,7.973905E-1,7.790007E-1,8.234737E-1,1.44577E0,0E0,0E0,1.7639136E-1,1.6081862E0,1.0782235E0,1.200763E0,2.922821E-2,0E0,0E0,0E0,0E0,0E0,0E0,0E0,0E0,0E0,0E0],"parents":[2147483647,0,0,1,1,2,2,3,3,4,4,5,5,8,8,9,9,10,10,11,11,12,12],"right_children":[2,4,6,8,10,12,-1,-1,14,16,18,20,22,-1,-1,-1,-1,-1,-1,-1,-1,-1,-1],"split_conditions":[1.3125E0,2.004E1,1.22275E1,1.8125E1,1.395E0,1.075E1,-1.9267091E-1,-3.5706043E-2,3.875E2,6.05E-1,1.2125E1,8.5825E0,1.75E1,2.3062381E-1,4.1154124E-2,-2.8380563E-2,1.9898829E-1,-7.914903E-2,1.120929E-1,-1.008315E-2,-2.1500443E-1,2.1725762E-1,5.392133E-2],"split_indices":[3,5,4,5,4,4,0,0,0,4,4,4,0,0,0,0,0,0,0,0,0,0,0],"split_type":[0,0,0,0,0,0,0,0,0,0,0,0,0,0,0,0,0,0,0,0,0,0,0],"sum_hessian":[5.4860218E1,2.9719135E1,2.5141083E1,4.741413E0,2.4977722E1,2.3708643E1,1.4324412E0,1.7739505E0,2.9674625E0,1.0185088E1,1.4792634E1,2.1603708E1,2.104934E0,1.8303612E0,1.1371014E0,6.5554447E0,3.6296434E0,1.2409957E1,2.3826766E0,1.9621134E1,1.9825747E0,1.0829284E0,1.0220057E0],"tree_param":{"num_deleted":"0","num_feature":"6","num_nodes":"23","size_leaf_vector":"0"}},{"base_weights":[2.8279985E-3,3.2516757E-1,-2.2404464E-2,-2.9117541E-2,5.182842E-1,1.2257349E-2,-2.7570543E-1,-3.8001436E-1,6.1529994E-2,2.6363733E-1,-4.533215E-1,-3.2588392E-2,-6.6436285E-1,1.594283E-1,-7.791272E-2,-6.71601E-1,-2.327658E-2],"categories":[],"categories_nodes":[],"categories_segments":[],"categories_sizes":[],"default_left":[1,1,1,0,0,1,1,1,1,0,1,0,0,0,0,0,0],"id":33,"left_children":[1,3,5,-1,-1,7,9,11,13,-1,15,-1,-1,-1,-1,-1,-1],"loss_changes":[4.5544022E-1,2.9318103E-1,4.602477E-1,0E0,0E0,9.265883E-1,7.2360903E-1,5.07272E-1,5.9090227E-1,0E0,4.6418917E-1,0E0,0E0,0E0,0E0,0E0,0E0],"parents":[2147483647,0,0,1,1,2,2,5,5,6,6,7,7,8,8,10,10],"right_children":[2,4,6,-1,-1,8,10,12,14,-1,16,-1,-1,-1,-1,-1,-1],"split_conditions":[1.796E1,1.6165E1,3.5E0,-8.735263E-3,1.5548527E-1,2.6999998E-1,1.25E0,1.6749999E-1,4.2075E0,7.9091206E-2,6.875E0,-9.776518E-3,-1.9930886E-1,4.782849E-2,-2.3373816E-2,-2.0148031E-1,-6.9829742E-3],"split_indices":[5,5,2,0,0,4,4,3,4,0,4,0,0,0,0,0,0],"split_type":[0,0,0,0,0,0,0,0,0,0,0,0,0,0,0,0,0],"sum_hessian":[5.4100433E1,3.0645502E0,5.103588E1,1.3807313E0,1.6838189E0,4.5729805E1,5.306077E0,4.354006E0,4.13758E1,1.1945223E0,4.1115546E0,2.4613085E0,1.8926973E0,2.4224924E1,1.7150875E1,2.3546805E0,1.756874E0],"tree_param":{"num_deleted":"0","num_feature":"6","num_nodes":"17","size_leaf_vector":"0"}},{"base_weights":[-1.3818989E-3,1.4175615E-1,-5.1053133E-2,-8.443223E-3,8.927981E-1,-5.3669643E-1,-3.2547459E-3,-1.6228662E-1,5.654581E-1,1.430454E-1,-8.5659087E-1,3.041141E-1,-6.693182E-2,3.222827E-1,-2.9472938E-1,-1.9401284E-3,6.404165E-1,-5.3016293E-1,-7.955461E-3],"categories":[],"categories_nodes":[],"categories_segments":[],"categories_sizes":[],"default_left":[1,1,0,0,0,1,0,0,0,0,0,1,0,0,0,0,0,0,0],"id":34,"left_children":[1,3,5,7,-1,9,11,13,-1,-1,-1,15,17,-1,-1,-1,-1,-1,-1],"loss_changes":[3.9360452E-1,1.6166536E0,9.517991E-1,1.2287583E0,0E0,9.215696E-1,7.720017E-1,7.96606E-1,0E0,0E0,0E0,6.9816035E-1,8.8729167E-1,0E0,0E0,0E0,0E0,0E0,0E0],"parents":[2147483647,0,0,1,1,2,2,3,3,5,5,6,6,7,7,11,11,12,12],"right_children":[2,4,6,8,-1,10,12,14,-1,-1,-1,16,18,-1,-1,-1,-1,-1,-1],"split_conditions":[2.2625E1,2.2125E1,2.3375E1,2.5E2,2.6783946E-1,1.375E0,2.571E1,1.796E1,1.6963744E-1,4.291362E-2,-2.5697726E-1,1.7075E0,2.7085E1,9.668481E-2,-8.841882E-2,-5.8203854E-4,1.9212496E-1,-1.5904889E-1,-2.3866384E-3],"split_indices":[5,5,5,1,0,4,5,5,0,0,0,3,5,0,0,0,0,0,0],"split_type":[0,0,0,0,0,0,0,0,0,0,0,0,0,0,0,0,0,0,0],"sum_hessian":[5.3342606E1,1.3264444E1,4.007816E1,1.1877788E1,1.3866568E0,2.6746566E0,3.7403503E1,9.932457E0,1.9453313E0,1.0328325E0,1.6418241E0,5.771007E0,3.1632496E1,1.8243433E0,8.108113E0,3.5419042E0,2.2291028E0,2.6701705E0,2.8962326E1],"tree_param":{"num_deleted":"0","num_feature":"6","num_nodes":"19","size_leaf_vector":"0"}},{"base_weights":[4.4205924E-3,4.6208497E-2,-1.631284E-1,1.2426979E-3,5.783158E-1,-7.158658E-1,3.948862E-3,7.4782304E-2,-3.855093E-1,-1.1338042E-1,4.9530396E-1,2.1128668E-2,7.5232345E-1,-6.080038E-1,1.0122055E-1,-4.1750193E-1,1.8283546E-1],"categories":[],"categories_nodes":[],"categories_segments":[],"categories_sizes":[],"default_left":[1,0,0,1,0,0,1,1,1,1,0,0,0,0,0,0,0],"id":35,"left_children":[1,3,5,7,-1,-1,9,11,13,15,-1,-1,-1,-1,-1,-1,-1],"loss_changes":[3.8481644E-1,1.0498493E0,1.016581E0,1.2088345E0,0E0,0E0,5.9944737E-1,1.281807E0,7.969736E-1,8.3495134E-1,0E0,0E0,0E0,0E0,0E0,0E0,0E0],"parents":[2147483647,0,0,1,1,2,2,3,3,6,6,7,7,8,8,9,9],"right_children":[2,4,6,8,-1,-1,10,12,14,16,-1,-1,-1,-1,-1,-1,-1],"split_conditions":[4.096E1,3.829E1,4.2625E1,3.51E2,1.7349474E-1,-2.1475975E-1,3.425E2,3.16E2,2.05E1,4.5225E0,1.4859119E-1,6.3386005E-3,2.2569704E-1,-1.8240115E-1,3.0366166E-2,-1.2525058E-1,5.485064E-2],"split_indices":[5,5,5,1,0,0,1,1,0,4,0,0,0,0,0,0,0],"split_type":[0,0,0,0,0,0,0,0,0,0,0,0,0,0,0,0,0],"sum_hessian":[5.2885216E1,4.290789E1,9.977324E0,4.0488724E1,2.4191694E0,1.5534489E0,8.423874E0,3.469771E1,5.7910137E0,7.421068E0,1.0028062E0,3.3107178E1,1.5905315E0,3.8032892E0,1.9877245E0,3.4596417E0,3.9614265E0],"tree_param":{"num_deleted":"0","num_feature":"6","num_nodes":"17","size_leaf_vector":"0"}},{"base_weights":[6.0014413E-3,7.018309E-2,-1.1315398E-1,1.0003621E-1,-4.0527982E-1,2.6584698E-2,-3.7961844E-1,-3.5359874E-1,1.3245486E-1,-1.251091E-1,3.304041E-1,-1.4693977E-1,-4.302199E-1,1.7968588E-1,-1.7271084E-1,3.7531976E-2,-7.336445E-1,-8.748367E-2,4.844714E-1,-1.4958134E-1,-5.65288E-1],"categories":[],"categories_nodes":[],"categories_segments":[],"categories_sizes":[],"default_left":[1,1,1,0,0,1,0,0,1,1,0,0,1,0,0,0,0,0,0,0,0],"id":36,"left_children":[1,3,5,7,-1,9,11,-1,13,15,17,-1,19,-1,-1,-1,-1,-1,-1,-1,-1],"loss_changes":[4.1683576E-1,5.425408E-1,7.2129816E-1,5.4801565E-1,0E0,6.6186386E-1,1.4916837E-2,0E0,4.9995416E-1,9.8813295E-1,3.4874493E-1,0E0,1.0239482E-1,0E0,0E0,0E0,0E0,0E0,0E0,0E0,0E0],"parents":[2147483647,0,0,1,1,2,2,3,3,5,5,6,6,8,8,9,9,10,10,12,12],"right_children":[2,4,6,8,-1,10,12,-1,14,16,18,-1,20,-1,-1,-1,-1,-1,-1,-1,-1],"split_conditions":[5E-1,5.3875E1,2.155E2,1.8125E1,-1.21583946E-1,2.05E1,2.254E1,-1.0607963E-1,4.54E0,1.05E1,9E1,-4.4081934E-2,2.5E0,5.3905766E-2,-5.1813252E-2,1.1259593E-2,-2.2009335E-1,-2.62451E-2,1.4534143E-1,-4.4874404E-2,-1.695864E-1],"split_indices":[2,5,0,5,0,0,5,0,3,0,1,0,2,0,0,0,0,0,0,0,0],"split_type":[0,0,0,0,0,0,0,0,0,0,0,0,0,0,0,0,0,0,0,0,0],"sum_hessian":[5.2467068E1,3.43668E1,1.8100271E1,3.3079426E1,1.2873718E0,1.2464106E1,5.636165E0,1.5455288E0,3.1533897E1,8.705669E0,3.758436E0,1.7041057E0,3.9320595E0,2.7663548E1,3.8703494E0,7.6100755E0,1.0955937E0,1.1288226E0,2.6296134E0,1.9623101E0,1.9697496E0],"tree_param":{"num_deleted":"0","num_feature":"6","num_nodes":"21","size_leaf_vector":"0"}},{"base_weights":[-6.530914E-3,9.55146E-3,-4.181021E-1,-1.9963073E-2,1.9365764E-1,2.590547E-2,-6.564388E-1,-1.3497059E-1,4.4696304E-1,-1.7854781E-4,5.3001535E-1,-2.0737451E-1,-7.857621E-1,3.5739458E-1,-4.4104674E-1,7.4396664E-1,-2.6012468E-1],"categories":[],"categories_nodes":[],"categories_segments":[],"categories_sizes":[],"default_left":[1,0,0,0,1,0,1,0,1,0,0,0,0,0,0,0,0],"id":37,"left_children":[1,3,-1,5,7,9,11,13,15,-1,-1,-1,-1,-1,-1,-1,-1],"loss_changes":[3.5215133E-1,2.8424528E-1,0E0,1.3417366E0,6.615552E-1,5.6930083E-1,1.6402364E-2,7.471575E-1,1.0987896E0,0E0,0E0,0E0,0E0,0E0,0E0,0E0,0E0],"parents":[2147483647,0,0,1,1,3,3,4,4,5,5,6,6,7,7,8,8],"right_children":[2,4,-1,6,8,10,12,14,16,-1,-1,-1,-1,-1,-1,-1,-1],"split_conditions":[4.0355E3,3.995E2,-1.2543063E-1,3.58E2,1.625E0,3.245E2,2.846E1,4.265E2,4.125E0,-5.3564345E-5,1.5900461E-1,-6.2212355E-2,-2.3572864E-1,1.0721838E-1,-1.3231403E-1,2.2319E-1,-7.803741E-2],"split_indices":[0,1,0,1,4,1,5,1,3,0,0,0,0,0,0,0,0],"split_type":[0,0,0,0,0,0,0,0,0,0,0,0,0,0,0,0,0],"sum_hessian":[5.1599438E1,5.0599045E1,1.0003932E0,4.4376503E1,6.2225432E0,4.228824E1,2.0882642E0,2.9119105E0,3.3106327E0,4.1158245E1,1.1299938E0,1.0490524E0,1.0392119E0,1.0519845E0,1.8599259E0,2.2946408E0,1.0159919E0],"tree_param":{"num_deleted":"0","num_feature":"6","num_nodes":"17","size_leaf_vector":"0"}},{"base_weights":[-6.9503775E-3,5.450359E-2,-9.635515E-2,9.675363E-2,-4.5063347E-1,-1.7269878E-1,3.590925E-1,1.9278564E-1,-1.3359432E-1,-7.191467E-2,-6.468984E-1,7.3691255E-1,-1.9691768E-1,-3.0542624E-1,2.5054583E-1,2.6234198E-1,-3.1318244E-1,3.9675033E-1,-1.4792107E-1],"categories":[],"categories_nodes":[],"categories_segments":[],"categories_sizes":[],"default_left":[1,1,1,1,0,1,1,0,1,1,0,0,0,0,0,0,0,0,0],"id":38,"left_children":[1,3,5,7,-1,9,11,13,15,17,-1,-1,-1,-1,-1,-1,-1,-1,-1],"loss_changes":[2.917144E-1,7.166852E-1,8.1307316E-1,6.877621E-1,0E0,8.6987334E-1,8.647529E-1,6.961093E-1,7.502816E-1,6.6207504E-1,0E0,0E0,0E0,0E0,0E0,0E0,0E0,0E0,0E0],"parents":[2147483647,0,0,1,1,2,2,3,3,5,5,6,6,7,7,8,8,9,9],"right_children":[2,4,6,8,-1,10,12,14,16,18,-1,-1,-1,-1,-1,-1,-1,-1,-1],"split_conditions":[2.105E2,1.2305E3,5.6675E0,8.5425E0,-1.3519004E-1,4.2075E0,1.6E1,1.8125E1,2.9250002E-1,2.3125E1,-1.9406952E-1,2.2107378E-1,-5.9075307E-2,-9.162787E-2,7.516375E-2,7.87026E-2,-9.3954735E-2,1.19025104E-1,-4.437632E-2],"split_indices":[1,0,4,4,0,4,0,5,3,5,0,0,0,0,0,0,0,0,0],"split_type":[0,0,0,0,0,0,0,0,0,0,0,0,0,0,0,0,0,0,0],"sum_hessian":[5.1138374E1,3.0537945E1,2.060043E1,2.8926935E1,1.6110097E0,1.8174736E1,2.425694E0,2.053074E1,8.3961935E0,1.59388275E1,2.2359073E0,1.2505572E0,1.1751368E0,1.6874831E0,1.8843258E1,2.4761815E0,5.920012E0,1.6353146E0,1.4303514E1],"tree_param":{"num_deleted":"0","num_feature":"6","num_nodes":"19","size_leaf_vector":"0"}},{"base_weights":[-6.7229085E-3,4.8078578E-2,-1.0831732E-1,-1.8440592E-1,1.0032996E-1,6.356944E-3,-3.304571E-1,1.9566534E-1,-5.0065976E-1,-4.2844814E-1,1.3728614E-1,-2.1281385E-1,1.6874635E-1,-3.9568728E-1,-1.0387435E-1,-9.4078E-2,4.7337818E-1,-7.2484803E-1,-8.392824E-2,3.5023838E-1,9.618142E-3,1.2688975E-1,-3.5798714E-1,5.8892626E-1,8.8379625E-3,-4.8843935E-1,-6.7668185E-2],"categories":[],"categories_nodes":[],"categories_segments":[],"categories_sizes":[],"default_left":[1,1,1,1,0,1,1,1,1,0,1,1,0,0,0,0,0,0,0,0,0,0,0,0,0,0,0],"id":39,"left_children":[1,3,5,7,9,11,13,15,17,-1,19,21,23,25,-1,-1,-1,-1,-1,-1,-1,-1,-1,-1,-1,-1,-1],"loss_changes":[2.92195E-1,4.336732E-1,4.7003955E-1,8.941783E-1,6.1679226E-1,5.020255E-1,5.16147E-2,3.444719E-1,3.0321175E-1,0E0,7.4278736E-1,3.421086E-1,5.377198E-1,1.0431075E-1,0E0,0E0,0E0,0E0,0E0,0E0,0E0,0E0,0E0,0E0,0E0,0E0,0E0],"parents":[2147483647,0,0,1,1,2,2,3,3,4,4,5,5,6,6,7,7,8,8,10,10,11,11,12,12,13,13],"right_children":[2,4,6,8,10,12,14,16,18,-1,20,22,24,26,-1,-1,-1,-1,-1,-1,-1,-1,-1,-1,-1,-1,-1],"split_conditions":[5E-1,6.25E-2,2.155E2,1.7075E0,1.8125E1,5E-1,9.69E2,3.1E1,5E-1,-1.2853445E-1,8.125E-1,1.0425E0,2.071E1,2.8125E1,-3.1162305E-2,-2.8223401E-2,1.4201346E-1,-2.1745442E-1,-2.5178473E-2,1.0507152E-1,2.8854427E-3,3.8066927E-2,-1.0739615E-1,1.7667788E-1,2.6513888E-3,-1.465318E-1,-2.0300455E-2],"split_indices":[2,3,0,4,5,0,0,1,0,0,3,3,5,5,0,0,0,0,0,0,0,0,0,0,0,0,0],"split_type":[0,0,0,0,0,0,0,0,0,0,0,0,0,0,0,0,0,0,0,0,0,0,0,0,0,0,0],"sum_hessian":[5.0546642E1,3.3177162E1,1.7369478E1,5.624152E0,2.755301E1,1.2096393E1,5.2730865E0,2.727531E0,2.8966212E0,1.1078744E0,2.6445137E1,5.0159883E0,7.0804043E0,3.5148745E0,1.7582121E0,1.6584632E0,1.0690676E0,1.4026667E0,1.4939547E0,9.258486E0,1.7186651E1,1.5395062E0,3.4764822E0,1.2122262E0,5.868178E0,2.3588252E0,1.156049E0],"tree_param":{"num_deleted":"0","num_feature":"6","num_nodes":"27","size_leaf_vector":"0"}},{"base_weights":[-8.677478E-3,2.4915847E-1,-2.9130606E-2,4.685858E-1,-6.7314416E-2,-2.1373357E-1,9.800403E-3,1.1903859E-2,-5.837155E-1,4.265829E-1,-3.1606864E-2,2.8107476E-1,-1.9944115E-1,-7.860433E-1,-8.1936836E-2,7.0043224E-1,-6.0518287E-2,-7.448465E-2,4.2122272E-1],"categories":[],"categories_nodes":[],"categories_segments":[],"categories_sizes":[],"default_left":[1,1,1,0,0,1,1,0,1,1,0,0,0,0,0,0,0,0,0],"id":40,"left_children":[1,3,5,-1,-1,7,9,11,13,15,17,-1,-1,-1,-1,-1,-1,-1,-1],"loss_changes":[2.7469945E-1,2.976424E-1,3.4621033E-1,0E0,0E0,7.067764E-1,7.124035E-1,4.0804043E-1,2.6003408E-1,5.397974E-1,7.647264E-1,0E0,0E0,0E0,0E0,0E0,0E0,0E0,0E0],"parents":[2147483647,0,0,1,1,2,2,5,5,6,6,7,7,8,8,9,9,10,10],"right_children":[2,4,6,-1,-1,8,10,12,14,16,18,-1,-1,-1,-1,-1,-1,-1,-1],"split_conditions":[1.796E1,1.1875E0,5.2E-1,1.4057574E-1,-2.0194326E-2,3.35E1,8.55E-1,2.571E1,3.305E2,1.335E2,4.37E2,8.432243E-2,-5.9832346E-2,-2.3581299E-1,-2.4581052E-2,2.1012968E-1,-1.8155487E-2,-2.2345394E-2,1.2636682E-1],"split_indices":[5,3,4,0,0,0,4,5,0,0,1,0,0,0,0,0,0,0,0],"split_type":[0,0,0,0,0,0,0,0,0,0,0,0,0,0,0,0,0,0,0],"sum_hessian":[4.971369E1,2.83193E0,4.6881763E1,1.3885349E0,1.443395E0,7.3830023E0,3.949876E1,5.187299E0,2.1957037E0,2.7289133E0,3.6769848E1,2.1364121E0,3.0508866E0,1.1610354E0,1.0346682E0,1.4664893E0,1.262424E0,3.4352566E1,2.417282E0],"tree_param":{"num_deleted":"0","num_feature":"6","num_nodes":"19","size_leaf_vector":"0"}},{"base_weights":[-1.6040541E-3,1.3721773E-2,-2.9764095E-1,-1.5996045E-2,3.1763533E-1,3.436695E-2,-2.317308E-1,6.2542397E-1,-2.519585E-1,2.8930244E-1,-2.564764E-2,-5.506753E-1,2.194579E-1],"categories":[],"categories_nodes":[],"categories_segments":[],"categories_sizes":[],"default_left":[1,0,0,0,1,1,1,0,0,0,0,0,0],"id":41,"left_children":[1,3,-1,5,7,9,11,-1,-1,-1,-1,-1,-1],"loss_changes":[2.3287371E-1,4.467392E-1,0E0,5.022957E-1,9.2962396E-1,5.8509946E-1,1.3786042E0,0E0,0E0,0E0,0E0,0E0,0E0],"parents":[2147483647,0,0,1,1,3,3,4,4,5,5,6,6],"right_children":[2,4,-1,6,8,10,12,-1,-1,-1,-1,-1,-1],"split_conditions":[5.8625E1,4.8665E1,-8.929229E-2,3.7375E1,7.3325E0,3.4E1,2.35E2,1.876272E-1,-7.558755E-2,8.679073E-2,-7.6942923E-3,-1.6520259E-1,6.583737E-2],"split_indices":[5,5,0,5,4,1,1,0,0,0,0,0,0],"split_type":[0,0,0,0,0,0,0,0,0,0,0,0,0],"sum_hessian":[4.9427383E1,4.7901188E1,1.5261956E0,4.449743E1,3.4037602E0,3.6757202E1,7.740223E0,2.1460774E0,1.2576827E0,6.276171E0,3.0481033E1,4.405491E0,3.334732E0],"tree_param":{"num_deleted":"0","num_feature":"6","num_nodes":"13","size_leaf_vector":"0"}},{"base_weights":[-6.8387314E-4,-1.475269E-1,2.9461524E-2,3.6600288E-2,-4.5686626E-1,7.090816E-2,-2.7927276E-1,3.5220334E-1,-1.5769757E-1,-5.260508E-2,-6.952474E-1,-3.6037773E-2,1.9378737E-1,-5.294299E-1,1.07445635E-1,-5.232412E-1,1.4948599E-1,-3.6379486E-1,9.315241E-2,7.22258E-1,9.064752E-2],"categories":[],"categories_nodes":[],"categories_segments":[],"categories_sizes":[],"default_left":[1,1,1,1,0,1,1,0,0,0,0,0,1,0,0,0,0,0,0,0,0],"id":42,"left_children":[1,3,5,7,9,11,13,-1,15,-1,-1,17,19,-1,-1,-1,-1,-1,-1,-1,-1],"loss_changes":[2.2629717E-1,5.126229E-1,5.62779E-1,4.469938E-1,2.8364044E-1,5.0909805E-1,5.623341E-1,0E0,5.994506E-1,0E0,0E0,9.3460447E-1,9.12188E-1,0E0,0E0,0E0,0E0,0E0,0E0,0E0,0E0],"parents":[2147483647,0,0,1,1,2,2,3,3,4,4,5,5,6,6,8,8,11,11,12,12],"right_children":[2,4,6,8,10,12,14,-1,16,-1,-1,18,20,-1,-1,-1,-1,-1,-1,-1,-1],"split_conditions":[5.2E-1,3.75E1,3.5E0,2.3125E1,2.8545E1,5E-1,6.875E0,1.05661005E-1,3.133E1,-1.5781526E-2,-2.0857424E-1,2.3335E1,5.5E0,-1.5882897E-1,3.2233693E-2,-1.5697238E-1,4.4845797E-2,-1.0913847E-1,2.7945725E-2,2.166774E-1,2.7194256E-2],"split_indices":[4,0,2,5,5,0,4,0,5,0,0,5,0,0,0,0,0,0,0,0,0],"split_type":[0,0,0,0,0,0,0,0,0,0,0,0,0,0,0,0,0,0,0,0,0],"sum_hessian":[4.913977E1,7.706472E0,4.14333E1,5.383656E0,2.322816E0,3.72085E1,4.2248006E0,1.7417647E0,3.6418915E0,1.3144197E0,1.0083963E0,2.02719E1,1.6936598E1,2.3412683E0,1.8835324E0,1.341809E0,2.3000824E0,5.217945E0,1.5053955E1,1.7854677E0,1.5151131E1],"tree_param":{"num_deleted":"0","num_feature":"6","num_nodes":"21","size_leaf_vector":"0"}},{"base_weights":[-4.062825E-3,2.4956899E-2,-1.6433008E-1,1.1903656E-3,4.904136E-1,-5.625518E-1,7.185543E-2,8.201488E-2,-1.3949122E-1,2.3880035E-1,-2.8235123E-1,1.02695925E-2,3.6654642E-1,2.022764E-2,-4.5915627E-1,-2.1427958E-1,6.788979E-1],"categories":[],"categories_nodes":[],"categories_segments":[],"categories_sizes":[],"default_left":[1,1,0,1,0,0,1,0,1,1,0,0,0,0,0,0,0],"id":43,"left_children":[1,3,5,7,-1,-1,9,11,13,15,-1,-1,-1,-1,-1,-1,-1],"loss_changes":[2.3393226E-1,4.7186953E-1,7.653831E-1,4.848644E-1,0E0,0E0,4.0596431E-1,5.4890656E-1,8.038651E-1,1.0293859E0,0E0,0E0,0E0,0E0,0E0,0E0,0E0],"parents":[2147483647,0,0,1,1,2,2,3,3,6,6,7,7,8,8,9,9],"right_children":[2,4,6,8,-1,-1,10,12,14,16,-1,-1,-1,-1,-1,-1,-1],"split_conditions":[3.58E2,3.245E2,3.995E2,1.5425E0,1.4712408E-1,-1.6876554E-1,4.4375E0,3.829E1,3.921E1,1.625E0,-8.470537E-2,3.080878E-3,1.0996393E-1,6.0682925E-3,-1.3774689E-1,-6.428388E-2,2.0366938E-1],"split_indices":[1,1,1,3,0,0,3,5,5,3,0,0,0,0,0,0,0],"split_type":[0,0,0,0,0,0,0,0,0,0,0,0,0,0,0,0,0],"sum_hessian":[4.841635E1,4.1708447E1,6.7079034E0,4.0636097E1,1.0723493E0,1.9828641E0,4.7250395E0,2.60734E1,1.4562697E1,3.4328723E0,1.2921671E0,2.1650316E1,4.4230843E0,1.0335397E1,4.2273006E0,1.9443132E0,1.4885591E0],"tree_param":{"num_deleted":"0","num_feature":"6","num_nodes":"17","size_leaf_vector":"0"}},{"base_weights":[-2.2984478E-3,1.3587808E-2,-3.1610256E-1,-2.523571E-1,4.501221E-2,3.449875E-2,-5.6952065E-1,1.3468836E-1,-7.881435E-2,2.7793616E-1,-2.1451768E-1,3.1600766E-2,6.003365E-1,-4.922731E-1,1.573562E-2],"categories":[],"categories_nodes":[],"categories_segments":[],"categories_sizes":[],"default_left":[1,1,0,1,1,0,0,0,0,0,0,0,0,0,0],"id":44,"left_children":[1,3,-1,5,7,9,-1,11,13,-1,-1,-1,-1,-1,-1],"loss_changes":[2.4844179E-1,4.0893838E-1,0E0,4.9080518E-1,4.9248388E-1,2.816214E-1,0E0,1.2068757E0,7.449407E-1,0E0,0E0,0E0,0E0,0E0,0E0],"parents":[2147483647,0,0,1,1,3,3,4,4,5,5,7,7,8,8],"right_children":[2,4,-1,6,8,10,-1,12,14,-1,-1,-1,-1,-1,-1],"split_conditions":[1.05E1,2.6999998E-1,-9.4830774E-2,1.4500001E-1,2.105E2,2.24E2,-1.7085621E-1,1.615E2,2.395E2,8.338085E-2,-6.435531E-2,9.4802305E-3,1.8010095E-1,-1.4768194E-1,4.7206865E-3],"split_indices":[2,4,0,4,1,1,0,1,1,0,0,0,0,0,0],"split_type":[0,0,0,0,0,0,0,0,0,0,0,0,0,0,0],"sum_hessian":[4.797456E1,4.6573486E1,1.4010717E0,4.1786804E0,4.2394806E1,2.6621494E0,1.516531E0,2.4537119E1,1.7857687E1,1.2874289E0,1.3747206E0,2.0963888E1,3.57323E0,2.5407453E0,1.5316942E1],"tree_param":{"num_deleted":"0","num_feature":"6","num_nodes":"15","size_leaf_vector":"0"}},{"base_weights":[-5.0353142E-3,1.0169058E-2,-3.0039254E-1,-1.3363598E-2,2.9781348E-1,-3.260128E-2,3.0631E-1,4.8422396E-1,-4.9806923E-2,-1.7707427E-1,3.8319148E-2],"categories":[],"categories_nodes":[],"categories_segments":[],"categories_sizes":[],"default_left":[1,1,0,1,1,0,0,0,0,0,0],"id":45,"left_children":[1,3,-1,5,7,9,-1,-1,-1,-1,-1],"loss_changes":[2.2134183E-1,3.234512E-1,0E0,2.8416693E-1,2.5818372E-1,4.4692585E-1,0E0,0E0,0E0,0E0,0E0],"parents":[2147483647,0,0,1,1,3,3,4,4,5,5],"right_children":[2,4,-1,6,8,10,-1,-1,-1,-1,-1],"split_conditions":[5.8625E1,4.8665E1,-9.011777E-2,9.5E0,3.85E1,1.05E2,9.1893E-2,1.4526719E-1,-1.4942077E-2,-5.3122282E-2,1.1495745E-2],"split_indices":[5,5,0,2,0,1,0,0,0,0,0],"split_type":[0,0,0,0,0,0,0,0,0,0,0],"sum_hessian":[4.7608482E1,4.619598E1,1.4125022E0,4.3583855E1,2.6121244E0,4.195694E1,1.6269152E0,1.444531E0,1.1675936E0,1.3321902E1,2.8635036E1],"tree_param":{"num_deleted":"0","num_feature":"6","num_nodes":"11","size_leaf_vector":"0"}},{"base_weights":[-1.5645042E-3,1.13933906E-1,-4.3024898E-2,-1.438289E-2,7.591198E-1,-5.218496E-1,5.0266357E-3,-1.1604251E-1,4.1170728E-1,4.8556738E-3,-7.505303E-1,3.6786575E-2,-4.1684443E-1,9.311777E-2,-3.516616E-1,-1.1215807E-1,1.3825887E-1],"categories":[],"categories_nodes":[],"categories_segments":[],"categories_sizes":[],"default_left":[1,1,0,0,0,1,1,1,0,0,0,1,0,0,0,0,0],"id":46,"left_children":[1,3,5,7,-1,9,11,13,-1,-1,-1,15,-1,-1,-1,-1,-1],"loss_changes":[2.3736262E-1,1.0952001E0,8.4121525E-1,5.6348854E-1,0E0,4.0516466E-1,4.724122E-1,5.449113E-1,0E0,0E0,0E0,5.088858E-1,0E0,0E0,0E0,0E0,0E0],"parents":[2147483647,0,0,1,1,2,2,3,3,5,5,6,6,7,7,11,11],"right_children":[2,4,6,8,-1,10,12,14,-1,-1,-1,16,-1,-1,-1,-1,-1],"split_conditions":[2.2625E1,2.2125E1,2.346E1,2.5E2,2.2773595E-1,1.375E0,7.5E0,2.004E1,1.23512186E-1,1.4567021E-3,-2.251591E-1,1.9175E0,-1.2505333E-1,2.7935334E-2,-1.05498485E-1,-3.364742E-2,4.1477665E-2],"split_indices":[5,5,5,1,0,4,2,5,0,0,0,4,0,0,0,0,0],"split_type":[0,0,0,0,0,0,0,0,0,0,0,0,0,0,0,0,0],"sum_hessian":[4.7544495E1,1.2097059E1,3.5447437E1,1.09057865E1,1.191273E0,2.3335757E0,3.311386E1,9.392511E0,1.5132748E0,1.0027574E0,1.3308184E0,3.1644363E1,1.4694976E0,5.296011E0,4.096501E0,1.2780048E1,1.8864315E1],"tree_param":{"num_deleted":"0","num_feature":"6","num_nodes":"17","size_leaf_vector":"0"}},{"base_weights":[-2.4860653E-3,8.882552E-2,-5.9793565E-2,2.5437436E-1,-1.6736037E-1,-3.929344E-1,-9.692111E-3,7.227355E-2,4.5252421E-1,1.672582E-1,-4.4349626E-1,-1.0192076E-1,-6.125722E-1,6.993421E-2,-2.976686E-1,-2.9475456E-1,3.6334044E-1,7.699518E-1,6.402212E-2,-1.1168098E-1,4.4598624E-1,-7.5167304E-1,2.0581512E-1,3.7734485E-1,-3.0204032E-2,-6.622717E-1,5.2700788E-2],"categories":[],"categories_nodes":[],"categories_segments":[],"categories_sizes":[],"default_left":[1,1,1,0,1,0,1,1,1,1,1,0,0,1,1,0,0,0,0,0,0,0,0,0,0,0,0],"id":47,"left_children":[1,3,5,7,9,11,13,15,17,19,21,-1,-1,23,25,-1,-1,-1,-1,-1,-1,-1,-1,-1,-1,-1,-1],"loss_changes":[2.5678113E-1,8.4553504E-1,4.9897593E-1,3.9660156E-1,8.1662124E-1,1.8765992E-1,6.447704E-1,8.965671E-1,6.2992215E-1,3.8871133E-1,1.0904046E0,0E0,0E0,6.9252324E-1,8.121489E-1,0E0,0E0,0E0,0E0,0E0,0E0,0E0,0E0,0E0,0E0,0E0,0E0],"parents":[2147483647,0,0,1,1,2,2,3,3,4,4,5,5,6,6,7,7,8,8,9,9,10,10,13,13,14,14],"right_children":[2,4,6,8,10,12,14,16,18,20,22,-1,-1,24,26,-1,-1,-1,-1,-1,-1,-1,-1,-1,-1,-1,-1],"split_conditions":[6.05E-1,2.245E2,9.175E-1,2.621E1,1.52E0,2.7E2,8.5825E0,4.0425E0,3.6205E1,6.05E-1,1.4500001E-1,-3.057623E-2,-1.8377167E-1,1.395E0,1.075E1,-8.8426374E-2,1.09002136E-1,2.3098555E-1,1.9206636E-2,-3.3504296E-2,1.3379587E-1,-2.2550192E-1,6.1744537E-2,1.1320346E-1,-9.06121E-3,-1.9868152E-1,1.5810236E-2],"split_indices":[3,1,3,5,4,1,4,4,5,4,3,0,0,3,4,0,0,0,0,0,0,0,0,0,0,0,0],"split_type":[0,0,0,0,0,0,0,0,0,0,0,0,0,0,0,0,0,0,0,0,0,0,0,0,0,0,0],"sum_hessian":[4.705613E1,1.7932766E1,2.9123363E1,1.0897686E1,7.035079E0,2.9127522E0,2.6210611E1,6.3899913E0,4.507695E0,3.358986E0,3.676093E0,1.882515E0,1.0302373E0,2.1126286E1,5.0843253E0,2.8206067E0,3.5693846E0,1.940419E0,2.567276E0,1.9784031E0,1.3805827E0,2.3860006E0,1.2900925E0,4.510729E0,1.6615557E1,2.0553095E0,3.029016E0],"tree_param":{"num_deleted":"0","num_feature":"6","num_nodes":"27","size_leaf_vector":"0"}},{"base_weights":[-2.397655E-3,4.8526596E-2,-9.907299E-2,7.323445E-2,-3.1949896E-1,-1.6003723E-1,3.022788E-1,2.146415E-2,3.74035E-1,-7.449733E-2,-6.459621E-1,9.1853686E-2,-3.851364E-1,-1.08368E-2,6.4865816E-1,4.8723765E-2,-2.845158E-1],"categories":[],"categories_nodes":[],"categories_segments":[],"categories_sizes":[],"default_left":[1,1,1,1,0,1,0,1,1,0,0,0,0,0,0,0,0],"id":48,"left_children":[1,3,5,7,-1,9,-1,11,13,15,-1,-1,-1,-1,-1,-1,-1],"loss_changes":[2.380203E-1,3.116358E-1,4.5632046E-1,4.672097E-1,0E0,5.806786E-1,0E0,8.109172E-1,4.7422487E-1,3.7600255E-1,0E0,0E0,0E0,0E0,0E0,0E0,0E0],"parents":[2147483647,0,0,1,1,2,2,3,3,5,5,7,7,8,8,9,9],"right_children":[2,4,6,8,-1,10,-1,12,14,16,-1,-1,-1,-1,-1,-1,-1],"split_conditions":[5E-1,5.3875E1,5.7075E0,4.3E1,-9.584969E-2,3.625E0,9.068364E-2,3.7375E1,4.4175E0,2.9625E1,-1.9378865E-1,2.7556106E-2,-1.1554092E-1,-3.2510401E-3,1.9459745E-1,1.461713E-2,-8.5354745E-2],"split_indices":[2,5,3,5,0,3,0,5,4,5,0,0,0,0,0,0,0],"split_type":[0,0,0,0,0,0,0,0,0,0,0,0,0,0,0,0,0],"sum_hessian":[4.6370907E1,3.0698404E1,1.56725025E1,2.9517704E1,1.1807007E0,1.4127785E1,1.5447177E0,2.6097467E1,3.4202363E0,1.2993739E1,1.1340457E0,2.2906118E1,3.1913486E0,1.8242178E0,1.5960184E0,8.6730995E0,4.320639E0],"tree_param":{"num_deleted":"0","num_feature":"6","num_nodes":"17","size_leaf_vector":"0"}},{"base_weights":[-5.2824505E-3,7.900197E-2,-5.763352E-2,2.320909E-1,-1.117819E-1,-2.8245276E-1,9.038581E-3,3.4575376E-1,-7.2786614E-2,-3.280432E-1,1.5031947E-1,-9.268709E-2,-6.58191E-1,9.619212E-2,-2.2226194E-1,1.01231E-1,4.769606E-1,-3.4229013E-1,1.9079395E-1,-6.999099E-3,-8.144004E-1,-1.01978414E-1,3.502255E-1,8.295722E-2,-4.4045782E-1,3.2239843E-2,4.751878E-1,5.1753085E-2,-5.775816E-1],"categories":[],"categories_nodes":[],"categories_segments":[],"categories_sizes":[],"default_left":[1,1,1,1,1,1,1,1,0,1,0,1,0,0,0,0,0,0,0,0,0,0,0,0,0,0,0,0,0],"id":49,"left_children":[1,3,5,7,9,11,13,15,17,19,21,23,-1,25,27,-1,-1,-1,-1,-1,-1,-1,-1,-1,-1,-1,-1,-1,-1],"loss_changes":[2.1184056E-1,5.6397474E-1,4.455913E-1,3.9059937E-1,5.5242145E-1,4.2324758E-1,5.004638E-1,2.0374548E-1,3.2742295E-1,8.027245E-1,2.7268642E-1,3.8327754E-1,0E0,4.1997564E-1,6.925607E-1,0E0,0E0,0E0,0E0,0E0,0E0,0E0,0E0,0E0,0E0,0E0,0E0,0E0,0E0],"parents":[2147483647,0,0,1,1,2,2,3,3,4,4,5,5,6,6,7,7,8,8,9,9,10,10,11,11,13,13,14,14],"right_children":[2,4,6,8,10,12,14,16,18,20,22,24,-1,26,28,-1,-1,-1,-1,-1,-1,-1,-1,-1,-1,-1,-1,-1,-1],"split_conditions":[6.05E-1,1.9E2,1.02E0,9.855E0,4.85E1,8.55E-1,8.5425E0,6.25E-2,4E1,1.5E0,2.66E2,3.525E1,-1.9745731E-1,5.0665E1,2.546E1,3.0369302E-2,1.4308819E-1,-1.02687046E-1,5.7238188E-2,-2.0997298E-3,-2.4432012E-1,-3.0593526E-2,1.05067655E-1,2.4887169E-2,-1.3213736E-1,9.6719535E-3,1.4255635E-1,1.5525926E-2,-1.7327449E-1],"split_indices":[3,1,4,4,0,4,4,3,1,0,1,5,0,5,5,0,0,0,0,0,0,0,0,0,0,0,0,0,0],"split_type":[0,0,0,0,0,0,0,0,0,0,0,0,0,0,0,0,0,0,0,0,0,0,0,0,0,0,0,0,0],"sum_hessian":[4.59786E1,1.7421373E1,2.8557226E1,9.545419E0,7.875954E0,5.791559E0,2.2765665E1,6.855509E0,2.6899102E0,4.177493E0,3.698461E0,4.6764235E0,1.115136E0,1.6959492E1,5.8061748E0,3.0126119E0,3.8428972E0,1.1823622E0,1.5075481E0,3.1274536E0,1.0500393E0,1.851537E0,1.8469241E0,3.6130729E0,1.0633506E0,1.5439307E1,1.5201843E0,3.7605023E0,2.0456724E0],"tree_param":{"num_deleted":"0","num_feature":"6","num_nodes":"29","size_leaf_vector":"0"}}]},"name":"gbtree"},"learner_model_param":{"base_score":"5E-1","boost_from_average":"1","num_class":"0","num_feature":"6","num_target":"1"},"objective":{"name":"binary:logistic","reg_loss_param":{"scale_pos_weight":"1"}}},"version":[1,7,6]}