{"learner":{"attributes":{"best_iteration":"49","best_ntree_limit":"50","scikit_learn":"{\"use_label_encoder\": null, \"n_estimators\": 50, \"objective\": \"binary:logistic\", \"max_depth\": 4, \"max_leaves\": null, \"max_bin\": null, \"grow_policy\": null, \"learning_rate\": null, \"verbosity\": null, \"booster\": null, \"tree_method\": null, \"gamma\": null, \"min_child_weight\": null, \"max_delta_step\": null, \"subsample\": null, \"sampling_method\": null, \"colsample_bytree\": null, \"colsample_bylevel\": null, \"colsample_bynode\": null, \"reg_alpha\": null, \"reg_lambda\": null, \"scale_pos_weight\": null, \"base_score\": null, \"missing\": NaN, \"num_parallel_tree\": null, \"random_state\": null, \"n_jobs\": null, \"monotone_constraints\": null, \"interaction_constraints\": null, \"importance_type\": null, \"gpu_id\": null, \"validate_parameters\": null, \"predictor\": null, \"enable_categorical\": false, \"feature_types\": null, \"max_cat_to_onehot\": null, \"max_cat_threshold\": null, \"eval_metric\": null, \"early_stopping_rounds\": null, \"callbacks\": null, \"classes_\": [0, 1], \"n_classes_\": 2, \"_estimator_type\": \"classifier\"}"},"feature_names":[],"feature_types":[],"gradient_booster":{"model":{"gbtree_model_param":{"num_parallel_tree":"1","num_trees":"50","size_leaf_vector":"0"},"tree_info":[0,0,0,0,0,0,0,0,0,0,0,0,0,0,0,0,0,0,0,0,0,0,0,0,0,0,0,0,0,0,0,0,0,0,0,0,0,0,0,0,0,0,0,0,0,0,0,0,0,0],"trees":[{"base_weights":[-9.516129E-1,-1.2941177E0,9.2307694E-2,-1.3370166E0,-0E0,-9.3333334E-1,3.7037036E-1,-1.4248366E0,-7.5E-1,5.4545456E-1,-2.857143E-1,-1.5E0,-0E0,-2E-1,1E0,4E-1,-1E0],"categories":[],"categories_nodes":[],"categories_segments":[],"categories_sizes":[],"default_left":[1,1,1,1,0,0,1,0,1,1,1,0,0,0,0,0,0],"id":0,"left_children":[1,3,5,7,-1,-1,9,-1,11,13,15,-1,-1,-1,-1,-1,-1],"loss_changes":[2.2287418E1,2.5953827E0,4.980057E0,1.2640915E0,0E0,0E0,1.7065898E0,0E0,4.5E0,3.9272726E0,2.1142857E0,0E0,0E0,0E0,0E0,0E0,0E0],"parents":[2147483647,0,0,1,1,2,2,3,3,6,6,8,8,9,9,10,10],"right_children":[2,4,6,8,-1,-1,10,-1,12,14,16,-1,-1,-1,-1,-1,-1],"split_conditions":[4.5E0,7.35E1,4.25E1,2.5E0,-0E0,-2.8E-1,6.55E1,-4.27451E-1,5.05E1,8.5E0,1.55E1,-4.5000002E-1,-0E0,-6.0000002E-2,3E-1,1.20000005E-1,-3E-1],"split_indices":[2,0,0,2,0,0,1,0,0,2,2,0,0,0,0,0,0],"split_type":[0,0,0,0,0,0,0,0,0,0,0,0,0,0,0,0,0],"sum_hessian":[6.1E1,4.575E1,1.525E1,4.425E1,1.5E0,2.75E0,1.25E1,3.725E1,7E0,1E1,2.5E0,3E0,4E0,4E0,6E0,1.5E0,1E0],"tree_param":{"num_deleted":"0","num_feature":"3","num_nodes":"17","size_leaf_vector":"0"}},{"base_weights":[-7.110405E-1,-9.674273E-1,5.21625E-2,-1.0008236E0,-0E0,-6.88981E-1,2.895773E-1,-1.025295E0,-8.309685E-2,-1.3314284E-1,-8.74018E-1,-2.2984907E-1,5.2471656E-1,-5.9311545E-1,-1.1190095E0,-7.644232E-1,2.5937033E-1,8.511759E-1,-2.540037E-1],"categories":[],"categories_nodes":[],"categories_segments":[],"categories_sizes":[],"default_left":[1,1,1,1,0,1,1,1,0,0,0,1,1,0,0,0,0,0,0],"id":1,"left_children":[1,3,5,7,-1,9,11,13,-1,-1,-1,15,17,-1,-1,-1,-1,-1,-1],"loss_changes":[1.1787987E1,1.4523392E0,3.0205922E0,8.906479E-1,0E0,3.1413412E-1,1.689698E0,1.0468941E0,0E0,0E0,0E0,1.4271115E0,2.5418503E0,0E0,0E0,0E0,0E0,0E0,0E0],"parents":[2147483647,0,0,1,1,2,2,3,3,5,5,6,6,7,7,11,11,12,12],"right_children":[2,4,6,8,-1,10,12,14,-1,-1,-1,16,18,-1,-1,-1,-1,-1,-1],"split_conditions":[4.5E0,7.35E1,4.35E1,6.85E1,-0E0,6.05E1,6.15E1,5.95E1,-2.4929056E-2,-3.9942853E-2,-2.6220542E-1,8.5E0,6.55E1,-1.7793465E-1,-3.3570287E-1,-2.2932696E-1,7.78111E-2,2.553528E-1,-7.620111E-2],"split_indices":[2,0,0,1,0,1,1,1,0,0,0,2,1,0,0,0,0,0,0],"split_type":[0,0,0,0,0,0,0,0,0,0,0,0,0,0,0,0,0,0,0],"sum_hessian":[5.898473E1,4.3952084E1,1.5032645E1,4.2452084E1,1.5E0,3.1857133E0,1.1846931E1,4.1235325E1,1.2167579E0,1.2251117E0,1.9606017E0,3.6987758E0,8.148156E0,8.654178E0,3.2581146E1,1.4986508E0,2.2001247E0,5.6757097E0,2.4724462E0],"tree_param":{"num_deleted":"0","num_feature":"3","num_nodes":"19","size_leaf_vector":"0"}},{"base_weights":[-5.516689E-1,-7.093914E-1,2.474241E-1,-8.6168396E-1,-3.6726087E-1,-2.464204E-1,5.5939883E-1,-5.5181533E-1,-9.8271257E-1,-9.7443473E-1,9.344196E-2,-7.374823E-1,6.297488E-1,1.0251173E0,-1.7375952E-1,-9.657303E-1,4.519684E-2,-1.2022446E0,-6.35966E-1,-1.1752568E0,-4.8670945E-1,4.0521586E-1,-2.4101032E-1,-9.472431E-2,-1.0404952E0,1.2847424E-1,-3.9523393E-1],"categories":[],"categories_nodes":[],"categories_segments":[],"categories_sizes":[],"default_left":[1,1,1,1,1,1,1,1,1,1,1,1,0,0,1,0,0,0,0,0,0,0,0,0,0,0,0],"id":2,"left_children":[1,3,5,7,9,11,13,15,17,19,21,23,-1,-1,25,-1,-1,-1,-1,-1,-1,-1,-1,-1,-1,-1,-1],"loss_changes":[7.288143E0,2.152731E0,1.6852977E0,6.5969086E-1,4.6617403E0,2.4361763E0,2.3842874E0,2.8317327E0,8.9237976E-1,1.2701464E-1,1.1615642E0,5.6312954E-1,0E0,0E0,2.7602166E-1,0E0,0E0,0E0,0E0,0E0,0E0,0E0,0E0,0E0,0E0,0E0,0E0],"parents":[2147483647,0,0,1,1,2,2,3,3,4,4,5,5,6,6,7,7,8,8,9,9,10,10,11,11,14,14],"right_children":[2,4,6,8,10,12,14,16,18,20,22,24,-1,-1,26,-1,-1,-1,-1,-1,-1,-1,-1,-1,-1,-1,-1],"split_conditions":[8.5E0,1.5E0,4.75E1,4.75E1,5.05E1,1.75E1,1.65E1,6.35E1,6.05E1,4.4E1,5.75E1,1.25E1,1.8892466E-1,3.075352E-1,2.35E1,-2.897191E-1,1.3559052E-2,-3.606734E-1,-1.907898E-1,-3.5257706E-1,-1.4601284E-1,1.2156476E-1,-7.23031E-2,-2.8417295E-2,-3.1214857E-1,3.854227E-2,-1.18570186E-1],"split_indices":[2,2,0,0,0,2,2,1,0,0,0,2,0,0,2,0,0,0,0,0,0,0,0,0,0,0,0],"split_type":[0,0,0,0,0,0,0,0,0,0,0,0,0,0,0,0,0,0,0,0,0,0,0,0,0,0,0],"sum_hessian":[5.543375E1,4.6389744E1,9.044009E0,3.1049911E1,1.5339829E1,3.5827599E0,5.4612494E0,1.0282663E1,2.076725E1,6.136824E0,9.203006E0,2.3973932E0,1.1853665E0,3.0962327E0,2.3650165E0,5.707787E0,4.574876E0,1.1205568E1,9.561681E0,3.3484302E0,2.788394E0,4.6534834E0,4.5495224E0,1.1886368E0,1.2087564E0,1.1777377E0,1.1872787E0],"tree_param":{"num_deleted":"0","num_feature":"3","num_nodes":"27","size_leaf_vector":"0"}},{"base_weights":[-4.4464818E-1,-5.7470524E-1,1.896485E-1,-6.642333E-1,-1.4339067E-1,-2.1046232E-1,4.4853827E-1,-1.1174705E0,-5.7037413E-1,-6.5086836E-1,5.53326E-1,-6.2960356E-1,5.327692E-1,8.5222095E-1,-1.4454171E-1,-2.4710014E-1,-7.063015E-1,5.4450236E-2,-1.0362972E0,7.627613E-1,1.9804537E-1,-7.94624E-2,-8.953116E-1,1.07871875E-1,-3.2789972E-1],"categories":[],"categories_nodes":[],"categories_segments":[],"categories_sizes":[],"default_left":[1,1,1,1,1,1,1,0,1,1,1,1,0,0,1,0,0,0,0,0,0,0,0,0,0],"id":3,"left_children":[1,3,5,7,9,11,13,-1,15,17,19,21,-1,-1,23,-1,-1,-1,-1,-1,-1,-1,-1,-1,-1],"loss_changes":[4.463047E0,1.6056299E0,1.1025395E0,9.026146E-1,3.4880269E0,1.7385384E0,1.6143714E0,0E0,1.2330446E0,1.5727882E0,1.6656458E-1,4.1683757E-1,0E0,0E0,1.9168738E-1,0E0,0E0,0E0,0E0,0E0,0E0,0E0,0E0,0E0,0E0],"parents":[2147483647,0,0,1,1,2,2,3,3,4,4,5,5,6,6,8,8,9,9,10,10,11,11,14,14],"right_children":[2,4,6,8,10,12,14,-1,16,18,20,22,-1,-1,24,-1,-1,-1,-1,-1,-1,-1,-1,-1,-1],"split_conditions":[8.5E0,6.45E1,4.75E1,3.85E1,5E-1,1.75E1,1.65E1,-3.3524117E-1,4.75E1,6.35E1,6.95E1,1.25E1,1.5983076E-1,2.556663E-1,2.35E1,-7.413004E-2,-2.1189046E-1,1.6335072E-2,-3.1088918E-1,2.288284E-1,5.9413616E-2,-2.3838721E-2,-2.685935E-1,3.2361563E-2,-9.836992E-2],"split_indices":[2,0,0,0,2,2,2,0,0,1,0,2,0,0,2,0,0,0,0,0,0,0,0,0,0],"split_type":[0,0,0,0,0,0,0,0,0,0,0,0,0,0,0,0,0,0,0,0,0,0,0,0,0],"sum_hessian":[5.177977E1,4.3047253E1,8.73252E0,3.520063E1,7.8466225E0,3.5040753E0,5.228445E0,4.167987E0,3.1032642E1,4.577933E0,3.2686896E0,2.3382921E0,1.1657832E0,2.8509748E0,2.37747E0,1.0020034E1,2.1012608E1,1.9211102E0,2.656823E0,1.3348684E0,1.9338211E0,1.1846226E0,1.1536696E0,1.1735834E0,1.2038866E0],"tree_param":{"num_deleted":"0","num_feature":"3","num_nodes":"25","size_leaf_vector":"0"}},{"base_weights":[-3.4924957E-1,-5.6902146E-1,-2.364424E-2,-3.3255282E-1,-6.928826E-1,-4.8283842E-1,2.2500642E-1,-7.92497E-1,1.2067992E-1,-1.0399632E0,-3.1175894E-1,-7.140018E-1,4.539823E-1,5.728279E-1,4.4781418E-4,-9.7920424E-1,-2.7757657E-1,2.876579E-1,-3.5719708E-1,-6.964842E-1,7.374992E-1,-3.8668054E-1,-1.0210797E0,1.0852553E0,1.5816018E-1,-2.710444E-1,6.5676194E-1],"categories":[],"categories_nodes":[],"categories_segments":[],"categories_sizes":[],"default_left":[1,1,1,1,1,1,1,1,1,0,1,1,0,1,1,0,0,0,0,0,0,0,0,0,0,0,0],"id":4,"left_children":[1,3,5,7,9,11,13,15,17,-1,19,21,-1,23,25,-1,-1,-1,-1,-1,-1,-1,-1,-1,-1,-1,-1],"loss_changes":[3.5352044E0,6.354799E-1,2.5094879E0,2.6149516E0,2.1201239E0,1.9925609E0,1.1184461E0,3.1756592E-1,6.577149E-1,0E0,4.6454506E0,2.6535058E-1,0E0,1.0221953E0,1.907185E0,0E0,0E0,0E0,0E0,0E0,0E0,0E0,0E0,0E0,0E0,0E0,0E0],"parents":[2147483647,0,0,1,1,2,2,3,3,4,4,5,5,6,6,7,7,8,8,10,10,11,11,13,13,14,14],"right_children":[2,4,6,8,10,12,14,16,18,-1,20,22,-1,24,26,-1,-1,-1,-1,-1,-1,-1,-1,-1,-1,-1,-1],"split_conditions":[2.5E0,4.95E1,4.75E1,4.15E1,6.05E1,1.75E1,5.35E1,6.35E1,6.65E1,-3.1198898E-1,5E-1,9.5E0,1.3619469E-1,5.95E1,6.4E1,-2.9376128E-1,-8.327297E-2,8.629737E-2,-1.0715913E-1,-2.0894527E-1,2.2124976E-1,-1.1600417E-1,-3.0632392E-1,3.255766E-1,4.7448058E-2,-8.131333E-2,1.9702859E-1],"split_indices":[2,0,0,0,0,2,0,1,1,0,2,2,0,1,0,0,0,0,0,0,0,0,0,0,0,0,0],"split_type":[0,0,0,0,0,0,0,0,0,0,0,0,0,0,0,0,0,0,0,0,0,0,0,0,0,0,0],"sum_hessian":[4.859075E1,2.8563704E1,2.002705E1,1.1085253E1,1.747845E1,6.704226E0,1.33228245E1,5.1303697E0,5.954883E0,8.2430315E0,9.235418E0,5.568121E0,1.1361048E0,4.61841E0,8.704414E0,3.1034245E0,2.026945E0,4.707913E0,1.2469705E0,7.0036454E0,2.2317727E0,3.788791E0,1.7793301E0,1.342384E0,3.276026E0,6.5726E0,2.1318147E0],"tree_param":{"num_deleted":"0","num_feature":"3","num_nodes":"27","size_leaf_vector":"0"}},{"base_weights":[-2.7946398E-1,-4.7466126E-1,-7.90428E-3,-2.9913764E-2,-5.4470146E-1,-3.6252755E-1,2.4166578E-1,-5.193111E-1,5.0898004E-1,-2.6991993E-1,-7.15806E-1,-7.5056356E-1,1.08992904E-1,7.319687E-1,1.27757555E-2,-8.4132546E-1,-2.1374617E-2,-1.0071106E0,-1.00445144E-1,5.067317E-1,-1.9730526E-1,1.0116453E0,7.7792645E-2,-4.844504E-1,2.3914771E-1],"categories":[],"categories_nodes":[],"categories_segments":[],"categories_sizes":[],"default_left":[1,1,1,1,1,1,1,0,0,1,1,0,1,1,1,0,0,0,0,0,0,0,0,0,0],"id":5,"left_children":[1,3,5,7,9,11,13,-1,-1,15,17,-1,19,21,23,-1,-1,-1,-1,-1,-1,-1,-1,-1,-1],"loss_changes":[2.46801E0,8.2826805E-1,1.9034911E0,1.5162472E0,9.053564E-1,1.70565E0,1.4094679E0,0E0,0E0,1.4834106E0,2.3715067E0,0E0,6.9446284E-1,6.5420413E-1,1.200546E0,0E0,0E0,0E0,0E0,0E0,0E0,0E0,0E0,0E0,0E0],"parents":[2147483647,0,0,1,1,2,2,3,3,4,4,5,5,6,6,9,9,10,10,12,12,13,13,14,14],"right_children":[2,4,6,8,10,12,14,-1,-1,16,18,-1,20,22,24,-1,-1,-1,-1,-1,-1,-1,-1,-1,-1],"split_conditions":[2.5E0,5.85E1,5.05E1,6E1,4.95E1,8.5E0,5.35E1,-1.5579332E-1,1.5269402E-1,3.85E1,5E-1,-2.2516908E-1,1.15E1,4.5E0,6.15E1,-2.5239766E-1,-6.4123855E-3,-3.021332E-1,-3.0133544E-2,1.5201952E-1,-5.919158E-2,3.0349362E-1,2.3337794E-2,-1.4533512E-1,7.1744315E-2],"split_indices":[2,1,0,0,0,2,0,0,0,0,2,0,2,2,1,0,0,0,0,0,0,0,0,0,0],"split_type":[0,0,0,0,0,0,0,0,0,0,0,0,0,0,0,0,0,0,0,0,0,0,0,0,0],"sum_hessian":[4.5630222E1,2.6112576E1,1.9517647E1,3.74695E0,2.2365625E1,7.875067E0,1.164258E1,1.982698E0,1.7642518E0,9.571692E0,1.2793933E1,3.9953303E0,3.8797367E0,3.005858E0,8.636723E0,2.1784465E0,7.393246E0,8.251264E0,4.54267E0,1.4032258E0,2.476511E0,1.7228533E0,1.2830048E0,2.3452704E0,6.291452E0],"tree_param":{"num_deleted":"0","num_feature":"3","num_nodes":"25","size_leaf_vector":"0"}},{"base_weights":[-2.2478905E-1,-3.5209897E-1,6.960768E-2,-2.525477E-1,-7.1134365E-1,8.200701E-1,-6.3911155E-2,-3.9198464E-1,3.4255314E-1,-1.0158194E0,-1.9643997E-1,-4.631871E-1,1.6627999E-1,-5.591067E-1,-4.09264E-2,-8.220431E-2,7.272597E-1,-6.6680044E-1,3.3957136E-1,-9.335172E-1,4.5227646E-3,3.369779E-1,-2.8291535E-1],"categories":[],"categories_nodes":[],"categories_segments":[],"categories_sizes":[],"default_left":[1,1,1,1,1,0,1,1,1,0,1,1,1,0,0,0,0,0,0,0,0,0,0],"id":6,"left_children":[1,3,5,7,9,-1,11,13,15,-1,17,19,21,-1,-1,-1,-1,-1,-1,-1,-1,-1,-1],"loss_changes":[1.6805048E0,9.293773E-1,1.4726297E0,2.277785E0,7.69052E-1,0E0,1.2682226E0,1.2323315E0,9.482783E-1,0E0,1.1178007E0,1.1049352E0,7.82117E-1,0E0,0E0,0E0,0E0,0E0,0E0,0E0,0E0,0E0,0E0],"parents":[2147483647,0,0,1,1,2,2,3,3,4,4,6,6,7,7,8,8,10,10,11,11,12,12],"right_children":[2,4,6,8,10,-1,12,14,16,-1,18,20,22,-1,-1,-1,-1,-1,-1,-1,-1,-1,-1],"split_conditions":[4.5E0,6.65E1,5.5E0,6.45E1,6.75E1,2.4602103E-1,8.5E0,6.35E1,5E-1,-3.0474585E-1,5E-1,6.25E1,6.55E1,-1.6773202E-1,-1.2277921E-2,-2.4661295E-2,2.1817791E-1,-2.0004015E-1,1.0187141E-1,-2.8005517E-1,1.3568294E-3,1.01093374E-1,-8.487461E-2],"split_indices":[2,1,2,0,1,0,2,1,2,0,2,1,1,0,0,0,0,0,0,0,0,0,0],"split_type":[0,0,0,0,0,0,0,0,0,0,0,0,0,0,0,0,0,0,0,0,0,0,0],"sum_hessian":[4.31839E1,3.0010187E1,1.317371E1,2.4831938E1,5.1782494E0,1.2131336E0,1.1960577E1,2.0394627E1,4.437311E0,2.6427119E0,2.5355375E0,4.0037403E0,7.956836E0,1.3415511E1,6.979115E0,2.482587E0,1.9547242E0,1.2205108E0,1.3150266E0,1.4997032E0,2.5040371E0,5.946816E0,2.0100205E0],"tree_param":{"num_deleted":"0","num_feature":"3","num_nodes":"23","size_leaf_vector":"0"}},{"base_weights":[-1.7933378E-1,-6.6802377E-1,-1.01032846E-1,-9.377975E-1,2.249531E-1,3.7925893E-1,-1.8095383E-1,-6.774218E-2,7.4540484E-1,-8.481247E-2,-5.078209E-1,-3.0890033E-1,2.5147167E-1,-4.43558E-1,1.0651057E-1,-7.7486205E-1,-1.788076E-1],"categories":[],"categories_nodes":[],"categories_segments":[],"categories_sizes":[],"default_left":[1,1,1,0,0,1,1,1,0,1,1,0,0,0,0,0,0],"id":7,"left_children":[1,3,5,-1,-1,7,9,11,-1,13,15,-1,-1,-1,-1,-1,-1],"loss_changes":[1.5439183E0,1.5690281E0,1.5071037E0,0E0,0E0,9.783594E-1,9.878533E-1,3.447601E-1,0E0,1.869527E0,4.9891782E-1,0E0,0E0,0E0,0E0,0E0,0E0],"parents":[2147483647,0,0,1,1,2,2,5,5,6,6,7,7,9,9,10,10],"right_children":[2,4,6,-1,-1,8,10,12,-1,14,16,-1,-1,-1,-1,-1,-1],"split_conditions":[4.05E1,6.55E1,5.85E1,-2.8133926E-1,6.7485936E-2,1.5E0,6.65E1,6.45E1,2.2362146E-1,6.15E1,6.75E1,-9.26701E-2,7.54415E-2,-1.3306741E-1,3.1953175E-2,-2.3245862E-1,-5.3642284E-2],"split_indices":[0,1,1,0,0,2,1,0,0,1,1,0,0,0,0,0,0],"split_type":[0,0,0,0,0,0,0,0,0,0,0,0,0,0,0,0,0],"sum_hessian":[4.111199E1,4.637437E0,3.6474556E1,3.5229423E0,1.1144946E0,4.6691976E0,3.1805357E1,2.469432E0,2.1997657E0,2.5549854E1,6.255503E0,1.4251077E0,1.0443244E0,8.428114E0,1.7121738E1,2.7049458E0,3.5505576E0],"tree_param":{"num_deleted":"0","num_feature":"3","num_nodes":"17","size_leaf_vector":"0"}},{"base_weights":[-1.4303683E-1,-6.597523E-1,-8.520241E-2,-2.6596186E-3,-4.4380727E-1,-8.5773766E-2,3.3601186E-1,-7.843464E-1,-1.5875919E-1,4.4722673E-2,-5.0383246E-1,-9.3456455E-2,6.2915844E-1,-5.230662E-1,1.6488151E-1],"categories":[],"categories_nodes":[],"categories_segments":[],"categories_sizes":[],"default_left":[1,0,1,1,1,1,1,0,1,0,0,0,0,0,0],"id":8,"left_children":[1,-1,3,5,7,9,11,-1,13,-1,-1,-1,-1,-1,-1],"loss_changes":[1.1639265E0,0E0,1.1197118E0,9.2361045E-1,5.626713E-1,1.4584773E0,8.730185E-1,0E0,6.8843377E-1,0E0,0E0,0E0,0E0,0E0,0E0],"parents":[2147483647,0,0,2,2,3,3,4,4,5,5,6,6,8,8],"right_children":[2,-1,4,6,8,10,12,-1,14,-1,-1,-1,-1,-1,-1],"split_conditions":[3.85E1,-1.979257E-1,6.65E1,6.45E1,5E-1,5.75E1,5E-1,-2.3530392E-1,6.75E1,1.34168025E-2,-1.5114975E-1,-2.8036937E-2,1.8874754E-1,-1.5691987E-1,4.9464457E-2],"split_indices":[0,0,1,0,2,0,2,0,1,0,0,0,0,0,0],"split_type":[0,0,0,0,0,0,0,0,0,0,0,0,0,0,0],"sum_hessian":[3.9829254E1,2.9615943E0,3.6867657E1,3.07883E1,6.079359E0,2.532096E1,5.46734E0,1.9719254E0,4.107434E0,1.9977907E1,5.3430524E0,2.4943051E0,2.9730349E0,1.642432E0,2.4650018E0],"tree_param":{"num_deleted":"0","num_feature":"3","num_nodes":"15","size_leaf_vector":"0"}},{"base_weights":[-1.1872538E-1,-2.5657246E-1,4.633883E-2,2.5951944E-3,-3.9668953E-1,-2.5872234E-1,2.3799631E-1,-4.6284568E-1,3.6360162E-1,-7.197746E-1,-5.7941295E-2,-7.5975317E-1,-3.9159413E-3,6.2212735E-1,4.4740524E-2,-6.779999E-1,-8.678065E-2,7.5652085E-2,5.2558357E-1,-1.6394594E-1,-7.909697E-1,2.9166758E-1,-4.8787692E-1,-2.6438922E-1,2.2105637E-1,8.9099663E-1,2.307419E-2,-1.5526828E-1,5.231264E-1],"categories":[],"categories_nodes":[],"categories_segments":[],"categories_sizes":[],"default_left":[1,1,1,1,1,1,1,1,1,1,1,0,1,1,1,0,0,0,0,0,0,0,0,0,0,0,0,0,0],"id":9,"left_children":[1,3,5,7,9,11,13,15,17,19,21,-1,23,25,27,-1,-1,-1,-1,-1,-1,-1,-1,-1,-1,-1,-1,-1,-1],"loss_changes":[9.141469E-1,7.9125917E-1,1.1661526E0,1.6183527E0,1.5048785E0,9.8881704E-1,8.721669E-1,2.8177434E-1,2.1305388E-1,1.530788E-1,1.3426583E0,0E0,4.191166E-1,6.205472E-1,9.5606077E-1,0E0,0E0,0E0,0E0,0E0,0E0,0E0,0E0,0E0,0E0,0E0,0E0,0E0,0E0],"parents":[2147483647,0,0,1,1,2,2,3,3,4,4,5,5,6,6,7,7,8,8,9,9,10,10,12,12,13,13,14,14],"right_children":[2,4,6,8,10,12,14,16,18,20,22,-1,24,26,28,-1,-1,-1,-1,-1,-1,-1,-1,-1,-1,-1,-1,-1,-1],"split_conditions":[2.5E0,4.75E1,5.05E1,4.15E1,6.05E1,4.5E0,5.35E1,6.35E1,6.35E1,4.95E1,6.35E1,-2.2792596E-1,4.35E1,4.5E0,6.4E1,-2.0339999E-1,-2.6034197E-2,2.2695627E-2,1.5767507E-1,-4.9183786E-2,-2.3729093E-1,8.7500274E-2,-1.4636308E-1,-7.9316765E-2,6.631692E-2,2.67299E-1,6.922257E-3,-4.6580486E-2,1.5693793E-1],"split_indices":[2,0,0,0,0,2,0,1,1,0,1,0,0,2,0,0,0,0,0,0,0,0,0,0,0,0,0,0,0],"split_type":[0,0,0,0,0,0,0,0,0,0,0,0,0,0,0,0,0,0,0,0,0,0,0,0,0,0,0,0,0],"sum_hessian":[3.8653378E1,2.0761133E1,1.7892244E1,7.6299224E0,1.313121E1,6.7686563E0,1.1123589E1,3.2096562E0,4.420266E0,6.1452756E0,6.9859347E0,1.6137735E0,5.1548824E0,2.98037E0,8.143219E0,1.5309118E0,1.6787444E0,2.1195168E0,2.3007493E0,1.0727736E0,5.0725017E0,4.030264E0,2.9556706E0,2.3077538E0,2.8471286E0,1.7207258E0,1.2596443E0,6.2186785E0,1.9245403E0],"tree_param":{"num_deleted":"0","num_feature":"3","num_nodes":"29","size_leaf_vector":"0"}},{"base_weights":[-9.781378E-2,-1.6856806E-1,1.7475402E-1,-5.335753E-1,-9.82315E-2,3.0711433E-1,-1.8778402E-1,-7.032414E-1,-2.0150204E-1,1.6310729E-1,-1.832549E-1,-2.2247292E-1,4.861126E-1,-6.686753E-2,3.5162866E-1,-4.9213395E-1,3.240589E-2,7.647592E-1,-6.7432135E-2],"categories":[],"categories_nodes":[],"categories_segments":[],"categories_sizes":[],"default_left":[1,1,1,1,1,1,0,0,0,1,1,0,1,0,0,0,0,0,0],"id":10,"left_children":[1,3,5,7,9,11,-1,-1,-1,13,15,-1,17,-1,-1,-1,-1,-1,-1],"loss_changes":[7.648953E-1,7.379276E-1,4.583528E-1,1.2580943E-1,6.306374E-1,7.239609E-1,0E0,0E0,0E0,3.341897E-1,1.4062014E0,0E0,8.488816E-1,0E0,0E0,0E0,0E0,0E0,0E0],"parents":[2147483647,0,0,1,1,2,2,3,3,4,4,5,5,9,9,10,10,12,12],"right_children":[2,4,6,8,10,12,-1,-1,-1,14,16,-1,18,-1,-1,-1,-1,-1,-1],"split_conditions":[8.5E0,4.15E1,6.55E1,6.35E1,4.75E1,4.35E1,-5.6335207E-2,-2.1097243E-1,-6.0450613E-2,6.35E1,5E-1,-6.674188E-2,5.65E1,-2.006026E-2,1.05488606E-1,-1.4764018E-1,9.721767E-3,2.2942777E-1,-2.0229641E-2],"split_indices":[2,0,1,1,0,0,0,0,0,1,2,0,0,0,0,0,0,0,0],"split_type":[0,0,0,0,0,0,0,0,0,0,0,0,0,0,0,0,0,0,0],"sum_hessian":[3.7134537E1,2.9784508E1,7.3500304E0,3.748074E0,2.6036432E1,5.4962583E0,1.8537719E0,1.7408782E0,2.007196E0,6.165864E0,1.987057E1,1.3270748E0,4.1691837E0,3.0682504E0,3.0976138E0,7.6425643E0,1.2228004E1,2.5193908E0,1.6497929E0],"tree_param":{"num_deleted":"0","num_feature":"3","num_nodes":"19","size_leaf_vector":"0"}},{"base_weights":[-7.9031914E-2,2.8062984E-1,-1.3745517E-1,1.7170783E-2,7.126704E-1,-4.1514274E-1,-2.4731077E-2,-4.236689E-1,4.683119E-1,-8.539164E-2,-4.8024562E-1,1.02795854E-1,-3.838977E-1,-7.111966E-1,-2.1431012E-1,2.2787828E-2,5.813019E-1,-6.4819443E-1,-7.662111E-2],"categories":[],"categories_nodes":[],"categories_segments":[],"categories_sizes":[],"default_left":[1,1,1,1,0,1,1,0,0,0,1,1,1,0,0,0,0,0,0],"id":11,"left_children":[1,3,5,7,-1,9,11,-1,-1,-1,13,15,17,-1,-1,-1,-1,-1,-1],"loss_changes":[8.135246E-1,6.1179996E-1,1.0038527E0,1.0795195E0,0E0,1.5844631E-1,1.1436421E0,0E0,0E0,0E0,3.1084692E-1,6.980392E-1,4.8047787E-1,0E0,0E0,0E0,0E0,0E0,0E0],"parents":[2147483647,0,0,1,1,2,2,3,3,5,5,6,6,10,10,11,11,12,12],"right_children":[2,4,6,8,-1,10,12,-1,-1,-1,14,16,18,-1,-1,-1,-1,-1,-1],"split_conditions":[5.85E1,3.5E0,6.15E1,6E1,2.1380113E-1,4.25E1,6.65E1,-1.2710068E-1,1.4049357E-1,-2.5617493E-2,5.25E1,1.85E1,6.75E1,-2.1335898E-1,-6.429304E-2,6.8363487E-3,1.7439058E-1,-1.9445834E-1,-2.2986334E-2],"split_indices":[1,2,1,0,0,0,1,0,0,0,0,2,1,0,0,0,0,0,0],"split_type":[0,0,0,0,0,0,0,0,0,0,0,0,0,0,0,0,0,0,0],"sum_hessian":[3.5880264E1,4.4824257E0,3.1397837E1,3.4303412E0,1.0520846E0,8.290926E0,2.310691E1,1.7657782E0,1.6645631E0,1.748134E0,6.5427914E0,1.7579033E1,5.5278783E0,2.6056242E0,3.9371674E0,1.5958358E1,1.6206751E0,2.3753204E0,3.1525578E0],"tree_param":{"num_deleted":"0","num_feature":"3","num_nodes":"19","size_leaf_vector":"0"}},{"base_weights":[-6.088429E-2,-4.725949E-1,-2.1223938E-2,-1.3766061E-1,-5.833863E-1,4.028586E-2,-3.0583566E-1,-2.4006322E-3,4.3277338E-1,-6.5665585E-1,-6.9068566E-2,7.49049E-2,-2.9067472E-1,-3.746083E-1,1.6190061E-1],"categories":[],"categories_nodes":[],"categories_segments":[],"categories_sizes":[],"default_left":[1,1,1,0,0,1,1,1,0,0,1,0,0,0,0],"id":12,"left_children":[1,3,5,-1,-1,7,9,11,-1,-1,13,-1,-1,-1,-1],"loss_changes":[5.790894E-1,3.558266E-2,6.0676724E-1,0E0,0E0,4.8363832E-1,4.655438E-1,6.2289655E-1,0E0,0E0,3.9867136E-1,0E0,0E0,0E0,0E0],"parents":[2147483647,0,0,1,1,2,2,5,5,6,6,7,7,10,10],"right_children":[2,4,6,-1,-1,8,10,12,-1,-1,14,-1,-1,-1,-1],"split_conditions":[3.85E1,3.55E1,6.65E1,-4.1298185E-2,-1.750159E-1,2.1E1,5E-1,6.5E0,1.2983201E-1,-1.9699676E-1,6.75E1,2.2471469E-2,-8.7202415E-2,-1.12382494E-1,4.8570186E-2],"split_indices":[0,0,1,0,0,2,2,2,0,0,1,0,0,0,0],"split_type":[0,0,0,0,0,0,0,0,0,0,0,0,0,0,0],"sum_hessian":[3.507904E1,2.123115E0,3.295593E1,1.0851402E0,1.0379748E0,2.7805174E1,5.1507535E0,2.597414E1,1.8310341E0,1.3608875E0,3.7898657E0,2.106529E1,4.9088497E0,1.3638227E0,2.426043E0],"tree_param":{"num_deleted":"0","num_feature":"3","num_nodes":"15","size_leaf_vector":"0"}},{"base_weights":[-5.5238254E-2,2.301265E-1,-1.01940885E-1,-6.295076E-2,4.9811846E-1,-3.3724162E-1,-7.846422E-3,-2.4335425E-1,1.6752854E-1,-3.9517838E-1,-4.71634E-2,-1.3443646E-1,2.1443497E-1,1.3411117E-1,-6.247671E-1,-1.0952995E-3,-3.6552307E-1,-3.1377697E-1,3.3513322E-1],"categories":[],"categories_nodes":[],"categories_segments":[],"categories_sizes":[],"default_left":[1,1,1,1,0,1,1,0,0,1,0,1,1,0,0,0,0,0,0],"id":13,"left_children":[1,3,5,7,-1,9,11,-1,-1,13,-1,15,17,-1,-1,-1,-1,-1,-1],"loss_changes":[5.015919E-1,4.5176998E-1,6.9530046E-1,1.8398815E-1,0E0,1.3230073E-1,6.91278E-1,0E0,0E0,9.770074E-1,0E0,4.8073632E-1,6.7434496E-1,0E0,0E0,0E0,0E0,0E0,0E0],"parents":[2147483647,0,0,1,1,2,2,3,3,5,5,6,6,9,9,11,11,12,12],"right_children":[2,4,6,8,-1,10,12,-1,-1,14,-1,16,18,-1,-1,-1,-1,-1,-1],"split_conditions":[5.85E1,1.5E0,6.15E1,6.45E1,1.4943555E-1,6.2E1,4.5E0,-7.300628E-2,5.0258566E-2,5.95E1,-1.414902E-2,5.8E1,4.35E1,4.023335E-2,-1.8743014E-1,-3.2858987E-4,-1.0965692E-1,-9.4133094E-2,1.00539975E-1],"split_indices":[1,2,1,0,0,0,2,0,0,1,0,0,0,0,0,0,0,0,0],"split_type":[0,0,0,0,0,0,0,0,0,0,0,0,0,0,0,0,0,0,0],"sum_hessian":[3.487622E1,4.352693E0,3.0523525E1,2.4444897E0,1.9082035E0,7.9811354E0,2.254239E1,1.3398695E0,1.1046201E0,6.350455E0,1.6306803E0,1.4614551E1,7.9278407E0,2.0470614E0,4.3033934E0,9.904319E0,4.7102313E0,1.177047E0,6.750794E0],"tree_param":{"num_deleted":"0","num_feature":"3","num_nodes":"19","size_leaf_vector":"0"}},{"base_weights":[-4.4975393E-2,-1.10978596E-1,1.2751785E-1,-4.6076477E-2,-6.120134E-1,-2.2530034E-1,4.0341526E-1,-1.0478033E-1,4.8089173E-1,2.8027505E-1,-5.333214E-1,6.526745E-1,-1.489886E-1,-1.6198485E-1,5.4853654E-1,-1.4689638E-1,-6.4512324E-1,9.7433245E-1,1.5231733E-1],"categories":[],"categories_nodes":[],"categories_segments":[],"categories_sizes":[],"default_left":[1,1,1,1,0,1,1,1,0,0,1,1,0,0,0,0,0,0,0],"id":14,"left_children":[1,3,5,7,-1,9,11,13,-1,-1,15,17,-1,-1,-1,-1,-1,-1,-1],"loss_changes":[4.1286722E-1,8.1283754E-1,1.0796108E0,7.921775E-1,0E0,9.435201E-1,9.314208E-1,9.258728E-1,0E0,0E0,5.7005823E-2,5.533824E-1,0E0,0E0,0E0,0E0,0E0,0E0,0E0],"parents":[2147483647,0,0,1,1,2,2,3,3,5,5,6,6,7,7,10,10,11,11],"right_children":[2,4,6,8,-1,10,12,14,-1,-1,16,18,-1,-1,-1,-1,-1,-1,-1],"split_conditions":[6.05E1,5.75E1,5E-1,5.55E1,-1.8360403E-1,5.85E1,6.95E1,2.25E1,1.4426753E-1,8.4082514E-2,6.35E1,5.5E0,-4.4696584E-2,-4.8595455E-2,1.6456097E-1,-4.4068914E-2,-1.9353698E-1,2.9229975E-1,4.56952E-2],"split_indices":[0,0,2,0,0,1,0,2,0,0,1,2,0,0,0,0,0,0,0],"split_type":[0,0,0,0,0,0,0,0,0,0,0,0,0,0,0,0,0,0,0],"sum_hessian":[3.4020794E1,2.4863564E1,9.157229E0,2.2978924E1,1.8846388E0,4.098917E0,5.0583124E0,2.1396532E1,1.5823932E0,1.5859199E0,2.5129972E0,3.360465E0,1.6978474E0,2.0365393E1,1.0311387E0,1.0831531E0,1.4298439E0,1.4688994E0,1.8915658E0],"tree_param":{"num_deleted":"0","num_feature":"3","num_nodes":"19","size_leaf_vector":"0"}},{"base_weights":[-2.7478887E-2,2.104845E-2,-2.6833403E-1,-5.9583925E-2,2.6537877E-1,-4.953464E-1,-3.655636E-2,-6.605339E-1,1.4145917E-2,-6.1980586E-2,5.057426E-1,2.3856905E-1,-2.9865405E-1,2.5259617E-1,-5.4995857E-2,3.08289E-1,-4.0413257E-1,7.3995304E-1,-2.6552591E-2],"categories":[],"categories_nodes":[],"categories_segments":[],"categories_sizes":[],"default_left":[1,1,1,1,1,0,1,0,1,1,1,0,0,0,0,0,0,0,0],"id":15,"left_children":[1,3,5,7,9,-1,11,-1,13,15,17,-1,-1,-1,-1,-1,-1,-1,-1],"loss_changes":[4.0717983E-1,5.9739107E-1,2.8883797E-1,1.0289663E0,6.221307E-1,0E0,3.5725206E-1,0E0,3.6797065E-1,6.401685E-1,5.729954E-1,0E0,0E0,0E0,0E0,0E0,0E0,0E0,0E0],"parents":[2147483647,0,0,1,1,2,2,3,3,4,4,6,6,8,8,9,9,10,10],"right_children":[2,4,6,8,10,-1,12,-1,14,16,18,-1,-1,-1,-1,-1,-1,-1,-1],"split_conditions":[6.65E1,6.45E1,6.75E1,4.05E1,2E0,-1.4860393E-1,6.85E1,-1.9816019E-1,5.85E1,4.75E1,1E1,7.157072E-2,-8.959622E-2,7.577886E-2,-1.6498758E-2,9.24867E-2,-1.21239774E-1,2.2198592E-1,-7.965778E-3],"split_indices":[1,1,1,0,2,0,1,0,1,0,2,0,0,0,0,0,0,0,0],"split_type":[0,0,0,0,0,0,0,0,0,0,0,0,0,0,0,0,0,0,0],"sum_hessian":[3.3354023E1,2.8520367E1,4.8336554E0,2.2012178E1,6.5081887E0,1.8674438E0,2.9662116E0,1.535766E0,2.0476412E1,3.069659E0,3.43853E0,1.490937E0,1.4752746E0,4.006349E0,1.6470062E1,1.5217856E0,1.5478734E0,2.1169512E0,1.3215786E0],"tree_param":{"num_deleted":"0","num_feature":"3","num_nodes":"19","size_leaf_vector":"0"}},{"base_weights":[-2.4631595E-2,-3.359176E-1,1.6854153E-3,4.5050696E-2,-2.1259893E-1,1.2507016E-2,3.4847465E-1,-5.543219E-1,-1.7681234E-2,9.754272E-2,-2.3647144E-1,-2.63613E-1,1.4297454E-1],"categories":[],"categories_nodes":[],"categories_segments":[],"categories_sizes":[],"default_left":[1,0,1,1,1,1,0,0,1,0,0,0,0],"id":16,"left_children":[1,-1,3,5,7,9,-1,-1,11,-1,-1,-1,-1],"loss_changes":[2.7833238E-1,0E0,3.0933923E-1,2.6871324E-1,3.6348957E-1,5.738068E-1,0E0,0E0,2.195034E-1,0E0,0E0,0E0,0E0],"parents":[2147483647,0,0,2,2,3,3,4,4,5,5,8,8],"right_children":[2,-1,4,6,8,10,-1,-1,12,-1,-1,-1,-1],"split_conditions":[3.85E1,-1.0077528E-1,6.65E1,2.1E1,5E-1,5.5E0,1.045424E-1,-1.6629657E-1,6.75E1,2.9262817E-2,-7.094143E-2,-7.90839E-2,4.2892363E-2],"split_indices":[0,0,1,2,2,2,0,0,1,0,0,0,0],"split_type":[0,0,0,0,0,0,0,0,0,0,0,0,0],"sum_hessian":[3.2906525E1,1.6480918E0,3.1258432E1,2.6654129E1,4.6043034E0,2.5012623E1,1.6415049E0,1.0026375E0,3.601666E0,1.9098114E1,5.9145107E0,1.169911E0,2.4317548E0],"tree_param":{"num_deleted":"0","num_feature":"3","num_nodes":"13","size_leaf_vector":"0"}},{"base_weights":[-2.4929902E-2,-9.0321645E-2,1.0099926E-1,-1.5741383E-1,6.545172E-2,6.9011635E-1,-2.5950484E-2,-7.196969E-2,-6.578488E-1,-2.1744457E-1,4.2143062E-1,-1.4117089E-1,5.024684E-1,1.9865026E-1,-1.4650634E-1,1.5321866E-1,-4.6390483E-1,7.3556584E-1,-1.1462889E-1,-4.8583668E-1,6.675899E-2],"categories":[],"categories_nodes":[],"categories_segments":[],"categories_sizes":[],"default_left":[1,1,1,1,1,0,1,1,0,1,1,1,0,0,0,0,0,0,0,0,0],"id":17,"left_children":[1,3,5,7,9,-1,11,13,-1,15,17,19,-1,-1,-1,-1,-1,-1,-1,-1,-1],"loss_changes":[2.8789932E-1,2.487026E-1,9.185855E-1,6.4695513E-1,8.5431325E-1,0E0,7.328535E-1,3.3151326E-1,0E0,5.168385E-1,7.063459E-1,7.280402E-1,0E0,0E0,0E0,0E0,0E0,0E0,0E0,0E0,0E0],"parents":[2147483647,0,0,1,1,2,2,3,3,4,4,6,6,7,7,9,9,10,10,11,11],"right_children":[2,4,6,8,10,-1,12,14,-1,16,18,20,-1,-1,-1,-1,-1,-1,-1,-1,-1],"split_conditions":[4.5E0,6.05E1,5.5E0,5.75E1,5E-1,2.0703492E-1,6.4E1,5.95E1,-1.9735464E-1,5.85E1,7.05E1,8.5E0,1.5074053E-1,5.959508E-2,-4.3951903E-2,4.5965597E-2,-1.3917145E-1,2.2066976E-1,-3.438867E-2,-1.4575101E-1,2.0027697E-2],"split_indices":[2,0,2,0,2,0,0,1,0,1,0,2,0,0,0,0,0,0,0,0,0],"split_type":[0,0,0,0,0,0,0,0,0,0,0,0,0,0,0,0,0,0,0,0,0],"sum_hessian":[3.285381E1,2.1810791E1,1.1043019E1,1.5237437E1,6.573354E0,1.1713179E0,9.871701E0,1.3992223E1,1.2452147E0,3.8794894E0,2.6938643E0,8.7061825E0,1.1655184E0,2.6620376E0,1.1330185E1,1.7004402E0,2.1790493E0,1.4638591E0,1.2300054E0,2.773038E0,5.9331446E0],"tree_param":{"num_deleted":"0","num_feature":"3","num_nodes":"21","size_leaf_vector":"0"}},{"base_weights":[-1.4834094E-2,-1.3838378E-1,5.731602E-2,8.6141124E-2,-2.6867315E-1,1.3080211E-1,-1.8593714E-1,-1.6579221E-1,3.732742E-1,8.30265E-2,-3.5103324E-1,-1.19342834E-1,2.1806476E-1,-3.870045E-1,-6.1864844E-3,-2.6022986E-1,1.075301E-2,-6.5334284E-1,-1.7207101E-1,3.3911312E-1,-5.476861E-1,1.1729328E-1,6.933893E-1,2.1882738E-1,-2.316449E-1],"categories":[],"categories_nodes":[],"categories_segments":[],"categories_sizes":[],"default_left":[1,1,1,1,1,1,1,1,0,0,1,1,1,0,1,0,0,0,0,0,0,0,0,0,0],"id":18,"left_children":[1,3,5,7,9,11,13,15,-1,-1,17,19,21,-1,23,-1,-1,-1,-1,-1,-1,-1,-1,-1,-1],"loss_changes":[3.034117E-1,3.892061E-1,4.1104126E-1,4.4906008E-1,2.6554585E-1,4.0150705E-1,1.9393595E-1,6.1874345E-2,0E0,0E0,2.5569057E-1,1.1862853E0,5.464621E-1,0E0,2.4774958E-1,0E0,0E0,0E0,0E0,0E0,0E0,0E0,0E0,0E0,0E0],"parents":[2147483647,0,0,1,1,2,2,3,3,4,4,5,5,6,6,7,7,10,10,11,11,12,12,14,14],"right_children":[2,4,6,8,10,12,14,16,-1,-1,18,20,22,-1,24,-1,-1,-1,-1,-1,-1,-1,-1,-1,-1],"split_conditions":[6.15E1,5.85E1,6.65E1,1.5E0,4.25E1,4.35E1,6.75E1,6.45E1,1.1198226E-1,2.490795E-2,5.05E1,5E-1,1.85E1,-1.16101354E-1,6.85E1,-7.806896E-2,3.2259033E-3,-1.9600286E-1,-5.1621307E-2,1.0173394E-1,-1.6430584E-1,3.5187986E-2,2.080168E-1,6.564822E-2,-6.949347E-2],"split_indices":[1,1,1,2,0,0,1,0,0,0,0,2,2,0,1,0,0,0,0,0,0,0,0,0,0],"split_type":[0,0,0,0,0,0,0,0,0,0,0,0,0,0,0,0,0,0,0,0,0,0,0,0,0],"sum_hessian":[3.2147404E1,1.1513579E1,2.0633825E1,4.352263E0,7.161316E0,1.6201635E1,4.432189E0,2.5433223E0,1.8089409E0,1.3572795E0,5.8040366E0,4.0950985E0,1.2106537E1,1.5478127E0,2.8843763E0,1.3481545E0,1.1951677E0,1.1725653E0,4.631471E0,2.0786421E0,2.0164566E0,1.1017525E1,1.0890125E0,1.4583316E0,1.4260447E0],"tree_param":{"num_deleted":"0","num_feature":"3","num_nodes":"25","size_leaf_vector":"0"}},{"base_weights":[-1.5438881E-2,-7.073081E-2,9.167599E-2,-2.893145E-1,-2.9128136E-2,5.8520716E-1,-1.9096145E-2,1.4697541E-1,-1.0005943E-1,-1.21766075E-1,4.4476312E-1,3.9654282E-1,-3.77884E-1,-3.382077E-1,1.0075887E-1,6.525127E-2,-6.0033953E-1],"categories":[],"categories_nodes":[],"categories_segments":[],"categories_sizes":[],"default_left":[1,1,1,0,1,0,1,1,1,1,0,0,0,0,0,0,0],"id":19,"left_children":[1,3,5,-1,7,-1,9,11,13,15,-1,-1,-1,-1,-1,-1,-1],"loss_changes":[1.998731E-1,1.9254738E-1,6.427312E-1,0E0,2.605176E-1,0E0,5.495967E-1,9.4303E-1,7.33429E-1,8.7178975E-1,0E0,0E0,0E0,0E0,0E0,0E0,0E0],"parents":[2147483647,0,0,1,1,2,2,4,4,6,6,7,7,8,8,9,9],"right_children":[2,4,6,-1,8,-1,10,12,14,16,-1,-1,-1,-1,-1,-1,-1],"split_conditions":[4.5E0,4.15E1,5.5E0,-8.6794354E-2,4.75E1,1.7556216E-1,6.4E1,1.5E0,5E-1,5.65E1,1.3342895E-1,1.1896285E-1,-1.133652E-1,-1.0146231E-1,3.0227663E-2,1.9575382E-2,-1.8010187E-1],"split_indices":[2,0,2,0,0,0,0,2,2,0,0,0,0,0,0,0,0],"split_type":[0,0,0,0,0,0,0,0,0,0,0,0,0,0,0,0,0],"sum_hessian":[3.1652754E1,2.11005E1,1.0552255E1,2.4218233E0,1.8678677E1,1.1491922E0,9.403062E0,5.0553946E0,1.3623282E1,8.302821E0,1.1002408E0,3.5919313E0,1.4634632E0,5.9193916E0,7.703891E0,6.5908847E0,1.711937E0],"tree_param":{"num_deleted":"0","num_feature":"3","num_nodes":"17","size_leaf_vector":"0"}},{"base_weights":[-1.2156545E-2,-1.0982905E-1,4.438422E-2,1.10225305E-1,-2.386656E-1,1.1252077E-1,-1.7822692E-1,-9.4995365E-2,3.256554E-1,6.362221E-2,-3.112094E-1,-8.514353E-2,1.7908213E-1,-3.5805273E-1,-1.8060852E-2,-2.0659606E-1,6.444453E-2,-6.049367E-1,-1.4679845E-1,2.769034E-1,-4.5906973E-1,6.945348E-2,5.6571203E-1,1.7822981E-1,-2.119163E-1],"categories":[],"categories_nodes":[],"categories_segments":[],"categories_sizes":[],"default_left":[1,1,1,1,1,1,1,1,0,0,1,1,1,0,1,0,0,0,0,0,0,0,0,0,0],"id":20,"left_children":[1,3,5,7,9,11,13,15,-1,-1,17,19,21,-1,23,-1,-1,-1,-1,-1,-1,-1,-1,-1,-1],"loss_changes":[1.8292674E-1,3.6960346E-1,3.405919E-1,2.588655E-1,1.9420737E-1,2.3619188E-1,1.4731883E-1,7.407026E-2,0E0,0E0,2.2913766E-1,7.915765E-1,5.0684965E-1,0E0,1.85305E-1,0E0,0E0,0E0,0E0,0E0,0E0,0E0,0E0,0E0,0E0],"parents":[2147483647,0,0,1,1,2,2,3,3,4,4,5,5,6,6,7,7,10,10,11,11,12,12,14,14],"right_children":[2,4,6,8,10,12,14,16,-1,-1,18,20,22,-1,24,-1,-1,-1,-1,-1,-1,-1,-1,-1,-1],"split_conditions":[6.15E1,5.85E1,6.65E1,1.5E0,4.25E1,4.35E1,6.75E1,6.45E1,9.7696625E-2,1.9086663E-2,5.05E1,5E-1,1.25E1,-1.07415825E-1,6.85E1,-6.197882E-2,1.9333359E-2,-1.8148102E-1,-4.4039536E-2,8.307102E-2,-1.3772093E-1,2.0836044E-2,1.6971362E-1,5.3468946E-2,-6.3574895E-2],"split_indices":[1,1,1,2,0,0,1,0,0,0,0,2,2,0,1,0,0,0,0,0,0,0,0,0,0],"split_type":[0,0,0,0,0,0,0,0,0,0,0,0,0,0,0,0,0,0,0,0,0,0,0,0,0],"sum_hessian":[3.1241335E1,1.1108776E1,2.0132559E1,4.155533E0,6.9532433E0,1.5793152E1,4.3394074E0,2.4145005E0,1.7410321E0,1.3695123E0,5.583731E0,3.908142E0,1.188501E1,1.462209E0,2.8771985E0,1.2463503E0,1.1681502E0,1.0422639E0,4.541467E0,2.1174407E0,1.7907013E0,1.0178532E1,1.7064774E0,1.4696705E0,1.4075279E0],"tree_param":{"num_deleted":"0","num_feature":"3","num_nodes":"25","size_leaf_vector":"0"}},{"base_weights":[-1.3534884E-2,-5.584802E-2,9.567804E-2,-3.0472146E-3,-5.0184023E-1,2.0909151E-1,-1.6688971E-1,-4.971387E-2,3.6741728E-1,-1.2725255E-1,4.551811E-1,-5.759702E-1,2.916636E-1,-1.14790216E-1,1.6695318E-1,3.8532397E-1,-6.0773164E-1,6.370221E-1,1.1913948E-1],"categories":[],"categories_nodes":[],"categories_segments":[],"categories_sizes":[],"default_left":[1,1,1,1,0,1,1,1,0,1,1,0,0,0,0,0,0,0,0],"id":21,"left_children":[1,3,5,7,-1,9,11,13,-1,15,17,-1,-1,-1,-1,-1,-1,-1,-1],"loss_changes":[1.5216067E-1,5.525805E-1,3.1006405E-1,3.993972E-1,0E0,6.287912E-1,7.951756E-1,3.0764914E-1,0E0,1.1443403E0,1.80834E-1,0E0,0E0,0E0,0E0,0E0,0E0,0E0,0E0],"parents":[2147483647,0,0,1,1,2,2,3,3,5,5,6,6,7,7,9,9,10,10],"right_children":[2,4,6,8,-1,10,12,14,-1,16,18,-1,-1,-1,-1,-1,-1,-1,-1],"split_conditions":[6.05E1,5.75E1,6.95E1,5.55E1,-1.5055208E-1,5E-1,6.25E1,8.5E0,1.10225186E-1,5.85E1,5.5E0,-1.7279106E-1,8.749908E-2,-3.4437068E-2,5.0085954E-2,1.15597196E-1,-1.8231949E-1,1.9110663E-1,3.5741843E-2],"split_indices":[0,0,0,0,0,2,1,2,0,1,2,0,0,0,0,0,0,0,0],"split_type":[0,0,0,0,0,0,0,0,0,0,0,0,0,0,0,0,0,0,0],"sum_hessian":[3.0770775E1,2.2530325E1,8.240452E0,2.104558E1,1.4847437E0,5.8969784E0,2.3434734E0,1.9460045E1,1.5855355E0,2.6956236E0,3.2013545E0,1.1032197E0,1.2402537E0,1.532681E1,4.1332355E0,1.4000685E0,1.2955551E0,1.4961072E0,1.7052473E0],"tree_param":{"num_deleted":"0","num_feature":"3","num_nodes":"19","size_leaf_vector":"0"}},{"base_weights":[-9.085807E-3,2.0716343E-2,-1.6128524E-1,-4.026747E-2,2.0005225E-1,-3.2100382E-1,-2.1569036E-2,-5.620368E-1,1.685444E-2,-5.988954E-2,3.9414832E-1,1.9483373E-1,-2.3697637E-1,2.5627625E-1,-4.638726E-2,1.9202869E-1,-3.1916487E-1,6.4311534E-1,-1.2304052E-1],"categories":[],"categories_nodes":[],"categories_segments":[],"categories_sizes":[],"default_left":[1,1,1,1,1,0,1,0,1,1,1,0,0,0,0,0,0,0,0],"id":22,"left_children":[1,3,5,7,9,-1,11,-1,13,15,17,-1,-1,-1,-1,-1,-1,-1,-1],"loss_changes":[1.4545748E-1,3.0429894E-1,1.1010371E-1,6.3674E-1,3.7886378E-1,0E0,2.2653885E-1,0E0,3.1381214E-1,3.145956E-1,6.151845E-1,0E0,0E0,0E0,0E0,0E0,0E0,0E0,0E0],"parents":[2147483647,0,0,1,1,2,2,3,3,4,4,6,6,8,8,9,9,10,10],"right_children":[2,4,6,8,10,-1,12,-1,14,16,18,-1,-1,-1,-1,-1,-1,-1,-1],"split_conditions":[6.65E1,6.45E1,6.75E1,4.05E1,2E0,-9.630115E-2,5.45E1,-1.6861105E-1,4.45E1,4.75E1,1E1,5.845012E-2,-7.109291E-2,7.688288E-2,-1.3916179E-2,5.760861E-2,-9.574947E-2,1.9293462E-1,-3.6912158E-2],"split_indices":[1,1,1,0,2,0,0,0,0,0,2,0,0,0,0,0,0,0,0],"split_type":[0,0,0,0,0,0,0,0,0,0,0,0,0,0,0,0,0,0,0],"sum_hessian":[3.0331638E1,2.6087362E1,4.244276E0,2.0046083E1,6.041279E0,1.3749455E0,2.8693306E0,1.1058308E0,1.8940254E1,2.878163E0,3.1631157E0,1.4790032E0,1.3903275E0,3.3197896E0,1.5620463E1,1.5913413E0,1.286822E0,1.9708805E0,1.1922354E0],"tree_param":{"num_deleted":"0","num_feature":"3","num_nodes":"19","size_leaf_vector":"0"}},{"base_weights":[-1.03577385E-2,-3.860157E-2,1.471366E-1,2.8900346E-3,-1.3679928E-1,-2.394261E-1,4.546589E-1,-5.7765935E-2,3.4327328E-1,-6.036486E-1,5.9818745E-2,-1.2503561E-1,1.3889389E-1,-5.2724235E-2,5.768989E-1,4.6955854E-1,-1.2761165E-1],"categories":[],"categories_nodes":[],"categories_segments":[],"categories_sizes":[],"default_left":[1,1,1,1,1,0,0,1,1,0,1,0,0,0,0,0,0],"id":23,"left_children":[1,3,5,7,9,-1,-1,11,13,-1,15,-1,-1,-1,-1,-1,-1],"loss_changes":[1.4390808E-1,1.1098085E-1,6.952931E-1,4.3397638E-1,7.780121E-1,0E0,0E0,2.5392178E-1,3.24423E-1,0E0,5.665641E-1,0E0,0E0,0E0,0E0,0E0,0E0],"parents":[2147483647,0,0,1,1,2,2,3,3,4,4,7,7,8,8,10,10],"right_children":[2,4,6,8,10,-1,-1,12,14,-1,16,-1,-1,-1,-1,-1,-1],"split_conditions":[6.55E1,6.5E0,6.25E1,4.5E0,8.5E0,-7.182784E-2,1.3639767E-1,6.55E1,5.3E1,-1.8109459E-1,6.05E1,-3.7510686E-2,4.166817E-2,-1.5817272E-2,1.7306967E-1,1.4086756E-1,-3.8283497E-2],"split_indices":[0,2,1,2,2,0,0,1,0,0,1,0,0,0,0,0,0],"split_type":[0,0,0,0,0,0,0,0,0,0,0,0,0,0,0,0,0],"sum_hessian":[3.0074823E1,2.6141676E1,3.9331467E0,1.9059156E1,7.0825205E0,1.840735E0,2.0924118E0,1.6881227E1,2.1779273E0,1.4854094E0,5.597111E0,1.284996E1,4.031268E0,1.0954503E0,1.082477E0,1.2842915E0,4.3128195E0],"tree_param":{"num_deleted":"0","num_feature":"3","num_nodes":"17","size_leaf_vector":"0"}},{"base_weights":[-2.8851344E-3,2.5258305E-2,-1.4617196E-1,-7.466891E-3,2.036322E-1,-2.7119887E-1,9.414718E-2,4.440729E-2,-1.7026353E-1,-1.9326968E-1,6.002385E-1,3.5169337E-2,-4.412415E-1,-2.2772003E-2,2.1909367E-1,-4.3308634E-1,5.2107748E-2],"categories":[],"categories_nodes":[],"categories_segments":[],"categories_sizes":[],"default_left":[1,1,1,1,1,1,0,1,1,0,0,0,0,0,0,0,0],"id":24,"left_children":[1,3,5,7,9,11,-1,13,15,-1,-1,-1,-1,-1,-1,-1,-1],"loss_changes":[1.2795971E-1,1.5684903E-1,1.8196401E-1,2.0558718E-1,7.7092206E-1,2.0735222E-1,0E0,2.229827E-1,3.6582327E-1,0E0,0E0,0E0,0E0,0E0,0E0,0E0,0E0],"parents":[2147483647,0,0,1,1,2,2,3,3,4,4,5,5,7,7,8,8],"right_children":[2,4,6,8,10,12,-1,14,16,-1,-1,-1,-1,-1,-1,-1,-1],"split_conditions":[6.65E1,6.55E1,5.5E0,5.75E1,6.25E1,5.35E1,2.8244156E-2,5.25E1,6.15E1,-5.7980906E-2,1.8007156E-1,1.0550802E-2,-1.3237245E-1,-6.8316013E-3,6.5728106E-2,-1.299259E-1,1.5632326E-2],"split_indices":[1,0,2,0,1,0,0,0,0,0,0,0,0,0,0,0,0],"split_type":[0,0,0,0,0,0,0,0,0,0,0,0,0,0,0,0,0],"sum_hessian":[2.981589E1,2.5609554E1,4.206335E0,2.2449093E1,3.1604621E0,2.6823423E0,1.5239931E0,1.7575869E1,4.8732243E0,1.8358926E0,1.3245696E0,1.2404962E0,1.441846E0,1.3322185E1,4.253684E0,1.7991769E0,3.074047E0],"tree_param":{"num_deleted":"0","num_feature":"3","num_nodes":"17","size_leaf_vector":"0"}},{"base_weights":[-3.3620654E-3,1.3469814E-1,-2.8981682E-2,-1.0501707E-1,3.3104464E-1,-1.7899859E-1,2.7257003E-2,6.968773E-2,-2.4277332E-1,7.338334E-2,-1.23210914E-1,-4.106389E-1,-7.168185E-2,2.5454223E-2,3.7546042E-1,-2.2971745E-1,7.67702E-2],"categories":[],"categories_nodes":[],"categories_segments":[],"categories_sizes":[],"default_left":[1,1,1,0,0,1,1,0,1,1,1,0,0,0,0,0,0],"id":25,"left_children":[1,3,5,-1,-1,7,9,-1,11,13,15,-1,-1,-1,-1,-1,-1],"loss_changes":[1.12387344E-1,2.6905274E-1,2.3008056E-1,0E0,0E0,1.3444622E-1,1.4981332E-1,0E0,1.4635953E-1,2.2427362E-1,1.2694573E-1,0E0,0E0,0E0,0E0,0E0,0E0],"parents":[2147483647,0,0,1,1,2,2,5,5,6,6,8,8,9,9,10,10],"right_children":[2,4,6,-1,-1,8,10,-1,12,14,16,-1,-1,-1,-1,-1,-1],"split_conditions":[5.85E1,6E1,6.15E1,-3.1505123E-2,9.93134E-2,4.25E1,6.65E1,2.090632E-2,5.25E1,1.85E1,5.5E0,-1.2319168E-1,-2.1504555E-2,7.636267E-3,1.1263813E-1,-6.891524E-2,2.3031062E-2],"split_indices":[1,0,1,0,0,0,1,0,0,2,2,0,0,0,0,0,0],"split_type":[0,0,0,0,0,0,0,0,0,0,0,0,0,0,0,0,0],"sum_hessian":[2.9670637E1,3.9777157E0,2.5692923E1,2.0004966E0,1.9772192E0,6.4103775E0,1.9282545E1,1.2894635E0,5.120914E0,1.5150437E1,4.1321073E0,1.878106E0,3.242808E0,1.4011555E1,1.1388819E0,2.5991492E0,1.5329583E0],"tree_param":{"num_deleted":"0","num_feature":"3","num_nodes":"17","size_leaf_vector":"0"}},{"base_weights":[-2.0386912E-3,1.7114237E-2,-1.6396569E-1,-1.8441949E-2,3.7359503E-1,-4.3527013E-1,1.655401E-1,-4.455575E-2,1.6702306E-1,5.119593E-3,-1.950671E-1,4.226226E-1,-1.3474473E-1],"categories":[],"categories_nodes":[],"categories_segments":[],"categories_sizes":[],"default_left":[1,1,1,1,0,0,0,1,1,0,0,0,0],"id":26,"left_children":[1,3,5,7,-1,-1,-1,9,11,-1,-1,-1,-1],"loss_changes":[9.739787E-2,3.6406666E-1,3.6889595E-1,1.3615759E-1,0E0,0E0,0E0,1.8108137E-1,3.2619488E-1,0E0,0E0,0E0,0E0],"parents":[2147483647,0,0,1,1,2,2,3,3,7,7,8,8],"right_children":[2,4,6,8,-1,-1,-1,10,12,-1,-1,-1,-1],"split_conditions":[6.95E1,6.55E1,6.25E1,6.75E1,1.1207851E-1,-1.3058105E-1,4.966203E-2,5.75E1,6.85E1,1.5358779E-3,-5.852013E-2,1.2678678E-1,-4.0423423E-2],"split_indices":[0,0,1,1,0,0,0,0,1,0,0,0,0],"split_type":[0,0,0,0,0,0,0,0,0,0,0,0,0],"sum_hessian":[2.949992E1,2.7179413E1,2.3205063E0,2.557661E1,1.6028014E0,1.0966122E0,1.223894E0,2.3085846E1,2.4907656E0,1.8083488E1,5.002358E0,1.1317098E0,1.3590559E0],"tree_param":{"num_deleted":"0","num_feature":"3","num_nodes":"13","size_leaf_vector":"0"}},{"base_weights":[3.618741E-4,2.4205292E-2,-1.2357121E-1,1.5711307E-3,2.6087165E-1,-2.8865173E-1,5.0702817E-3,-1.830271E-1,6.0388528E-2,1.7712586E-1,-1.8149742E-1,2.0279427E-1,-5.7439536E-1,1.1993629E-1,-1.5225145E-1],"categories":[],"categories_nodes":[],"categories_segments":[],"categories_sizes":[],"default_left":[1,1,1,1,0,0,1,1,1,0,0,0,0,0,0],"id":27,"left_children":[1,3,5,7,-1,-1,9,11,13,-1,-1,-1,-1,-1,-1],"loss_changes":[9.300693E-2,1.4091986E-1,1.0931859E-1,2.8343233E-1,0E0,0E0,1.5532178E-1,1.0692598E0,2.6867795E-1,0E0,0E0,0E0,0E0,0E0,0E0],"parents":[2147483647,0,0,1,1,2,2,3,3,6,6,7,7,8,8],"right_children":[2,4,6,8,-1,-1,10,12,14,-1,-1,-1,-1,-1,-1],"split_conditions":[6.65E1,2.1E1,6.75E1,4.35E1,7.8261495E-2,-8.659552E-2,5.45E1,5E-1,6.5E0,5.313776E-2,-5.444923E-2,6.0838282E-2,-1.7231861E-1,3.5980888E-2,-4.5675438E-2],"split_indices":[1,2,1,0,0,0,0,2,2,0,0,0,0,0,0],"split_type":[0,0,0,0,0,0,0,0,0,0,0,0,0,0,0],"sum_hessian":[2.9462337E1,2.5383509E1,4.078829E0,2.408657E1,1.296939E0,1.241638E0,2.837191E0,5.309847E0,1.8776724E1,1.5023289E0,1.3348622E0,2.9165075E0,2.3933392E0,1.500944E1,3.7672825E0],"tree_param":{"num_deleted":"0","num_feature":"3","num_nodes":"15","size_leaf_vector":"0"}},{"base_weights":[-5.050431E-3,-3.5926532E-2,1.1228891E-1,-3.0099657E-1,6.0771615E-3,3.0819425E-1,-1.390856E-1,1.818679E-1,-6.395059E-2,-1.6758325E-2,6.3272136E-1,-4.235585E-1,2.1529938E-1,3.5027975E-1,-2.2960745E-1,-2.791655E-1,6.173195E-2],"categories":[],"categories_nodes":[],"categories_segments":[],"categories_sizes":[],"default_left":[1,1,1,0,1,1,1,1,1,0,0,0,0,0,0,0,0],"id":28,"left_children":[1,3,5,-1,7,9,11,13,15,-1,-1,-1,-1,-1,-1,-1,-1],"loss_changes":[1.1420932E-1,2.7831438E-1,3.6677316E-1,0E0,2.87578E-1,4.332181E-1,4.510831E-1,5.4097426E-1,4.7084504E-1,0E0,0E0,0E0,0E0,0E0,0E0,0E0,0E0],"parents":[2147483647,0,0,1,1,2,2,4,4,5,5,6,6,7,7,8,8],"right_children":[2,4,6,-1,8,10,12,14,16,-1,-1,-1,-1,-1,-1,-1,-1],"split_conditions":[8.5E0,4.15E1,5.35E1,-9.029897E-2,4.75E1,4.75E1,5.8E1,2.5E0,5E-1,-5.0274977E-3,1.8981642E-1,-1.2706755E-1,6.458982E-2,1.0508393E-1,-6.8882234E-2,-8.374965E-2,1.8519586E-2],"split_indices":[2,0,0,0,0,0,0,2,2,0,0,0,0,0,0,0,0],"split_type":[0,0,0,0,0,0,0,0,0,0,0,0,0,0,0,0,0],"sum_hessian":[2.9410082E1,2.3832687E1,5.5773935E0,2.4165795E0,2.1416107E1,3.0075016E0,2.569892E0,5.6459618E0,1.5770146E1,1.9766355E0,1.0308661E0,1.3172846E0,1.2526075E0,4.1117816E0,1.5341799E0,5.363927E0,1.04062195E1],"tree_param":{"num_deleted":"0","num_feature":"3","num_nodes":"17","size_leaf_vector":"0"}},{"base_weights":[-3.956995E-3,-3.907218E-2,8.492751E-2,-7.306124E-2,3.2393417E-1,3.097662E-1,-2.5440972E-2,-2.856279E-2,-3.7259424E-1,-3.1527787E-1,2.0065339E-1,-9.556621E-2,1.4761464E-1,-1.2050754E-2,-4.4453588E-1,-1.9502406E-1,4.1282544E-1],"categories":[],"categories_nodes":[],"categories_segments":[],"categories_sizes":[],"default_left":[1,1,1,1,0,0,1,1,0,1,1,0,0,0,0,0,0],"id":29,"left_children":[1,3,5,7,-1,-1,9,11,-1,13,15,-1,-1,-1,-1,-1,-1],"loss_changes":[9.707722E-2,2.9779243E-1,2.2679701E-1,2.7101192E-1,0E0,0E0,5.115785E-1,2.4407189E-1,0E0,1.2739378E-1,4.5446354E-1,0E0,0E0,0E0,0E0,0E0,0E0],"parents":[2147483647,0,0,1,1,2,2,3,3,6,6,7,7,9,9,10,10],"right_children":[2,4,6,8,-1,-1,10,12,-1,14,16,-1,-1,-1,-1,-1,-1],"split_conditions":[6.05E1,2.25E1,5.85E1,1.35E1,9.7180255E-2,9.292986E-2,6.25E1,4.5E0,-1.11778274E-1,6.35E1,5E-1,-2.8669866E-2,4.4284396E-2,-3.6152264E-3,-1.3336077E-1,-5.850722E-2,1.2384763E-1],"split_indices":[0,2,1,2,0,0,1,2,0,0,2,0,0,0,0,0,0],"split_type":[0,0,0,0,0,0,0,0,0,0,0,0,0,0,0,0,0],"sum_hessian":[2.9039427E1,2.1217533E1,7.8218946E0,2.0131327E1,1.0862063E0,1.980545E0,5.8413496E0,1.8481136E1,1.6501894E0,2.3869705E0,3.454379E0,1.37205305E1,4.760606E0,1.040137E0,1.3468333E0,1.2339743E0,2.2204049E0],"tree_param":{"num_deleted":"0","num_feature":"3","num_nodes":"17","size_leaf_vector":"0"}},{"base_weights":[-2.191602E-3,-2.8875405E-2,9.978956E-2,1.2806335E-2,-3.3597955E-1,2.7573454E-1,-1.3672136E-1,-2.7533054E-2,2.694119E-1,-1.0245518E-1,4.7041887E-1,1.15279414E-1,-2.976109E-1,1.08650304E-1,-7.912304E-2,-4.151124E-2,4.536709E-1],"categories":[],"categories_nodes":[],"categories_segments":[],"categories_sizes":[],"default_left":[1,1,1,1,0,1,1,1,1,0,0,0,0,0,0,0,0],"id":30,"left_children":[1,3,5,7,-1,9,11,13,15,-1,-1,-1,-1,-1,-1,-1,-1],"loss_changes":[8.383487E-2,3.160579E-1,3.0377144E-1,2.3936415E-1,0E0,3.4255496E-1,1.719993E-1,1.5101264E-1,1.985368E-1,0E0,0E0,0E0,0E0,0E0,0E0,0E0,0E0],"parents":[2147483647,0,0,1,1,2,2,3,3,5,5,6,6,7,7,8,8],"right_children":[2,4,6,8,-1,10,12,14,16,-1,-1,-1,-1,-1,-1,-1,-1],"split_conditions":[8.5E0,6.5E0,1.55E1,4.5E0,-1.0079387E-1,4.75E1,5.45E1,5.95E1,5.3E1,-3.0736554E-2,1.4112566E-1,3.4583826E-2,-8.928327E-2,3.2595094E-2,-2.3736915E-2,-1.2453373E-2,1.3610128E-1],"split_indices":[2,2,2,2,0,0,0,1,0,0,0,0,0,0,0,0,0],"split_type":[0,0,0,0,0,0,0,0,0,0,0,0,0,0,0,0,0],"sum_hessian":[2.8748663E1,2.335467E1,5.393993E0,2.1407442E1,1.9472276E0,2.9979315E0,2.3960614E0,1.9270714E1,2.1367283E0,1.1798044E0,1.818127E0,1.0441306E0,1.351931E0,4.990674E0,1.428004E1,1.0833573E0,1.053371E0],"tree_param":{"num_deleted":"0","num_feature":"3","num_nodes":"17","size_leaf_vector":"0"}},{"base_weights":[1.6675638E-3,-6.633487E-2,4.0307567E-2,-1.7169753E-1,1.2756E-1,3.1771117E-1,5.957224E-3,1.05429016E-1,-4.5540184E-1,-5.8872305E-2,3.8197765E-1,-9.694459E-2,9.141516E-2,-1.9293106E-1,2.658833E-1,-7.0359516E-1,4.0878206E-3,2.576928E-1,-4.1363132E-1,-4.5184454E-1,2.8884768E-1],"categories":[],"categories_nodes":[],"categories_segments":[],"categories_sizes":[],"default_left":[1,1,1,1,1,0,1,1,1,0,0,1,1,0,0,0,0,0,0,0,0],"id":31,"left_children":[1,3,5,7,9,-1,11,13,15,-1,-1,17,19,-1,-1,-1,-1,-1,-1,-1,-1],"loss_changes":[7.991714E-2,2.4722372E-1,1.8265747E-1,6.433696E-1,2.3388928E-1,0E0,1.693708E-1,2.7355394E-1,4.510373E-1,0E0,0E0,1.0911357E0,1.2552248E0,0E0,0E0,0E0,0E0,0E0,0E0,0E0,0E0],"parents":[2147483647,0,0,1,1,2,2,3,3,4,4,6,6,7,7,8,8,11,11,12,12],"right_children":[2,4,6,8,10,-1,12,14,16,-1,-1,18,20,-1,-1,-1,-1,-1,-1,-1,-1],"split_conditions":[6.15E1,6.15E1,4E1,5.95E1,5.95E1,9.5313355E-2,5.15E1,1.5E0,4.5E0,-1.7661693E-2,1.145933E-1,5E-1,5E-1,-5.7879318E-2,7.976499E-2,-2.1107855E-1,1.2263462E-3,7.730785E-2,-1.240894E-1,-1.3555337E-1,8.6654305E-2],"split_indices":[1,0,0,1,1,0,0,2,2,0,0,2,2,0,0,0,0,0,0,0,0],"split_type":[0,0,0,0,0,0,0,0,0,0,0,0,0,0,0,0,0,0,0,0,0],"sum_hessian":[2.8396757E1,1.0029366E1,1.8367392E1,6.5723987E0,3.4569666E0,1.1148709E0,1.7252522E1,3.642619E0,2.9297798E0,2.4386046E0,1.0183622E0,7.7664056E0,9.486115E0,1.2030945E0,2.4395244E0,1.5573329E0,1.372447E0,3.751558E0,4.0148478E0,2.1850584E0,7.301058E0],"tree_param":{"num_deleted":"0","num_feature":"3","num_nodes":"21","size_leaf_vector":"0"}},{"base_weights":[-4.033156E-3,4.4904E-2,-6.0169373E-2,2.7694476E-1,-2.9551102E-2,-2.864795E-1,1.9021356E-2,1.2011075E-3,3.930269E-1,-4.4208995E-1,8.159082E-2,-4.2029757E-2,-3.6552334E-1,1.0727817E-1,-1.9617465E-1,-9.399544E-3,4.539636E-1,4.3177485E-1,-1.6391797E-1,-5.29612E-1,2.112258E-1],"categories":[],"categories_nodes":[],"categories_segments":[],"categories_sizes":[],"default_left":[1,1,1,1,1,1,1,0,0,0,1,0,0,1,1,0,0,0,0,0,0],"id":32,"left_children":[1,3,5,7,9,11,13,-1,-1,-1,15,-1,-1,17,19,-1,-1,-1,-1,-1,-1],"loss_changes":[8.20851E-2,2.8479773E-1,2.5430492E-1,1.2711018E-1,6.33273E-1,5.5388898E-2,2.3421867E-1,0E0,0E0,0E0,3.8052702E-1,0E0,0E0,8.2813346E-1,6.0334015E-1,0E0,0E0,0E0,0E0,0E0,0E0],"parents":[2147483647,0,0,1,1,2,2,3,3,4,4,5,5,6,6,10,10,13,13,14,14],"right_children":[2,4,6,8,10,12,14,-1,-1,-1,16,-1,-1,18,20,-1,-1,-1,-1,-1,-1],"split_conditions":[5.35E1,5.95E1,5.55E1,4.55E1,6.15E1,6.55E1,5.5E0,3.6033225E-4,1.1790807E-1,-1.32627E-1,5.15E1,-1.2608928E-2,-1.09657004E-1,6.35E1,1.1E1,-2.8198634E-3,1.3618909E-1,1.2953246E-1,-4.9175393E-2,-1.588836E-1,6.336774E-2],"split_indices":[0,1,0,0,1,1,2,0,0,0,0,0,0,0,2,0,0,0,0,0,0],"split_type":[0,0,0,0,0,0,0,0,0,0,0,0,0,0,0,0,0,0,0,0,0],"sum_hessian":[2.7896618E1,1.501087E1,1.2885747E1,2.9858356E0,1.2025035E1,2.6616716E0,1.0224075E1,1.1839072E0,1.8019283E0,1.9201344E0,1.01049E1,1.0246334E0,1.6370382E0,7.606118E0,2.6179574E0,8.903952E0,1.2009485E0,3.1932082E0,4.41291E0,1.2746992E0,1.343258E0],"tree_param":{"num_deleted":"0","num_feature":"3","num_nodes":"21","size_leaf_vector":"0"}},{"base_weights":[-4.245522E-3,-2.6030118E-2,1.1532412E-1,3.8542897E-2,-1.2281979E-1,-1.5301932E-1,3.2617855E-1,-2.8523147E-2,2.688898E-1,-1.5348042E-2,-3.2735917E-1,6.5071434E-2,-2.944484E-1,4.4404224E-1,-5.626952E-2,-2.8594205E-1,1.5630686E-1,-4.4981813E-1,-9.302253E-2],"categories":[],"categories_nodes":[],"categories_segments":[],"categories_sizes":[],"default_left":[1,1,1,1,1,0,0,1,1,1,1,0,0,0,0,0,0,0,0],"id":33,"left_children":[1,3,5,7,9,-1,-1,11,13,15,17,-1,-1,-1,-1,-1,-1,-1,-1],"loss_changes":[7.826082E-2,1.6258238E-1,3.122738E-1,2.5345802E-1,2.2239338E-1,0E0,0E0,3.483591E-1,2.3477772E-1,4.0844563E-1,5.9005737E-2,0E0,0E0,0E0,0E0,0E0,0E0,0E0,0E0],"parents":[2147483647,0,0,1,1,2,2,3,3,4,4,7,7,8,8,9,9,10,10],"right_children":[2,4,6,8,10,-1,-1,12,14,16,18,-1,-1,-1,-1,-1,-1,-1,-1],"split_conditions":[6.55E1,5.35E1,6.25E1,8.5E0,7.5E0,-4.59058E-2,9.785357E-2,3.5E0,1.35E1,5E-1,6.45E1,1.952143E-2,-8.833452E-2,1.3321267E-1,-1.6880857E-2,-8.578262E-2,4.689206E-2,-1.3494545E-1,-2.790676E-2],"split_indices":[0,0,1,2,2,0,0,2,2,2,1,0,0,0,0,0,0,0,0],"split_type":[0,0,0,0,0,0,0,0,0,0,0,0,0,0,0,0,0,0,0],"sum_hessian":[2.7892662E1,2.4255764E1,3.6368973E0,1.4910227E1,9.345537E0,1.7209824E0,1.915915E0,1.2226598E1,2.6836293E0,6.831224E0,2.5143135E0,9.602293E0,2.6243043E0,1.5065091E0,1.1771202E0,2.393055E0,4.438169E0,1.0474184E0,1.4668951E0],"tree_param":{"num_deleted":"0","num_feature":"3","num_nodes":"19","size_leaf_vector":"0"}},{"base_weights":[-6.7989947E-3,-3.646964E-2,6.8246044E-2,5.203734E-3,-3.9434943E-1,2.9178065E-1,-4.5300357E-2,-2.2111215E-2,1.9970317E-1,-3.0595708E-1,1.6954932E-1,2.98753E-2,-2.4512021E-1,-8.1155896E-2,-3.7156826E-1,-1.0318694E-1,2.9375502E-1],"categories":[],"categories_nodes":[],"categories_segments":[],"categories_sizes":[],"default_left":[1,1,1,1,0,0,1,1,0,1,1,0,0,0,0,0,0],"id":34,"left_children":[1,3,5,7,-1,-1,9,11,-1,13,15,-1,-1,-1,-1,-1,-1],"loss_changes":[6.669754E-2,3.199847E-1,2.2944269E-1,1.1110187E-1,0E0,0E0,4.1672546E-1,2.2190233E-1,0E0,1.8521875E-2,1.7308685E-1,0E0,0E0,0E0,0E0,0E0,0E0],"parents":[2147483647,0,0,1,1,2,2,3,3,6,6,7,7,9,9,10,10],"right_children":[2,4,6,8,-1,-1,10,12,-1,14,16,-1,-1,-1,-1,-1,-1],"split_conditions":[6.05E1,5.75E1,5.85E1,5.55E1,-1.18304834E-1,8.75342E-2,6.25E1,5.35E1,5.9910953E-2,6.35E1,5E-1,8.96259E-3,-7.353607E-2,-2.434677E-2,-1.1147048E-1,-3.0956084E-2,8.812651E-2],"split_indices":[0,0,1,0,0,0,1,0,0,0,2,0,0,0,0,0,0],"split_type":[0,0,0,0,0,0,0,0,0,0,0,0,0,0,0,0,0],"sum_hessian":[2.7836628E1,2.0317646E1,7.5189815E0,1.9081194E1,1.2364532E0,2.004026E0,5.5149555E0,1.7508646E1,1.5725473E0,2.3002403E0,3.2147155E0,1.4901041E1,2.6076055E0,1.0250546E0,1.2751857E0,1.058857E0,2.1558585E0],"tree_param":{"num_deleted":"0","num_feature":"3","num_nodes":"17","size_leaf_vector":"0"}},{"base_weights":[-8.985524E-3,-4.464E-2,6.27208E-2,4.979244E-4,-2.553636E-1,3.0181164E-1,-5.1245723E-2,-7.704811E-2,1.7831603E-1,3.7006754E-2,-4.2438197E-1,7.762426E-1,-2.3965904E-1,-4.3889594E-1,1.1609594E-1,-1.6436826E-1,3.086021E-1,1.2498188E-2,3.458431E-1,2.617389E-1,-1.8672009E-1],"categories":[],"categories_nodes":[],"categories_segments":[],"categories_sizes":[],"default_left":[1,1,1,1,1,1,1,1,1,0,0,0,0,0,1,0,0,0,0,0,0],"id":35,"left_children":[1,3,5,7,9,11,13,15,17,-1,-1,-1,-1,-1,19,-1,-1,-1,-1,-1,-1],"loss_changes":[7.628831E-2,1.882895E-1,2.869057E-1,2.5215906E-1,1.8825857E-1,1.0493822E0,5.440251E-1,4.7968358E-1,1.499147E-1,0E0,0E0,0E0,0E0,0E0,3.178955E-1,0E0,0E0,0E0,0E0,0E0,0E0],"parents":[2147483647,0,0,1,1,2,2,3,3,4,4,5,5,6,6,7,7,8,8,14,14],"right_children":[2,4,6,8,10,12,14,16,18,-1,-1,-1,-1,-1,20,-1,-1,-1,-1,-1,-1],"split_conditions":[4.5E0,6.65E1,4.65E1,6.15E1,5.35E1,9.5E0,5.25E1,6.55E1,5E-1,1.1102026E-2,-1.273146E-1,2.328728E-1,-7.1897715E-2,-1.3166879E-1,1.65E1,-4.931048E-2,9.258063E-2,3.7494565E-3,1.0375293E-1,7.852167E-2,-5.6016028E-2],"split_indices":[2,1,0,0,0,2,0,1,2,0,0,0,0,0,2,0,0,0,0,0,0],"split_type":[0,0,0,0,0,0,0,0,0,0,0,0,0,0,0,0,0,0,0,0,0],"sum_hessian":[2.7744024E1,1.8782352E1,8.961673E0,1.6290493E1,2.4918585E0,2.3607655E0,6.6009073E0,1.1738197E1,4.552296E0,1.1989489E0,1.2929097E0,1.0271795E0,1.333586E0,1.5010176E0,5.0998898E0,1.00389385E1,1.699259E0,2.827876E0,1.72442E0,3.5352297E0,1.5646602E0],"tree_param":{"num_deleted":"0","num_feature":"3","num_nodes":"21","size_leaf_vector":"0"}},{"base_weights":[-3.7779969E-3,-2.8309166E-2,1.2890096E-1,6.230651E-2,-9.008794E-2,-1.0479435E-1,2.3147543E-1,1.6076499E-1,-1.4943855E-1,-3.8365948E-1,-3.2932688E-2,4.686226E-1,-1.14401944E-1,-6.294789E-4,5.4003376E-1,1.8701673E-1,-5.1487434E-1,-2.3807146E-1,7.5312436E-2],"categories":[],"categories_nodes":[],"categories_segments":[],"categories_sizes":[],"default_left":[1,1,1,1,1,0,1,1,1,0,1,0,0,0,0,0,0,0,0],"id":36,"left_children":[1,3,5,7,9,-1,11,13,15,-1,17,-1,-1,-1,-1,-1,-1,-1,-1],"loss_changes":[9.603484E-2,1.4430933E-1,1.3474628E-1,2.457402E-1,2.4141265E-1,0E0,3.419165E-1,4.7418556E-1,5.7503676E-1,0E0,3.236343E-1,0E0,0E0,0E0,0E0,0E0,0E0,0E0,0E0],"parents":[2147483647,0,0,1,1,2,2,3,3,4,4,6,6,7,7,8,8,10,10],"right_children":[2,4,6,8,10,-1,12,14,16,-1,18,-1,-1,-1,-1,-1,-1,-1,-1],"split_conditions":[1.25E1,4.95E1,4.6E1,2.5E0,5.15E1,-3.1438306E-2,2.05E1,4.65E1,4.65E1,-1.1509785E-1,5E-1,1.4058678E-1,-3.4320585E-2,-1.8884368E-4,1.6201013E-1,5.610502E-2,-1.5446231E-1,-7.142144E-2,2.2593731E-2],"split_indices":[2,0,0,2,0,0,2,0,0,0,2,0,0,0,0,0,0,0,0],"split_type":[0,0,0,0,0,0,0,0,0,0,0,0,0,0,0,0,0,0,0],"sum_hessian":[2.7384726E1,2.3775484E1,3.609243E0,9.634816E0,1.4140667E1,1.0943483E0,2.5148945E0,6.741073E0,2.8937433E0,1.3734598E0,1.2767207E1,1.2814211E0,1.2334735E0,5.4291053E0,1.3119677E0,1.7608095E0,1.1329337E0,3.9956157E0,8.771591E0],"tree_param":{"num_deleted":"0","num_feature":"3","num_nodes":"19","size_leaf_vector":"0"}},{"base_weights":[-4.296652E-3,-1.9575771E-2,1.7665084E-1,-6.331764E-2,9.146614E-2,6.9057214E-4,-2.2925375E-1,2.0001346E-1,-1.5168785E-1,2.2821468E-1,-6.9982156E-2,-3.679813E-1,-1.352607E-2,-3.5672676E-2,3.5531947E-1],"categories":[],"categories_nodes":[],"categories_segments":[],"categories_sizes":[],"default_left":[1,1,0,1,1,1,1,1,0,0,0,0,0,0,0],"id":37,"left_children":[1,3,-1,5,7,9,11,13,-1,-1,-1,-1,-1,-1,-1],"loss_changes":[8.132117E-2,1.3630606E-1,0E0,2.1117957E-1,2.4155942E-1,2.6254287E-1,1.6062519E-1,2.3098028E-1,0E0,0E0,0E0,0E0,0E0,0E0,0E0],"parents":[2147483647,0,0,1,1,3,3,4,4,5,5,6,6,7,7],"right_children":[2,4,-1,6,8,10,12,14,-1,-1,-1,-1,-1,-1,-1],"split_conditions":[2.25E1,6.05E1,5.2995253E-2,5.35E1,6.95E1,5.95E1,4.5E0,5E-1,-4.5506354E-2,6.8464406E-2,-2.0994648E-2,-1.10394396E-1,-4.0578214E-3,-1.07018035E-2,1.06595844E-1],"split_indices":[2,0,0,0,0,1,2,2,0,0,0,0,0,0,0],"split_type":[0,0,0,0,0,0,0,0,0,0,0,0,0,0,0],"sum_hessian":[2.7163122E1,2.587045E1,1.2926731E0,1.8867792E1,7.0026565E0,1.43343115E1,4.5334806E0,4.964054E0,2.0386024E0,2.8689203E0,1.1465391E1,2.3296134E0,2.2038674E0,2.2777457E0,2.6863081E0],"tree_param":{"num_deleted":"0","num_feature":"3","num_nodes":"15","size_leaf_vector":"0"}},{"base_weights":[-2.0288238E-3,1.9436274E-2,-1.08996E-1,6.539015E-2,-9.306622E-2,-3.009471E-1,3.524359E-2,-1.689937E-1,1.05593964E-1,1.13233626E-1,-4.061256E-1,1.5975253E-1,-1.204385E-1,4.4507988E-2,2.2828081E-1,2.891181E-1,-8.942231E-2,-7.703664E-1,1.4447102E-1],"categories":[],"categories_nodes":[],"categories_segments":[],"categories_sizes":[],"default_left":[1,1,1,1,1,0,1,0,1,1,1,0,0,0,0,0,0,0,0],"id":38,"left_children":[1,3,5,7,9,-1,11,-1,13,15,17,-1,-1,-1,-1,-1,-1,-1,-1],"loss_changes":[6.6137545E-2,1.3052991E-1,1.4381723E-1,1.8442082E-1,5.2348554E-1,0E0,8.984076E-2,0E0,1.0753684E-1,2.1257809E-1,7.439991E-1,0E0,0E0,0E0,0E0,0E0,0E0,0E0,0E0],"parents":[2147483647,0,0,1,1,2,2,3,3,4,4,6,6,8,8,9,9,10,10],"right_children":[2,4,6,8,10,-1,12,-1,14,16,18,-1,-1,-1,-1,-1,-1,-1,-1],"split_conditions":[6.65E1,5.5E0,6.75E1,4.15E1,5.65E1,-9.028413E-2,5.45E1,-5.0698113E-2,2.5E0,1.05E1,1.35E1,4.7925763E-2,-3.6131553E-2,1.3352397E-2,6.848425E-2,8.6735435E-2,-2.6826693E-2,-2.3110992E-1,4.334131E-2],"split_indices":[1,2,1,0,0,0,0,0,2,2,2,0,0,0,0,0,0,0,0],"split_type":[0,0,0,0,0,0,0,0,0,0,0,0,0,0,0,0,0,0,0],"sum_hessian":[2.6882132E1,2.307081E1,3.8113215E0,1.6677374E1,6.393436E0,1.1690863E0,2.642235E0,1.9727916E0,1.4704582E1,4.23859E0,2.154846E0,1.4535735E0,1.1886617E0,1.0726579E1,3.9780033E0,2.0407681E0,2.1978216E0,1.05667E0,1.0981761E0],"tree_param":{"num_deleted":"0","num_feature":"3","num_nodes":"19","size_leaf_vector":"0"}},{"base_weights":[-7.830166E-3,-1.6624358E-1,5.185294E-3,1.6886659E-1,-2.2755168E-2,-1.16213895E-1,4.0549842E-1,4.9123902E-2,-2.2319052E-1,-1.0520921E-2,3.136201E-1,-4.0483868E-1,-1.49358865E-2],"categories":[],"categories_nodes":[],"categories_segments":[],"categories_sizes":[],"default_left":[1,0,1,1,1,0,0,1,1,0,0,0,0],"id":39,"left_children":[1,-1,3,5,7,-1,-1,9,11,-1,-1,-1,-1],"loss_changes":[5.832709E-2,0E0,1.2606345E-1,3.1800598E-1,3.52545E-1,0E0,0E0,2.9153365E-1,2.37519E-1,0E0,0E0,0E0,0E0],"parents":[2147483647,0,0,2,2,3,3,4,4,7,7,8,8],"right_children":[2,-1,4,6,8,-1,-1,10,12,-1,-1,-1,-1],"split_conditions":[3.85E1,-4.9873076E-2,4.25E1,6.35E1,6.55E1,-3.486417E-2,1.21649526E-1,9.5E0,2.5E0,-3.1562764E-3,9.408603E-2,-1.2145161E-1,-4.480766E-3],"split_indices":[0,0,0,1,1,0,0,2,2,0,0,0,0],"split_type":[0,0,0,0,0,0,0,0,0,0,0,0,0],"sum_hessian":[2.6870996E1,1.1463078E0,2.572469E1,3.0154905E0,2.2709198E1,1.5985419E0,1.4169487E0,1.7270615E1,5.4385834E0,1.4876202E1,2.3944135E0,2.4006653E0,3.037918E0],"tree_param":{"num_deleted":"0","num_feature":"3","num_nodes":"13","size_leaf_vector":"0"}},{"base_weights":[-5.8800247E-3,-6.938219E-2,3.0363487E-2,-1.762106E-1,1.1891677E-1,2.2017126E-1,4.22546E-3,-2.6757705E-1,1.3592622E-1,2.817222E-1,-1.5282874E-1,1.5360278E-1,-7.109077E-2,-3.1612206E-2,-5.1761246E-1,-3.1576058E-1,3.4954536E-1,7.105496E-2,-1.9810924E-1],"categories":[],"categories_nodes":[],"categories_segments":[],"categories_sizes":[],"default_left":[1,1,1,1,1,0,1,1,0,0,0,1,1,0,0,0,0,0,0],"id":40,"left_children":[1,3,5,7,9,-1,11,13,-1,-1,-1,15,17,-1,-1,-1,-1,-1,-1],"loss_changes":[6.5697394E-2,2.2902866E-1,8.978885E-2,2.3607677E-1,2.3512068E-1,0E0,2.0321389E-1,3.231116E-1,0E0,0E0,0E0,6.6637117E-1,2.3157686E-1,0E0,0E0,0E0,0E0,0E0,0E0],"parents":[2147483647,0,0,1,1,2,2,3,3,4,4,6,6,7,7,11,11,12,12],"right_children":[2,4,6,8,10,-1,12,14,-1,-1,-1,16,18,-1,-1,-1,-1,-1,-1],"split_conditions":[6.15E1,6.15E1,4E1,8.5E0,1.5E0,6.605138E-2,6.35E1,5.95E1,4.0777866E-2,8.451666E-2,-4.5848623E-2,4.65E1,1.5E0,-9.483662E-3,-1.5528375E-1,-9.472818E-2,1.04863614E-1,2.1316487E-2,-5.9432775E-2],"split_indices":[1,0,0,2,2,0,1,1,0,0,0,0,2,0,0,0,0,0,0],"split_type":[0,0,0,0,0,0,0,0,0,0,0,0,0,0,0,0,0,0,0],"sum_hessian":[2.6629614E1,9.3438835E0,1.728573E1,6.0026016E0,3.3412824E0,1.1937332E0,1.6091997E1,4.7538466E0,1.2487547E0,2.0665054E0,1.274777E0,5.0455475E0,1.104645E1,3.0252612E0,1.7285857E0,1.3058947E0,3.7396526E0,5.4207306E0,5.625719E0],"tree_param":{"num_deleted":"0","num_feature":"3","num_nodes":"19","size_leaf_vector":"0"}},{"base_weights":[-6.620959E-3,-5.8230937E-2,3.6975775E-2,-2.0553523E-3,-3.6605796E-1,-1.5211571E-2,2.8483552E-1,-1.7010067E-1,5.03626E-2,-7.5670555E-2,1.9756109E-1,3.3123925E-1,-3.6755435E-2,2.0160966E-2,-3.829908E-1,3.753955E-1,-5.957966E-2],"categories":[],"categories_nodes":[],"categories_segments":[],"categories_sizes":[],"default_left":[1,1,1,1,0,1,0,0,1,1,1,0,0,0,0,0,0],"id":41,"left_children":[1,3,5,7,-1,9,-1,-1,11,13,15,-1,-1,-1,-1,-1,-1],"loss_changes":[6.433753E-2,2.2480749E-1,2.0603415E-1,1.1459144E-1,0E0,1.9286461E-1,0E0,0E0,2.555536E-1,3.4620672E-1,1.7497371E-1,0E0,0E0,0E0,0E0,0E0,0E0],"parents":[2147483647,0,0,1,1,2,2,3,3,5,5,8,8,9,9,10,10],"right_children":[2,4,6,8,-1,10,-1,-1,12,14,16,-1,-1,-1,-1,-1,-1],"split_conditions":[6.25E1,6.65E1,6.6E1,4.55E1,-1.0981739E-1,6.75E1,8.545066E-2,-5.1030204E-2,4.85E1,5.65E1,6.85E1,9.937178E-2,-1.1026631E-2,6.04829E-3,-1.1489724E-1,1.12618655E-1,-1.7873898E-2],"split_indices":[1,0,0,0,0,1,0,0,0,0,1,0,0,0,0,0,0],"split_type":[0,0,0,0,0,0,0,0,0,0,0,0,0,0,0,0,0],"sum_hessian":[2.6637182E1,1.2043899E1,1.4593284E1,1.1036513E1,1.0073847E0,1.2830439E1,1.7628452E0,2.0902743E0,8.946239E0,1.0493179E1,2.3372593E0,1.4545252E0,7.491714E0,8.711175E0,1.782004E0,1.1098331E0,1.2274263E0],"tree_param":{"num_deleted":"0","num_feature":"3","num_nodes":"17","size_leaf_vector":"0"}},{"base_weights":[-5.0435346E-3,-1.6038282E-1,7.6454356E-3,1.5777291E-1,-1.8305507E-2,-5.434128E-2,3.0710265E-1,3.912307E-2,-1.8062158E-1,-8.890661E-3,2.5750872E-1,-4.1692665E-1,-1.9710895E-2],"categories":[],"categories_nodes":[],"categories_segments":[],"categories_sizes":[],"default_left":[1,0,1,1,1,0,0,1,1,0,0,0,0],"id":42,"left_children":[1,-1,3,5,7,-1,-1,9,11,-1,-1,-1,-1],"loss_changes":[5.5551935E-2,0E0,1.05875015E-1,1.4338605E-1,2.2551233E-1,0E0,0E0,1.9241244E-1,2.3142622E-1,0E0,0E0,0E0,0E0],"parents":[2147483647,0,0,2,2,3,3,4,4,7,7,8,8],"right_children":[2,-1,4,6,8,-1,-1,10,12,-1,-1,-1,-1],"split_conditions":[3.85E1,-4.8114847E-2,4.25E1,6.35E1,6.55E1,-1.6302384E-2,9.2130795E-2,9.5E0,5.15E1,-2.6671984E-3,7.725262E-2,-1.2507801E-1,-5.913269E-3],"split_indices":[0,0,0,1,1,0,0,2,0,0,0,0,0],"split_type":[0,0,0,0,0,0,0,0,0,0,0,0,0],"sum_hessian":[2.656119E1,1.1268361E0,2.5434355E1,2.999933E0,2.2434422E1,1.5022181E0,1.4977148E0,1.7131977E1,5.3024445E0,1.4830638E1,2.3013384E0,1.5034752E0,3.7989695E0],"tree_param":{"num_deleted":"0","num_feature":"3","num_nodes":"13","size_leaf_vector":"0"}},{"base_weights":[-4.8697735E-3,-5.0813507E-2,3.400781E-2,-1.6643824E-1,4.557913E-2,1.423708E-1,-8.1011765E-2,6.545154E-2,-4.744511E-1,2.0392609E-1,-2.2327054E-1,3.8289487E-1,-9.424288E-2,-4.1238806E-1,1.0670923E-1,-2.5354835E-1,3.02405E-1,-1.9145426E-1,3.6023617E-1,-4.332125E-1,1.09479696E-1,5.7089537E-2,5.9847254E-1,-2.936796E-1,2.8959638E-1,-3.139359E-2,-6.026427E-1,2.9548883E-1,-1.2726483E-1],"categories":[],"categories_nodes":[],"categories_segments":[],"categories_sizes":[],"default_left":[1,1,1,1,1,1,1,1,0,1,1,1,1,1,1,0,0,0,0,0,0,0,0,0,0,0,0,0,0],"id":43,"left_children":[1,3,5,7,9,11,13,15,-1,17,19,21,23,25,27,-1,-1,-1,-1,-1,-1,-1,-1,-1,-1,-1,-1,-1,-1],"loss_changes":[5.0639804E-2,1.519414E-1,2.0386834E-1,4.6700037E-1,3.7965247E-1,5.0891936E-1,5.493141E-1,4.0630153E-1,0E0,4.0652856E-1,2.8400412E-1,2.690863E-1,4.6709198E-1,2.0891345E-1,3.0173844E-1,0E0,0E0,0E0,0E0,0E0,0E0,0E0,0E0,0E0,0E0,0E0,0E0,0E0,0E0],"parents":[2147483647,0,0,1,1,2,2,3,3,4,4,5,5,6,6,7,7,9,9,10,10,11,11,12,12,13,13,14,14],"right_children":[2,4,6,8,10,12,14,16,-1,18,20,22,24,26,28,-1,-1,-1,-1,-1,-1,-1,-1,-1,-1,-1,-1,-1,-1],"split_conditions":[6.25E1,1.5E0,1.5E0,6.05E1,5.75E1,6.45E1,6.45E1,6.15E1,-1.4233534E-1,4.55E1,6.4E1,4.85E1,5E-1,6.35E1,6.65E1,-7.606451E-2,9.07215E-2,-5.743628E-2,1.0807086E-1,-1.2996376E-1,3.284391E-2,1.7126862E-2,1.7954177E-1,-8.810388E-2,8.687892E-2,-9.418078E-3,-1.8079282E-1,8.864665E-2,-3.817945E-2],"split_indices":[1,2,2,1,0,1,1,0,0,0,0,0,2,1,1,0,0,0,0,0,0,0,0,0,0,0,0,0,0],"split_type":[0,0,0,0,0,0,0,0,0,0,0,0,0,0,0,0,0,0,0,0,0,0,0,0,0,0,0,0,0],"sum_hessian":[2.6383417E1,1.1952037E1,1.4431379E1,5.1035576E0,6.8484797E0,7.3082685E0,7.1231103E0,3.3608332E0,1.7427243E0,4.4619617E0,2.3865178E0,3.3176064E0,3.9906623E0,2.1431248E0,4.9799857E0,1.4025748E0,1.9582585E0,1.2005019E0,3.26146E0,1.2781686E0,1.1083492E0,1.8247137E0,1.4928926E0,2.7807293E0,1.2099332E0,1.1017746E0,1.0413502E0,2.6106756E0,2.3693101E0],"tree_param":{"num_deleted":"0","num_feature":"3","num_nodes":"29","size_leaf_vector":"0"}},{"base_weights":[-9.283249E-3,7.667005E-2,-3.5432935E-2,-1.0804984E-1,4.706575E-1,-1.1562058E-1,1.6129864E-2,1.8437809E-1,-2.564839E-1,-2.5444874E-1,7.22241E-2,2.0416617E-1,-9.0263516E-2,-4.5031282E-1,8.671011E-2,-9.432008E-2,-3.721423E-1,1.8560967E-1,-1.15154386E-1,3.53696E-1,-1.780869E-1,-4.1771123E-1,4.396597E-2],"categories":[],"categories_nodes":[],"categories_segments":[],"categories_sizes":[],"default_left":[1,1,1,1,0,1,1,0,1,1,1,1,1,0,0,0,0,0,0,0,0,0,0],"id":44,"left_children":[1,3,5,7,-1,9,11,-1,13,15,17,19,21,-1,-1,-1,-1,-1,-1,-1,-1,-1,-1],"loss_changes":[6.3869044E-2,5.357383E-1,9.094568E-2,2.7947912E-1,0E0,2.4145761E-1,2.983175E-1,0E0,3.0289534E-1,6.176889E-2,1.15159735E-1,3.6947384E-1,4.415599E-1,0E0,0E0,0E0,0E0,0E0,0E0,0E0,0E0,0E0,0E0],"parents":[2147483647,0,0,1,1,2,2,3,3,5,5,6,6,8,8,9,9,10,10,11,11,12,12],"right_children":[2,4,6,8,-1,10,12,-1,14,16,18,20,22,-1,-1,-1,-1,-1,-1,-1,-1,-1,-1],"split_conditions":[4.45E1,6.55E1,6.15E1,6.05E1,1.4119725E-1,6.15E1,6.35E1,5.5313427E-2,4.25E1,5.95E1,1.5E0,6.15E1,6.45E1,-1.3509385E-1,2.6013033E-2,-2.8296025E-2,-1.1164269E-1,5.56829E-2,-3.4546316E-2,1.061088E-1,-5.3426076E-2,-1.2531337E-1,1.3189792E-2],"split_indices":[0,1,1,1,0,0,1,0,0,1,2,0,1,0,0,0,0,0,0,0,0,0,0],"split_type":[0,0,0,0,0,0,0,0,0,0,0,0,0,0,0,0,0,0,0,0,0,0,0],"sum_hessian":[2.620724E1,5.662568E0,2.0544672E1,4.3492074E0,1.3133603E0,7.5543046E0,1.2990367E1,1.382806E0,2.9664016E0,4.1400194E0,3.4142854E0,4.362047E0,8.62832E0,1.6962637E0,1.2701379E0,2.516959E0,1.6230603E0,2.1330092E0,1.2812765E0,3.1892018E0,1.1728454E0,1.894599E0,6.7337203E0],"tree_param":{"num_deleted":"0","num_feature":"3","num_nodes":"23","size_leaf_vector":"0"}},{"base_weights":[-1.0919419E-2,3.976943E-3,-1.4692207E-1,-2.4496086E-2,2.5080538E-1,2.8449943E-2,-1.3405576E-1,7.509363E-2,-2.8348148E-1,2.6545156E-2,-4.524292E-1],"categories":[],"categories_nodes":[],"categories_segments":[],"categories_sizes":[],"default_left":[1,1,0,1,0,1,1,0,0,0,0],"id":45,"left_children":[1,3,-1,5,-1,7,9,-1,-1,-1,-1],"loss_changes":[5.5542625E-2,1.8481517E-1,0E0,1.4131846E-1,0E0,2.6581374E-1,4.158572E-1,0E0,0E0,0E0,0E0],"parents":[2147483647,0,0,1,1,3,3,5,5,6,6],"right_children":[2,4,-1,6,-1,8,10,-1,-1,-1,-1],"split_conditions":[7.05E1,6.55E1,-4.407662E-2,5.5E0,7.524162E-2,6.35E1,5.65E1,2.252809E-2,-8.504444E-2,7.9635475E-3,-1.3572876E-1],"split_indices":[0,0,0,2,0,0,0,0,0,0,0],"split_type":[0,0,0,0,0,0,0,0,0,0,0],"sum_hessian":[2.6127254E1,2.4422968E1,1.7042879E0,2.270462E1,1.7183473E0,1.5806341E1,6.898279E0,1.4410739E1,1.3956022E0,5.1945515E0,1.7037274E0],"tree_param":{"num_deleted":"0","num_feature":"3","num_nodes":"11","size_leaf_vector":"0"}},{"base_weights":[-1.3496663E-2,-2.6726753E-2,1.5016595E-1,-6.597257E-2,7.206118E-2,-7.592192E-3,-2.2123785E-1,2.4691473E-1,-2.6671764E-2,-3.366568E-1,5.7278927E-2,-3.1977955E-1,-4.476686E-2,-2.1525876E-1,3.97911E-1],"categories":[],"categories_nodes":[],"categories_segments":[],"categories_sizes":[],"default_left":[1,1,0,1,1,1,1,0,1,0,0,0,0,0,0],"id":46,"left_children":[1,3,-1,5,7,9,11,-1,13,-1,-1,-1,-1,-1,-1],"loss_changes":[6.3002184E-2,1.0576759E-1,0E0,1.7207406E-1,1.4272395E-1,3.387646E-1,7.615405E-2,0E0,5.6146896E-1,0E0,0E0,0E0,0E0,0E0,0E0],"parents":[2147483647,0,0,1,1,3,3,4,4,5,5,6,6,8,8],"right_children":[2,4,-1,6,8,10,12,-1,14,-1,-1,-1,-1,-1,-1],"split_conditions":[2.25E1,6.05E1,4.5049787E-2,6.5E0,6.35E1,5.85E1,6.45E1,7.4074425E-2,2.5E0,-1.00997046E-1,1.7183678E-2,-9.593387E-2,-1.3430058E-2,-6.457763E-2,1.1937331E-1],"split_indices":[2,0,0,2,0,1,1,0,2,0,0,0,0,0,0],"split_type":[0,0,0,0,0,0,0,0,0,0,0,0,0,0,0],"sum_hessian":[2.624312E1,2.5054474E1,1.188647E0,1.8168709E1,6.885764E0,1.3966244E1,4.202466E0,1.9433342E0,4.94243E0,1.6099584E0,1.2356285E1,2.1755533E0,2.0269125E0,3.7637124E0,1.1787176E0],"tree_param":{"num_deleted":"0","num_feature":"3","num_nodes":"15","size_leaf_vector":"0"}},{"base_weights":[-1.0342666E-2,-3.638072E-2,9.402155E-2,-2.7349436E-1,3.4094742E-3,2.6112524E-1,-1.12312384E-1,1.4470114E-1,-5.779237E-2,3.5004717E-1,3.0047413E-2,-2.809775E-1,1.252717E-1,3.0843198E-1,-2.4912885E-1,-3.6148077E-1,8.08184E-3],"categories":[],"categories_nodes":[],"categories_segments":[],"categories_sizes":[],"default_left":[1,1,1,0,1,1,1,1,1,0,0,0,0,0,0,0,0],"id":47,"left_children":[1,3,5,-1,7,9,11,13,15,-1,-1,-1,-1,-1,-1,-1,-1],"loss_changes":[7.7292204E-2,2.130009E-1,2.2610024E-1,0E0,1.8334126E-1,6.0454756E-2,1.6555253E-1,4.896062E-1,2.9967457E-1,0E0,0E0,0E0,0E0,0E0,0E0,0E0,0E0],"parents":[2147483647,0,0,1,1,2,2,4,4,5,5,6,6,7,7,8,8],"right_children":[2,4,6,-1,8,10,12,14,16,-1,-1,-1,-1,-1,-1,-1,-1],"split_conditions":[8.5E0,4.15E1,5.35E1,-8.204831E-2,4.75E1,1.35E1,5.8E1,2.5E0,5.05E1,1.0501415E-1,9.014225E-3,-8.4293246E-2,3.758151E-2,9.2529595E-2,-7.473866E-2,-1.08444236E-1,2.424552E-3],"split_indices":[2,0,0,0,0,2,0,2,0,0,0,0,0,0,0,0,0],"split_type":[0,0,0,0,0,0,0,0,0,0,0,0,0,0,0,0,0],"sum_hessian":[2.6184263E1,2.147726E1,4.7070017E0,2.2422233E0,1.9235037E1,2.4540186E0,2.252983E0,5.401262E0,1.38337755E1,1.4003135E0,1.0537051E0,1.2107829E0,1.0422003E0,3.968315E0,1.432947E0,1.665976E0,1.21678E1],"tree_param":{"num_deleted":"0","num_feature":"3","num_nodes":"17","size_leaf_vector":"0"}},{"base_weights":[-1.16837295E-2,-3.4041032E-2,7.8181274E-2,-2.2577424E-1,-2.6143938E-3,2.173851E-1,-9.2900105E-2,1.018795E-1,-4.8446637E-2,2.9175696E-1,2.5414033E-2,-2.3400399E-1,1.0660769E-1,2.2861291E-1,-2.079682E-1,-1.4983137E-1,9.853796E-2],"categories":[],"categories_nodes":[],"categories_segments":[],"categories_sizes":[],"default_left":[1,1,1,0,1,1,1,1,1,0,0,0,0,0,0,0,0],"id":48,"left_children":[1,3,5,-1,7,9,11,13,15,-1,-1,-1,-1,-1,-1,-1,-1],"loss_changes":[5.6934245E-2,1.3394803E-1,1.5558334E-1,0E0,1.016553E-1,4.1611984E-2,1.1646799E-1,3.019839E-1,2.3405942E-1,0E0,0E0,0E0,0E0,0E0,0E0,0E0,0E0],"parents":[2147483647,0,0,1,1,2,2,4,4,5,5,6,6,7,7,8,8],"right_children":[2,4,6,-1,8,10,12,14,16,-1,-1,-1,-1,-1,-1,-1,-1],"split_conditions":[8.5E0,4.15E1,5.35E1,-6.7732275E-2,4.75E1,1.35E1,5.8E1,2.5E0,2.5E0,8.752709E-2,7.6242103E-3,-7.02012E-2,3.198231E-2,6.8583876E-2,-6.2390465E-2,-4.4949412E-2,2.956139E-2],"split_indices":[2,0,0,0,0,2,0,2,2,0,0,0,0,0,0,0,0],"split_type":[0,0,0,0,0,0,0,0,0,0,0,0,0,0,0,0,0],"sum_hessian":[2.6012999E1,2.1328043E1,4.6849556E0,2.1326466E0,1.9195396E1,2.4339058E0,2.2510498E0,5.4795585E0,1.3715838E1,1.3796258E0,1.05428E0,1.2172388E0,1.033811E0,4.0749893E0,1.404569E0,8.105551E0,5.610288E0],"tree_param":{"num_deleted":"0","num_feature":"3","num_nodes":"17","size_leaf_vector":"0"}},{"base_weights":[-9.330284E-3,-1.6411927E-1,3.3548179E-3,1.8330368E-1,-2.7162185E-2,-2.849679E-2,3.1864563E-1,2.7076794E-2,-1.795381E-1,-1.5745025E-2,2.3264071E-1,-4.0644976E-1,-2.1753091E-2],"categories":[],"categories_nodes":[],"categories_segments":[],"categories_sizes":[],"default_left":[1,0,1,1,1,0,0,1,1,0,0,0,0],"id":49,"left_children":[1,-1,3,5,7,-1,-1,9,11,-1,-1,-1,-1],"loss_changes":[5.3173043E-2,0E0,1.4638597E-1,1.19808406E-1,1.9401915E-1,0E0,0E0,1.5989296E-1,2.1096458E-1,0E0,0E0,0E0,0E0],"parents":[2147483647,0,0,2,2,3,3,4,4,7,7,8,8],"right_children":[2,-1,4,6,8,-1,-1,10,12,-1,-1,-1,-1],"split_conditions":[3.85E1,-4.9235784E-2,4.25E1,6.35E1,6.55E1,-8.549037E-3,9.559369E-2,9.5E0,5.15E1,-4.723508E-3,6.979222E-2,-1.21934935E-1,-6.5259277E-3],"split_indices":[0,0,0,1,1,0,0,2,0,0,0,0,0],"split_type":[0,0,0,0,0,0,0,0,0,0,0,0,0],"sum_hessian":[2.5800138E1,1.0499727E0,2.4750166E1,2.8627646E0,2.1887402E1,1.4239033E0,1.4388613E0,1.6748125E1,5.139277E0,1.462495E1,2.1231744E0,1.4615052E0,3.6777718E0],"tree_param":{"num_deleted":"0","num_feature":"3","num_nodes":"13","size_leaf_vector":"0"}}]},"name":"gbtree"},"learner_model_param":{"base_score":"5E-1","boost_from_average":"1","num_class":"0","num_feature":"3","num_target":"1"},"objective":{"name":"binary:logistic","reg_loss_param":{"scale_pos_weight":"1"}}},"version":[1,7,6]}