{"learner":{"attributes":{"best_iteration":"49","best_ntree_limit":"50","scikit_learn":"{\"use_label_encoder\": null, \"n_estimators\": 50, \"objective\": \"binary:logistic\", \"max_depth\": 4, \"max_leaves\": null, \"max_bin\": null, \"grow_policy\": null, \"learning_rate\": null, \"verbosity\": null, \"booster\": null, \"tree_method\": null, \"gamma\": null, \"min_child_weight\": null, \"max_delta_step\": null, \"subsample\": null, \"sampling_method\": null, \"colsample_bytree\": null, \"colsample_bylevel\": null, \"colsample_bynode\": null, \"reg_alpha\": null, \"reg_lambda\": null, \"scale_pos_weight\": null, \"base_score\": null, \"missing\": NaN, \"num_parallel_tree\": null, \"random_state\": null, \"n_jobs\": null, \"monotone_constraints\": null, \"interaction_constraints\": null, \"importance_type\": null, \"gpu_id\": null, \"validate_parameters\": null, \"predictor\": null, \"enable_categorical\": false, \"feature_types\": null, \"max_cat_to_onehot\": null, \"max_cat_threshold\": null, \"eval_metric\": null, \"early_stopping_rounds\": null, \"callbacks\": null, \"classes_\": [0, 1], \"n_classes_\": 2, \"_estimator_type\": \"classifier\"}"},"feature_names":[],"feature_types":[],"gradient_booster":{"model":{"gbtree_model_param":{"num_parallel_tree":"1","num_trees":"50","size_leaf_vector":"0"},"tree_info":[0,0,0,0,0,0,0,0,0,0,0,0,0,0,0,0,0,0,0,0,0,0,0,0,0,0,0,0,0,0,0,0,0,0,0,0,0,0,0,0,0,0,0,0,0,0,0,0,0,0],"trees":[{"base_weights":[5.915493E-1,-1.8545455E0,1.1587983E0,1.6631579E0,-9.787234E-1,-1E0,1.7419355E0,2.857143E-1,-1.3513514E0,-2.2222222E-1,1.801105E0,-6.666667E-1,1.1111112E0,-1.6666666E0,-5.882353E-1],"categories":[],"categories_nodes":[],"categories_segments":[],"categories_sizes":[],"default_left":[1,0,1,1,1,0,1,1,1,0,0,0,0,0,0],"id":0,"left_children":[1,-1,3,5,7,-1,9,11,13,-1,-1,-1,-1,-1,-1],"loss_changes":[1.0066473E2,0E0,6.442592E1,1.1707291E1,5.922287E0,0E0,5.8043976E0,3.4920633E0,1.2453632E0,0E0,0E0,0E0,0E0,0E0,0E0],"parents":[2147483647,0,0,2,2,3,3,4,4,6,6,7,7,8,8],"right_children":[2,-1,4,6,8,-1,10,12,14,-1,-1,-1,-1,-1,-1],"split_conditions":[4.144E-2,-5.5636364E-1,9.9994504E-1,1.4081E-1,-7.0539996E-2,-3E-1,-5.3224003E-1,-2.0159999E-2,6.3925E-2,-6.666667E-2,5.4033154E-1,-2.0000002E-1,3.3333337E-1,-5E-1,-1.7647061E-1],"split_indices":[4,0,26,2,21,0,7,7,15,0,0,0,0,0,0],"split_type":[0,0,0,0,0,0,0,0,0,0,0,0,0,0,0],"sum_hessian":[7E1,1.275E1,5.725E1,4.65E1,1.075E1,1E0,4.55E1,2.5E0,8.25E0,1.25E0,4.425E1,1.25E0,1.25E0,5E0,3.25E0],"tree_param":{"num_deleted":"0","num_feature":"34","num_nodes":"15","size_leaf_vector":"0"}},{"base_weights":[4.326651E-1,-1.3239985E0,9.0380037E-1,-1.4504929E0,-2.2345927E-1,1.3256553E0,-7.5954896E-1,-1.8531317E-1,1.3756133E0,1.4988166E-1,-1.1292654E0,3.738401E-1,1.438236E0,-9.516497E-1,9.2288387E-1,-1.3578459E0,-5.75497E-1],"categories":[],"categories_nodes":[],"categories_segments":[],"categories_sizes":[],"default_left":[1,1,1,0,0,1,1,0,1,1,1,0,0,0,0,0,0],"id":1,"left_children":[1,3,5,-1,-1,7,9,-1,11,13,15,-1,-1,-1,-1,-1,-1],"loss_changes":[5.6306644E1,1.6927433E0,3.8266964E1,0E0,0E0,3.479782E0,3.9950304E0,0E0,2.0641022E0,4.430292E0,2.5738907E-1,0E0,0E0,0E0,0E0,0E0,0E0],"parents":[2147483647,0,0,1,1,2,2,5,5,6,6,8,8,9,9,10,10],"right_children":[2,4,6,-1,-1,8,10,-1,12,14,16,-1,-1,-1,-1,-1,-1],"split_conditions":[2.3154E-1,4.144E-2,9.9994504E-1,-4.3514788E-1,-6.703778E-2,-5.3224003E-1,-9.455E-3,-5.5593953E-2,4.2841E-1,4.7245E-1,6.1345E-2,1.1215203E-1,4.314708E-1,-2.8549492E-1,2.7686518E-1,-4.073538E-1,-1.726491E-1],"split_indices":[4,4,26,0,0,7,21,0,2,2,3,0,0,0,0,0,0],"split_type":[0,0,0,0,0,0,0,0,0,0,0,0,0,0,0,0,0],"sum_hessian":[6.558805E1,1.3487744E1,5.2100307E1,1.1812096E1,1.6756487E0,4.172191E1,1.0378396E1,1.2486122E0,4.0473297E1,3.1715648E0,7.206831E0,2.791262E0,3.7682037E1,1.2125572E0,1.9590077E0,4.073423E0,3.133408E0],"tree_param":{"num_deleted":"0","num_feature":"34","num_nodes":"17","size_leaf_vector":"0"}},{"base_weights":[3.4478956E-1,-1.3009152E0,6.973429E-1,1.0063751E0,-5.6830645E-1,-8.7721163E-1,1.1177465E0,3.9776677E-1,-9.283528E-1,5.562322E-1,1.2731422E0,-4.7299135E-1,9.802474E-1,-3.8349584E-1,-1.172893E0],"categories":[],"categories_nodes":[],"categories_segments":[],"categories_sizes":[],"default_left":[1,0,1,1,1,0,1,1,1,0,0,0,0,0,0],"id":2,"left_children":[1,-1,3,5,7,-1,9,11,13,-1,-1,-1,-1,-1,-1],"loss_changes":[3.492709E1,0E0,1.9714037E1,9.308075E0,3.932378E0,0E0,2.6006851E0,2.2293522E0,5.844736E-1,0E0,0E0,0E0,0E0,0E0,0E0],"parents":[2147483647,0,0,2,2,3,3,4,4,6,6,7,7,8,8],"right_children":[2,-1,4,6,8,-1,10,12,14,-1,-1,-1,-1,-1,-1],"split_conditions":[1.9027999E-1,-3.9027458E-1,9.9994504E-1,2.099E-2,-9.455E-3,-2.631635E-1,-4.298E-2,8.2630503E-1,9.60005E-1,1.6686967E-1,3.819427E-1,-1.4189741E-1,2.9407424E-1,-1.1504876E-1,-3.518679E-1],"split_indices":[2,0,26,4,21,0,3,6,21,0,0,0,0,0,0],"split_type":[0,0,0,0,0,0,0,0,0,0,0,0,0,0,0],"sum_hessian":[5.7634926E1,9.693954E0,4.794097E1,3.8697178E1,9.2437935E0,1.7764369E0,3.6920742E1,2.4812794E0,6.7625136E0,8.995483E0,2.7925259E1,1.0698769E0,1.4114026E0,2.8904874E0,3.8720262E0],"tree_param":{"num_deleted":"0","num_feature":"34","num_nodes":"15","size_leaf_vector":"0"}},{"base_weights":[2.8311056E-1,-1.0411106E0,6.2458795E-1,-1.2167191E-1,-1.151619E0,-1.0145358E0,7.876503E-1,-4.3491542E-1,9.91659E-1,1.8830776E-1,-1.2326796E0,1.0693607E0,-5.9947497E-1],"categories":[],"categories_nodes":[],"categories_segments":[],"categories_sizes":[],"default_left":[1,1,1,0,0,0,1,1,1,0,0,0,0],"id":3,"left_children":[1,3,5,-1,-1,-1,7,9,11,-1,-1,-1,-1],"loss_changes":[2.3464947E1,9.489145E-1,1.1686812E1,0E0,0E0,0E0,9.812386E0,3.252002E0,4.663927E0,0E0,0E0,0E0,0E0],"parents":[2147483647,0,0,1,1,2,2,6,6,7,7,8,8],"right_children":[2,4,6,-1,-1,-1,8,10,12,-1,-1,-1,-1],"split_conditions":[2.9375E-2,-2.34175E-1,-9.3158495E-1,-3.6501575E-2,-3.454857E-1,-3.0436075E-1,4.3693E-1,8.182E-2,9.6841E-1,5.6492332E-2,-3.698039E-1,3.2080823E-1,-1.798425E-1],"split_indices":[6,10,7,0,0,0,2,23,15,0,0,0,0],"split_type":[0,0,0,0,0,0,0,0,0,0,0,0,0],"sum_hessian":[4.9453575E1,9.718232E0,3.9735344E1,1.2681487E0,8.450083E0,3.122798E0,3.6612545E1,5.073953E0,3.1538591E1,3.2774916E0,1.7964613E0,3.0382797E1,1.1557944E0],"tree_param":{"num_deleted":"0","num_feature":"34","num_nodes":"13","size_leaf_vector":"0"}},{"base_weights":[2.189928E-1,6.062816E-1,-7.2996455E-1,-7.4315435E-1,8.5445565E-1,-1.0846337E0,-1.8518373E-1,-9.2517596E-1,-1.2825136E-1,2.7529156E-1,1.0617089E0,4.1957504E-1,-8.8595825E-1,7.1622384E-1,-8.459797E-1,2.2158696E-1,1.140516E0,-3.6844835E-1,8.040901E-1],"categories":[],"categories_nodes":[],"categories_segments":[],"categories_sizes":[],"default_left":[1,1,1,1,1,0,1,0,0,1,1,1,0,0,0,0,0,0,0],"id":4,"left_children":[1,3,5,7,9,-1,11,-1,-1,13,15,17,-1,-1,-1,-1,-1,-1,-1],"loss_changes":[1.6524153E1,1.1224714E1,2.3372335E0,4.9098897E-1,2.969534E0,0E0,3.0779517E0,0E0,0E0,4.814069E0,1.0490856E0,1.5404869E0,0E0,0E0,0E0,0E0,0E0,0E0,0E0],"parents":[2147483647,0,0,1,1,2,2,3,3,4,4,6,6,9,9,10,10,11,11],"right_children":[2,4,6,8,10,-1,12,-1,-1,14,16,18,-1,-1,-1,-1,-1,-1,-1],"split_conditions":[9.9994504E-1,2.3154E-1,9.0041494E-1,4.144E-2,7.3125005E-1,-3.2539013E-1,9.60005E-1,-2.775528E-1,-3.847541E-2,2.40455E-1,-1.46965E-1,9.36315E-1,-2.6578748E-1,2.1486716E-1,-2.5379393E-1,6.647609E-2,3.4215483E-1,-1.1053451E-1,2.4122703E-1],"split_indices":[26,4,8,4,2,0,21,0,0,7,3,20,0,0,0,0,0,0,0],"split_type":[0,0,0,0,0,0,0,0,0,0,0,0,0,0,0,0,0,0,0],"sum_hessian":[4.2756977E1,3.0621023E1,1.2135955E1,4.446869E0,2.6174154E1,6.7503285E0,5.385627E0,3.0418437E0,1.4050251E0,7.5115657E0,1.8662588E1,3.1062474E0,2.2793791E0,5.650704E0,1.8608615E0,1.9273926E0,1.6735197E1,1.0323462E0,2.0739012E0],"tree_param":{"num_deleted":"0","num_feature":"34","num_nodes":"19","size_leaf_vector":"0"}},{"base_weights":[1.7883E-1,-1.0233858E0,4.3169162E-1,-9.9664336E-1,5.834513E-1,-6.8018025E-1,7.124916E-1,-6.5049773E-1,8.0245215E-1],"categories":[],"categories_nodes":[],"categories_segments":[],"categories_sizes":[],"default_left":[1,0,1,0,1,0,1,0,0],"id":5,"left_children":[1,-1,3,-1,5,-1,7,-1,-1],"loss_changes":[1.1867952E1,0E0,7.46554E0,0E0,5.2685986E0,0E0,3.8459492E0,0E0,0E0],"parents":[2147483647,0,0,2,2,4,4,6,6],"right_children":[2,-1,4,-1,6,-1,8,-1,-1],"split_conditions":[1.9027999E-1,-3.0701575E-1,-6.0790503E-1,-2.9899302E-1,-4.96555E-1,-2.0405409E-1,-3.14165E-1,-1.9514933E-1,2.4073565E-1],"split_indices":[2,0,13,0,3,0,5,0,0],"split_type":[0,0,0,0,0,0,0,0,0],"sum_hessian":[3.6586784E1,5.8284664E0,3.075832E1,2.4194677E0,2.8338852E1,2.23004E0,2.6108812E1,1.230756E0,2.4878056E1],"tree_param":{"num_deleted":"0","num_feature":"34","num_nodes":"9","size_leaf_vector":"0"}},{"base_weights":[1.2582973E-1,-9.518996E-1,3.553809E-1,6.065317E-1,-4.1000977E-1,2.6733676E-2,9.2392224E-1,-7.193543E-1,5.8124688E-2,-9.783052E-1,3.921385E-1,1.13510266E-1,1.0258827E0,-2.5004166E-1,-8.485036E-1,6.4186746E-1,-5.3453803E-1],"categories":[],"categories_nodes":[],"categories_segments":[],"categories_sizes":[],"default_left":[1,0,1,1,1,1,1,1,1,0,0,0,0,0,0,0,0],"id":6,"left_children":[1,-1,3,5,7,9,11,13,15,-1,-1,-1,-1,-1,-1,-1,-1],"loss_changes":[8.373135E0,0E0,5.5355706E0,3.86028E0,1.1122398E0,3.5045648E0,1.0084143E0,6.213188E-2,1.680684E0,0E0,0E0,0E0,0E0,0E0,0E0,0E0,0E0],"parents":[2147483647,0,0,2,2,3,3,4,4,5,5,6,6,7,7,8,8],"right_children":[2,-1,4,6,8,10,12,14,16,-1,-1,-1,-1,-1,-1,-1,-1],"split_conditions":[4.144E-2,-2.8556988E-1,9.9994504E-1,7.3125005E-1,6.1345E-2,-2.1245E-2,-1.46965E-1,-9.455E-3,7.27275E-1,-2.9349157E-1,1.1764156E-1,3.405308E-2,3.0776483E-1,-7.5012505E-2,-2.5455108E-1,1.9256024E-1,-1.6036141E-1],"split_indices":[4,0,26,2,3,24,3,21,3,0,0,0,0,0,0,0,0],"split_type":[0,0,0,0,0,0,0,0,0,0,0,0,0,0,0,0,0],"sum_hessian":[3.1477936E1,4.9747915E0,2.6503143E1,2.0111444E1,6.3916993E0,7.4982076E0,1.2613237E1,3.525439E0,2.8662603E0,1.5520381E0,5.9461694E0,1.6457351E0,1.0967502E1,1.394406E0,2.1310332E0,1.4021704E0,1.4640899E0],"tree_param":{"num_deleted":"0","num_feature":"34","num_nodes":"17","size_leaf_vector":"0"}},{"base_weights":[9.471233E-2,-6.231977E-1,3.913528E-1,-8.922299E-1,2.0821802E-1,-7.4376994E-1,5.338257E-1,-3.22993E-1,-1.0487809E0,-3.0577516E-2,8.1032073E-1,-8.526326E-1,6.1279625E-1,9.4558376E-1,-2.6724976E-1],"categories":[],"categories_nodes":[],"categories_segments":[],"categories_sizes":[],"default_left":[1,1,1,1,0,0,1,0,0,1,1,0,0,0,0],"id":7,"left_children":[1,3,5,7,-1,-1,9,-1,-1,11,13,-1,-1,-1,-1],"loss_changes":[6.242012E0,2.1140795E0,3.7195766E0,2.5854254E-1,0E0,0E0,2.9641552E0,0E0,0E0,4.307716E0,2.100686E0,0E0,0E0,0E0,0E0],"parents":[2147483647,0,0,1,1,2,2,3,3,6,6,9,9,10,10],"right_children":[2,4,6,8,-1,-1,10,-1,-1,12,14,-1,-1,-1,-1],"split_conditions":[2.8828502E-1,3.3043E-1,-9.3158495E-1,-2.3325E-2,6.246541E-2,-2.2313099E-1,-4.298E-2,-9.689791E-2,-3.146343E-1,6.7392504E-1,9.7952497E-1,-2.557898E-1,1.8383887E-1,2.8367513E-1,-8.017493E-2],"split_indices":[6,7,7,13,0,0,3,0,0,8,7,0,0,0,0],"split_type":[0,0,0,0,0,0,0,0,0,0,0,0,0,0,0],"sum_hessian":[2.7165333E1,7.620892E0,1.954444E1,5.70251E0,1.9183824E0,1.7088783E0,1.7835562E1,1.8907418E0,3.811768E0,6.1569424E0,1.1678619E1,2.560313E0,3.5966294E0,1.0484969E1,1.1936502E0],"tree_param":{"num_deleted":"0","num_feature":"34","num_nodes":"15","size_leaf_vector":"0"}},{"base_weights":[6.516326E-2,-8.6594945E-1,2.5514364E-1,-8.278488E-1,3.9009815E-1,-4.307865E-1,5.2233595E-1,1.4490539E-1,-7.653701E-1,-1.8991782E-1,6.8575734E-1],"categories":[],"categories_nodes":[],"categories_segments":[],"categories_sizes":[],"default_left":[1,0,1,0,1,1,1,0,0,0,0],"id":8,"left_children":[1,-1,3,-1,5,7,9,-1,-1,-1,-1],"loss_changes":[4.680598E0,0E0,3.4961333E0,0E0,2.3944461E0,7.5054944E-1,2.186327E0,0E0,0E0,0E0,0E0],"parents":[2147483647,0,0,2,2,4,4,5,5,6,6],"right_children":[2,-1,4,-1,6,8,10,-1,-1,-1,-1],"split_conditions":[4.144E-2,-2.5978485E-1,-6.0790503E-1,-2.4835464E-1,-3.95355E-1,-7.7795E-2,-1.17455006E-1,4.347162E-2,-2.2961102E-1,-5.6975346E-2,2.057272E-1],"split_indices":[4,0,13,0,7,11,11,0,0,0,0],"split_type":[0,0,0,0,0,0,0,0,0,0,0],"sum_hessian":[2.4211018E1,3.4998424E0,2.0711176E1,1.725997E0,1.8985178E1,2.320803E0,1.6664375E1,1.0614158E0,1.2593873E0,3.0797021E0,1.3584673E1],"tree_param":{"num_deleted":"0","num_feature":"34","num_nodes":"11","size_leaf_vector":"0"}},{"base_weights":[2.8021118E-2,-4.0184647E-1,3.894812E-1,-7.3398983E-1,4.400296E-1,8.196523E-1,-2.5659525E-1,-3.1435162E-1,-1.3090178E0,6.7854184E-1,-7.242072E-2,6.108919E-2,9.2672545E-1,-8.428082E-1,2.7034417E-1,-7.260423E-1,4.816586E-1,6.3303E-1,-2.9973033E-1],"categories":[],"categories_nodes":[],"categories_segments":[],"categories_sizes":[],"default_left":[1,1,1,1,1,1,1,1,0,0,0,0,0,0,1,0,0,0,0],"id":9,"left_children":[1,3,5,7,9,11,13,15,-1,-1,-1,-1,-1,-1,17,-1,-1,-1,-1],"loss_changes":[3.6757107E0,3.3534584E0,3.7708712E0,1.5542674E0,5.0031286E-1,5.874014E-1,2.044849E0,2.3243442E0,0E0,0E0,0E0,0E0,0E0,0E0,9.8675674E-1,0E0,0E0,0E0,0E0],"parents":[2147483647,0,0,1,1,2,2,3,3,4,4,5,5,6,6,7,7,14,14],"right_children":[2,4,6,8,10,12,14,16,-1,-1,-1,-1,-1,-1,18,-1,-1,-1,-1],"split_conditions":[6.1146E-1,3.3599E-1,9.99995E-1,6.9834E-1,-8.3165005E-2,-5.7899E-1,9.2260504E-1,4.2180997E-1,-3.9270535E-1,2.0356256E-1,-2.1726215E-2,1.8326757E-2,2.7801764E-1,-2.5284246E-1,7.9568E-1,-2.1781269E-1,1.4449759E-1,1.8990901E-1,-8.9919105E-2],"split_indices":[6,7,6,4,16,17,8,4,0,0,0,0,0,0,21,0,0,0,0],"split_type":[0,0,0,0,0,0,0,0,0,0,0,0,0,0,0,0,0,0,0],"sum_hessian":[2.164899E1,9.837719E0,1.1811271E1,7.146412E0,2.691307E0,6.9290824E0,4.882189E0,5.0255723E0,2.1208398E0,1.6153531E0,1.0759541E0,1.0513436E0,5.8777385E0,2.0273495E0,2.854839E0,3.3703501E0,1.6552219E0,1.6772963E0,1.1775428E0],"tree_param":{"num_deleted":"0","num_feature":"34","num_nodes":"19","size_leaf_vector":"0"}},{"base_weights":[2.1622324E-2,-7.89639E-1,1.8471292E-1,4.2541927E-1,-2.7973902E-1,2.916619E-2,8.948007E-1,-8.912628E-1,3.7231502E-1,-6.2005585E-1,6.362718E-1,-1.0325764E0,-2.774466E-1,7.174861E-1,-2.6175395E-1],"categories":[],"categories_nodes":[],"categories_segments":[],"categories_sizes":[],"default_left":[1,0,1,1,1,1,0,1,1,0,0,0,0,0,0],"id":10,"left_children":[1,-1,3,5,7,9,-1,11,13,-1,-1,-1,-1,-1,-1],"loss_changes":[2.814028E0,0E0,2.086752E0,2.2039082E0,2.9681265E0,3.3644059E0,0E0,3.501153E-2,1.0424714E0,0E0,0E0,0E0,0E0,0E0,0E0],"parents":[2147483647,0,0,2,2,3,3,4,4,5,5,7,7,8,8],"right_children":[2,-1,4,6,8,10,-1,12,14,-1,-1,-1,-1,-1,-1],"split_conditions":[1.9027999E-1,-2.368917E-1,1.3698E-1,-7.011E-2,1.65765E-1,6.1171496E-1,2.6844022E-1,8.76935E-1,8.3394504E-1,-1.8601677E-1,1.9088154E-1,-3.0977294E-1,-8.323398E-2,2.1524583E-1,-7.8526184E-2],"split_indices":[2,0,27,27,29,6,0,2,27,0,0,0,0,0,0],"split_type":[0,0,0,0,0,0,0,0,0,0,0,0,0,0,0],"sum_hessian":[1.91662E1,2.5650678E0,1.6601133E1,1.09896755E1,5.611457E0,6.5349727E0,4.4547033E0,2.7064137E0,2.9050434E0,3.1476407E0,3.3873317E0,1.6453865E0,1.0610273E0,1.7958628E0,1.1091806E0],"tree_param":{"num_deleted":"0","num_feature":"34","num_nodes":"15","size_leaf_vector":"0"}},{"base_weights":[1.122872E-2,2.373172E-1,-4.634909E-1,-7.5524814E-2,7.838401E-1,-6.7752534E-1,-1.0415827E-2,-3.7600622E-1,5.630398E-1,-1.933733E-1,-7.71828E-1,2.8013918E-1,-2.9544374E-1,-8.989814E-1,1.2478286E-1],"categories":[],"categories_nodes":[],"categories_segments":[],"categories_sizes":[],"default_left":[1,1,1,1,0,1,1,1,0,0,0,0,0,0,0],"id":11,"left_children":[1,3,5,7,-1,9,11,13,-1,-1,-1,-1,-1,-1,-1],"loss_changes":[2.0582964E0,2.2746615E0,5.936841E-1,1.9679104E0,0E0,4.2129517E-2,3.31477E-1,1.8992798E0,0E0,0E0,0E0,0E0,0E0,0E0,0E0],"parents":[2147483647,0,0,1,1,2,2,3,3,5,5,6,6,7,7],"right_children":[2,4,6,8,-1,10,12,14,-1,-1,-1,-1,-1,-1,-1],"split_conditions":[9.9994504E-1,5.7122E-1,6.1345E-2,2.2065E-1,2.3515205E-1,-3.60155E-1,5.4127E-1,2.01345E-1,1.6891193E-1,-5.801199E-2,-2.3154841E-1,8.404176E-2,-8.863313E-2,-2.6969442E-1,3.743486E-2],"split_indices":[26,26,3,5,0,33,21,16,0,0,0,0,0,0,0],"split_type":[0,0,0,0,0,0,0,0,0,0,0,0,0,0,0],"sum_hessian":[1.7152678E1,1.1957788E1,5.1948895E0,8.152769E0,3.8050196E0,3.1917167E0,2.0031726E0,5.8235993E0,2.3291695E0,1.0176482E0,2.1740687E0,1.0004619E0,1.0027106E0,2.4597487E0,3.3638508E0],"tree_param":{"num_deleted":"0","num_feature":"34","num_nodes":"15","size_leaf_vector":"0"}},{"base_weights":[3.705961E-3,-6.9551504E-1,1.4087543E-1,3.5453227E-1,-3.2635674E-1,6.343811E-1,-3.1116438E-1,-9.246264E-1,2.6590404E-1,4.8297577E-2,8.424808E-1,-8.013378E-1,3.241277E-1,5.283301E-1,-1.394258E-1],"categories":[],"categories_nodes":[],"categories_segments":[],"categories_sizes":[],"default_left":[1,0,1,1,1,1,1,0,1,0,0,0,0,0,0],"id":12,"left_children":[1,-1,3,5,7,9,11,-1,13,-1,-1,-1,-1,-1,-1],"loss_changes":[1.6957623E0,0E0,1.5889908E0,2.1733515E0,2.071282E0,9.102025E-1,1.4462166E0,0E0,4.3164974E-1,0E0,0E0,0E0,0E0,0E0,0E0],"parents":[2147483647,0,0,2,2,3,3,4,4,5,5,6,6,8,8],"right_children":[2,-1,4,6,8,10,12,-1,14,-1,-1,-1,-1,-1,-1],"split_conditions":[4.144E-2,-2.0865452E-1,9.8379004E-1,1.5403E-1,-2.71745E-1,-7.746E-2,3.6372E-1,-2.7738795E-1,4.1463E-1,1.4489274E-2,2.5274426E-1,-2.4040134E-1,9.723832E-2,1.5849903E-1,-4.1827742E-2],"split_indices":[4,0,22,23,23,7,8,0,23,0,0,0,0,0,0],"split_type":[0,0,0,0,0,0,0,0,0,0,0,0,0,0,0],"sum_hessian":[1.5658865E1,1.900515E0,1.3758349E1,9.606623E0,4.1517277E0,6.796512E0,2.81011E0,1.786212E0,2.3655157E0,2.1037323E0,4.69278E0,1.4386891E0,1.3714209E0,1.2516756E0,1.11384E0],"tree_param":{"num_deleted":"0","num_feature":"34","num_nodes":"15","size_leaf_vector":"0"}},{"base_weights":[-1.0302216E-2,-6.7950463E-1,1.2634192E-1,-2.0529099E-1,4.1076058E-1,-7.762559E-1,8.37023E-2,5.8450174E-1,-3.3806437E-1,3.9642882E-1,-5.53494E-1,-6.581518E-2,7.535243E-1],"categories":[],"categories_nodes":[],"categories_segments":[],"categories_sizes":[],"default_left":[1,0,1,1,1,0,1,1,0,0,0,0,0],"id":13,"left_children":[1,-1,3,5,7,-1,9,11,-1,-1,-1,-1,-1],"loss_changes":[1.4579628E0,0E0,1.3391964E0,1.1884886E0,1.1727202E0,0E0,1.3001415E0,7.5856686E-1,0E0,0E0,0E0,0E0,0E0],"parents":[2147483647,0,0,2,2,3,3,4,4,6,6,7,7],"right_children":[2,-1,4,6,8,-1,10,12,-1,-1,-1,-1,-1],"split_conditions":[1.9027999E-1,-2.038514E-1,-3.503E-2,2.01345E-1,7.5558496E-1,-2.3287678E-1,-7.8695E-2,4.2180997E-1,-1.01419315E-1,1.1892865E-1,-1.660482E-1,-1.9744555E-2,2.260573E-1],"split_indices":[2,0,3,16,3,0,3,4,0,0,0,0,0],"split_type":[0,0,0,0,0,0,0,0,0,0,0,0,0],"sum_hessian":[1.4005185E1,1.7011503E0,1.2304035E1,5.8089695E0,6.4950657E0,1.3855213E0,4.423448E0,5.4500055E0,1.0450604E0,3.2206533E0,1.2027947E0,1.2502524E0,4.199753E0],"tree_param":{"num_deleted":"0","num_feature":"34","num_nodes":"13","size_leaf_vector":"0"}},{"base_weights":[-3.189236E-2,-5.7947797E-1,9.9104986E-2,3.197921E-1,-2.8922105E-1,-1.4845727E-1,5.70455E-1,-7.000663E-1,3.281141E-1,-7.809737E-1,4.595848E-1,-1.0519874E-1,7.47559E-1],"categories":[],"categories_nodes":[],"categories_segments":[],"categories_sizes":[],"default_left":[1,0,1,1,1,1,1,0,0,0,0,0,0],"id":14,"left_children":[1,-1,3,5,7,9,11,-1,-1,-1,-1,-1,-1],"loss_changes":[1.0509154E0,0E0,1.1234622E0,1.0407767E0,1.4685452E0,1.7564212E0,7.3822224E-1,0E0,0E0,0E0,0E0,0E0,0E0],"parents":[2147483647,0,0,2,2,3,3,4,4,5,5,6,6],"right_children":[2,-1,4,6,8,10,12,-1,-1,-1,-1,-1,-1],"split_conditions":[1.45975E-1,-1.738434E-1,1.40595E-1,-9.3665004E-2,1.65765E-1,6.5443504E-1,6.335E-3,-2.100199E-1,9.843423E-2,-2.342921E-1,1.3787545E-1,-3.1559624E-2,2.242677E-1],"split_indices":[4,0,27,15,29,6,8,0,0,0,0,0,0],"split_type":[0,0,0,0,0,0,0,0,0,0,0,0,0],"sum_hessian":[1.2849922E1,1.8197113E0,1.1030211E1,7.145744E0,3.8844671E0,2.6336713E0,4.5120726E0,2.2518294E0,1.6326377E0,1.1514583E0,1.482213E0,1.0214052E0,3.4906673E0],"tree_param":{"num_deleted":"0","num_feature":"34","num_nodes":"13","size_leaf_vector":"0"}},{"base_weights":[-3.645948E-2,-5.9490275E-1,7.801708E-2,-5.684535E-1,1.9948539E-1,4.028851E-1,-1.7866446E-1,-1.11337714E-1,5.4299617E-1,-5.637493E-1,1.9009657E-1],"categories":[],"categories_nodes":[],"categories_segments":[],"categories_sizes":[],"default_left":[1,0,1,0,1,1,1,0,0,0,0],"id":15,"left_children":[1,-1,3,-1,5,7,9,-1,-1,-1,-1],"loss_changes":[8.6041003E-1,0E0,1.0125843E0,0E0,8.703537E-1,5.688771E-1,7.2107714E-1,0E0,0E0,0E0,0E0],"parents":[2147483647,0,0,2,2,4,4,5,5,6,6],"right_children":[2,-1,4,-1,6,8,10,-1,-1,-1,-1],"split_conditions":[1.9027999E-1,-1.7847084E-1,-9.03245E-1,-1.7053606E-1,5.367E-2,-1.1438E-1,4.2514998E-1,-3.3401314E-2,1.6289885E-1,-1.691248E-1,5.7028975E-2],"split_indices":[2,0,7,0,19,9,8,0,0,0,0],"split_type":[0,0,0,0,0,0,0,0,0,0,0],"sum_hessian":[1.1732902E1,1.2820487E0,1.0450853E1,1.0709996E0,9.379853E0,6.0566716E0,3.3231816E0,1.3408748E0,4.715797E0,1.3669527E0,1.956229E0],"tree_param":{"num_deleted":"0","num_feature":"34","num_nodes":"11","size_leaf_vector":"0"}},{"base_weights":[-5.5293463E-2,-5.997317E-1,6.2471297E-2,-2.2177613E-1,3.4831974E-1,1.1043398E-1,-8.390764E-1,5.2766216E-1,-2.4590252E-1,4.3554413E-1,-2.975525E-1,-7.4502723E-3,6.8830675E-1],"categories":[],"categories_nodes":[],"categories_segments":[],"categories_sizes":[],"default_left":[1,0,1,1,1,1,0,1,0,0,0,0,0],"id":16,"left_children":[1,-1,3,5,7,9,-1,11,-1,-1,-1,-1,-1],"loss_changes":[7.987491E-1,0E0,9.44016E-1,1.3148597E0,7.3803777E-1,7.607421E-1,0E0,4.0936434E-1,0E0,0E0,0E0,0E0,0E0],"parents":[2147483647,0,0,2,2,3,3,4,4,5,5,7,7],"right_children":[2,-1,4,6,8,10,-1,12,-1,-1,-1,-1,-1],"split_conditions":[-5.5543E-1,-1.7991951E-1,6.35575E-1,6.76845E-1,6.36395E-1,-8.3E-4,-2.5172293E-1,-3.1721997E-1,-7.377076E-2,1.3066325E-1,-8.926575E-2,-2.2350817E-3,2.0649204E-1],"split_indices":[13,0,6,10,33,23,0,7,0,0,0,0,0],"split_type":[0,0,0,0,0,0,0,0,0,0,0,0,0],"sum_hessian":[1.0873593E1,1.2059128E0,9.66768E0,4.9598036E0,4.7078767E0,3.75831E0,1.2014936E0,3.7024505E0,1.0054259E0,2.0540023E0,1.7043079E0,1.075049E0,2.6274016E0],"tree_param":{"num_deleted":"0","num_feature":"34","num_nodes":"13","size_leaf_vector":"0"}},{"base_weights":[-6.251938E-2,-5.468114E-1,4.3944955E-2,-2.3330566E-1,3.1373748E-1,2.5719863E-1,-4.6157613E-1,-1.2097565E-1,5.221535E-1,1.3865103E-1,-7.3812246E-1,6.1759734E-1,1.3198164E-1],"categories":[],"categories_nodes":[],"categories_segments":[],"categories_sizes":[],"default_left":[1,0,1,1,1,0,1,0,1,0,0,0,0],"id":17,"left_children":[1,-1,3,5,7,-1,9,-1,11,-1,-1,-1,-1],"loss_changes":[5.961428E-1,0E0,8.228445E-1,7.36353E-1,5.6200045E-1,0E0,7.865848E-1,0E0,6.408262E-2,0E0,0E0,0E0,0E0],"parents":[2147483647,0,0,2,2,3,3,4,4,6,6,8,8],"right_children":[2,-1,4,6,8,-1,10,-1,12,-1,-1,-1,-1],"split_conditions":[1.9027999E-1,-1.6404343E-1,-3.503E-2,-3.6931002E-1,1.25E-4,7.715959E-2,7.0967996E-1,-3.62927E-2,9.9994504E-1,4.159531E-2,-2.2143675E-1,1.852792E-1,3.9594494E-2],"split_indices":[2,0,3,33,32,0,4,0,26,0,0,0,0],"split_type":[0,0,0,0,0,0,0,0,0,0,0,0,0],"sum_hessian":[1.0096105E1,1.0740943E0,9.02201E0,4.516203E0,4.5058074E0,1.3940217E0,3.1221812E0,1.5961378E0,2.9096694E0,1.1420543E0,1.9801267E0,1.8694732E0,1.0401963E0],"tree_param":{"num_deleted":"0","num_feature":"34","num_nodes":"13","size_leaf_vector":"0"}},{"base_weights":[-5.2717052E-2,1.1671794E-1,-3.4836718E-1,-1.0190339E-1,6.055336E-1,-4.9420127E-1,-1.0073368E-2,-4.2113534E-1,4.3208352E-1,-5.5913046E-2,-7.524483E-1],"categories":[],"categories_nodes":[],"categories_segments":[],"categories_sizes":[],"default_left":[1,1,1,1,0,0,0,1,0,0,0],"id":18,"left_children":[1,3,5,7,-1,-1,-1,9,-1,-1,-1],"loss_changes":[5.699434E-1,8.595299E-1,1.9730514E-1,1.2072303E0,0E0,0E0,0E0,4.7468156E-1,0E0,0E0,0E0],"parents":[2147483647,0,0,1,1,2,2,3,3,7,7],"right_children":[2,4,6,8,-1,-1,-1,10,-1,-1,-1],"split_conditions":[9.9994504E-1,6.92945E-1,6.865E-3,1.5505E-1,1.8166009E-1,-1.4826038E-1,-3.0220107E-3,6.1403E-1,1.2962507E-1,-1.6773915E-2,-2.257345E-1],"split_indices":[26,14,7,5,0,0,0,22,0,0,0],"split_type":[0,0,0,0,0,0,0,0,0,0,0],"sum_hessian":[9.565901E0,6.465681E0,3.1002197E0,5.0144935E0,1.4511871E0,1.8443015E0,1.2559184E0,3.2705858E0,1.7439078E0,2.1116138E0,1.158972E0],"tree_param":{"num_deleted":"0","num_feature":"34","num_nodes":"11","size_leaf_vector":"0"}},{"base_weights":[-4.6033636E-2,-4.6741176E-1,6.796255E-2,2.5422594E-1,-2.4058832E-1,5.0688976E-1,-2.3123355E-1,-6.0706925E-1,1.6917509E-1,2.8399177E-2,6.741976E-1],"categories":[],"categories_nodes":[],"categories_segments":[],"categories_sizes":[],"default_left":[1,0,1,1,1,1,0,0,0,0,0],"id":19,"left_children":[1,-1,3,5,7,9,-1,-1,-1,-1,-1],"loss_changes":[5.126806E-1,0E0,5.642103E-1,8.463236E-1,6.7464876E-1,3.1891012E-1,0E0,0E0,0E0,0E0,0E0],"parents":[2147483647,0,0,2,2,3,3,4,4,5,5],"right_children":[2,-1,4,6,8,10,-1,-1,-1,-1,-1],"split_conditions":[1.45975E-1,-1.4022353E-1,9.8379004E-1,1.5403E-1,-2.71745E-1,-4.5385E-2,-6.937007E-2,-1.8212079E-1,5.0752528E-2,8.519754E-3,2.0225929E-1],"split_indices":[4,0,22,23,23,9,0,0,0,0,0],"split_type":[0,0,0,0,0,0,0,0,0,0,0],"sum_hessian":[9.01164E0,1.2587024E0,7.7529373E0,4.94428E0,2.8086567E0,3.2227917E0,1.7214887E0,1.228452E0,1.5802048E0,1.1379796E0,2.084812E0],"tree_param":{"num_deleted":"0","num_feature":"34","num_nodes":"11","size_leaf_vector":"0"}},{"base_weights":[-4.64951E-2,-2.5134462E-1,1.7491075E-1,3.0301308E-2,-6.4052093E-1,3.9171988E-1,-3.5446328E-1,-2.4121973E-1,3.4840885E-1,-1.8755986E-1,6.436414E-1],"categories":[],"categories_nodes":[],"categories_segments":[],"categories_sizes":[],"default_left":[1,1,1,1,0,1,0,0,0,0,0],"id":20,"left_children":[1,3,5,7,-1,9,-1,-1,-1,-1,-1],"loss_changes":[4.72116E-1,6.0184366E-1,7.272184E-1,4.327795E-1,0E0,7.207821E-1,0E0,0E0,0E0,0E0,0E0],"parents":[2147483647,0,0,1,1,2,2,3,3,5,5],"right_children":[2,4,6,8,-1,10,-1,-1,-1,-1,-1],"split_conditions":[6.35575E-1,6.76845E-1,6.9538E-1,1.39025E-1,-1.9215629E-1,-3.95355E-1,-1.06338985E-1,-7.2365925E-2,1.0452266E-1,-5.6267958E-2,1.9309244E-1],"split_indices":[6,10,7,30,0,7,0,0,0,0,0],"split_type":[0,0,0,0,0,0,0,0,0,0,0],"sum_hessian":[8.440065E0,4.3137074E0,4.1263576E0,3.0375671E0,1.2761402E0,3.111891E0,1.0144665E0,1.769183E0,1.2683842E0,1.0205879E0,2.091303E0],"tree_param":{"num_deleted":"0","num_feature":"34","num_nodes":"11","size_leaf_vector":"0"}},{"base_weights":[-4.6881046E-2,-2.0847064E-1,1.8755202E-1,-4.2945436E-1,1.9037284E-1,-2.8246376E-1,4.4708955E-1,-5.0437145E-2,-6.81052E-1,1.2220581E-1,5.527227E-1],"categories":[],"categories_nodes":[],"categories_segments":[],"categories_sizes":[],"default_left":[1,1,1,1,0,0,1,0,0,0,0],"id":21,"left_children":[1,3,5,7,-1,-1,9,-1,-1,-1,-1],"loss_changes":[3.7658152E-1,5.88313E-1,6.339315E-1,3.4760356E-1,0E0,0E0,3.7750363E-2,0E0,0E0,0E0,0E0],"parents":[2147483647,0,0,1,1,2,2,3,3,6,6],"right_children":[2,4,6,8,-1,-1,10,-1,-1,-1,-1],"split_conditions":[1.29595E-1,6.6544497E-1,-1.66065E-1,6.1403E-1,5.7111856E-2,-8.473913E-2,3.0650001E-2,-1.5131144E-2,-2.0431562E-1,3.6661744E-2,1.6581681E-1],"split_indices":[5,8,3,22,0,0,17,0,0,0,0],"split_type":[0,0,0,0,0,0,0,0,0,0,0],"sum_hessian":[7.9087934E0,4.747317E0,3.1614764E0,3.0053952E0,1.7419219E0,1.0932657E0,2.0682108E0,1.6780213E0,1.3273737E0,1.0366852E0,1.0315256E0],"tree_param":{"num_deleted":"0","num_feature":"34","num_nodes":"11","size_leaf_vector":"0"}},{"base_weights":[-3.9435748E-2,-3.8074273E-1,7.240941E-2,-1.5574987E-1,3.78502E-1,-5.040309E-1,8.5984096E-2,-4.260822E-2,5.826429E-1,3.584724E-1,-1.821391E-1],"categories":[],"categories_nodes":[],"categories_segments":[],"categories_sizes":[],"default_left":[1,0,1,1,1,0,1,0,0,0,0],"id":22,"left_children":[1,-1,3,5,7,-1,9,-1,-1,-1,-1],"loss_changes":[3.5542482E-1,0E0,5.6939465E-1,4.555437E-1,3.1821996E-1,0E0,3.3885688E-1,0E0,0E0,0E0,0E0],"parents":[2147483647,0,0,2,2,3,3,4,4,6,6],"right_children":[2,-1,4,6,8,-1,10,-1,-1,-1,-1],"split_conditions":[-6.28305E-1,-1.14222825E-1,1.29595E-1,1.99705E-1,1.26E-2,-1.5120926E-1,6.6408503E-1,-1.2782467E-2,1.7479289E-1,1.07541725E-1,-5.464173E-2],"split_indices":[7,0,5,16,3,0,22,0,0,0,0],"split_type":[0,0,0,0,0,0,0,0,0,0,0],"sum_hessian":[7.5885544E0,1.2795824E0,6.308972E0,3.8960507E0,2.4129214E0,1.1516842E0,2.7443666E0,1.0461534E0,1.3667679E0,1.1939795E0,1.550387E0],"tree_param":{"num_deleted":"0","num_feature":"34","num_nodes":"11","size_leaf_vector":"0"}},{"base_weights":[-3.41892E-2,-3.9003703E-1,6.981951E-2,2.005835E-1,-2.7793804E-1,-1.24979936E-1,4.9777302E-1,2.5335237E-1,-4.7250542E-1],"categories":[],"categories_nodes":[],"categories_segments":[],"categories_sizes":[],"default_left":[1,0,1,1,0,1,0,0,0],"id":23,"left_children":[1,-1,3,5,-1,7,-1,-1,-1],"loss_changes":[3.2992035E-1,0E0,3.8210464E-1,6.2303483E-1,0E0,5.8849657E-1,0E0,0E0,0E0],"parents":[2147483647,0,0,2,2,3,3,5,5],"right_children":[2,-1,4,6,-1,8,-1,-1,-1],"split_conditions":[1.45975E-1,-1.17011115E-1,4.8605502E-1,4.70265E-1,-8.3381414E-2,7.2336996E-1,1.4933191E-1,7.600571E-2,-1.4175163E-1],"split_indices":[4,0,21,24,0,4,0,0,0],"split_type":[0,0,0,0,0,0,0,0,0],"sum_hessian":[7.17827E0,1.0015606E0,6.176709E0,4.79638E0,1.380329E0,2.565453E0,2.230927E0,1.3580256E0,1.2074274E0],"tree_param":{"num_deleted":"0","num_feature":"34","num_nodes":"9","size_leaf_vector":"0"}},{"base_weights":[-3.9408773E-2,1.0079735E-1,-2.7287152E-1,-1.1411393E-1,4.3197697E-1,-4.7765877E-2,-3.759778E-1,-3.167808E-1,1.5525354E-1],"categories":[],"categories_nodes":[],"categories_segments":[],"categories_sizes":[],"default_left":[1,1,1,1,0,0,0,0,0],"id":24,"left_children":[1,3,5,7,-1,-1,-1,-1,-1],"loss_changes":[2.819491E-1,4.4693962E-1,5.599749E-2,2.7733457E-1,0E0,0E0,0E0,0E0,0E0],"parents":[2147483647,0,0,1,1,2,2,3,3],"right_children":[2,4,6,8,-1,-1,-1,-1,-1],"split_conditions":[9.9994504E-1,5.5228996E-1,4.7714E-1,9.04E-3,1.295931E-1,-1.4329764E-2,-1.1279335E-1,-9.503425E-2,4.6576064E-2],"split_indices":[26,16,21,11,0,0,0,0,0],"split_type":[0,0,0,0,0,0,0,0,0],"sum_hessian":[6.7733517E0,4.586924E0,2.1864276E0,3.1792536E0,1.4076704E0,1.1465355E0,1.0398921E0,1.7138036E0,1.4654499E0],"tree_param":{"num_deleted":"0","num_feature":"34","num_nodes":"9","size_leaf_vector":"0"}},{"base_weights":[-3.424008E-2,-3.426116E-1,6.9195084E-2,2.3362508E-1,-1.7941616E-1,-4.0991455E-2,3.897851E-1,-4.0395543E-1,1.353653E-1],"categories":[],"categories_nodes":[],"categories_segments":[],"categories_sizes":[],"default_left":[1,0,1,1,1,0,0,0,0],"id":25,"left_children":[1,-1,3,5,7,-1,-1,-1,-1],"loss_changes":[2.6411274E-1,0E0,3.066463E-1,2.0176318E-1,2.768779E-1,0E0,0E0,0E0,0E0],"parents":[2147483647,0,0,2,2,3,3,4,4],"right_children":[2,-1,4,6,8,-1,-1,-1,-1],"split_conditions":[2.3154E-1,-1.02783486E-1,1.40595E-1,-9.3665004E-2,1.07835E-1,-1.22974375E-2,1.16935536E-1,-1.2118664E-1,4.0609594E-2],"split_indices":[4,0,27,15,29,0,0,0,0],"split_type":[0,0,0,0,0,0,0,0,0],"sum_hessian":[6.5370655E0,1.0611435E0,5.475922E0,3.332263E0,2.143659E0,1.4753236E0,1.8569394E0,1.0858293E0,1.05783E0],"tree_param":{"num_deleted":"0","num_feature":"34","num_nodes":"9","size_leaf_vector":"0"}},{"base_weights":[-3.5647873E-2,-1.9510576E-1,1.479392E-1,-3.76477E-1,4.4558637E-2,3.941266E-1,-1.2441013E-1],"categories":[],"categories_nodes":[],"categories_segments":[],"categories_sizes":[],"default_left":[1,1,1,0,0,0,0],"id":26,"left_children":[1,3,5,-1,-1,-1,-1],"loss_changes":[2.4215756E-1,2.0501459E-1,3.1424633E-1,0E0,0E0,0E0,0E0],"parents":[2147483647,0,0,1,1,2,2],"right_children":[2,4,6,-1,-1,-1,-1],"split_conditions":[6.35575E-1,-5.6455E-2,9.99995E-1,-1.12943105E-1,1.3367591E-2,1.1823798E-1,-3.732304E-2],"split_indices":[6,27,6,0,0,0,0],"split_type":[0,0,0,0,0,0,0],"sum_hessian":[6.286014E0,3.330503E0,2.9555113E0,1.5708658E0,1.7596374E0,1.3174657E0,1.6380457E0],"tree_param":{"num_deleted":"0","num_feature":"34","num_nodes":"7","size_leaf_vector":"0"}},{"base_weights":[-2.7725456E-2,-2.5259963E-1,1.1367643E-1,2.1029076E-2,-4.0578791E-1,-1.8379155E-1,3.0708793E-1,4.9518046E-1,-7.582643E-2],"categories":[],"categories_nodes":[],"categories_segments":[],"categories_sizes":[],"default_left":[1,1,1,0,0,0,1,0,0],"id":27,"left_children":[1,3,5,-1,-1,-1,7,-1,-1],"loss_changes":[2.5553232E-1,1.3697183E-1,3.480803E-1,0E0,0E0,0E0,2.8575405E-1,0E0,0E0],"parents":[2147483647,0,0,1,1,2,2,6,6],"right_children":[2,4,6,-1,-1,-1,8,-1,-1],"split_conditions":[2.0000001E-4,-4.603E-2,-6.905E-2,6.308723E-3,-1.2173638E-1,-5.5137467E-2,9.7678995E-1,1.4855415E-1,-2.274793E-2],"split_indices":[32,32,15,0,0,0,20,0,0],"split_type":[0,0,0,0,0,0,0,0,0],"sum_hessian":[6.133164E0,2.0641348E0,4.069029E0,1.0504749E0,1.01366E0,1.6228362E0,2.4461927E0,1.4437939E0,1.0023988E0],"tree_param":{"num_deleted":"0","num_feature":"34","num_nodes":"9","size_leaf_vector":"0"}},{"base_weights":[-2.5647236E-2,1.7039903E-1,-1.7506696E-1,-1.1302527E-1,3.477267E-1,-3.3954713E-1,1.4500858E-1],"categories":[],"categories_nodes":[],"categories_segments":[],"categories_sizes":[],"default_left":[1,1,1,0,0,0,0],"id":28,"left_children":[1,3,5,-1,-1,-1,-1],"loss_changes":[2.3191376E-1,2.1473199E-1,2.8130633E-1,0E0,0E0,0E0,0E0],"parents":[2147483647,0,0,1,1,2,2],"right_children":[2,4,6,-1,-1,-1,-1],"split_conditions":[-1.4E-3,6.3846E-1,1.94965E-1,-3.390758E-2,1.04318015E-1,-1.01864144E-1,4.3502577E-2],"split_indices":[21,2,25,0,0,0,0],"split_type":[0,0,0,0,0,0,0],"sum_hessian":[5.89862E0,2.4905226E0,3.4080975E0,1.0980767E0,1.392446E0,2.2110503E0,1.1970471E0],"tree_param":{"num_deleted":"0","num_feature":"34","num_nodes":"7","size_leaf_vector":"0"}},{"base_weights":[-1.6518494E-2,-2.821567E-1,8.502568E-2,3.9894003E-1,-1.1995381E-1,-4.7084376E-1,1.666224E-1,3.2131767E-1,-7.042129E-2],"categories":[],"categories_nodes":[],"categories_segments":[],"categories_sizes":[],"default_left":[1,0,1,0,1,0,1,0,0],"id":29,"left_children":[1,-1,3,-1,5,-1,7,-1,-1],"loss_changes":[2.0606263E-1,0E0,4.1151604E-1,0E0,4.9957487E-1,0E0,1.3424334E-1,0E0,0E0],"parents":[2147483647,0,0,2,2,4,4,6,6],"right_children":[2,-1,4,-1,6,-1,8,-1,-1],"split_conditions":[-2.1245E-2,-8.4647015E-2,4.91995E-1,1.19682014E-1,5.1046E-1,-1.4125313E-1,1.1547E-1,9.639531E-2,-2.112639E-2],"split_indices":[24,0,26,0,30,0,21,0,0],"split_type":[0,0,0,0,0,0,0,0,0],"sum_hessian":[5.7499056E0,1.0982468E0,4.651659E0,1.4637563E0,3.1879025E0,1.1440756E0,2.0438268E0,1.0216045E0,1.0222224E0],"tree_param":{"num_deleted":"0","num_feature":"34","num_nodes":"9","size_leaf_vector":"0"}},{"base_weights":[-1.6629888E-2,2.5392768E-1,-1.13737926E-1,-4.0556437E-1,5.1307533E-2,2.3634928E-1,-2.1963869E-1,-7.015751E-2,4.1700304E-1],"categories":[],"categories_nodes":[],"categories_segments":[],"categories_sizes":[],"default_left":[1,0,1,0,1,1,0,0,0],"id":30,"left_children":[1,-1,3,-1,5,7,-1,-1,-1],"loss_changes":[1.9988315E-1,0E0,2.8475922E-1,0E0,2.7191764E-1,2.003044E-1,0E0,0E0,0E0],"parents":[2147483647,0,0,2,2,4,4,5,5],"right_children":[2,-1,4,-1,6,8,-1,-1,-1],"split_conditions":[-5.415E-2,7.6178305E-2,2.4757001E-1,-1.21669315E-1,9.9994504E-1,-1.21869996E-1,-6.589161E-2,-2.1047255E-2,1.2510091E-1],"split_indices":[16,0,12,0,26,23,0,0,0],"split_type":[0,0,0,0,0,0,0,0,0],"sum_hessian":[5.5085793E0,1.028401E0,4.480178E0,1.092022E0,3.3881562E0,2.0891013E0,1.299055E0,1.0015184E0,1.0875828E0],"tree_param":{"num_deleted":"0","num_feature":"34","num_nodes":"9","size_leaf_vector":"0"}},{"base_weights":[-1.2998817E-2,-1.5393043E-1,1.6722013E-1,6.6074945E-2,-3.2955533E-1,-7.3673375E-2,3.11653E-1],"categories":[],"categories_nodes":[],"categories_segments":[],"categories_sizes":[],"default_left":[1,1,1,0,0,0,0],"id":31,"left_children":[1,3,5,-1,-1,-1,-1],"loss_changes":[1.8543224E-1,1.7822212E-1,1.3563573E-1,0E0,0E0,0E0,0E0],"parents":[2147483647,0,0,1,1,2,2],"right_children":[2,4,6,-1,-1,-1,-1],"split_conditions":[8.55035E-1,-3E-5,6.9697E-1,1.9822484E-2,-9.8866604E-2,-2.2102013E-2,9.34959E-2],"split_indices":[2,33,20,0,0,0,0],"split_type":[0,0,0,0,0,0,0],"sum_hessian":[5.2874455E0,3.0489948E0,2.2384508E0,1.6303842E0,1.4186105E0,1.0226793E0,1.2157713E0],"tree_param":{"num_deleted":"0","num_feature":"34","num_nodes":"7","size_leaf_vector":"0"}},{"base_weights":[-1.0572018E-2,-2.6493552E-1,9.058042E-2,-1.297062E-1,3.770965E-1,1.4316356E-1,-2.939584E-1],"categories":[],"categories_nodes":[],"categories_segments":[],"categories_sizes":[],"default_left":[1,0,1,1,0,0,0],"id":32,"left_children":[1,-1,3,5,-1,-1,-1],"loss_changes":[1.8310934E-1,0E0,3.7520272E-1,2.0642485E-1,0E0,0E0,0E0],"parents":[2147483647,0,0,2,2,3,3],"right_children":[2,-1,4,6,-1,-1,-1],"split_conditions":[-3.84415E-1,-7.948066E-2,1.29595E-1,-2.4799999E-2,1.1312895E-1,4.294907E-2,-8.818752E-2],"split_indices":[7,0,5,7,0,0,0],"split_type":[0,0,0,0,0,0,0],"sum_hessian":[5.184009E0,1.0142782E0,4.1697307E0,2.6667278E0,1.503003E0,1.0502892E0,1.6164385E0],"tree_param":{"num_deleted":"0","num_feature":"34","num_nodes":"7","size_leaf_vector":"0"}},{"base_weights":[-9.23438E-3,1.5550591E-1,-1.3719477E-1,3.3515772E-1,-1.0221888E-1,-4.3559244E-1,1.3013795E-1],"categories":[],"categories_nodes":[],"categories_segments":[],"categories_sizes":[],"default_left":[1,1,1,0,0,0,0],"id":33,"left_children":[1,3,5,-1,-1,-1,-1],"loss_changes":[1.4821519E-1,1.7779303E-1,3.6930424E-1,0E0,0E0,0E0,0E0],"parents":[2147483647,0,0,1,1,2,2],"right_children":[2,4,6,-1,-1,-1,-1],"split_conditions":[4.91995E-1,-8.3E-4,5.1046E-1,1.0054732E-1,-3.0665666E-2,-1.3067774E-1,3.9041385E-2],"split_indices":[26,23,30,0,0,0,0],"split_type":[0,0,0,0,0,0,0],"sum_hessian":[5.0189376E0,2.100028E0,2.9189095E0,1.060405E0,1.039623E0,1.0818938E0,1.8370156E0],"tree_param":{"num_deleted":"0","num_feature":"34","num_nodes":"7","size_leaf_vector":"0"}},{"base_weights":[-1.0643402E-2,1.0706526E-1,-2.0113954E-1,-1.5534484E-1,2.4610934E-1,-7.250467E-2,4.3824995E-1],"categories":[],"categories_nodes":[],"categories_segments":[],"categories_sizes":[],"default_left":[1,1,0,0,1,0,0],"id":34,"left_children":[1,3,-1,-1,5,-1,-1],"loss_changes":[1.5354908E-1,1.9481519E-1,0E0,0E0,2.2719204E-1,0E0,0E0],"parents":[2147483647,0,0,1,1,4,4],"right_children":[2,4,-1,-1,6,-1,-1],"split_conditions":[9.9994504E-1,4.2014498E-1,-6.0341865E-2,-4.6603456E-2,1.66E-2,-2.1751402E-2,1.3147499E-1],"split_indices":[26,4,0,0,9,0,0],"split_type":[0,0,0,0,0,0,0],"sum_hessian":[4.8874264E0,3.2915344E0,1.5958918E0,1.0994221E0,2.1921122E0,1.0588837E0,1.1332287E0],"tree_param":{"num_deleted":"0","num_feature":"34","num_nodes":"7","size_leaf_vector":"0"}},{"base_weights":[-6.154543E-3,-1.8952492E-1,1.1431857E-1,-1.0203208E-1,3.2554272E-1],"categories":[],"categories_nodes":[],"categories_segments":[],"categories_sizes":[],"default_left":[1,0,1,0,0],"id":35,"left_children":[1,-1,3,-1,-1],"loss_changes":[1.4860287E-1,0E0,2.2019121E-1,0E0,0E0],"parents":[2147483647,0,0,2,2],"right_children":[2,-1,4,-1,-1],"split_conditions":[-7.746E-2,-5.6857478E-2,1.29595E-1,-3.0609624E-2,9.766282E-2],"split_indices":[7,0,5,0,0],"split_type":[0,0,0,0,0],"sum_hessian":[4.746028E0,1.654526E0,3.0915017E0,1.7825931E0,1.3089087E0],"tree_param":{"num_deleted":"0","num_feature":"34","num_nodes":"5","size_leaf_vector":"0"}},{"base_weights":[-2.1748883E-3,-1.83269E-1,1.2510104E-1,-1.5983616E-1,3.0727887E-1],"categories":[],"categories_nodes":[],"categories_segments":[],"categories_sizes":[],"default_left":[1,0,1,0,0],"id":36,"left_children":[1,-1,3,-1,-1],"loss_changes":[1.5358786E-1,0E0,2.527757E-1,0E0,0E0],"parents":[2147483647,0,0,2,2],"right_children":[2,-1,4,-1,-1],"split_conditions":[2.5866002E-1,-5.49807E-2,-1.74785E-1,-4.795085E-2,9.2183664E-2],"split_indices":[20,0,23,0,0],"split_type":[0,0,0,0,0],"sum_hessian":[4.668843E0,1.7454298E0,2.9234133E0,1.1879789E0,1.7354343E0],"tree_param":{"num_deleted":"0","num_feature":"34","num_nodes":"5","size_leaf_vector":"0"}},{"base_weights":[-3.0986245E-3,1.11407496E-1,-1.8856053E-1,-8.565578E-2,3.1621665E-1],"categories":[],"categories_nodes":[],"categories_segments":[],"categories_sizes":[],"default_left":[1,1,0,0,0],"id":37,"left_children":[1,3,-1,-1,-1],"loss_changes":[1.3952237E-1,1.9171621E-1,0E0,0E0,0E0],"parents":[2147483647,0,0,1,1],"right_children":[2,4,-1,-1,-1],"split_conditions":[2.3175E-1,1.66E-2,-5.656816E-2,-2.5696734E-2,9.4865E-2],"split_indices":[23,9,0,0,0],"split_type":[0,0,0,0,0],"sum_hessian":[4.5807304E0,3.0790129E0,1.5017177E0,1.8656752E0,1.2133377E0],"tree_param":{"num_deleted":"0","num_feature":"34","num_nodes":"5","size_leaf_vector":"0"}},{"base_weights":[4.3381832E-4,-1.573034E-1,1.169695E-1,3.0050486E-1,-6.833966E-2],"categories":[],"categories_nodes":[],"categories_segments":[],"categories_sizes":[],"default_left":[1,0,1,0,0],"id":38,"left_children":[1,-1,3,-1,-1],"loss_changes":[1.1965617E-1,0E0,1.4778766E-1,0E0,0E0],"parents":[2147483647,0,0,2,2],"right_children":[2,-1,4,-1,-1],"split_conditions":[6.34335E-1,-4.719102E-2,-9.455E-3,9.015146E-2,-2.0501899E-2],"split_indices":[2,0,21,0,0],"split_type":[0,0,0,0,0],"sum_hessian":[4.5084534E0,1.7669554E0,2.7414978E0,1.0650258E0,1.676472E0],"tree_param":{"num_deleted":"0","num_feature":"34","num_nodes":"5","size_leaf_vector":"0"}},{"base_weights":[4.761613E-3,-1.822543E-1,1.2024188E-1,2.69846E-1,-9.971195E-2],"categories":[],"categories_nodes":[],"categories_segments":[],"categories_sizes":[],"default_left":[1,0,1,0,0],"id":39,"left_children":[1,-1,3,-1,-1],"loss_changes":[1.3957258E-1,0E0,1.5756568E-1,0E0,0E0],"parents":[2147483647,0,0,2,2],"right_children":[2,-1,4,-1,-1],"split_conditions":[-2.5307E-1,-5.467629E-2,5.367E-2,8.09538E-2,-2.9913586E-2],"split_indices":[25,0,19,0,0],"split_type":[0,0,0,0,0],"sum_hessian":[4.4479737E0,1.4773052E0,2.9706688E0,1.6330804E0,1.3375884E0],"tree_param":{"num_deleted":"0","num_feature":"34","num_nodes":"5","size_leaf_vector":"0"}},{"base_weights":[2.9059667E-3,1.11545146E-1,-1.7190813E-1,-9.7388566E-2,2.1735021E-1],"categories":[],"categories_nodes":[],"categories_segments":[],"categories_sizes":[],"default_left":[1,1,0,0,0],"id":40,"left_children":[1,3,-1,-1,-1],"loss_changes":[1.2161085E-1,1.0810984E-1,0E0,0E0,0E0],"parents":[2147483647,0,0,1,1],"right_children":[2,4,-1,-1,-1],"split_conditions":[9.9994504E-1,4.29505E-1,-5.157244E-2,-2.921657E-2,6.520507E-2],"split_indices":[26,4,0,0,0],"split_type":[0,0,0,0,0],"sum_hessian":[4.3937006E0,2.932934E0,1.4607668E0,1.0126995E0,1.9202346E0],"tree_param":{"num_deleted":"0","num_feature":"34","num_nodes":"5","size_leaf_vector":"0"}},{"base_weights":[-7.011923E-4,-1.3765208E-1,1.4056852E-1,1.5928246E-2,-2.3741542E-1,-3.8199093E-2,2.4374197E-1],"categories":[],"categories_nodes":[],"categories_segments":[],"categories_sizes":[],"default_left":[1,1,1,0,0,0,0],"id":41,"left_children":[1,3,5,-1,-1,-1,-1],"loss_changes":[1.22301005E-1,5.292128E-2,6.674762E-2,0E0,0E0,0E0,0E0],"parents":[2147483647,0,0,1,1,2,2],"right_children":[2,4,6,-1,-1,-1,-1],"split_conditions":[7.3947E-1,-3E-5,-1.5681E-1,4.778474E-3,-7.122463E-2,-1.1459729E-2,7.31226E-2],"split_indices":[2,33,19,0,0,0,0],"split_type":[0,0,0,0,0,0,0],"sum_hessian":[4.32131E0,2.2071977E0,2.1141124E0,1.2000792E0,1.0071183E0,1.0040914E0,1.1100209E0],"tree_param":{"num_deleted":"0","num_feature":"34","num_nodes":"7","size_leaf_vector":"0"}},{"base_weights":[-1.3795199E-3,-1.643651E-1,1.07428506E-1,2.8404263E-1,-1.0602159E-1],"categories":[],"categories_nodes":[],"categories_segments":[],"categories_sizes":[],"default_left":[1,0,1,0,0],"id":42,"left_children":[1,-1,3,-1,-1],"loss_changes":[1.11096546E-1,0E0,1.7202291E-1,0E0,0E0],"parents":[2147483647,0,0,2,2],"right_children":[2,-1,4,-1,-1],"split_conditions":[-7.746E-2,-4.9309533E-2,2.40455E-1,8.521279E-2,-3.180648E-2],"split_indices":[7,0,7,0,0],"split_type":[0,0,0,0,0],"sum_hessian":[4.26888E0,1.5045657E0,2.7643142E0,1.3317053E0,1.432609E0],"tree_param":{"num_deleted":"0","num_feature":"34","num_nodes":"5","size_leaf_vector":"0"}},{"base_weights":[8.3267085E-5,-1.2060849E-1,1.5008776E-1,1.3759644E-1,-3.6563212E-1],"categories":[],"categories_nodes":[],"categories_segments":[],"categories_sizes":[],"default_left":[1,1,0,0,0],"id":43,"left_children":[1,3,-1,-1,-1],"loss_changes":[1.12439685E-1,2.6807088E-1,0E0,0E0,0E0],"parents":[2147483647,0,0,1,1],"right_children":[2,4,-1,-1,-1],"split_conditions":[6.9289E-1,4.9161E-1,4.502633E-2,4.1278936E-2,-1.0968964E-1],"split_indices":[8,26,0,0,0],"split_type":[0,0,0,0,0],"sum_hessian":[4.210795E0,2.4419775E0,1.7688175E0,1.4024827E0,1.0394948E0],"tree_param":{"num_deleted":"0","num_feature":"34","num_nodes":"5","size_leaf_vector":"0"}},{"base_weights":[-4.966521E-3,1.4453615E-1,-1.2792286E-1,-2.8126192E-1,5.949804E-2],"categories":[],"categories_nodes":[],"categories_segments":[],"categories_sizes":[],"default_left":[1,0,1,0,0],"id":44,"left_children":[1,-1,3,-1,-1],"loss_changes":[1.1285194E-1,0E0,1.129304E-1,0E0,0E0],"parents":[2147483647,0,0,2,2],"right_children":[2,-1,4,-1,-1],"split_conditions":[-1.4E-3,4.3360848E-2,4.2377502E-1,-8.437858E-2,1.7849412E-2],"split_indices":[21,0,14,0,0],"split_type":[0,0,0,0,0],"sum_hessian":[4.1333323E0,1.7861019E0,2.3472302E0,1.0156093E0,1.331621E0],"tree_param":{"num_deleted":"0","num_feature":"34","num_nodes":"5","size_leaf_vector":"0"}},{"base_weights":[-8.300664E-3,-1.8221425E-1,9.3032144E-2,-6.11635E-2,2.6791984E-1],"categories":[],"categories_nodes":[],"categories_segments":[],"categories_sizes":[],"default_left":[1,0,1,0,0],"id":45,"left_children":[1,-1,3,-1,-1],"loss_changes":[1.0647902E-1,0E0,1.20798625E-1,0E0,0E0],"parents":[2147483647,0,0,2,2],"right_children":[2,-1,4,-1,-1],"split_conditions":[-1.2549E-1,-5.4664277E-2,6.76795E-1,-1.8349051E-2,8.0375955E-2],"split_indices":[3,0,8,0,0],"split_type":[0,0,0,0,0],"sum_hessian":[4.080092E0,1.2082474E0,2.8718445E0,1.8717886E0,1.0000559E0],"tree_param":{"num_deleted":"0","num_feature":"34","num_nodes":"5","size_leaf_vector":"0"}},{"base_weights":[-4.223523E-3,1.4929526E-1,-1.2693311E-1,-3.0424732E-1,8.018421E-2],"categories":[],"categories_nodes":[],"categories_segments":[],"categories_sizes":[],"default_left":[1,0,1,0,0],"id":46,"left_children":[1,-1,3,-1,-1],"loss_changes":[1.13678E-1,0E0,1.4687827E-1,0E0,0E0],"parents":[2147483647,0,0,2,2],"right_children":[2,-1,4,-1,-1],"split_conditions":[4.91995E-1,4.4788577E-2,7.3434496E-1,-9.12742E-2,2.4055263E-2],"split_indices":[26,0,8,0,0],"split_type":[0,0,0,0,0],"sum_hessian":[4.0284715E0,1.6933321E0,2.335139E0,1.0054268E0,1.3297124E0],"tree_param":{"num_deleted":"0","num_feature":"34","num_nodes":"5","size_leaf_vector":"0"}},{"base_weights":[-7.75534E-3,9.856674E-2,-1.7173778E-1,-7.5741835E-2,2.026071E-1],"categories":[],"categories_nodes":[],"categories_segments":[],"categories_sizes":[],"default_left":[1,1,0,0,0],"id":47,"left_children":[1,3,-1,-1,-1],"loss_changes":[1.0366265E-1,8.1599586E-2,0E0,0E0,0E0],"parents":[2147483647,0,0,1,1],"right_children":[2,4,-1,-1,-1],"split_conditions":[9.9994504E-1,3.40745E-1,-5.1521335E-2,-2.2722552E-2,6.078213E-2],"split_indices":[26,6,0,0,0],"split_type":[0,0,0,0,0],"sum_hessian":[3.9747775E0,2.6533384E0,1.3214389E0,1.0934218E0,1.5599166E0],"tree_param":{"num_deleted":"0","num_feature":"34","num_nodes":"5","size_leaf_vector":"0"}},{"base_weights":[-8.119515E-3,1.2878416E-1,-1.2091366E-1,-2.3583257E-1,5.840615E-2],"categories":[],"categories_nodes":[],"categories_segments":[],"categories_sizes":[],"default_left":[1,0,1,0,0],"id":48,"left_children":[1,-1,3,-1,-1],"loss_changes":[9.149783E-2,0E0,7.99557E-2,0E0,0E0],"parents":[2147483647,0,0,2,2],"right_children":[2,-1,4,-1,-1],"split_conditions":[-1.4E-3,3.863525E-2,4.243E-2,-7.0749775E-2,1.7521847E-2],"split_indices":[21,0,25,0,0],"split_type":[0,0,0,0,0],"sum_hessian":[3.9168756E0,1.7053038E0,2.211572E0,1.1557482E0,1.0558236E0],"tree_param":{"num_deleted":"0","num_feature":"34","num_nodes":"5","size_leaf_vector":"0"}},{"base_weights":[-8.867511E-3,-1.1751041E-1,1.284071E-1,4.5693226E-2,-2.3323561E-1],"categories":[],"categories_nodes":[],"categories_segments":[],"categories_sizes":[],"default_left":[1,1,0,0,0],"id":49,"left_children":[1,3,-1,-1,-1],"loss_changes":[8.780804E-2,7.192515E-2,0E0,0E0,0E0],"parents":[2147483647,0,0,1,1],"right_children":[2,4,-1,-1,-1],"split_conditions":[8.55035E-1,-3E-5,3.852213E-2,1.3707968E-2,-6.997069E-2],"split_indices":[2,33,0,0,0],"split_type":[0,0,0,0,0],"sum_hessian":[3.875909E0,2.2439563E0,1.6319529E0,1.1820731E0,1.0618831E0],"tree_param":{"num_deleted":"0","num_feature":"34","num_nodes":"5","size_leaf_vector":"0"}}]},"name":"gbtree"},"learner_model_param":{"base_score":"5E-1","boost_from_average":"1","num_class":"0","num_feature":"34","num_target":"1"},"objective":{"name":"binary:logistic","reg_loss_param":{"scale_pos_weight":"1"}}},"version":[1,7,6]}