{"learner":{"attributes":{"best_iteration":"49","best_ntree_limit":"50","scikit_learn":"{\"use_label_encoder\": null, \"n_estimators\": 50, \"objective\": \"binary:logistic\", \"max_depth\": 4, \"max_leaves\": null, \"max_bin\": null, \"grow_policy\": null, \"learning_rate\": null, \"verbosity\": null, \"booster\": null, \"tree_method\": null, \"gamma\": null, \"min_child_weight\": null, \"max_delta_step\": null, \"subsample\": null, \"sampling_method\": null, \"colsample_bytree\": null, \"colsample_bylevel\": null, \"colsample_bynode\": null, \"reg_alpha\": null, \"reg_lambda\": null, \"scale_pos_weight\": null, \"base_score\": null, \"missing\": NaN, \"num_parallel_tree\": null, \"random_state\": null, \"n_jobs\": null, \"monotone_constraints\": null, \"interaction_constraints\": null, \"importance_type\": null, \"gpu_id\": null, \"validate_parameters\": null, \"predictor\": null, \"enable_categorical\": false, \"feature_types\": null, \"max_cat_to_onehot\": null, \"max_cat_threshold\": null, \"eval_metric\": null, \"early_stopping_rounds\": null, \"callbacks\": null, \"classes_\": [0, 1], \"n_classes_\": 2, \"_estimator_type\": \"classifier\"}"},"feature_names":[],"feature_types":[],"gradient_booster":{"model":{"gbtree_model_param":{"num_parallel_tree":"1","num_trees":"50","size_leaf_vector":"0"},"tree_info":[0,0,0,0,0,0,0,0,0,0,0,0,0,0,0,0,0,0,0,0,0,0,0,0,0,0,0,0,0,0,0,0,0,0,0,0,0,0,0,0,0,0,0,0,0,0,0,0,0,0],"trees":[{"base_weights":[-4.5276874E-1,-1.093065E0,1.518232E0,-1.3700039E0,1.6153846E0,1.7129412E0,-1.3898305E0,-1.6579572E0,6.5727696E-2,1.76E0,-1.4285715E0,-9.62963E-1,1.7920194E0,-1.773585E0,1.2E0,-1.7645811E0,-7.264574E-1,-8.547718E-1,1.2380953E0,1.8196721E0,-4E-1,-1.4782609E0,1E0,1.8337408E0,-1.3846154E0,-1.8367347E0,-5E-1],"categories":[],"categories_nodes":[],"categories_segments":[],"categories_sizes":[],"default_left":[1,1,1,1,1,1,1,1,1,1,0,1,1,1,0,0,0,0,0,0,0,0,0,0,0,0,0],"id":0,"left_children":[1,3,5,7,9,11,13,15,17,19,-1,21,23,25,-1,-1,-1,-1,-1,-1,-1,-1,-1,-1,-1,-1,-1],"loss_changes":[1.163984E3,5.240778E2,1.3048938E2,2.6128943E2,3.1127472E1,4.6691895E1,1.6787718E1,5.098523E1,1.15989235E2,8.7836E0,0E0,8.305958E0,2.994043E1,1.4728546E-1,0E0,0E0,0E0,0E0,0E0,0E0,0E0,0E0,0E0,0E0,0E0,0E0,0E0],"parents":[2147483647,0,0,1,1,2,2,3,3,4,4,5,5,6,6,7,7,8,8,9,9,11,11,12,12,13,13],"right_children":[2,4,6,8,10,12,14,16,18,20,-1,22,24,26,-1,-1,-1,-1,-1,-1,-1,-1,-1,-1,-1,-1,-1],"split_conditions":[5.55E-2,6.5E-2,3.9999998E-1,2.51E-1,1.5E-1,6.5E0,7.5E-2,4E-2,2.6539998E0,1.15E-1,-4.2857146E-1,5.1E-1,7E-1,1.9999999E-1,3.6E-1,-5.2937436E-1,-2.1793723E-1,-2.5643155E-1,3.714286E-1,5.4590166E-1,-1.20000005E-1,-4.434783E-1,3E-1,5.5012226E-1,-4.1538465E-1,-5.5102044E-1,-1.5E-1],"split_indices":[52,6,24,51,26,55,6,15,54,45,0,6,45,0,0,0,0,0,0,0,0,0,0,0,0,0,0],"split_type":[0,0,0,0,0,0,0,0,0,0,0,0,0,0,0,0,0,0,0,0,0,0,0,0,0,0,0],"sum_hessian":[9.2E2,6.9475E2,2.2525E2,6.3075E2,6.4E1,2.115E2,1.375E1,5.2525E2,1.055E2,6.15E1,2.5E0,5.75E0,2.0575E2,1.225E1,1.5E0,4.705E2,5.475E1,5.925E1,4.625E1,6E1,1.5E0,4.75E0,1E0,2.035E2,2.25E0,1.125E1,1E0],"tree_param":{"num_deleted":"0","num_feature":"57","num_nodes":"27","size_leaf_vector":"0"}},{"base_weights":[-3.4078038E-1,-1.0641515E0,6.680768E-1,-1.2258514E0,9.661811E-1,-3.7700367E-1,1.2322837E0,-1.3014742E0,3.6099496E-1,1.1749084E0,-1.3333833E0,-8.303695E-1,1.0427238E0,1.3489116E0,-1.0155654E0,-1.3568524E0,-5.030196E-1,7.215806E-1,-1.2821937E0,1.2894279E0,-1.9261315E-1,-1.0803645E0,1.1896892E0,1.1831834E0,-1.0706888E0,1.3992844E0,-7.19278E-1,-1.3960226E0,1.0598946E0],"categories":[],"categories_nodes":[],"categories_segments":[],"categories_sizes":[],"default_left":[1,1,1,1,1,1,1,1,1,1,0,1,1,1,1,0,0,0,0,0,0,0,0,0,0,0,0,0,0],"id":1,"left_children":[1,3,5,7,9,11,13,15,17,19,-1,21,23,25,27,-1,-1,-1,-1,-1,-1,-1,-1,-1,-1,-1,-1,-1,-1],"loss_changes":[6.3278357E2,1.6691748E2,2.140921E2,5.663275E1,1.970895E1,8.311622E1,6.3112885E1,1.9080078E1,1.400318E1,5.758484E0,0E0,5.04795E1,1.057983E1,2.4376923E1,1.110298E1,0E0,0E0,0E0,0E0,0E0,0E0,0E0,0E0,0E0,0E0,0E0,0E0,0E0,0E0],"parents":[2147483647,0,0,1,1,2,2,3,3,4,4,5,5,6,6,7,7,8,8,9,9,11,11,12,12,13,13,14,14],"right_children":[2,4,6,8,10,12,14,16,18,20,-1,22,24,26,28,-1,-1,-1,-1,-1,-1,-1,-1,-1,-1,-1,-1,-1,-1],"split_conditions":[8.05E-2,4.5E-2,1.55E1,1E-2,8E-2,9.9999994E-2,3.9E-1,1.95E-1,1.1E-1,1.5E-1,-4.0001503E-1,7E-2,2.6E-1,1.4E-1,7.4E-1,-4.0705574E-1,-1.5090588E-1,2.1647419E-1,-3.8465813E-1,3.868284E-1,-5.778395E-2,-3.2410935E-1,3.5690677E-1,3.5495505E-1,-3.2120666E-1,4.1978532E-1,-2.157834E-1,-4.188068E-1,3.1796837E-1],"split_indices":[51,6,55,23,26,15,24,15,24,24,0,16,43,45,15,0,0,0,0,0,0,0,0,0,0,0,0,0,0],"split_type":[0,0,0,0,0,0,0,0,0,0,0,0,0,0,0,0,0,0,0,0,0,0,0,0,0,0,0,0,0],"sum_hessian":[8.651159E2,5.0381528E2,3.6130063E2,4.670173E2,3.6797985E1,1.26786255E2,2.3451439E2,4.4594516E2,2.1072151E1,3.4184216E1,2.6137662E0,9.64134E1,3.0372856E1,2.2332713E2,1.1187248E1,4.1636792E2,2.9577234E1,1.7740086E1,3.3320653E0,3.1595448E1,2.5887702E0,8.62096E1,1.0203797E1,2.8892767E1,1.4800888E0,2.1833286E2,4.9942784E0,9.730834E0,1.4564142E0],"tree_param":{"num_deleted":"0","num_feature":"57","num_nodes":"29","size_leaf_vector":"0"}},{"base_weights":[-2.7472037E-1,-7.033716E-1,9.4916266E-1,-8.716486E-1,1.1010126E0,1.1375741E0,-7.9991347E-1,-1.0238383E0,4.383132E-1,1.2153054E0,-9.788547E-1,1.2015089E0,-7.1265924E-1,-1.160794E0,5.3465796E-1,-1.0604541E0,1.3273983E0,-6.1817366E-1,1.0353359E0,1.249323E0,1.3700718E-2,-1.2539735E-1,1.2694572E0,-1.3407717E0,2.0693217E-1,-1.2988431E0,1.5234445E-1,-7.0854545E-1,1.0362558E0],"categories":[],"categories_nodes":[],"categories_segments":[],"categories_sizes":[],"default_left":[1,1,1,1,1,1,1,1,1,1,0,1,1,1,1,0,0,0,0,0,0,0,0,0,0,0,0,0,0],"id":2,"left_children":[1,3,5,7,9,11,13,15,17,19,-1,21,23,25,27,-1,-1,-1,-1,-1,-1,-1,-1,-1,-1,-1,-1,-1,-1],"loss_changes":[4.0594946E2,1.7485675E2,6.708652E1,1.0499811E2,1.2908211E1,2.2349884E1,1.0308471E1,4.188257E1,3.5510742E1,1.9112091E0,0E0,1.6027542E1,4.14539E0,3.1253052E0,3.8310924E0,0E0,0E0,0E0,0E0,0E0,0E0,0E0,0E0,0E0,0E0,0E0,0E0,0E0,0E0],"parents":[2147483647,0,0,1,1,2,2,3,3,4,4,5,5,6,6,7,7,8,8,9,9,11,11,12,12,13,13,14,14],"right_children":[2,4,6,8,10,12,14,16,18,20,-1,22,24,26,28,-1,-1,-1,-1,-1,-1,-1,-1,-1,-1,-1,-1,-1,-1],"split_conditions":[3.9499998E-2,6.5E-2,1.9999999E-1,5.085E-1,1.5E-1,1.85E-1,1.4050001E-1,3E-1,9.5E0,1.75E0,-2.9365644E-1,9.5E0,1.8E1,2.3499998E-1,7.5E-2,-3.1813625E-1,3.982195E-1,-1.854521E-1,3.106008E-1,3.7479693E-1,4.1102157E-3,-3.7619207E-2,3.8083717E-1,-4.022315E-1,6.2079653E-2,-3.8965297E-1,4.5703337E-2,-2.1256365E-1,3.1087676E-1],"split_indices":[52,6,24,51,26,45,51,22,55,9,0,55,55,6,9,0,0,0,0,0,0,0,0,0,0,0,0,0,0],"split_type":[0,0,0,0,0,0,0,0,0,0,0,0,0,0,0,0,0,0,0,0,0,0,0,0,0,0,0,0,0],"sum_hessian":[7.715261E2,5.717148E2,1.9981136E2,5.234177E2,4.8297054E1,1.8069627E2,1.9115082E1,4.6913287E2,5.4284836E1,4.617531E1,2.1217442E0,1.7499977E2,5.696496E0,1.5148891E1,3.9661894E0,4.6247968E2,6.653221E0,1.9587507E1,3.469733E1,4.4865448E1,1.3098592E0,8.483683E0,1.665161E2,3.1125262E0,2.5839698E0,1.3717653E1,1.4312389E0,1.0215976E0,2.9445918E0],"tree_param":{"num_deleted":"0","num_feature":"57","num_nodes":"29","size_leaf_vector":"0"}},{"base_weights":[-2.2507006E-1,-7.253736E-1,5.073928E-1,-9.1644704E-1,2.7110147E-1,7.410408E-1,-1.0166563E0,-1.025445E0,-3.1983018E-2,6.0490257E-1,-1.2087841E0,8.8227355E-1,-1.1405098E0,-1.120067E0,9.09342E-1,-1.0609834E0,4.6084917E-1,3.1229013E-1,-1.133773E0,8.5800076E-1,-7.4091494E-1,1.0234615E0,-1.2277359E0,-1.2632164E0,3.3609226E-1,-1.2120037E0,6.969392E-1],"categories":[],"categories_nodes":[],"categories_segments":[],"categories_sizes":[],"default_left":[1,1,1,1,1,1,1,1,1,1,0,1,1,1,0,0,0,0,0,0,0,0,0,0,0,0,0],"id":3,"left_children":[1,3,5,7,9,11,13,15,17,19,-1,21,23,25,-1,-1,-1,-1,-1,-1,-1,-1,-1,-1,-1,-1,-1],"loss_changes":[2.4657712E2,7.633429E1,9.8058304E1,3.2315155E1,3.2873985E1,6.412216E1,8.33707E0,1.6266205E1,1.4709818E1,1.894732E1,0E0,6.7241196E1,3.5083122E0,6.745064E0,0E0,0E0,0E0,0E0,0E0,0E0,0E0,0E0,0E0,0E0,0E0,0E0,0E0],"parents":[2147483647,0,0,1,1,2,2,3,3,4,4,5,5,6,6,7,7,8,8,9,9,11,11,12,12,13,13],"right_children":[2,4,6,8,10,12,14,16,18,20,-1,22,24,26,-1,-1,-1,-1,-1,-1,-1,-1,-1,-1,-1,-1,-1],"split_conditions":[6.15E-1,3.745E0,1.2E-1,1.05000004E-1,2E-2,1.6499999E-1,3.15E-1,2.25E-1,6.5E-2,2.2999999E-1,-3.6263525E-1,8E-2,4.26E2,6.6035004E0,2.7280262E-1,-3.1829503E-1,1.3825476E-1,9.368704E-2,-3.401319E-1,2.5740024E-1,-2.222745E-1,3.0703846E-1,-3.6832076E-1,-3.7896493E-1,1.0082769E-1,-3.6360112E-1,2.0908175E-1],"split_indices":[20,54,24,15,26,45,10,22,36,24,0,26,56,54,0,0,0,0,0,0,0,0,0,0,0,0,0],"split_type":[0,0,0,0,0,0,0,0,0,0,0,0,0,0,0,0,0,0,0,0,0,0,0,0,0,0,0],"sum_hessian":[6.708693E2,3.9861078E2,2.7225858E2,3.3454272E2,6.406803E1,2.3651314E2,3.574544E1,2.9769638E2,3.684635E1,5.2759026E1,1.1309008E1,2.2049356E2,1.6019571E1,3.432112E1,1.424321E0,2.9102396E2,6.672445E0,2.8620077E1,8.226273E0,4.47127E1,8.046327E0,2.0714757E2,1.3345994E1,1.4923898E1,1.0956742E0,3.298511E1,1.3360102E0],"tree_param":{"num_deleted":"0","num_feature":"57","num_nodes":"27","size_leaf_vector":"0"}},{"base_weights":[-1.9150439E-1,-4.848685E-1,7.998214E-1,-7.2647595E-1,2.3930648E-1,9.1306657E-1,-4.643923E-1,-8.163291E-1,3.756712E-1,6.778294E-1,-1.0347221E0,-3.3786976E-1,9.988304E-1,-9.663525E-1,5.868356E-1,-8.619173E-1,5.003131E-1,-5.6043047E-1,8.894615E-1,1.8771213E-2,1.2624563E0,-1.1336486E0,8.837698E-1,-8.0430895E-1,9.362358E-1,1.0670891E0,-2.24305E-2,-1.1327947E0,1.2473126E-1,-3.2459244E-1,1.0758147E0],"categories":[],"categories_nodes":[],"categories_segments":[],"categories_sizes":[],"default_left":[1,1,1,1,1,1,1,1,1,1,1,1,1,1,1,0,0,0,0,0,0,0,0,0,0,0,0,0,0,0,0],"id":4,"left_children":[1,3,5,7,9,11,13,15,17,19,21,23,25,27,29,-1,-1,-1,-1,-1,-1,-1,-1,-1,-1,-1,-1,-1,-1,-1,-1],"loss_changes":[1.7178802E2,7.985472E1,1.9746078E1,3.4148438E1,6.477225E1,1.3662682E1,6.771777E0,1.9415558E1,1.3217129E1,3.3081192E1,6.650284E0,5.9330335E0,8.144287E0,1.6551762E0,2.3200874E0,0E0,0E0,0E0,0E0,0E0,0E0,0E0,0E0,0E0,0E0,0E0,0E0,0E0,0E0,0E0,0E0],"parents":[2147483647,0,0,1,1,2,2,3,3,4,4,5,5,6,6,7,7,8,8,9,9,10,10,11,11,12,12,13,13,14,14],"right_children":[2,4,6,8,10,12,14,16,18,20,22,24,26,28,30,-1,-1,-1,-1,-1,-1,-1,-1,-1,-1,-1,-1,-1,-1,-1,-1],"split_conditions":[5.55E-2,1.95E-1,1.9999999E-1,7.8499997E-1,5.5E-2,9.5E0,1.4050001E-1,8.9999996E-2,2.2E-2,2.086E0,4E-1,3.7E-1,8.5E-2,9.6E-2,1E-1,-2.585752E-1,1.5009394E-1,-1.6812915E-1,2.6683846E-1,5.631364E-3,3.787369E-1,-3.400946E-1,2.6513097E-1,-2.412927E-1,2.8087074E-1,3.2012674E-1,-6.72915E-3,-3.3983845E-1,3.741938E-2,-9.737774E-2,3.2274443E-1],"split_indices":[52,4,24,15,24,55,51,6,51,54,10,6,36,53,8,0,0,0,0,0,0,0,0,0,0,0,0,0,0,0,0],"split_type":[0,0,0,0,0,0,0,0,0,0,0,0,0,0,0,0,0,0,0,0,0,0,0,0,0,0,0,0,0,0,0],"sum_hessian":[5.8837E2,4.5440756E2,1.3396243E2,3.4072714E2,1.1368042E2,1.2320388E2,1.0758548E1,3.1528284E2,2.5444296E1,8.491908E1,2.8761337E1,7.716261E0,1.15487625E2,7.33624E0,3.4223075E0,3.0506546E2,1.0217391E1,8.984388E0,1.645991E1,4.040362E1,4.4515465E1,2.7740023E1,1.0213133E0,5.9183354E0,1.7979256E0,1.0821023E2,7.2773914E0,6.332069E0,1.0041711E0,1.3123494E0,2.1099582E0],"tree_param":{"num_deleted":"0","num_feature":"57","num_nodes":"31","size_leaf_vector":"0"}},{"base_weights":[-1.562362E-1,-5.793658E-1,4.0462926E-1,-3.8419256E-1,-1.1848204E0,-1.2506816E-1,8.386588E-1,-1.5634294E-1,-1.0237143E0,-3.178804E-1,1.1604214E0,8.892753E-1,-9.5686114E-1,-7.4465305E-1,4.1291383E-1,-1.0621136E0,5.578479E-1,-4.7589314E-1,1.2572823E0,9.307756E-1,-9.724699E-1],"categories":[],"categories_nodes":[],"categories_segments":[],"categories_sizes":[],"default_left":[1,1,1,1,0,1,1,1,1,1,0,1,0,0,0,0,0,0,0,0,0],"id":5,"left_children":[1,3,5,7,-1,9,11,13,15,17,-1,19,-1,-1,-1,-1,-1,-1,-1,-1,-1],"loss_changes":[1.2209677E2,3.417978E1,5.1005333E1,3.235298E1,0E0,2.5298557E1,1.1922081E1,5.579856E1,4.141197E0,2.256261E1,0E0,1.0099152E1,0E0,0E0,0E0,0E0,0E0,0E0,0E0,0E0,0E0],"parents":[2147483647,0,0,1,1,2,2,3,3,5,5,6,6,7,7,8,8,9,9,11,11],"right_children":[2,4,6,8,-1,10,12,14,16,18,-1,20,-1,-1,-1,-1,-1,-1,-1,-1,-1],"split_conditions":[8.2499996E-2,5E-3,2.6205E0,1.2E-1,-3.5544613E-1,2.55E-1,1.49E0,9.5E0,3.7E-1,5.6E-1,3.481264E-1,6.15E-1,-2.8705835E-1,-2.2339593E-1,1.2387415E-1,-3.186341E-1,1.6735438E-1,-1.4276795E-1,3.771847E-1,2.7923268E-1,-2.9174098E-1],"split_indices":[51,26,54,24,0,6,24,55,10,7,0,41,0,0,0,0,0,0,0,0,0],"split_type":[0,0,0,0,0,0,0,0,0,0,0,0,0,0,0,0,0,0,0,0,0],"sum_hessian":[5.1249646E2,2.9209808E2,2.2039836E2,2.2212791E2,6.997018E1,9.958045E1,1.2081792E2,1.6469473E2,5.743318E1,8.7246895E1,1.2333558E1,1.1799628E2,2.82164E0,8.0840416E1,8.385431E1,5.639245E1,1.0407346E0,7.992689E1,7.3200045E0,1.1591251E2,2.0837622E0],"tree_param":{"num_deleted":"0","num_feature":"57","num_nodes":"21","size_leaf_vector":"0"}},{"base_weights":[-1.3204533E-1,4.2545475E-2,-1.1269579E0,-3.0955607E-1,6.052673E-1,-1.1567805E0,-2.8691512E-2,-4.710768E-1,4.773321E-1,8.060096E-1,-5.526689E-1,-5.7203376E-1,4.7830644E-1,6.3095963E-1,-1.0376318E0,9.376981E-1,-5.066558E-1,-8.012751E-1,7.8370595E-1],"categories":[],"categories_nodes":[],"categories_segments":[],"categories_sizes":[],"default_left":[1,1,1,1,1,0,0,1,1,1,1,0,0,0,0,0,0,0,0],"id":6,"left_children":[1,3,5,7,9,-1,-1,11,13,15,17,-1,-1,-1,-1,-1,-1,-1,-1],"loss_changes":[7.871709E1,7.6716705E1,2.1824722E0,3.0505972E1,3.5079876E1,0E0,0E0,1.9268219E1,1.02138405E1,2.2496414E1,8.138916E0,0E0,0E0,0E0,0E0,0E0,0E0,0E0,0E0],"parents":[2147483647,0,0,1,1,2,2,3,3,4,4,7,7,8,8,9,9,10,10],"right_children":[2,4,6,8,10,-1,-1,12,14,16,18,-1,-1,-1,-1,-1,-1,-1,-1],"split_conditions":[5E-3,1E-2,9.1499996E-1,4.855E-1,9.5E-2,-3.4703416E-1,-8.607454E-3,1.3949999E-1,1.185E0,1.35E-1,4.2000002E-1,-1.7161013E-1,1.4349194E-1,1.892879E-1,-3.1128955E-1,2.8130946E-1,-1.5199675E-1,-2.4038254E-1,2.3511179E-1],"split_indices":[26,4,5,51,24,0,0,52,44,45,17,0,0,0,0,0,0,0,0],"split_type":[0,0,0,0,0,0,0,0,0,0,0,0,0,0,0,0,0,0,0],"sum_hessian":[4.5189557E2,3.8524808E2,6.664747E1,2.3724872E2,1.4799937E2,6.483369E1,1.8137859E0,1.9717657E2,4.007214E1,1.26391754E2,2.160762E1,1.7858354E2,1.8593027E1,3.691248E1,3.1596587E0,1.15127625E2,1.1264125E1,1.8556046E1,3.0515742E0],"tree_param":{"num_deleted":"0","num_feature":"57","num_nodes":"19","size_leaf_vector":"0"}},{"base_weights":[-1.10140786E-1,-4.227034E-1,3.4882888E-1,-6.8457246E-1,-2.9302625E-2,1.0315931E-1,9.575614E-1,-7.680904E-1,6.11095E-1,3.000453E-1,-8.976056E-1,2.3895939E-1,-1.0662206E0,1.0702305E0,-7.982238E-1,-8.6890924E-1,6.361156E-2,-2.151172E-1,1.60535E0,4.9490955E-1,-1.0590715E0,-9.8411167E-1,2.4540786E-1,3.675119E-1,-1.0263116E0,-1.201744E0,-3.4551088E-2,1.1297472E0,-7.5032806E-1],"categories":[],"categories_nodes":[],"categories_segments":[],"categories_sizes":[],"default_left":[1,1,1,1,1,1,1,1,1,1,1,1,1,1,0,0,0,0,0,0,0,0,0,0,0,0,0,0,0],"id":7,"left_children":[1,3,5,7,9,11,13,15,17,19,21,23,25,27,-1,-1,-1,-1,-1,-1,-1,-1,-1,-1,-1,-1,-1,-1,-1],"loss_changes":[5.8152756E1,2.4806213E1,2.4479845E1,1.6120537E1,2.8109259E1,1.9027908E1,1.017897E1,1.1485832E1,7.9976425E0,1.9415337E1,2.9133453E0,1.7737873E1,1.703825E0,5.6934013E0,0E0,0E0,0E0,0E0,0E0,0E0,0E0,0E0,0E0,0E0,0E0,0E0,0E0,0E0,0E0],"parents":[2147483647,0,0,1,1,2,2,3,3,4,4,5,5,6,6,7,7,8,8,9,9,10,10,11,11,12,12,13,13],"right_children":[2,4,6,8,10,12,14,16,18,20,22,24,26,28,-1,-1,-1,-1,-1,-1,-1,-1,-1,-1,-1,-1,-1,-1,-1],"split_conditions":[6.15E-1,2.3255E0,1.25E-1,8E-1,1.9999999E-1,1.3499999E-1,1.2E-1,2.75E-1,3E0,5.75E-1,7.5E-2,2.5E-2,7.9499996E-1,2.1000001E-1,-2.3946714E-1,-2.6067278E-1,1.9083468E-2,-6.453516E-2,4.8160502E-1,1.4847288E-1,-3.177215E-1,-2.9523352E-1,7.362236E-2,1.1025357E-1,-3.078935E-1,-3.605232E-1,-1.0365327E-2,3.3892417E-1,-2.2509843E-1],"split_indices":[20,54,16,51,24,45,24,15,18,45,6,26,9,26,0,0,0,0,0,0,0,0,0,0,0,0,0,0,0],"split_type":[0,0,0,0,0,0,0,0,0,0,0,0,0,0,0,0,0,0,0,0,0,0,0,0,0,0,0,0,0],"sum_hessian":[4.0334003E2,2.399862E2,1.6335382E2,1.4363486E2,9.635136E1,1.1721726E2,4.6136555E1,1.3531943E2,8.315429E0,7.03297E1,2.6021658E1,1.05734024E2,1.1483237E1,4.3721397E1,2.4151578E0,1.2064956E2,1.4669863E1,4.96949E0,3.3459382E0,6.2066704E1,8.262994E0,2.4320074E1,1.701584E0,9.662626E1,9.107764E0,1.0004201E1,1.4790366E0,4.270477E1,1.0166304E0],"tree_param":{"num_deleted":"0","num_feature":"57","num_nodes":"29","size_leaf_vector":"0"}},{"base_weights":[-9.6221134E-2,3.7256252E-2,-1.0581641E0,-1.1292995E-1,8.1586087E-1,-1.0926638E0,-3.0393967E-2,-2.9318473E-1,4.6617493E-1,8.684179E-1,-3.1048486E-1,-4.6085408E-1,2.4158399E-1,1.4997655E-1,1.0295318E0,9.046414E-1,-4.293488E-1],"categories":[],"categories_nodes":[],"categories_segments":[],"categories_sizes":[],"default_left":[1,1,1,1,1,0,0,1,1,1,0,0,0,0,0,0,0],"id":8,"left_children":[1,3,5,7,9,-1,-1,11,13,15,-1,-1,-1,-1,-1,-1,-1],"loss_changes":[4.6666386E1,3.749537E1,1.536972E0,2.8218517E1,3.3386269E0,0E0,0E0,1.8561855E1,1.1289703E1,2.7292747E0,0E0,0E0,0E0,0E0,0E0,0E0,0E0],"parents":[2147483647,0,0,1,1,2,2,3,3,4,4,7,7,8,8,9,9],"right_children":[2,4,6,8,10,-1,-1,12,14,16,-1,-1,-1,-1,-1,-1,-1],"split_conditions":[5E-3,1E-2,9.1499996E-1,3.4450002E0,1.75E-1,-3.2779914E-1,-9.118191E-3,4E-2,7E-3,1.225E0,-9.314546E-2,-1.3825624E-1,7.24752E-2,4.499297E-2,3.0885956E-1,2.7139243E-1,-1.2880464E-1],"split_indices":[26,6,5,54,45,0,0,15,52,7,0,0,0,0,0,0,0],"split_type":[0,0,0,0,0,0,0,0,0,0,0,0,0,0,0,0,0],"sum_hessian":[3.62145E2,3.1886163E2,4.3283363E1,2.6801816E2,5.084346E1,4.1816544E1,1.4668176E0,2.0477325E2,6.324491E1,4.8795578E1,2.0478816E0,1.5599986E2,4.8773396E1,4.1319508E1,2.1925404E1,4.7765274E1,1.0303072E0],"tree_param":{"num_deleted":"0","num_feature":"57","num_nodes":"17","size_leaf_vector":"0"}},{"base_weights":[-7.62404E-2,8.0967784E-2,-8.1481755E-1,-4.3935826E-1,3.844387E-1,-9.108321E-1,7.6603174E-1,-6.64824E-1,1.5346949E-1,5.620678E-1,-5.7298267E-1,-9.6112835E-1,5.2519304E-1,1.2729679E0,6.515274E-2,-7.509705E-1,6.872635E-1,-1.1424302E-1,1.0722871E0,6.295011E-1,-8.141367E-1,-9.6876377E-1,2.4753144E0,-1.011496E0,4.8794055E-1],"categories":[],"categories_nodes":[],"categories_segments":[],"categories_sizes":[],"default_left":[1,1,1,1,1,1,1,1,1,1,1,1,0,0,0,0,0,0,0,0,0,0,0,0,0],"id":9,"left_children":[1,3,5,7,9,11,13,15,17,19,21,23,-1,-1,-1,-1,-1,-1,-1,-1,-1,-1,-1,-1,-1],"loss_changes":[3.8175346E1,4.3043762E1,9.454426E0,1.3533936E1,2.9579138E1,4.4660606E0,1.2837307E0,9.017845E0,7.1331434E0,1.4025986E1,3.54761E1,4.3868217E0,0E0,0E0,0E0,0E0,0E0,0E0,0E0,0E0,0E0,0E0,0E0,0E0,0E0],"parents":[2147483647,0,0,1,1,2,2,3,3,4,4,5,5,6,6,7,7,8,8,9,9,10,10,11,11],"right_children":[2,4,6,8,10,12,14,16,18,20,22,24,-1,-1,-1,-1,-1,-1,-1,-1,-1,-1,-1,-1,-1],"split_conditions":[1.2E-1,9.5E0,6.75E-1,3.04E0,8.5E-2,4.15E-1,7.95E-1,2.6999998E-1,7.8499997E-1,3.5E-2,1.7E-1,2.5E-1,1.5755792E-1,3.818904E-1,1.9545823E-2,-2.2529115E-1,2.0617905E-1,-3.427291E-2,3.2168615E-1,1.8885034E-1,-2.4424101E-1,-2.9062915E-1,7.4259436E-1,-3.034488E-1,1.4638217E-1],"split_indices":[24,55,15,18,45,10,18,7,4,26,27,19,0,0,0,0,0,0,0,0,0,0,0,0,0],"split_type":[0,0,0,0,0,0,0,0,0,0,0,0,0,0,0,0,0,0,0,0,0,0,0,0,0],"sum_hessian":[3.272168E2,2.7052515E2,5.669165E1,9.9491295E1,1.7103384E2,5.3845142E1,2.8465085E0,7.199031E1,2.7500984E1,1.4461632E2,2.6417532E1,5.2342564E1,1.5025765E0,1.1781347E0,1.668374E0,6.809623E1,3.8940752E0,2.1974127E1,5.526858E0,1.3837843E2,6.2378883E0,2.3985523E1,2.4320083E0,5.087615E1,1.4664155E0],"tree_param":{"num_deleted":"0","num_feature":"57","num_nodes":"25","size_leaf_vector":"0"}},{"base_weights":[-6.537717E-2,-1.8421373E-1,7.5693315E-1,-5.4990437E-2,-8.495085E-1,-3.3175665E-1,8.4896773E-1,3.532373E-2,-1.0089872E0,-9.743582E-1,3.5928336E-1,2.3344816E-1,-6.906536E-1,9.2273366E-1,-1.4611231E-1,1.0813298E-1,-1.1432462E0,-1.0701452E0,3.2638958E-1,-5.366891E-1,8.645973E-1,9.7101074E-1,-8.529914E-2,-7.7942234E-1,6.3397187E-1],"categories":[],"categories_nodes":[],"categories_segments":[],"categories_sizes":[],"default_left":[1,1,1,1,1,1,1,1,0,1,1,0,0,1,1,0,0,0,0,0,0,0,0,0,0],"id":10,"left_children":[1,3,5,7,9,11,13,15,-1,17,19,-1,-1,21,23,-1,-1,-1,-1,-1,-1,-1,-1,-1,-1],"loss_changes":[2.8982204E1,2.2193382E1,4.0354767E0,1.879134E1,6.689392E0,8.994608E-1,2.6910896E0,1.727087E1,0E0,5.1265335E0,2.5751586E0,0E0,0E0,1.6672745E0,2.1080158E0,0E0,0E0,0E0,0E0,0E0,0E0,0E0,0E0,0E0,0E0],"parents":[2147483647,0,0,1,1,2,2,3,3,4,4,5,5,6,6,7,7,9,9,10,10,13,13,14,14],"right_children":[2,4,6,8,10,12,14,16,-1,18,20,-1,-1,22,24,-1,-1,-1,-1,-1,-1,-1,-1,-1,-1],"split_conditions":[1E-2,8.5E-2,9.5E0,1E-2,2.7499998E-1,3.35E-2,1.4E-1,4.75E-1,-3.0269617E-1,9.5E-2,1.385E0,7.003445E-2,-2.071961E-1,4.5499998E-1,9.2499995E-1,3.2439895E-2,-3.4297386E-1,-3.2104358E-1,9.791688E-2,-1.6100673E-1,2.593792E-1,2.9130325E-1,-2.5589744E-2,-2.3382671E-1,1.9019157E-1],"split_indices":[23,36,55,26,5,49,45,41,0,6,18,0,0,44,20,0,0,0,0,0,0,0,0,0,0],"split_type":[0,0,0,0,0,0,0,0,0,0,0,0,0,0,0,0,0,0,0,0,0,0,0,0,0],"sum_hessian":[2.9415564E2,2.5769125E2,3.6464394E1,2.1668599E2,4.1005272E1,2.6392794E0,3.382511E1,1.9882622E2,1.7859758E1,3.734232E1,3.6629505E0,1.1607792E0,1.4785001E0,3.1558374E1,2.2667394E0,1.8811328E2,1.0712941E1,3.494617E1,2.396149E0,1.298496E0,2.3644543E0,3.0151094E1,1.4072798E0,1.2515329E0,1.0152065E0],"tree_param":{"num_deleted":"0","num_feature":"57","num_nodes":"25","size_leaf_vector":"0"}},{"base_weights":[-5.6150757E-2,-1.4226149E-1,8.9563996E-1,-3.258913E-1,2.6849386E-1,4.6235353E-1,1.076105E0,-1.6780391E-1,-8.0607253E-1,3.7127766E-1,-9.8030037E-1,-4.7036806E-1,8.798664E-1,-2.6760027E-2,-9.216884E-1,-9.104712E-1,5.5981976E-1,4.6234423E-1,-9.624244E-1,2.7179798E-1,-1.0001353E0,1.0128561E0,1.03807084E-1],"categories":[],"categories_nodes":[],"categories_segments":[],"categories_sizes":[],"default_left":[1,1,1,1,1,1,0,1,1,1,0,1,1,0,0,0,0,0,0,0,0,0,0],"id":11,"left_children":[1,3,5,7,9,11,-1,13,15,17,-1,19,21,-1,-1,-1,-1,-1,-1,-1,-1,-1,-1],"loss_changes":[2.2815859E1,1.9300335E1,1.3090477E0,1.32613735E1,1.0535136E1,3.7421837E0,0E0,1.4227003E1,6.705229E0,9.425548E0,0E0,1.5671266E0,5.4015064E-1,0E0,0E0,0E0,0E0,0E0,0E0,0E0,0E0,0E0,0E0],"parents":[2147483647,0,0,1,1,2,2,3,3,4,4,5,5,7,7,8,8,9,9,11,11,12,12],"right_children":[2,4,6,8,10,12,-1,14,16,18,-1,20,22,-1,-1,-1,-1,-1,-1,-1,-1,-1,-1],"split_conditions":[2.6E-1,1.14999995E-1,1.445E0,7E-2,5E-3,1.75E2,3.228315E-1,9.5E-2,2.65E-1,4.5499998E-1,-2.9409012E-1,6.6999996E-1,4.5E-2,-8.028008E-3,-2.765065E-1,-2.7314138E-1,1.6794594E-1,1.3870327E-1,-2.8872734E-1,8.15394E-2,-3.000406E-1,3.0385685E-1,3.1142127E-2],"split_indices":[22,4,18,44,26,56,0,24,16,41,0,18,36,0,0,0,0,0,0,0,0,0,0],"split_type":[0,0,0,0,0,0,0,0,0,0,0,0,0,0,0,0,0,0,0,0,0,0,0],"sum_hessian":[2.7582538E2,2.5372116E2,2.2104218E1,1.7547914E2,7.824203E1,7.5467978E0,1.455742E1,1.3303142E2,4.2447727E1,7.294119E1,5.300838E0,2.2944388E0,5.252359E0,1.12937485E2,2.0093924E1,3.9743458E1,2.7042706E0,6.889061E1,4.0505843E0,1.1584632E0,1.1359756E0,4.223475E0,1.028884E0],"tree_param":{"num_deleted":"0","num_feature":"57","num_nodes":"23","size_leaf_vector":"0"}},{"base_weights":[-4.645643E-2,2.6964074E-2,-9.405221E-1,-5.3736173E-2,7.3171854E-1,-1.0124831E0,1.5858555E-1,-1.5032502E-1,7.021852E-1,8.8436663E-1,-5.0768363E-1,-2.2781149E-1,5.5372727E-1,1.9771637E-1,9.8160744E-1,5.277989E-1,1.4332558E0,-9.068477E-1,1.595929E-1],"categories":[],"categories_nodes":[],"categories_segments":[],"categories_sizes":[],"default_left":[1,1,1,1,1,0,0,1,1,1,1,0,0,0,0,0,0,0,0],"id":12,"left_children":[1,3,5,7,9,-1,-1,11,13,15,17,-1,-1,-1,-1,-1,-1,-1,-1],"loss_changes":[1.7080996E1,1.375045E1,1.72229E0,1.5967163E1,5.1480904E0,0E0,0E0,1.067984E1,3.30027E0,3.6429958E0,1.0393872E0,0E0,0E0,0E0,0E0,0E0,0E0,0E0,0E0],"parents":[2147483647,0,0,1,1,2,2,3,3,4,4,7,7,8,8,9,9,10,10],"right_children":[2,4,6,8,10,-1,-1,12,14,16,18,-1,-1,-1,-1,-1,-1,-1,-1],"split_conditions":[5E-3,8.1799996E-1,1.7500001E-1,1E-2,1.185E0,-3.0374494E-1,4.7575668E-2,1.065E0,1.595E2,3.355E0,5.55E1,-6.8343446E-2,1.6611819E-1,5.9314914E-2,2.9448223E-1,1.5833968E-1,4.2997676E-1,-2.720543E-1,4.787787E-2],"split_indices":[26,51,23,23,44,0,0,4,56,18,56,0,0,0,0,0,0,0,0],"split_type":[0,0,0,0,0,0,0,0,0,0,0,0,0,0,0,0,0,0,0],"sum_hessian":[2.588251E2,2.4007965E2,1.8745455E1,2.1624191E2,2.3837744E1,1.7667534E1,1.0779207E0,1.9245221E2,2.3789696E1,2.1478813E1,2.3589308E0,1.739807E2,1.8471512E1,9.088647E0,1.470105E1,1.4209596E1,7.2692184E0,1.2513475E0,1.1075833E0],"tree_param":{"num_deleted":"0","num_feature":"57","num_nodes":"19","size_leaf_vector":"0"}},{"base_weights":[-3.2267313E-2,4.6288144E-2,-7.899919E-1,-6.5710835E-2,7.3702973E-1,-9.1120404E-1,5.862042E-1,7.906225E-2,-5.5386114E-1,8.318913E-1,-5.8726954E-1,-9.5989645E-1,3.7222497E-2,-2.4272662E-1,3.2158554E-1,-7.4057204E-1,2.4513406E-1,9.833115E-1,7.6593325E-2,-1.0039959E0,-2.7071327E-1],"categories":[],"categories_nodes":[],"categories_segments":[],"categories_sizes":[],"default_left":[1,1,1,1,1,1,0,1,1,1,0,1,0,0,0,0,0,0,0,0,0],"id":13,"left_children":[1,3,5,7,9,11,-1,13,15,17,-1,19,-1,-1,-1,-1,-1,-1,-1,-1,-1],"loss_changes":[1.4728088E1,1.7422396E1,4.410884E0,1.3765542E1,4.435093E0,1.0401878E0,0E0,1.1833135E1,6.825677E0,3.3247375E0,0E0,3.5810852E-1,0E0,0E0,0E0,0E0,0E0,0E0,0E0,0E0,0E0],"parents":[2147483647,0,0,1,1,2,2,3,3,4,4,5,5,7,7,8,8,9,9,11,11],"right_children":[2,4,6,8,10,12,-1,14,16,18,-1,20,-1,-1,-1,-1,-1,-1,-1,-1,-1],"split_conditions":[7.1500003E-1,9.5E-2,9.35E-1,1.05000004E-1,4.5E-2,1.4E-1,1.7586125E-1,1.05E1,3.7410002E0,1.175E0,-1.7618087E-1,3.75E-1,1.11667495E-2,-7.281799E-2,9.647567E-2,-2.2217162E-1,7.354022E-2,2.9499346E-1,2.2977998E-2,-3.0119878E-1,-8.121398E-2],"split_indices":[24,16,15,44,43,22,0,55,54,11,0,43,0,0,0,0,0,0,0,0,0],"split_type":[0,0,0,0,0,0,0,0,0,0,0,0,0,0,0,0,0,0,0,0,0],"sum_hessian":[2.4581923E2,2.2357907E2,2.2240164E1,1.9316377E2,3.0415302E1,2.07504E1,1.4897648E0,1.4962639E2,4.3537384E1,2.8729212E1,1.6860912E0,1.9725592E1,1.0248088E0,6.430427E1,8.532212E1,3.534987E1,8.187512E0,2.3680017E1,5.0491943E0,1.810998E1,1.6156116E0],"tree_param":{"num_deleted":"0","num_feature":"57","num_nodes":"21","size_leaf_vector":"0"}},{"base_weights":[-2.7431738E-2,6.324164E-2,-6.5111303E-1,-1.742788E-1,3.0930328E-1,-7.769116E-1,3.6035854E-1,-2.5614774E-1,9.1540647E-1,-2.3828854E-1,4.8312387E-1,-8.8745266E-1,6.1244965E-1,-3.7915695E-1,7.430986E-1,-4.0212822E-1,3.735531E-1,3.2994673E-1,1.0771925E0,-4.5839956E-1,7.738343E-1,5.571944E-1,-1.3025006E0,-1.0315168E0,1.3840584E-1],"categories":[],"categories_nodes":[],"categories_segments":[],"categories_sizes":[],"default_left":[1,1,1,1,1,1,1,1,1,1,1,1,0,0,0,0,0,0,0,0,0,0,0,0,0],"id":14,"left_children":[1,3,5,7,9,11,13,15,17,19,21,23,-1,-1,-1,-1,-1,-1,-1,-1,-1,-1,-1,-1,-1],"loss_changes":[1.3175384E1,1.19581785E1,4.0423145E0,9.537498E0,9.671835E0,4.6310387E0,1.4008558E0,9.138069E0,3.5553026E-1,5.89335E0,1.0849407E1,3.8465977E0,0E0,0E0,0E0,0E0,0E0,0E0,0E0,0E0,0E0,0E0,0E0,0E0,0E0],"parents":[2147483647,0,0,1,1,2,2,3,3,4,4,5,5,6,6,7,7,8,8,9,9,10,10,11,11],"right_children":[2,4,6,8,10,12,14,16,18,20,22,24,-1,-1,-1,-1,-1,-1,-1,-1,-1,-1,-1,-1,-1],"split_conditions":[8.5E-2,7.15E1,2.7499998E-1,2.01E0,1.9660001E0,8.55E-1,1.605E0,4.205E0,2.415E0,4.1500002E-1,1.1340001E0,1.69E-1,1.837349E-1,-1.1374709E-1,2.229296E-1,-1.2063847E-1,1.1206593E-1,9.8984025E-2,3.231578E-1,-1.3751988E-1,2.321503E-1,1.6715834E-1,-3.907502E-1,-3.0945504E-1,4.1521754E-2],"split_indices":[36,56,5,15,54,15,18,18,15,15,48,48,0,0,0,0,0,0,0,0,0,0,0,0,0],"split_type":[0,0,0,0,0,0,0,0,0,0,0,0,0,0,0,0,0,0,0,0,0,0,0,0,0],"sum_hessian":[2.31253E2,2.026845E2,2.8568512E1,1.0328063E2,9.9403854E1,2.5614668E1,2.953844E0,9.67748E1,6.5058346E0,2.3861479E1,7.554238E1,2.4061525E1,1.5531443E0,1.0105877E0,1.9432563E0,7.885551E1,1.791929E1,2.0666375E0,4.439197E0,2.0048525E1,3.8129542E0,7.319412E1,2.3482533E0,2.1093756E1,2.9677694E0],"tree_param":{"num_deleted":"0","num_feature":"57","num_nodes":"25","size_leaf_vector":"0"}},{"base_weights":[-2.1610174E-2,3.498669E-2,-8.917879E-1,1.217675E-1,-5.6254345E-1,-9.7826695E-1,9.313056E-2,2.2832434E-1,-5.3916764E-1,-8.7774456E-1,1.4019082E0,2.8167772E-1,-9.1400486E-1,-1.158542E0,4.3526936E-1,-9.969728E-1,-9.068662E-2],"categories":[],"categories_nodes":[],"categories_segments":[],"categories_sizes":[],"default_left":[1,1,1,1,1,0,0,1,1,1,0,0,0,0,0,0,0],"id":15,"left_children":[1,3,5,7,9,-1,-1,11,13,15,-1,-1,-1,-1,-1,-1,-1],"loss_changes":[1.0871269E1,1.0834798E1,1.2392044E0,1.2949193E1,1.7644249E1,0E0,0E0,9.858824E0,1.5944321E1,2.1108608E0,0E0,0E0,0E0,0E0,0E0,0E0,0E0],"parents":[2147483647,0,0,1,1,2,2,3,3,4,4,7,7,8,8,9,9],"right_children":[2,4,6,8,10,-1,-1,12,14,16,-1,-1,-1,-1,-1,-1,-1],"split_conditions":[5E-3,8.5E-2,6.3E-1,1.435E0,1.7999999E-1,-2.934801E-1,2.7939169E-2,6.5E-2,2.045E0,5.05E-1,4.2057246E-1,8.450332E-2,-2.7420148E-1,-3.475626E-1,1.3058081E-1,-2.9909185E-1,-2.7205987E-2],"split_indices":[26,45,5,11,27,0,0,41,18,4,0,0,0,0,0,0,0],"split_type":[0,0,0,0,0,0,0,0,0,0,0,0,0,0,0,0,0],"sum_hessian":[2.1910588E2,2.0662657E2,1.2479318E1,1.8111848E2,2.550808E1,1.1478244E1,1.0010738E0,1.5653607E2,2.458241E1,2.2457848E1,3.050231E0,1.5027098E2,6.2651043E0,1.4913877E1,9.668535E0,1.9271742E1,3.1861067E0],"tree_param":{"num_deleted":"0","num_feature":"57","num_nodes":"17","size_leaf_vector":"0"}},{"base_weights":[-2.6199719E-2,1.6661871E-2,-1.0298251E0,7.386493E-2,-6.900517E-1,1.9848187E-2,1.0258332E0,-8.278365E-1,3.7905908E-1,9.8448545E-2,-6.5810436E-1,1.3607303E0,-1.0584582E-1,-9.331043E-1,-2.0592193E-1],"categories":[],"categories_nodes":[],"categories_segments":[],"categories_sizes":[],"default_left":[1,1,0,1,1,1,1,1,0,0,0,0,0,0,0],"id":16,"left_children":[1,3,-1,5,7,9,11,13,-1,-1,-1,-1,-1,-1,-1],"loss_changes":[9.06742E0,8.247588E0,0E0,9.671492E0,2.5645442E0,9.623221E0,3.9720974E0,7.145119E-1,0E0,0E0,0E0,0E0,0E0,0E0,0E0],"parents":[2147483647,0,0,1,1,3,3,4,4,5,5,6,6,7,7],"right_children":[2,4,-1,6,8,10,12,14,-1,-1,-1,-1,-1,-1,-1],"split_conditions":[4.45E-1,7.1500003E-1,-3.0894753E-1,2.15E-1,9.35E-1,1.3E-1,3E-1,3.45E-1,1.1371773E-1,2.9534565E-2,-1.9743131E-1,4.082191E-1,-3.1753745E-2,-2.799313E-1,-6.1776582E-2],"split_indices":[43,24,0,35,15,45,4,44,0,0,0,0,0,0,0],"split_type":[0,0,0,0,0,0,0,0,0,0,0,0,0,0,0],"sum_hessian":[2.0938812E2,2.017552E2,7.6329136E0,1.8747594E2,1.4279262E1,1.7837538E2,9.100555E0,1.2848988E1,1.4302739E0,1.6060945E2,1.776593E1,6.8662353E0,2.23432E0,1.0561014E1,2.287974E0],"tree_param":{"num_deleted":"0","num_feature":"57","num_nodes":"15","size_leaf_vector":"0"}},{"base_weights":[-2.4654027E-2,-7.95266E-2,7.502076E-1,-1.4276752E-1,5.386076E-1,8.666675E-1,-1.3649225E-1,-5.0346445E-2,-5.5447364E-1,6.947098E-1,-5.35534E-1,9.4003284E-1,3.4982443E-2,-9.642209E-2,1.0046824E0,-8.5925627E-1,-1.4721102E-1,8.6494124E-1,-4.3390888E-1,1.0105784E0,2.2943982E-1],"categories":[],"categories_nodes":[],"categories_segments":[],"categories_sizes":[],"default_left":[1,1,1,1,1,1,0,1,1,1,0,1,0,0,0,0,0,0,0,0,0],"id":17,"left_children":[1,3,5,7,9,11,-1,13,15,17,-1,19,-1,-1,-1,-1,-1,-1,-1,-1,-1],"loss_changes":[8.759103E0,7.581506E0,1.5254645E0,6.628935E0,3.394823E0,7.1035385E-1,0E0,7.095679E0,3.8422403E0,3.4830236E0,0E0,3.2731438E-1,0E0,0E0,0E0,0E0,0E0,0E0,0E0,0E0,0E0],"parents":[2147483647,0,0,1,1,2,2,3,3,4,4,5,5,7,7,8,8,9,9,11,11],"right_children":[2,4,6,8,10,12,-1,14,16,18,-1,20,-1,-1,-1,-1,-1,-1,-1,-1,-1],"split_conditions":[2.6E-1,8.1799996E-1,4.5E-1,2.245E-1,6.65E-1,8.5E-2,-4.0947676E-2,8.35E-1,9.15E1,1.185E0,-1.606602E-1,2.6E-1,1.0494733E-2,-2.8926628E-2,3.0140474E-1,-2.577769E-1,-4.4163305E-2,2.5948238E-1,-1.3017267E-1,3.0317354E-1,6.883195E-2],"split_indices":[22,51,10,49,9,45,0,7,56,44,0,36,0,0,0,0,0,0,0,0,0],"split_type":[0,0,0,0,0,0,0,0,0,0,0,0,0,0,0,0,0,0,0,0,0],"sum_hessian":[2.0360294E2,1.9097615E2,1.2626794E1,1.7394861E2,1.7027534E1,1.118088E1,1.4459139E0,1.4297534E2,3.0973265E1,1.5175378E1,1.8521559E0,1.01548195E1,1.0260609E0,1.3786314E2,5.112207E0,1.7080736E1,1.3892527E1,1.3389453E1,1.7859251E0,8.85369E0,1.3011295E0],"tree_param":{"num_deleted":"0","num_feature":"57","num_nodes":"21","size_leaf_vector":"0"}},{"base_weights":[-1.5644673E-2,2.1927353E-2,-9.643278E-1,-8.915012E-2,3.9242062E-1,3.1136328E-2,-5.5748564E-1,-1.6218917E-1,5.821577E-1,1.23546116E-1,-7.180658E-1,-9.2379427E-1,-9.3188666E-2,-6.783868E-1,2.9887936E-1,6.5187895E-1,-6.447252E-1],"categories":[],"categories_nodes":[],"categories_segments":[],"categories_sizes":[],"default_left":[1,1,0,1,1,1,1,1,1,0,0,0,0,0,0,0,0],"id":18,"left_children":[1,3,-1,5,7,9,11,13,15,-1,-1,-1,-1,-1,-1,-1,-1],"loss_changes":[7.098587E0,7.935335E0,0E0,8.38347E0,4.7734666E0,8.3349285E0,5.0843763E0,3.0864897E0,3.272913E0,0E0,0E0,0E0,0E0,0E0,0E0,0E0,0E0],"parents":[2147483647,0,0,1,1,3,3,4,4,5,5,6,6,7,7,8,8],"right_children":[2,4,-1,6,8,10,12,14,16,-1,-1,-1,-1,-1,-1,-1,-1],"split_conditions":[4.5499998E-1,3.75E-1,-2.8929836E-1,1.3499999E-1,3E-2,9.5E-2,2.3205E0,9.5E0,1.7500001E-1,3.7063837E-2,-2.1541975E-1,-2.771383E-1,-2.7956601E-2,-2.0351605E-1,8.966381E-2,1.9556369E-1,-1.9341756E-1],"split_indices":[41,4,0,44,20,24,54,55,42,0,0,0,0,0,0,0,0],"split_type":[0,0,0,0,0,0,0,0,0,0,0,0,0,0,0,0,0],"sum_hessian":[1.9755943E2,1.9097295E2,6.5864825E0,1.47508E2,4.3464954E1,1.181071E2,2.9400898E1,1.1116403E1,3.2348553E1,1.05882225E2,1.222487E1,1.5881486E1,1.3519412E1,5.0222807E0,6.094122E0,3.1052567E1,1.2959839E0],"tree_param":{"num_deleted":"0","num_feature":"57","num_nodes":"17","size_leaf_vector":"0"}},{"base_weights":[-1.9191213E-2,2.0524815E-2,-9.097557E-1,-1.5001398E-2,1.043394E0,1.6139017E-2,-1.0551392E0,1.3246775E-1,1.2222706E0,4.9180117E-2,-9.349404E-1],"categories":[],"categories_nodes":[],"categories_segments":[],"categories_sizes":[],"default_left":[1,1,0,1,1,1,0,0,0,0,0],"id":19,"left_children":[1,3,-1,5,7,9,-1,-1,-1,-1,-1],"loss_changes":[6.754547E0,6.676149E0,0E0,5.786491E0,8.428774E-1,5.511687E0,0E0,0E0,0E0,0E0,0E0],"parents":[2147483647,0,0,1,1,3,3,4,4,5,5],"right_children":[2,4,-1,6,8,10,-1,-1,-1,-1,-1],"split_conditions":[2.05E-1,7.95E-1,-2.7292672E-1,3.1E-1,1.3E1,4.45E-1,-3.1654176E-1,3.9740324E-2,3.666812E-1,1.47540355E-2,-2.8048214E-1],"split_indices":[26,5,0,47,55,43,0,0,0,0,0],"split_type":[0,0,0,0,0,0,0,0,0,0,0],"sum_hessian":[1.8944203E2,1.822895E2,7.152515E0,1.7712302E2,5.166489E0,1.7293019E2,4.192828E0,1.1336992E0,4.03279E0,1.6804065E2,4.8895483E0],"tree_param":{"num_deleted":"0","num_feature":"57","num_nodes":"11","size_leaf_vector":"0"}},{"base_weights":[-1.8084785E-2,1.740701E-2,-8.179865E-1,-2.251813E-2,8.24705E-1,-9.094652E-1,-9.196987E-2,-7.7780694E-2,5.4134786E-1,1.085655E0,-5.081158E-1,3.380696E-2,-4.1578215E-1,-2.1498019E-1,9.2528564E-1],"categories":[],"categories_nodes":[],"categories_segments":[],"categories_sizes":[],"default_left":[1,1,1,1,1,0,0,1,1,0,0,0,0,0,0],"id":20,"left_children":[1,3,5,7,9,-1,-1,11,13,-1,-1,-1,-1,-1,-1],"loss_changes":[5.315259E0,5.8127604E0,4.446044E-1,5.410154E0,3.5072718E0,0E0,0E0,5.964548E0,4.700495E0,0E0,0E0,0E0,0E0,0E0,0E0],"parents":[2147483647,0,0,1,1,2,2,3,3,4,4,7,7,8,8],"right_children":[2,4,6,8,10,-1,-1,12,14,-1,-1,-1,-1,-1,-1],"split_conditions":[5E-3,1.55E-1,1.105E0,2.35E-1,1.085E0,-2.7283958E-1,-2.7590962E-2,3.05E-1,1.52E0,3.256965E-1,-1.5243475E-1,1.0142089E-2,-1.2473465E-1,-6.449406E-2,2.7758572E-1],"split_indices":[26,19,11,16,11,0,0,2,18,0,0,0,0,0,0],"split_type":[0,0,0,0,0,0,0,0,0,0,0,0,0,0,0],"sum_hessian":[1.8572174E2,1.78768E2,6.9537325E0,1.7126991E2,7.498093E0,5.9511986E0,1.002534E0,1.5676772E2,1.4502205E1,6.4255037E0,1.0725894E0,1.185347E2,3.8233013E1,5.031197E0,9.471007E0],"tree_param":{"num_deleted":"0","num_feature":"57","num_nodes":"15","size_leaf_vector":"0"}},{"base_weights":[-1.1943814E-2,1.2889762E-2,-1.1565282E0,-2.2065664E-2,1.1307082E0,8.349802E-3,-9.021022E-1,-4.5025513E-2,5.415404E-1],"categories":[],"categories_nodes":[],"categories_segments":[],"categories_sizes":[],"default_left":[1,1,0,1,0,1,0,0,0],"id":21,"left_children":[1,3,-1,5,-1,7,-1,-1,-1],"loss_changes":[5.2174606E0,7.063518E0,0E0,4.709209E0,0E0,4.8845496E0,0E0,0E0,0E0],"parents":[2147483647,0,0,1,1,3,3,5,5],"right_children":[2,4,-1,6,-1,8,-1,-1,-1],"split_conditions":[7.335E-1,1.14999995E-1,-3.469585E-1,4.5499998E-1,3.3921248E-1,1.025E0,-2.7063066E-1,-1.3507654E-2,1.6246212E-1],"split_indices":[48,21,0,41,0,4,0,0,0],"split_type":[0,0,0,0,0,0,0,0,0],"sum_hessian":[1.8203304E2,1.7913515E2,2.8978832E0,1.746538E2,4.4813585E0,1.6977655E2,4.8772364E0,1.5515976E2,1.4616793E1],"tree_param":{"num_deleted":"0","num_feature":"57","num_nodes":"9","size_leaf_vector":"0"}},{"base_weights":[-9.525738E-3,4.1852888E-2,-5.0077444E-1,7.966392E-2,-6.986216E-1,-6.445069E-1,5.819456E-1,1.092681E-1,-8.6202335E-1,-1.1518259E0,1.0657537E0,-7.67118E-1,4.1964564E-1,1.7484832E-1,-3.3694556E-1,-8.8736415E-1,4.1533285E-1],"categories":[],"categories_nodes":[],"categories_segments":[],"categories_sizes":[],"default_left":[1,1,1,1,1,1,0,1,0,0,0,1,0,0,0,0,0],"id":22,"left_children":[1,3,5,7,9,11,-1,13,-1,-1,-1,15,-1,-1,-1,-1,-1],"loss_changes":[4.571502E0,4.651404E0,3.0437021E0,4.472918E0,7.686057E0,2.359055E0,0E0,4.541045E0,0E0,0E0,0E0,2.4094143E0,0E0,0E0,0E0,0E0,0E0],"parents":[2147483647,0,0,1,1,2,2,3,3,4,4,5,5,7,7,11,11],"right_children":[2,4,6,8,10,12,-1,14,-1,-1,-1,16,-1,-1,-1,-1,-1],"split_conditions":[1.7500001E-1,2.545E0,2.25E-1,4.45E-1,4.525E0,6.5E-2,1.7458369E-1,5.15E-1,-2.5860703E-1,-3.455478E-1,3.197261E-1,5E-1,1.258937E-1,5.2454498E-2,-1.0108367E-1,-2.6620924E-1,1.2459986E-1],"split_indices":[36,11,1,43,18,6,0,44,0,0,0,5,0,0,0,0,0],"split_type":[0,0,0,0,0,0,0,0,0,0,0,0,0,0,0,0,0],"sum_hessian":[1.792932E2,1.6314502E2,1.6148176E1,1.560681E2,7.0769286E0,1.4613014E1,1.5351624E0,1.5216829E2,3.8998075E0,5.9068484E0,1.1700801E0,1.3353553E1,1.2594613E0,1.3319998E2,1.8968307E1,1.23474655E1,1.0060875E0],"tree_param":{"num_deleted":"0","num_feature":"57","num_nodes":"17","size_leaf_vector":"0"}},{"base_weights":[-1.0837973E-2,-4.165826E-2,7.7320635E-1,-6.6275604E-2,8.663651E-1,-1.4249311E-1,9.8652524E-1,-1.0368379E-1,6.375782E-1,2.4240091E-1,1.0249234E0,-6.571421E-2,-9.9289083E-1,8.911257E-1,-3.8316736E-1],"categories":[],"categories_nodes":[],"categories_segments":[],"categories_sizes":[],"default_left":[1,1,1,1,1,0,0,1,1,0,0,0,0,0,0],"id":23,"left_children":[1,3,5,7,9,-1,-1,11,13,-1,-1,-1,-1,-1,-1],"loss_changes":[4.3104396E0,3.8864818E0,1.4585972E0,4.481794E0,2.0591998E-1,0E0,0E0,5.3402815E0,2.568038E0,0E0,0E0,0E0,0E0,0E0,0E0],"parents":[2147483647,0,0,1,1,2,2,3,3,4,4,7,7,8,8],"right_children":[2,4,6,8,10,-1,-1,12,14,-1,-1,-1,-1,-1,-1],"split_conditions":[5.15E-1,2.96E0,9.5E0,5.75E0,1.3499999E0,-4.2747937E-2,2.959576E-1,2.545E0,1.03E0,7.2720274E-2,3.0747706E-1,-1.9714264E-2,-2.9786727E-1,2.673377E-1,-1.1495021E-1],"split_indices":[22,15,55,18,54,0,0,11,44,0,0,0,0,0,0],"split_type":[0,0,0,0,0,0,0,0,0,0,0,0,0,0,0],"sum_hessian":[1.7604626E2,1.702988E2,5.747471E0,1.6670624E2,3.592548E0,1.1486703E0,4.5988E0,1.5910298E2,7.6032605E0,1.2403321E0,2.3522158E0,1.5361734E2,5.4856353E0,6.1921506E0,1.4111099E0],"tree_param":{"num_deleted":"0","num_feature":"57","num_nodes":"15","size_leaf_vector":"0"}},{"base_weights":[-4.706281E-3,2.2879934E-2,-8.427575E-1,4.7651064E-2,-8.937923E-1,-9.4666505E-1,-1.8337022E-1,7.803822E-2,-7.359429E-1,4.259404E-2,8.7870187E-1,-1.0941957E0,3.3610573E-1],"categories":[],"categories_nodes":[],"categories_segments":[],"categories_sizes":[],"default_left":[1,1,1,1,0,0,0,1,1,0,0,0,0],"id":24,"left_children":[1,3,5,7,-1,-1,-1,9,11,-1,-1,-1,-1],"loss_changes":[4.0522842E0,3.8996503E0,2.0911908E-1,4.018236E0,0E0,0E0,0E0,4.532604E0,2.789552E0,0E0,0E0,0E0,0E0],"parents":[2147483647,0,0,1,1,2,2,3,3,7,7,8,8],"right_children":[2,4,6,8,-1,-1,-1,10,12,-1,-1,-1,-1],"split_conditions":[1.25E-1,1E-2,2.825E-1,6.29E-1,-2.681377E-1,-2.8399953E-1,-5.5011068E-2,8.35E-1,9.865E-1,1.2778213E-2,2.6361057E-1,-3.2825872E-1,1.00831725E-1],"split_indices":[28,40,49,49,0,0,0,7,49,0,0,0,0],"split_type":[0,0,0,0,0,0,0,0,0,0,0,0,0],"sum_hessian":[1.7344789E2,1.6886214E2,4.5857525E0,1.6534213E2,3.520004E0,3.5851276E0,1.0006251E0,1.6003645E2,5.305678E0,1.5426076E2,5.775694E0,3.961261E0,1.3444167E0],"tree_param":{"num_deleted":"0","num_feature":"57","num_nodes":"13","size_leaf_vector":"0"}},{"base_weights":[-7.849969E-3,2.0828087E-2,-7.600947E-1,-8.69798E-3,8.358872E-1,-8.677114E-1,-9.270139E-2,7.573641E-2,-4.0253764E-1,2.903548E-1,9.271047E-1,-2.2626825E-2,5.0611794E-1,-7.4360263E-1,7.4635607E-1],"categories":[],"categories_nodes":[],"categories_segments":[],"categories_sizes":[],"default_left":[1,1,1,1,1,0,0,1,1,0,0,0,0,0,0],"id":25,"left_children":[1,3,5,7,9,-1,-1,11,13,-1,-1,-1,-1,-1,-1],"loss_changes":[3.7346134E0,4.026807E0,3.7614632E-1,5.4234085E0,2.1887302E-2,0E0,0E0,5.700542E0,1.1835802E1,0E0,0E0,0E0,0E0,0E0,0E0],"parents":[2147483647,0,0,1,1,2,2,3,3,4,4,7,7,8,8],"right_children":[2,4,6,8,10,-1,-1,12,14,-1,-1,-1,-1,-1,-1],"split_conditions":[5E-3,2.4999999E-2,3.45E-1,1.7500001E-1,1.95E-1,-2.6031345E-1,-2.7810419E-2,2.65E-1,3.75E-1,8.710644E-2,2.7813143E-1,-6.7880475E-3,1.5183538E-1,-2.230808E-1,2.2390683E-1],"split_indices":[26,14,2,17,2,0,0,15,1,0,0,0,0,0,0],"split_type":[0,0,0,0,0,0,0,0,0,0,0,0,0,0,0],"sum_hessian":[1.7138199E2,1.6602489E2,5.3571057E0,1.6117552E2,4.849364E0,4.3547544E0,1.0023514E0,1.3338673E2,2.7788782E1,1.2939452E0,3.555419E0,1.09343765E2,2.4042974E1,2.1699694E1,6.089088E0],"tree_param":{"num_deleted":"0","num_feature":"57","num_nodes":"15","size_leaf_vector":"0"}},{"base_weights":[-3.2979476E-3,-2.949243E-2,8.36293E-1,-7.954341E-3,-1.0000231E0,-4.648443E-3,1.0458183E0,-3.5899688E-2,9.496307E-1,-6.622528E-2,6.815613E-1],"categories":[],"categories_nodes":[],"categories_segments":[],"categories_sizes":[],"default_left":[1,1,1,1,0,0,0,1,0,0,0],"id":26,"left_children":[1,3,5,7,-1,-1,-1,9,-1,-1,-1],"loss_changes":[3.7504115E0,3.4463112E0,9.139674E-1,4.387137E0,0E0,0E0,0E0,3.5050156E0,0E0,0E0,0E0],"parents":[2147483647,0,0,1,1,2,2,3,3,7,7],"right_children":[2,4,6,8,-1,-1,-1,10,-1,-1,-1],"split_conditions":[8.3E-1,7.335E-1,2.1075E0,1.14999995E-1,-3.0000696E-1,-1.3945329E-3,3.137455E-1,2.55E-1,2.8488922E-1,-1.9867586E-2,2.044684E-1],"split_indices":[5,48,54,21,0,0,0,13,0,0,0],"split_type":[0,0,0,0,0,0,0,0,0,0,0],"sum_hessian":[1.6840874E2,1.6424919E2,4.159554E0,1.616696E2,2.5795882E0,1.0246959E0,3.1348584E0,1.5802057E2,3.6490276E0,1.5248312E2,5.5374517E0],"tree_param":{"num_deleted":"0","num_feature":"57","num_nodes":"11","size_leaf_vector":"0"}},{"base_weights":[9.677495E-4,2.7070267E-2,-8.009671E-1,3.6351043E-3,1.2057347E0,-8.843023E-1,-2.3969132E-1,2.7231049E-2,-8.845231E-1,3.1999105E-1,1.5379395E0,-5.484469E-3,6.7789507E-1],"categories":[],"categories_nodes":[],"categories_segments":[],"categories_sizes":[],"default_left":[1,1,1,1,1,0,0,1,0,0,0,0,0],"id":27,"left_children":[1,3,5,7,9,-1,-1,11,-1,-1,-1,-1,-1],"loss_changes":[3.5355406E0,4.512995E0,3.7083387E-2,3.40562E0,4.4512844E-1,0E0,0E0,3.3702404E0,0E0,0E0,0E0,0E0,0E0],"parents":[2147483647,0,0,1,1,2,2,3,3,4,4,7,7],"right_children":[2,4,6,8,10,-1,-1,12,-1,-1,-1,-1,-1],"split_conditions":[6.55E-1,4.65E-1,6.4E-1,1.25E-1,2.15E-1,-2.652907E-1,-7.19074E-2,5.5E-2,-2.6535693E-1,9.599732E-2,4.6138188E-1,-1.6453407E-3,2.0336853E-1],"split_indices":[38,38,15,28,27,0,0,19,0,0,0,0,0],"split_type":[0,0,0,0,0,0,0,0,0,0,0,0,0],"sum_hessian":[1.6686598E2,1.625416E2,4.324392E0,1.6035634E2,2.1852508E0,3.2642164E0,1.0601754E0,1.5715062E2,3.205724E0,1.1315311E0,1.0537196E0,1.5057143E2,6.5791907E0],"tree_param":{"num_deleted":"0","num_feature":"57","num_nodes":"13","size_leaf_vector":"0"}},{"base_weights":[8.8636053E-4,2.5894245E-2,-8.079807E-1,4.788285E-2,-8.139649E-1,-1.2933751E0,-1.6324908E-1,9.273178E-2,-3.775761E-1,-5.409429E-1,3.1782016E-1,1.7701413E-1,-2.6934966E-1,-7.579394E-1,1.1005105E0],"categories":[],"categories_nodes":[],"categories_segments":[],"categories_sizes":[],"default_left":[1,1,1,1,0,0,1,1,1,0,0,0,0,0,0],"id":28,"left_children":[1,3,5,7,-1,-1,9,11,13,-1,-1,-1,-1,-1,-1],"loss_changes":[3.3809776E0,3.032456E0,1.3575609E0,3.067137E0,0E0,0E0,7.710512E-1,4.459056E0,9.464304E0,0E0,0E0,0E0,0E0,0E0,0E0],"parents":[2147483647,0,0,1,1,2,2,3,3,6,6,7,7,8,8],"right_children":[2,4,6,8,-1,-1,10,12,14,-1,-1,-1,-1,-1,-1],"split_conditions":[1.14999995E-1,4.5499998E-1,5.7E-2,8.5E-2,-2.4418949E-1,-3.8801256E-1,7E-2,1.9049999E-1,1.4E-1,-1.6228288E-1,9.5346056E-2,5.310424E-2,-8.08049E-2,-2.2738183E-1,3.3015317E-1],"split_indices":[42,41,49,45,0,0,15,49,27,0,0,0,0,0,0],"split_type":[0,0,0,0,0,0,0,0,0,0,0,0,0,0,0],"sum_hessian":[1.6510867E2,1.6109602E2,4.0126467E0,1.5790486E2,3.1911674E0,1.7152395E0,2.2974074E0,1.435544E2,1.4350465E1,1.2172605E0,1.0801469E0,1.1686308E2,2.669131E1,1.1800898E1,2.5495675E0],"tree_param":{"num_deleted":"0","num_feature":"57","num_nodes":"15","size_leaf_vector":"0"}},{"base_weights":[-5.3658197E-3,-4.8581474E-2,4.1682142E-1,-4.4791487E-1,1.6271275E-2,2.1676995E-2,8.4110034E-1,1.552771E-1,-8.4022546E-1,1.0798257E-1,-3.1873083E-1,-2.7407977E-1,7.258211E-1,9.5636064E-1,9.798837E-2,-9.051891E-2,5.889561E-1,-9.211741E-1,-7.85259E-3,1.890224E-1,-4.3110672E-1,-8.1456095E-1,3.2139766E-1,-2.346923E-2,-8.635226E-1,2.2172163E-1,1.0571998E0],"categories":[],"categories_nodes":[],"categories_segments":[],"categories_sizes":[],"default_left":[1,1,1,1,1,1,1,1,1,1,1,1,0,1,0,0,0,0,0,0,0,0,0,0,0,0,0],"id":29,"left_children":[1,3,5,7,9,11,13,15,17,19,21,23,-1,25,-1,-1,-1,-1,-1,-1,-1,-1,-1,-1,-1,-1,-1],"loss_changes":[3.001749E0,3.8695745E0,2.5432134E0,5.069391E0,4.0058618E0,2.0601664E0,5.3506565E-1,1.0200351E0,8.553705E-1,4.5476413E0,9.160007E0,1.016679E0,0E0,2.2794914E-1,0E0,0E0,0E0,0E0,0E0,0E0,0E0,0E0,0E0,0E0,0E0,0E0,0E0],"parents":[2147483647,0,0,1,1,2,2,3,3,4,4,5,5,6,6,7,7,8,8,9,9,10,10,11,11,13,13],"right_children":[2,4,6,8,10,12,14,16,18,20,22,24,-1,26,-1,-1,-1,-1,-1,-1,-1,-1,-1,-1,-1,-1,-1],"split_conditions":[8.1799996E-1,1.55E1,2.47E0,1.1055E0,4.25E1,7.35E-1,1.185E0,4.65E0,8.15E-1,1.55E-1,1E-2,1.88E0,2.1774633E-1,3.395E0,2.9396512E-2,-2.7155673E-2,1.7668684E-1,-2.7635226E-1,-2.355777E-3,5.6706723E-2,-1.2933202E-1,-2.443683E-1,9.6419305E-2,-7.0407693E-3,-2.5905678E-1,6.6516496E-2,3.1715995E-1],"split_indices":[51,56,18,54,55,2,44,18,15,0,4,18,0,18,0,0,0,0,0,0,0,0,0,0,0,0,0],"split_type":[0,0,0,0,0,0,0,0,0,0,0,0,0,0,0,0,0,0,0,0,0,0,0,0,0,0,0],"sum_hessian":[1.6241371E2,1.4813531E2,1.42784E1,1.9871166E1,1.2826414E2,7.937265E0,6.3411355E0,8.068993E0,1.1802175E1,1.0122902E2,2.7035126E1,6.0196395E0,1.9176257E0,5.2412286E0,1.0999069E0,5.65512E0,2.4138725E0,1.0658906E1,1.1432688E0,8.856469E1,1.2664326E1,1.5081115E1,1.1954011E1,4.9534297E0,1.0662098E0,1.0186771E0,4.2225513E0],"tree_param":{"num_deleted":"0","num_feature":"57","num_nodes":"27","size_leaf_vector":"0"}},{"base_weights":[-5.3088255E-3,1.8903725E-2,-7.3549056E-1,3.9724335E-2,-8.624159E-1,-8.0785435E-1,-2.2821803E-1,-1.2363469E-3,4.7885165E-1,7.787653E-2,-5.0133306E-1,6.6171855E-1,-2.4716362E-1],"categories":[],"categories_nodes":[],"categories_segments":[],"categories_sizes":[],"default_left":[1,1,1,1,0,0,0,1,1,0,0,0,0],"id":30,"left_children":[1,3,5,7,-1,-1,-1,9,11,-1,-1,-1,-1],"loss_changes":[2.8480282E0,2.8992763E0,5.4183006E-3,2.7613652E0,0E0,0E0,0E0,5.632991E0,1.9024973E0,0E0,0E0,0E0,0E0],"parents":[2147483647,0,0,1,1,2,2,3,3,7,7,8,8],"right_children":[2,4,6,8,-1,-1,-1,10,12,-1,-1,-1,-1],"split_conditions":[5E-3,3.1E-1,1.06E-1,4.24E2,-2.5872478E-1,-2.4235632E-1,-6.846541E-2,4.25E1,1.2E-1,2.336296E-2,-1.5039992E-1,1.9851558E-1,-7.414909E-2],"split_indices":[26,47,51,56,0,0,0,55,24,0,0,0,0],"split_type":[0,0,0,0,0,0,0,0,0,0,0,0,0],"sum_hessian":[1.5930515E2,1.5513504E2,4.1701083E0,1.5248755E2,2.647494E0,3.1309276E0,1.0391808E0,1.4038954E2,1.2097997E1,1.2194303E2,1.844652E1,9.734625E0,2.363372E0],"tree_param":{"num_deleted":"0","num_feature":"57","num_nodes":"13","size_leaf_vector":"0"}},{"base_weights":[-7.534522E-3,-3.5439022E-2,6.0473406E-1,-9.892248E-3,-7.4842507E-1,-4.0372118E-1,8.553036E-1,3.8931016E-2,-3.8485098E-1,-9.641901E-1,8.616378E-2,2.6159793E-1,9.315569E-1,2.7974236E-1,-8.9527786E-2,-9.954533E-1,3.1167343E-1],"categories":[],"categories_nodes":[],"categories_segments":[],"categories_sizes":[],"default_left":[1,1,1,1,1,0,1,1,1,0,0,0,0,0,0,0,0],"id":31,"left_children":[1,3,5,7,9,-1,11,13,15,-1,-1,-1,-1,-1,-1,-1,-1],"loss_changes":[2.7348664E0,2.7765205E0,2.108596E0,2.7347665E0,1.0327175E0,0E0,2.386427E-2,4.1194973E0,7.6288548E0,0E0,0E0,0E0,0E0,0E0,0E0,0E0,0E0],"parents":[2147483647,0,0,1,1,2,2,3,3,4,4,6,6,7,7,8,8],"right_children":[2,4,6,8,10,-1,12,14,16,-1,-1,-1,-1,-1,-1,-1,-1],"split_conditions":[5.95E-1,6E-1,9.5E0,1.435E0,2.9515E0,-1.2111636E-1,1.9879999E0,4.35E-1,2.045E0,-2.8925705E-1,2.5849136E-2,7.847938E-2,2.7946708E-1,8.3922714E-2,-2.6858337E-2,-2.98636E-1,9.350203E-2],"split_indices":[5,32,55,11,54,0,54,18,18,0,0,0,0,0,0,0,0],"split_type":[0,0,0,0,0,0,0,0,0,0,0,0,0,0,0,0,0],"sum_hessian":[1.5781929E2,1.5184116E2,5.978132E0,1.475676E2,4.273573E0,1.0681173E0,4.910014E0,1.3135948E2,1.6208107E1,3.2723014E0,1.0012712E0,1.0631336E0,3.8468807E0,4.5286625E1,8.607286E1,8.40807E0,7.800037E0],"tree_param":{"num_deleted":"0","num_feature":"57","num_nodes":"17","size_leaf_vector":"0"}},{"base_weights":[-8.075823E-3,-2.2543122E-1,6.994952E-2,-3.2448933E-1,6.1218965E-1,1.300732E-1,-4.642786E-1,-4.0369242E-1,8.301608E-1,-2.1012421E-1,9.1195947E-1,2.622734E-1,-1.7014278E-1,-6.1600053E-1,5.337265E-1,-5.063336E-1,4.1893524E-1,3.1262428E-1,-8.4951E-1,-4.1674447E-1,3.6596122E-1,-8.2637846E-1,3.7962508E-1],"categories":[],"categories_nodes":[],"categories_segments":[],"categories_sizes":[],"default_left":[1,1,1,1,1,1,1,1,0,0,0,1,1,1,0,0,0,0,0,0,0,0,0],"id":32,"left_children":[1,3,5,7,9,11,13,15,-1,-1,-1,17,19,21,-1,-1,-1,-1,-1,-1,-1,-1,-1],"loss_changes":[2.6886015E0,3.6725714E0,3.8099036E0,3.8188853E0,1.3684791E0,4.240019E0,2.1499884E0,3.2789345E0,0E0,0E0,0E0,4.3959417E0,4.5051994E0,2.5977736E0,0E0,0E0,0E0,0E0,0E0,0E0,0E0,0E0,0E0],"parents":[2147483647,0,0,1,1,2,2,3,3,4,4,5,5,6,6,7,7,11,11,12,12,13,13],"right_children":[2,4,6,8,10,12,14,16,-1,-1,-1,18,20,22,-1,-1,-1,-1,-1,-1,-1,-1,-1],"split_conditions":[2.95E1,1.3255E0,6.0000002E-2,4.5E-1,6.5E0,3.05E-1,2.74E-1,1.05E1,2.4904825E-1,-6.303727E-2,2.7358785E-1,1.74E0,3.9499998E-1,3.45E-1,1.6011795E-1,-1.5190008E-1,1.2568058E-1,9.378729E-2,-2.54853E-1,-1.2502335E-1,1.0978837E-1,-2.4791355E-1,1.13887526E-1],"split_indices":[56,51,25,6,56,2,51,55,0,0,0,17,4,44,0,0,0,0,0,0,0,0,0],"split_type":[0,0,0,0,0,0,0,0,0,0,0,0,0,0,0,0,0,0,0,0,0,0,0],"sum_hessian":[1.5660342E2,4.0868034E1,1.1573539E2,3.7093872E1,3.7741625E0,1.0470778E2,1.1027616E1,3.5321384E1,1.7724897E0,1.088177E0,2.6859853E0,7.27838E1,3.1923979E1,9.904631E0,1.1229854E0,3.1744982E1,3.576402E0,7.0318016E1,2.4657817E0,2.2018406E1,9.905573E0,8.317182E0,1.5874486E0],"tree_param":{"num_deleted":"0","num_feature":"57","num_nodes":"23","size_leaf_vector":"0"}},{"base_weights":[-5.8718086E-3,1.6229887E-2,-7.6032317E-1,-1.2098433E-2,6.1928165E-1,-5.8738552E-2,-1.1562674E0,-3.905421E-2,6.3386494E-1,-1.4608887E-1,8.083944E-1,-6.275983E-2,7.395365E-1,1.1343926E0,-5.940431E-1,2.4310872E-1,8.904019E-1],"categories":[],"categories_nodes":[],"categories_segments":[],"categories_sizes":[],"default_left":[1,1,1,1,1,0,0,1,1,0,1,0,0,0,0,0,0],"id":33,"left_children":[1,3,5,7,9,-1,-1,11,13,-1,15,-1,-1,-1,-1,-1,-1],"loss_changes":[2.563145E0,2.563179E0,1.147341E0,2.5298645E0,1.0923977E0,0E0,0E0,2.6128144E0,4.251558E0,0E0,4.085231E-2,0E0,0E0,0E0,0E0,0E0,0E0],"parents":[2147483647,0,0,1,1,2,2,3,3,4,4,7,7,8,8,10,10],"right_children":[2,4,6,8,10,-1,-1,12,14,-1,16,-1,-1,-1,-1,-1,-1],"split_conditions":[1.14999995E-1,3.35E-1,2.5E-1,5.25E-1,9.5E0,-1.7621566E-2,-3.4688023E-1,1.255E0,1.55E-1,-4.3826662E-2,3.9499998E-1,-1.882795E-2,2.2186096E-1,3.403178E-1,-1.7821293E-1,7.2932616E-2,2.6712057E-1],"split_indices":[42,22,11,35,55,0,0,23,24,0,22,0,0,0,0,0,0],"split_type":[0,0,0,0,0,0,0,0,0,0,0,0,0,0,0,0,0],"sum_hessian":[1.5197499E2,1.4860022E2,3.374764E0,1.428689E2,5.73132E0,1.6317577E0,1.7430062E0,1.3804776E2,4.821134E0,1.1806278E0,4.550692E0,1.3486107E2,3.186699E0,3.4791138E0,1.3420203E0,1.0788116E0,3.4718807E0],"tree_param":{"num_deleted":"0","num_feature":"57","num_nodes":"17","size_leaf_vector":"0"}},{"base_weights":[-1.7468914E-3,1.9046545E-2,-7.8233856E-1,3.767453E-2,-8.7495965E-1,9.4325375E-4,6.99478E-1,4.8015937E-2,-4.767289E-1,-4.298653E-1,9.838949E-1],"categories":[],"categories_nodes":[],"categories_segments":[],"categories_sizes":[],"default_left":[1,1,0,1,0,1,1,0,0,0,0],"id":34,"left_children":[1,3,-1,5,-1,7,9,-1,-1,-1,-1],"loss_changes":[2.4685848E0,2.5014303E0,0E0,3.5522797E0,0E0,3.1590052E0,2.8911169E0,0E0,0E0,0E0,0E0],"parents":[2147483647,0,0,1,1,3,3,5,5,6,6],"right_children":[2,4,-1,6,-1,8,10,-1,-1,-1,-1],"split_conditions":[4.45E-1,7.335E-1,-2.3470157E-1,1.46E-1,-2.6248792E-1,8.5E-2,1.05E1,1.4404782E-2,-1.4301868E-1,-1.289596E-1,2.951685E-1],"split_indices":[43,48,0,48,0,36,55,0,0,0,0],"split_type":[0,0,0,0,0,0,0,0,0,0,0],"sum_hessian":[1.5017097E2,1.472248E2,2.946181E0,1.4515807E2,2.0667315E0,1.3847394E2,6.6841264E0,1.26870804E2,1.1603132E1,1.2418163E0,5.4423103E0],"tree_param":{"num_deleted":"0","num_feature":"57","num_nodes":"11","size_leaf_vector":"0"}},{"base_weights":[-4.6919086E-3,4.2071167E-2,-3.09678E-1,6.380228E-2,-8.577838E-1,-4.77799E-1,5.6573784E-1,3.126086E-2,9.588947E-1,-6.889523E-1,3.145763E-1,-7.53969E-2,9.088435E-1,1.0697763E-1,-2.9677954E-1,1.1323893E0,2.0726769E-1,-8.2622546E-1,5.300975E-1,-2.794943E-1,5.8449465E-1],"categories":[],"categories_nodes":[],"categories_segments":[],"categories_sizes":[],"default_left":[1,1,1,1,0,1,1,1,1,1,1,0,0,0,0,0,0,0,0,0,0],"id":35,"left_children":[1,3,5,7,-1,9,11,13,15,17,19,-1,-1,-1,-1,-1,-1,-1,-1,-1,-1],"loss_changes":[2.1446648E0,2.6060889E0,3.2123094E0,3.707857E0,0E0,3.1131382E0,8.7767506E-1,3.1329982E0,3.4793186E-1,2.777822E0,8.575251E-1,0E0,0E0,0E0,0E0,0E0,0E0,0E0,0E0,0E0,0E0],"parents":[2147483647,0,0,1,1,2,2,3,3,5,5,6,6,7,7,8,8,9,9,10,10],"right_children":[2,4,6,8,-1,10,12,14,16,18,20,-1,-1,-1,-1,-1,-1,-1,-1,-1,-1],"split_conditions":[4.75E-1,6.6E0,7.25E-1,4.375E0,-2.5733516E-1,4.45E-1,1.5350001E0,4.95E-1,2.95E-1,3.6E-1,5.45E-1,-2.2619072E-2,2.7265307E-1,3.209329E-2,-8.9033864E-2,3.397168E-1,6.2180307E-2,-2.4786764E-1,1.5902925E-1,-8.384829E-2,1.753484E-1],"split_indices":[44,20,15,20,0,4,20,2,23,7,20,0,0,0,0,0,0,0,0,0,0],"split_type":[0,0,0,0,0,0,0,0,0,0,0,0,0,0,0,0,0,0,0,0,0],"sum_hessian":[1.4846173E2,1.2947203E2,1.8989704E1,1.2732625E2,2.1457767E0,1.631136E1,2.6783447E0,1.2385826E2,3.467988E0,1.2982331E1,3.3290286E0,1.2056648E0,1.47268E0,1.0117858E2,2.2679682E1,2.4060311E0,1.061957E0,1.1958017E1,1.024314E0,1.0289367E0,2.3000917E0],"tree_param":{"num_deleted":"0","num_feature":"57","num_nodes":"21","size_leaf_vector":"0"}},{"base_weights":[-1.7884868E-3,2.7068548E-2,-4.780316E-1,1.4803617E-3,7.7394575E-1,-6.719873E-1,3.6351752E-1,-3.9153427E-2,4.511226E-1,1.1016955E-1,9.687913E-1,-8.6882025E-1,2.725027E-1,1.3963171E-2,-5.308665E-1,6.833948E-1,-3.326493E-1],"categories":[],"categories_nodes":[],"categories_segments":[],"categories_sizes":[],"default_left":[1,1,1,1,1,1,0,1,1,0,0,0,0,0,0,0,0],"id":36,"left_children":[1,3,5,7,9,11,-1,13,15,-1,-1,-1,-1,-1,-1,-1,-1],"loss_changes":[2.0514145E0,2.6897316E0,1.6362141E0,2.5232775E0,4.9624372E-1,1.5904448E0,0E0,3.3163915E0,2.3110259E0,0E0,0E0,0E0,0E0,0E0,0E0,0E0,0E0],"parents":[2147483647,0,0,1,1,2,2,3,3,4,4,5,5,7,7,8,8],"right_children":[2,4,6,8,10,12,-1,14,16,-1,-1,-1,-1,-1,-1,-1,-1],"split_conditions":[7.1500003E-1,5.25E-1,3.45E-1,2.35E-1,3.75E-1,8.2E-1,1.0905526E-1,2.05E-1,2.01E-1,3.305087E-2,2.906374E-1,-2.6064608E-1,8.175081E-2,4.1889516E-3,-1.5925996E-1,2.0501845E-1,-9.979479E-2],"split_indices":[24,35,44,16,11,4,0,0,49,0,0,0,0,0,0,0,0],"split_type":[0,0,0,0,0,0,0,0,0,0,0,0,0,0,0,0,0],"sum_hessian":[1.4732861E2,1.3980081E2,7.527798E0,1.3613866E2,3.6621597E0,6.2815485E0,1.2462497E0,1.2569282E2,1.044583E1,1.1862857E0,2.475874E0,5.2645307E0,1.0170177E0,1.1431564E2,1.137718E1,8.156659E0,2.289171E0],"tree_param":{"num_deleted":"0","num_feature":"57","num_nodes":"17","size_leaf_vector":"0"}},{"base_weights":[-3.129184E-4,2.010246E-2,-6.8248624E-1,-2.404171E-3,6.646951E-1,4.7357734E-2,-3.9089972E-1,7.516912E-2,-7.14964E-1,1.9078632E-1,-1.1719567E0],"categories":[],"categories_nodes":[],"categories_segments":[],"categories_sizes":[],"default_left":[1,1,0,1,0,1,1,0,0,0,0],"id":37,"left_children":[1,3,-1,5,-1,7,9,-1,-1,-1,-1],"loss_changes":[2.0562873E0,2.0816112E0,0E0,2.7160068E0,0E0,2.6950312E0,7.470766E0,0E0,0E0,0E0,0E0],"parents":[2147483647,0,0,1,1,3,3,5,5,6,6],"right_children":[2,4,-1,6,-1,8,10,-1,-1,-1,-1],"split_conditions":[5E-3,1.365E2,-2.0474587E-1,5.45E1,1.9940853E-1,3.5E-2,2.85E-1,2.2550737E-2,-2.144892E-1,5.7235897E-2,-3.51587E-1],"split_indices":[26,55,0,55,0,41,17,0,0,0,0],"split_type":[0,0,0,0,0,0,0,0,0,0,0],"sum_hessian":[1.4566425E2,1.4237396E2,3.290289E0,1.385332E2,3.8407626E0,1.23581856E2,1.4951344E1,1.2010165E2,3.480212E0,9.002521E0,5.948824E0],"tree_param":{"num_deleted":"0","num_feature":"57","num_nodes":"11","size_leaf_vector":"0"}},{"base_weights":[-3.3997705E-3,1.3591862E-2,-7.691883E-1,3.0390313E-2,-7.7624595E-1,4.661164E-2,-7.7508074E-1,-5.2325536E-2,2.1305329E-1],"categories":[],"categories_nodes":[],"categories_segments":[],"categories_sizes":[],"default_left":[1,1,0,1,0,1,0,0,0],"id":38,"left_children":[1,3,-1,5,-1,7,-1,-1,-1],"loss_changes":[1.9110775E0,1.9325838E0,0E0,1.8894467E0,0E0,2.3163679E0,0E0,0E0,0E0],"parents":[2147483647,0,0,1,1,3,3,5,5],"right_children":[2,4,-1,6,-1,8,-1,-1,-1],"split_conditions":[1E-2,3.1E-1,-2.3075649E-1,7.335E-1,-2.328738E-1,1.035E2,-2.3252423E-1,-1.5697662E-2,6.391599E-2],"split_indices":[40,47,0,48,0,56,0,0,0],"split_type":[0,0,0,0,0,0,0,0,0],"sum_hessian":[1.4506696E2,1.4287895E2,2.188006E0,1.4084494E2,2.0339992E0,1.38988E2,1.8569387E0,8.760123E1,5.1386784E1],"tree_param":{"num_deleted":"0","num_feature":"57","num_nodes":"9","size_leaf_vector":"0"}},{"base_weights":[-7.522896E-3,1.151623E-2,-6.607919E-1,-8.4811E-3,6.933353E-1,-7.796449E-1,-1.4805715E-1,-2.6344229E-2,7.758961E-1,2.1688549E-1,8.3748573E-1,3.1784087E-1,-6.54063E-2,1.5594666E-1,1.0310576E0],"categories":[],"categories_nodes":[],"categories_segments":[],"categories_sizes":[],"default_left":[1,1,1,1,1,0,0,1,1,0,0,0,0,0,0],"id":39,"left_children":[1,3,5,7,9,-1,-1,11,13,-1,-1,-1,-1,-1,-1],"loss_changes":[1.8013436E0,1.9299428E0,1.3449788E-1,1.9551885E0,9.535074E-2,0E0,0E0,1.8489304E0,3.3077383E-1,0E0,0E0,0E0,0E0,0E0,0E0],"parents":[2147483647,0,0,1,1,2,2,3,3,4,4,7,7,8,8],"right_children":[2,4,6,8,10,-1,-1,12,14,-1,-1,-1,-1,-1,-1],"split_conditions":[6.55E-1,8.3E-1,6.9000006E-1,4.65E-1,1.55E1,-2.3389348E-1,-4.4417147E-2,1.118E0,2.15E-1,6.506565E-2,2.5124574E-1,9.535227E-2,-1.962189E-2,4.6784E-2,3.093173E-1],"split_indices":[38,5,2,38,55,0,0,54,27,0,0,0,0,0,0],"split_type":[0,0,0,0,0,0,0,0,0,0,0,0,0,0,0],"sum_hessian":[1.4321782E2,1.4011658E2,3.1012409E0,1.3708356E2,3.0330148E0,2.0950434E0,1.0061975E0,1.3497607E2,2.1074834E0,1.2862489E0,1.746766E0,1.3029882E1,1.2194619E2,1.0842702E0,1.0232133E0],"tree_param":{"num_deleted":"0","num_feature":"57","num_nodes":"15","size_leaf_vector":"0"}},{"base_weights":[-2.3184756E-3,1.4684949E-2,-7.1701205E-1,3.655763E-2,-5.609468E-1,1.3976907E-2,1.2477841E0,-9.588661E-1,3.799205E-1,5.7447884E-2,-4.6021393E-1,-1.1910896E0,-1.3698846E-1],"categories":[],"categories_nodes":[],"categories_segments":[],"categories_sizes":[],"default_left":[1,1,0,1,1,1,0,1,0,0,0,0,0],"id":40,"left_children":[1,3,-1,5,7,9,-1,11,-1,-1,-1,-1,-1],"loss_changes":[1.7627854E0,1.8061221E0,0E0,3.7451062E0,2.3308825E0,2.8311574E0,0E0,5.955603E-1,0E0,0E0,0E0,0E0,0E0],"parents":[2147483647,0,0,1,1,3,3,4,4,5,5,7,7],"right_children":[2,4,-1,6,8,10,-1,12,-1,-1,-1,-1,-1],"split_conditions":[4.45E-1,6.29E-1,-2.1510363E-1,5.76E-1,1.003E0,8.5E-2,3.7433526E-1,6.7E-1,1.1397616E-1,1.7234366E-2,-1.3806419E-1,-3.573269E-1,-4.109654E-2],"split_indices":[43,49,0,49,49,45,0,51,0,0,0,0,0],"split_type":[0,0,0,0,0,0,0,0,0,0,0,0,0],"sum_hessian":[1.4319205E2,1.408212E2,2.3708537E0,1.365684E2,4.2527933E0,1.35062E2,1.5064019E0,2.9753175E0,1.2774757E0,1.2452514E2,1.0536868E1,1.9695785E0,1.005739E0],"tree_param":{"num_deleted":"0","num_feature":"57","num_nodes":"13","size_leaf_vector":"0"}},{"base_weights":[-4.3933555E-3,1.2500588E-2,-6.9486034E-1,-1.7395504E-1,7.939129E-2,-3.565938E-1,2.1864995E-1,1.0055299E0,3.48822E-2,-4.515907E-1,6.7054033E-1,-1.6631372E-2,1.183628E0,1.3263505E0,4.4838827E-2,-3.2353224E-3,8.321675E-1],"categories":[],"categories_nodes":[],"categories_segments":[],"categories_sizes":[],"default_left":[1,1,0,1,1,1,1,1,1,0,0,0,0,0,0,0,0],"id":41,"left_children":[1,3,-1,5,7,9,11,13,15,-1,-1,-1,-1,-1,-1,-1,-1],"loss_changes":[1.6763613E0,1.7665887E0,0E0,2.761076E0,4.256778E0,2.8317928E0,2.8577647E0,1.400928E0,3.0532432E0,0E0,0E0,0E0,0E0,0E0,0E0,0E0,0E0],"parents":[2147483647,0,0,1,1,3,3,4,4,5,5,6,6,7,7,8,8],"right_children":[2,4,-1,6,8,10,12,14,16,-1,-1,-1,-1,-1,-1,-1,-1],"split_conditions":[1.25E-1,2.95E1,-2.0845811E-1,3.65E0,3.35E1,2.96E0,1.05E1,8.45E-1,2.55E-1,-1.3547722E-1,2.0116211E-1,-4.9894117E-3,3.550884E-1,3.9790514E-1,1.3451649E-2,-9.7059674E-4,2.4965025E-1],"split_indices":[28,56,0,18,56,15,55,11,13,0,0,0,0,0,0,0,0],"split_type":[0,0,0,0,0,0,0,0,0,0,0,0,0,0,0,0,0],"sum_hessian":[1.4196754E2,1.3953537E2,2.4321747E0,3.6418743E1,1.0311663E2,2.4918468E1,1.15002775E1,3.7383358E0,9.9378296E1,2.3321833E1,1.5966352E0,1.0036049E1,1.4642284E0,2.517126E0,1.2212098E0,9.579439E1,3.5839052E0],"tree_param":{"num_deleted":"0","num_feature":"57","num_nodes":"17","size_leaf_vector":"0"}},{"base_weights":[1.753302E-3,1.991798E-2,-6.593669E-1,-3.09933E-3,5.6099784E-1,1.8733438E-2,-1.0396433E0,1.270756E-2,-7.0082605E-1,-1.2293329E-1,7.5287735E-1,3.6508154E-2,-4.571392E-1],"categories":[],"categories_nodes":[],"categories_segments":[],"categories_sizes":[],"default_left":[1,1,1,1,1,0,0,1,0,0,0,0,0],"id":42,"left_children":[1,3,5,7,9,-1,-1,11,-1,-1,-1,-1,-1],"loss_changes":[1.7023588E0,1.7188262E0,9.9698555E-1,1.4784052E0,8.315495E-1,0E0,0E0,1.4846494E0,0E0,0E0,0E0,0E0,0E0],"parents":[2147483647,0,0,1,1,2,2,3,3,4,4,7,7],"right_children":[2,4,6,8,10,-1,-1,12,-1,-1,-1,-1,-1],"split_conditions":[1.14999995E-1,3.35E-1,2.5E-1,4.5499998E-1,9.5E0,5.6200316E-3,-3.11893E-1,3.35E-1,-2.1024783E-1,-3.687999E-2,2.2586322E-1,1.0952447E-2,-1.3714176E-1],"split_indices":[42,22,11,41,55,0,0,32,0,0,0,0,0],"split_type":[0,0,0,0,0,0,0,0,0,0,0,0,0],"sum_hessian":[1.3966289E2,1.3687212E2,2.790772E0,1.3224092E2,4.631201E0,1.3443301E0,1.4464418E0,1.3027142E2,1.9694918E0,1.0933627E0,3.537838E0,1.2486838E2,5.403044E0],"tree_param":{"num_deleted":"0","num_feature":"57","num_nodes":"13","size_leaf_vector":"0"}},{"base_weights":[-2.1360558E-3,-1.4937748E-2,8.7179536E-1,3.082308E-3,-1.0821127E0,-1.9203352E-2,7.371105E-1,-1.5761472E-1,6.290333E-2,9.808991E-1,2.3774146E-5],"categories":[],"categories_nodes":[],"categories_segments":[],"categories_sizes":[],"default_left":[1,1,0,1,0,1,1,0,0,0,0],"id":43,"left_children":[1,3,-1,5,-1,7,9,-1,-1,-1,-1],"loss_changes":[1.574877E0,2.668133E0,0E0,2.2596128E0,0E0,1.5349966E0,7.313514E-1,0E0,0E0,0E0,0E0],"parents":[2147483647,0,0,1,1,3,3,5,5,6,6],"right_children":[2,4,-1,6,-1,8,10,-1,-1,-1,-1],"split_conditions":[2.64E0,1.66E0,2.6153862E-1,3.25E-1,-3.246338E-1,9.5E0,6.35E-1,-4.728442E-2,1.8871E-2,2.9426974E-1,7.1322443E-6],"split_indices":[16,16,0,19,0,55,11,0,0,0,0],"split_type":[0,0,0,0,0,0,0,0,0,0,0],"sum_hessian":[1.3860333E2,1.3757104E2,1.0322875E0,1.3626718E2,1.3038627E0,1.3319705E2,3.0701265E0,4.9251568E1,8.394548E1,2.0585053E0,1.0116212E0],"tree_param":{"num_deleted":"0","num_feature":"57","num_nodes":"11","size_leaf_vector":"0"}},{"base_weights":[3.1002532E-4,2.3495267E-1,-5.080802E-2,1.1781461E-1,1.3088751E0,-2.1293233E-1,7.740605E-2,2.1944386E-1,-7.217497E-1,-8.8002905E-2,-7.2542745E-1,1.2277233E-1,-1.3456427E0,3.1663707E-1,-6.623753E-1,-9.165928E-3,-7.7789456E-1,-1.1196791E0,-6.345827E-2,2.3180647E-1,-3.262682E-1],"categories":[],"categories_nodes":[],"categories_segments":[],"categories_sizes":[],"default_left":[1,1,1,1,0,1,1,1,0,1,1,1,0,0,0,0,0,0,0,0,0],"id":44,"left_children":[1,3,5,7,-1,9,11,13,-1,15,17,19,-1,-1,-1,-1,-1,-1,-1,-1,-1],"loss_changes":[1.6670173E0,2.9732966E0,2.3887634E0,2.16481E0,0E0,3.1799996E0,4.326693E0,2.073255E0,0E0,2.2702935E0,2.4844217E0,3.1790404E0,0E0,0E0,0E0,0E0,0E0,0E0,0E0,0E0,0E0],"parents":[2147483647,0,0,1,1,2,2,3,3,5,5,6,6,7,7,9,9,10,10,11,11],"right_children":[2,4,6,8,-1,10,12,14,-1,16,18,20,-1,-1,-1,-1,-1,-1,-1,-1,-1],"split_conditions":[1.3364999E0,2.09E0,2.2919998E0,1.7500001E-1,3.9266255E-1,9.5E-2,1.735E0,1.5E-2,-2.1652493E-1,9.45E-1,2.9500002E-1,2.9500002E-1,-4.036928E-1,9.4991125E-2,-1.9871259E-1,-2.7497783E-3,-2.3336838E-1,-3.3590373E-1,-1.9037481E-2,6.9541946E-2,-9.788046E-2],"split_indices":[54,11,54,5,0,44,6,45,0,2,4,17,0,0,0,0,0,0,0,0,0],"split_type":[0,0,0,0,0,0,0,0,0,0,0,0,0,0,0,0,0,0,0,0,0],"sum_hessian":[1.3698686E2,2.3861454E1,1.13125404E2,2.2515303E1,1.3461515E0,4.966464E1,6.3460766E1,2.0742987E1,1.7723163E0,4.087289E1,8.791749E0,6.238566E1,1.0751064E0,1.9260986E1,1.4819993E0,3.7590538E1,3.2823513E0,5.0767384E0,3.7150104E0,5.0586285E1,1.1799377E1],"tree_param":{"num_deleted":"0","num_feature":"57","num_nodes":"21","size_leaf_vector":"0"}},{"base_weights":[-7.728898E-3,-4.7329582E-2,2.782867E-1,-8.2372256E-2,5.216542E-1,4.0770403E-1,-8.411466E-1,-5.7325296E-2,-7.671743E-1,8.239416E-1,-3.0626714E-1,5.004449E-1,-4.1876754E-1,-1.566298E-2,-4.7379458E-1,3.7564674E-1,9.7202176E-1,6.047166E-1,-3.2257456E-1],"categories":[],"categories_nodes":[],"categories_segments":[],"categories_sizes":[],"default_left":[1,1,1,1,1,1,0,1,0,1,0,1,0,0,0,0,0,0,0],"id":45,"left_children":[1,3,5,7,9,11,-1,13,-1,15,-1,17,-1,-1,-1,-1,-1,-1,-1],"loss_changes":[1.5804262E0,2.4834259E0,2.8020012E0,1.9484322E0,2.0636268E0,1.4273756E0,0E0,1.9557253E0,0E0,4.7912598E-3,0E0,1.4600971E0,0E0,0E0,0E0,0E0,0E0,0E0,0E0],"parents":[2147483647,0,0,1,1,2,2,3,3,4,4,5,5,7,7,9,9,11,11],"right_children":[2,4,6,8,10,12,-1,14,-1,16,-1,18,-1,-1,-1,-1,-1,-1,-1],"split_conditions":[5.5E-2,5.55E-1,6.25E-1,1.54E0,1.2E-1,1.75E0,-2.5234398E-1,1.55E-1,-2.301523E-1,1.4E-1,-9.188014E-2,1.9999999E-1,-1.2563027E-1,-4.698894E-3,-1.4213838E-1,1.12694025E-1,2.9160655E-1,1.8141499E-1,-9.677237E-2],"split_indices":[6,7,7,44,5,9,0,12,0,20,0,32,0,0,0,0,0,0,0],"split_type":[0,0,0,0,0,0,0,0,0,0,0,0,0,0,0,0,0,0,0],"sum_hessian":[1.3737169E2,1.21397896E2,1.5973793E1,1.1516059E2,6.237301E0,1.48883505E1,1.085443E0,1.1214263E2,3.0179586E0,4.572584E0,1.6647168E0,1.374092E1,1.1474302E0,1.0288767E2,9.254961E0,2.0135586E0,2.5590253E0,1.2431206E1,1.3097142E0],"tree_param":{"num_deleted":"0","num_feature":"57","num_nodes":"19","size_leaf_vector":"0"}},{"base_weights":[-7.143778E-3,1.0364351E-2,-6.4479125E-1,-1.1027169E-2,6.779585E-1,6.0965163E-3,-6.619425E-1,4.2343806E-2,-3.013419E-1,-1.991961E-2,-9.825274E-1],"categories":[],"categories_nodes":[],"categories_segments":[],"categories_sizes":[],"default_left":[1,1,0,1,0,1,1,0,0,0,0],"id":46,"left_children":[1,3,-1,5,-1,7,9,-1,-1,-1,-1],"loss_changes":[1.5265967E0,1.9138263E0,0E0,1.4566957E0,0E0,1.4389393E0,6.6989946E-1,0E0,0E0,0E0,0E0],"parents":[2147483647,0,0,1,1,3,3,5,5,6,6],"right_children":[2,4,-1,6,-1,8,10,-1,-1,-1,-1],"split_conditions":[5E-3,2.4999999E-2,-1.9343738E-1,1.14999995E-1,2.0338756E-1,1E-3,2.5E-1,1.2703142E-2,-9.040257E-2,-5.975883E-3,-2.9475823E-1],"split_indices":[26,14,0,42,0,53,11,0,0,0,0],"split_type":[0,0,0,0,0,0,0,0,0,0,0],"sum_hessian":[1.3514403E2,1.3248994E2,2.6540809E0,1.2932936E2,3.1605802E0,1.2697954E2,2.349828E0,1.14358795E2,1.2620745E1,1.1363133E0,1.2135147E0],"tree_param":{"num_deleted":"0","num_feature":"57","num_nodes":"11","size_leaf_vector":"0"}},{"base_weights":[-7.813607E-3,1.721243E-2,-4.4911537E-1,-2.005466E-2,3.412539E-1,-6.3714755E-1,3.1675205E-1,-4.3160554E-2,8.093207E-1,4.852199E-1,-4.407441E-1,-8.2173365E-1,1.5244952E-1,1.0836812E-3,-4.3377218E-1,1.7698114E-1,9.2699736E-1],"categories":[],"categories_nodes":[],"categories_segments":[],"categories_sizes":[],"default_left":[1,1,1,1,1,1,0,1,0,1,0,0,0,0,0,0,0],"id":47,"left_children":[1,3,5,7,9,11,-1,13,-1,15,-1,-1,-1,-1,-1,-1,-1],"loss_changes":[1.5048766E0,1.567672E0,1.2547996E0,2.2744231E0,1.7209724E0,1.0293095E0,0E0,1.9817924E0,0E0,1.4402666E0,0E0,0E0,0E0,0E0,0E0,0E0,0E0],"parents":[2147483647,0,0,1,1,2,2,3,3,4,4,5,5,7,7,9,9],"right_children":[2,4,6,8,10,12,-1,14,-1,16,-1,-1,-1,-1,-1,-1,-1],"split_conditions":[7.1500003E-1,9.5E-2,3.45E-1,1.95E-1,2.855E0,7.5E-1,9.502562E-2,1.55E-1,2.4279621E-1,6.5E-2,-1.3222323E-1,-2.465201E-1,4.5734856E-2,3.251044E-4,-1.3013166E-1,5.3094342E-2,2.780992E-1],"split_indices":[24,16,44,19,20,4,0,0,0,0,0,0,0,0,0,0,0],"split_type":[0,0,0,0,0,0,0,0,0,0,0,0,0,0,0,0,0],"sum_hessian":[1.3456154E2,1.2824956E2,6.3119826E0,1.1586263E2,1.2386922E1,5.2027087E0,1.1092739E0,1.1364452E2,2.2181075E0,1.0781549E1,1.6053724E0,4.1839223E0,1.0187861E0,1.0297757E2,1.0666954E1,7.175584E0,3.6059654E0],"tree_param":{"num_deleted":"0","num_feature":"57","num_nodes":"17","size_leaf_vector":"0"}},{"base_weights":[-3.9023333E-3,-3.637307E-2,3.0550894E-1,-1.828115E-2,-9.700767E-1,4.7667888E-1,-6.148806E-1,4.318065E-3,-7.783963E-1,-7.69163E-2,6.997156E-1,-2.3570342E-2,5.7271385E-1,-5.5473256E-1,2.6282528E-1,8.440038E-1,-2.8229153E-2],"categories":[],"categories_nodes":[],"categories_segments":[],"categories_sizes":[],"default_left":[1,1,1,1,0,1,0,1,0,1,1,0,0,0,0,0,0],"id":48,"left_children":[1,3,5,7,-1,9,-1,11,-1,13,15,-1,-1,-1,-1,-1,-1],"loss_changes":[1.3580378E0,2.04696E0,2.3158596E0,2.0805511E0,0E0,1.4600847E0,0E0,1.8907253E0,0E0,8.2302344E-1,8.869443E-1,0E0,0E0,0E0,0E0,0E0,0E0],"parents":[2147483647,0,0,1,1,2,2,3,3,5,5,7,7,9,9,10,10],"right_children":[2,4,6,8,-1,10,-1,12,-1,14,16,-1,-1,-1,-1,-1,-1],"split_conditions":[8.1799996E-1,7.685E-1,6.65E-1,1.8E0,-2.9102302E-1,1E-2,-1.8446419E-1,1.185E0,-2.335189E-1,1.3640001E0,1.185E0,-7.071103E-3,1.7181416E-1,-1.6641977E-1,7.884759E-2,2.5320116E-1,-8.468746E-3],"split_indices":[51,51,9,2,0,18,0,2,0,51,44,0,0,0,0,0,0],"split_type":[0,0,0,0,0,0,0,0,0,0,0,0,0,0,0,0,0],"sum_hessian":[1.3306499E2,1.2122557E2,1.1839406E1,1.1992149E2,1.304081E0,1.0389334E1,1.450072E0,1.1742462E2,2.4968684E0,3.171803E0,7.2175307E0,1.1284634E2,4.578287E0,1.0550964E0,2.1167066E0,5.8905187E0,1.3270118E0],"tree_param":{"num_deleted":"0","num_feature":"57","num_nodes":"17","size_leaf_vector":"0"}},{"base_weights":[-4.8472504E-3,9.131263E-3,-7.090032E-1,2.2611612E-2,-7.3377067E-1,3.2067357E-3,7.374579E-1,-2.039017E-2,4.8496875E-1],"categories":[],"categories_nodes":[],"categories_segments":[],"categories_sizes":[],"default_left":[1,1,0,1,0,1,0,0,0],"id":49,"left_children":[1,3,-1,5,-1,7,-1,-1,-1],"loss_changes":[1.3158016E0,1.3326921E0,0E0,1.8015746E0,0E0,1.4606154E0,0E0,0E0,0E0],"parents":[2147483647,0,0,1,1,3,3,5,5],"right_children":[2,4,-1,6,-1,8,-1,-1,-1],"split_conditions":[3.1E-1,1.1340001E0,-2.1270098E-1,1.14999995E-1,-2.201312E-1,1.46E-1,2.2123738E-1,-6.117051E-3,1.4549063E-1],"split_indices":[47,48,0,21,0,48,0,0,0],"split_type":[0,0,0,0,0,0,0,0,0],"sum_hessian":[1.3202045E2,1.3041849E2,1.6019633E0,1.2904643E2,1.3720526E0,1.26613914E2,2.4325154E0,1.21614845E2,4.99907E0],"tree_param":{"num_deleted":"0","num_feature":"57","num_nodes":"9","size_leaf_vector":"0"}}]},"name":"gbtree"},"learner_model_param":{"base_score":"5E-1","boost_from_average":"1","num_class":"0","num_feature":"57","num_target":"1"},"objective":{"name":"binary:logistic","reg_loss_param":{"scale_pos_weight":"1"}}},"version":[1,7,6]}