{"learner":{"attributes":{"best_iteration":"49","best_ntree_limit":"50","scikit_learn":"{\"use_label_encoder\": null, \"n_estimators\": 50, \"objective\": \"binary:logistic\", \"max_depth\": 4, \"max_leaves\": null, \"max_bin\": null, \"grow_policy\": null, \"learning_rate\": null, \"verbosity\": null, \"booster\": null, \"tree_method\": null, \"gamma\": null, \"min_child_weight\": null, \"max_delta_step\": null, \"subsample\": null, \"sampling_method\": null, \"colsample_bytree\": null, \"colsample_bylevel\": null, \"colsample_bynode\": null, \"reg_alpha\": null, \"reg_lambda\": null, \"scale_pos_weight\": null, \"base_score\": null, \"missing\": NaN, \"num_parallel_tree\": null, \"random_state\": null, \"n_jobs\": null, \"monotone_constraints\": null, \"interaction_constraints\": null, \"importance_type\": null, \"gpu_id\": null, \"validate_parameters\": null, \"predictor\": null, \"enable_categorical\": false, \"feature_types\": null, \"max_cat_to_onehot\": null, \"max_cat_threshold\": null, \"eval_metric\": null, \"early_stopping_rounds\": null, \"callbacks\": null, \"classes_\": [0, 1], \"n_classes_\": 2, \"_estimator_type\": \"classifier\"}"},"feature_names":[],"feature_types":[],"gradient_booster":{"model":{"gbtree_model_param":{"num_parallel_tree":"1","num_trees":"50","size_leaf_vector":"0"},"tree_info":[0,0,0,0,0,0,0,0,0,0,0,0,0,0,0,0,0,0,0,0,0,0,0,0,0,0,0,0,0,0,0,0,0,0,0,0,0,0,0,0,0,0,0,0,0,0,0,0,0,0],"trees":[{"base_weights":[-7.910448E-1,-8.8738126E-1,2.535211E-1,-9.5602834E-1,5.555556E-1,7.2727275E-1,-4.516129E-1,-6.770833E-1,-1.2738461E0,-6.666667E-1,8.3870965E-1,1E0,-3.3333334E-1,-7.692308E-1,6.666667E-1,-3.5820895E-1,-8.346457E-1,-1.65E0,-1.1325301E0,3.6363637E-1,1.3846154E0,6.086956E-1,1.2941177E0,-5E-1,-0E0,-1.2E0,4E-1],"categories":[],"categories_nodes":[],"categories_segments":[],"categories_sizes":[],"default_left":[1,1,1,1,1,1,1,1,1,0,1,1,1,1,0,0,0,0,0,0,0,0,0,0,0,0,0],"id":0,"left_children":[1,3,5,7,9,11,13,15,17,-1,19,21,23,25,-1,-1,-1,-1,-1,-1,-1,-1,-1,-1,-1,-1,-1],"loss_changes":[2.0451553E1,1.8781708E1,6.2579823E0,1.4762726E1,3.6738353E0,3.515151E0,3.2655087E0,4.524311E0,2.4503021E0,0E0,1.5064292E0,2.4808216E-1,1.6666666E-1,3.7538462E0,0E0,0E0,0E0,0E0,0E0,0E0,0E0,0E0,0E0,0E0,0E0,0E0,0E0],"parents":[2147483647,0,0,1,1,2,2,3,3,4,4,5,5,6,6,7,7,8,8,10,10,11,11,12,12,13,13],"right_children":[2,4,6,8,10,12,14,16,18,-1,20,22,24,26,-1,-1,-1,-1,-1,-1,-1,-1,-1,-1,-1,-1,-1],"split_conditions":[7.8395E3,4.35E1,3.75E1,3.45E1,1.5E0,1.5E0,1.44805E4,2.55E1,1.15E1,-2.0000002E-1,3.55E1,2.5E0,1.024E4,1.5E0,2.0000002E-1,-1.0746269E-1,-2.5039372E-1,-4.95E-1,-3.3975905E-1,1.0909092E-1,4.1538465E-1,1.826087E-1,3.8823533E-1,-1.5E-1,-0E0,-3.6E-1,1.20000005E-1],"split_indices":[1,0,0,4,3,6,1,4,0,0,4,2,1,5,0,0,0,0,0,0,0,0,0,0,0,0,0],"split_type":[0,0,0,0,0,0,0,0,0,0,0,0,0,0,0,0,0,0,0,0,0,0,0,0,0,0,0],"sum_hessian":[2E2,1.8325E2,1.675E1,1.7525E2,8E0,1E1,6.75E0,9.5E1,8.025E1,1.25E0,6.75E0,8E0,2E0,5.5E0,1.25E0,3.25E1,6.25E1,1.9E1,6.125E1,4.5E0,2.25E0,4.75E0,3.25E0,1E0,1E0,4E0,1.5E0],"tree_param":{"num_deleted":"0","num_feature":"7","num_nodes":"27","size_leaf_vector":"0"}},{"base_weights":[-5.70749E-1,-6.885144E-1,-1.841958E-2,-7.2833276E-1,7.991073E-1,5.37626E-1,-3.5535923E-1,-2.9283172E-1,-8.305968E-1,8.286403E-2,1.1910098E0,-4.7955307E-1,8.916377E-1,-6.7995554E-1,2.0896575E-1,-5.0756585E-2,-1.181663E0,-1.158895E0,-7.279585E-1,7.1312666E-2,-1.0006012E0,1.3206859E0,2.8976423E-1,8.561609E-1,-8.824276E-1,-5.781474E-1,4.0649396E-1],"categories":[],"categories_nodes":[],"categories_segments":[],"categories_sizes":[],"default_left":[1,1,1,1,1,1,1,1,1,0,0,1,1,1,1,0,0,0,0,0,0,0,0,0,0,0,0],"id":1,"left_children":[1,3,5,7,9,11,13,15,17,-1,-1,19,21,23,25,-1,-1,-1,-1,-1,-1,-1,-1,-1,-1,-1,-1],"loss_changes":[1.2778839E1,1.0181999E1,6.85871E0,6.8097534E0,1.2210655E0,5.406299E0,4.311658E0,6.7521224E0,3.459526E0,0E0,0E0,1.282578E0,2.356204E0,5.3230357E0,1.6462464E0,0E0,0E0,0E0,0E0,0E0,0E0,0E0,0E0,0E0,0E0,0E0,0E0],"parents":[2147483647,0,0,1,1,2,2,3,3,4,4,5,5,6,6,7,7,8,8,11,11,12,12,13,13,14,14],"right_children":[2,4,6,8,10,12,14,16,18,-1,-1,20,22,24,26,-1,-1,-1,-1,-1,-1,-1,-1,-1,-1,-1,-1],"split_conditions":[3.15E1,8.195E3,2.95E1,2.55E1,1.09755E4,4.1E3,4.75E1,3.1205E3,1.15E1,2.485921E-2,3.5730293E-1,3.472E3,4.1E1,2.125E3,1.5E0,-1.5226976E-2,-3.5449892E-1,-3.4766853E-1,-2.1838756E-1,2.13938E-2,-3.0018038E-1,3.9620578E-1,8.692927E-2,2.5684828E-1,-2.6472828E-1,-1.7344423E-1,1.2194819E-1],"split_indices":[0,1,4,4,1,1,0,1,0,0,0,1,0,1,3,0,0,0,0,0,0,0,0,0,0,0,0],"split_type":[0,0,0,0,0,0,0,0,0,0,0,0,0,0,0,0,0,0,0,0,0,0,0,0,0,0,0],"sum_hessian":[1.9565555E2,1.6106696E2,3.45886E1,1.5736525E2,3.701708E0,1.2826173E1,2.1762426E1,3.066004E1,1.267052E2,1.7375644E0,1.9641435E0,3.2198825E0,9.606291E0,1.3685633E1,8.076794E0,2.4927961E1,5.732079E0,2.7726942E1,9.8978264E1,1.9847202E0,1.2351623E0,4.9110994E0,4.695191E0,1.2178092E0,1.2467823E1,1.2337238E0,6.84307E0],"tree_param":{"num_deleted":"0","num_feature":"7","num_nodes":"27","size_leaf_vector":"0"}},{"base_weights":[-4.236085E-1,-6.840993E-1,-2.3465881E-1,-7.5527424E-1,3.4166026E-1,3.2968715E-1,-3.0879027E-1,-4.8784953E-1,-9.828142E-1,9.424796E-1,-1.8709639E-1,4.7528256E-2,1.3333318E0,-5.211481E-1,-5.6094028E-2,-1.5617543E-1,-9.0195954E-1,-6.535095E-1,-1.150599E0,2.1315037E-1,-4.1238347E-1,3.965523E-1,-4.8521045E-1,-5.7542574E-1,8.9468783E-1,2.8491125E-1,-2.7212217E-1],"categories":[],"categories_nodes":[],"categories_segments":[],"categories_sizes":[],"default_left":[1,1,1,1,1,1,1,1,1,0,1,1,0,1,1,0,0,0,0,0,0,0,0,0,0,0,0],"id":2,"left_children":[1,3,5,7,9,11,13,15,17,-1,19,21,-1,23,25,-1,-1,-1,-1,-1,-1,-1,-1,-1,-1,-1,-1],"loss_changes":[9.120079E0,6.0073547E0,4.737482E0,4.020401E0,2.018334E0,3.716898E0,5.254196E0,4.8011503E0,1.4011993E0,0E0,4.412228E-1,2.3226433E0,0E0,4.616849E0,3.4720435E0,0E0,0E0,0E0,0E0,0E0,0E0,0E0,0E0,0E0,0E0,0E0,0E0],"parents":[2147483647,0,0,1,1,2,2,3,3,4,4,5,5,6,6,7,7,8,8,10,10,11,11,13,13,14,14],"right_children":[2,4,6,8,10,12,14,16,18,-1,20,22,-1,24,26,-1,-1,-1,-1,-1,-1,-1,-1,-1,-1,-1,-1],"split_conditions":[1.55E1,3.954E3,1.3815E3,1.387E3,2.5E0,1.322E3,2.65E1,3.75E1,2.95E1,2.827439E-1,1.05E1,1.5E0,3.9999956E-1,1.03025E4,2.95E1,-4.6852633E-2,-2.7058786E-1,-1.9605286E-1,-3.451797E-1,6.3945115E-2,-1.2371504E-1,1.1896569E-1,-1.4556314E-1,-1.7262773E-1,2.6840636E-1,8.547337E-2,-8.163665E-2],"split_indices":[0,1,1,1,3,1,0,4,4,0,0,5,0,1,4,0,0,0,0,0,0,0,0,0,0,0,0],"split_type":[0,0,0,0,0,0,0,0,0,0,0,0,0,0,0,0,0,0,0,0,0,0,0,0,0,0,0],"sum_hessian":[1.8755501E2,7.774848E1,1.09806526E2,7.2950325E1,4.7981534E0,1.2349006E1,9.745752E1,3.498129E1,3.7969036E1,1.8797607E0,2.9183927E0,1.0456641E1,1.8923641E0,5.2378204E1,4.507932E1,2.0188667E1,1.4792622E1,1.4468062E1,2.3500975E1,1.0704663E0,1.8479264E0,6.472086E0,3.984556E0,5.1016026E1,1.3621776E0,1.7358955E1,2.7720366E1],"tree_param":{"num_deleted":"0","num_feature":"7","num_nodes":"27","size_leaf_vector":"0"}},{"base_weights":[-3.1541836E-1,-5.304364E-1,-1.660019E-1,-5.908636E-1,2.734208E-1,3.7847102E-1,-2.2788368E-1,-4.0164062E-1,-8.372959E-1,7.383269E-1,-1.4815043E-1,6.9493145E-1,-2.5381818E-1,-2.7433318E-1,4.5380068E-1,-9.4123363E-1,-2.4731405E-1,-5.95354E-1,-9.601033E-1,1.775544E-1,-3.3915594E-1,1.0900573E0,1.429812E-1,-9.2567784E-1,3.369534E-1,2.3936407E-1,-3.4802258E-1,1.0730568E0,1.1472784E-1],"categories":[],"categories_nodes":[],"categories_segments":[],"categories_sizes":[],"default_left":[1,1,1,1,1,1,1,1,1,0,1,1,1,1,1,0,0,0,0,0,0,0,0,0,0,0,0,0,0],"id":3,"left_children":[1,3,5,7,9,11,13,15,17,-1,19,21,23,25,27,-1,-1,-1,-1,-1,-1,-1,-1,-1,-1,-1,-1,-1,-1],"loss_changes":[5.721365E0,3.7406464E0,3.7299142E0,2.8740826E0,1.2530278E0,2.4599514E0,3.2190318E0,3.1702576E0,2.8949165E-1,0E0,3.024136E-1,1.5612254E0,2.1135693E0,3.570403E0,1.2650758E0,0E0,0E0,0E0,0E0,0E0,0E0,0E0,0E0,0E0,0E0,0E0,0E0,0E0,0E0],"parents":[2147483647,0,0,1,1,2,2,3,3,4,4,5,5,6,6,7,7,8,8,10,10,11,11,12,12,13,13,14,14],"right_children":[2,4,6,8,10,12,14,16,18,-1,20,22,24,26,28,-1,-1,-1,-1,-1,-1,-1,-1,-1,-1,-1,-1,-1,-1],"split_conditions":[1.55E1,3.954E3,2.35E1,1.513E3,2.5E0,3.4645E3,1.0918E4,7.5E0,2.95E1,2.2149809E-1,1.05E1,3.5E0,4.0115E3,1.3815E3,1.5E0,-2.823701E-1,-7.4194215E-2,-1.7860621E-1,-2.8803098E-1,5.326632E-2,-1.0174679E-1,3.270172E-1,4.2894363E-2,-2.7770337E-1,1.0108603E-1,7.1809225E-2,-1.0440678E-1,3.2191706E-1,3.4418352E-2],"split_indices":[0,1,4,1,3,1,1,0,4,0,0,2,1,1,2,0,0,0,0,0,0,0,0,0,0,0,0,0,0],"split_type":[0,0,0,0,0,0,0,0,0,0,0,0,0,0,0,0,0,0,0,0,0,0,0,0,0,0,0,0,0],"sum_hessian":[1.7982535E2,7.268205E1,1.07143295E2,6.784686E1,4.8351865E0,1.0412434E1,9.6730865E1,3.9865772E1,2.7981094E1,1.9420912E0,2.8930953E0,6.873286E0,3.539148E0,9.1119606E1,5.611259E0,7.7320786E0,3.2133694E1,1.1389869E1,1.6591225E1,1.0954846E0,1.7976105E0,3.437533E0,3.435753E0,1.3906847E0,2.1484635E0,1.1149172E1,7.9970436E1,1.2194576E0,4.3918014E0],"tree_param":{"num_deleted":"0","num_feature":"7","num_nodes":"29","size_leaf_vector":"0"}},{"base_weights":[-2.3356365E-1,-3.3364502E-1,1.889278E-2,-2.2062685E-1,-7.8234124E-1,-9.454171E-2,7.023717E-1,-8.695869E-1,-1.573208E-1,-2.7187195E-1,-9.8278636E-1,2.882638E-1,-3.573839E-1,1.2226675E0,1.3507955E-1,-1.1761953E0,6.877866E-2,-8.8781744E-2,-9.129315E-1,7.84482E-1,-8.228273E-1,-1.0994332E0,2.0039681E-2,-1.0225273E-1,6.7948043E-1,4.262014E-1,-4.650279E-1,-3.1460464E-1,5.869577E-1],"categories":[],"categories_nodes":[],"categories_segments":[],"categories_sizes":[],"default_left":[1,1,1,1,1,1,1,1,1,1,1,1,1,0,1,0,0,0,0,0,0,0,0,0,0,0,0,0,0],"id":4,"left_children":[1,3,5,7,9,11,13,15,17,19,21,23,25,-1,27,-1,-1,-1,-1,-1,-1,-1,-1,-1,-1,-1,-1,-1,-1],"loss_changes":[4.4104824E0,6.1601562E0,3.9763482E0,4.018608E0,2.2635489E0,4.543689E0,1.9886653E0,2.603835E0,4.754861E0,5.508767E0,2.05476E0,2.898974E0,2.4430141E0,0E0,1.1224619E0,0E0,0E0,0E0,0E0,0E0,0E0,0E0,0E0,0E0,0E0,0E0,0E0,0E0,0E0],"parents":[2147483647,0,0,1,1,2,2,3,3,4,4,5,5,6,6,7,7,8,8,9,9,10,10,11,11,12,12,14,14],"right_children":[2,4,6,8,10,12,14,16,18,20,22,24,26,-1,28,-1,-1,-1,-1,-1,-1,-1,-1,-1,-1,-1,-1,-1,-1],"split_conditions":[3.9135E3,4.45E1,4.85E1,7.5E0,1.2475E3,2.95E1,5.45E1,3.5E0,3.554E3,4.85E1,3.3E1,1.5E0,4.296E3,3.6680025E-1,2.5E0,-3.528586E-1,2.0633597E-2,-2.6634524E-2,-2.7387947E-1,2.353446E-1,-2.468482E-1,-3.2982996E-1,6.0119047E-3,-3.067582E-2,2.0384414E-1,1.2786043E-1,-1.3950838E-1,-9.43814E-2,1.7608732E-1],"split_indices":[1,4,4,0,1,4,4,3,1,4,0,5,1,0,2,0,0,0,0,0,0,0,0,0,0,0,0,0,0],"split_type":[0,0,0,0,0,0,0,0,0,0,0,0,0,0,0,0,0,0,0,0,0,0,0,0,0,0,0,0,0],"sum_hessian":[1.7331117E2,1.23879845E2,4.9431324E1,1.00146515E2,2.373333E1,4.313418E1,6.297146E0,7.7690053E0,9.237751E1,7.356086E0,1.6377243E1,1.7520485E1,2.5613693E1,2.6820326E0,3.6151133E0,5.664646E0,2.104359E0,8.571965E1,6.6578608E0,2.3762372E0,4.979849E0,1.4584472E1,1.7927719E0,9.137733E0,8.382751E0,2.7362235E0,2.287747E1,1.9642171E0,1.6508961E0],"tree_param":{"num_deleted":"0","num_feature":"7","num_nodes":"29","size_leaf_vector":"0"}},{"base_weights":[-1.7589009E-1,-2.4355328E-1,1.1025084E-1,-2.7095786E-1,6.4875686E-1,1.9909479E-1,-7.9126734E-1,-1.6246186E-1,-4.4647744E-1,1.770675E-1,8.886282E-1,7.7974206E-1,1.6543373E-2,-2.0296937E-3,-4.730937E-1,-5.7933027E-1,7.542714E-2,-1.1524897E-1,9.7348297E-1,-2.0561385E-1,4.658053E-1],"categories":[],"categories_nodes":[],"categories_segments":[],"categories_sizes":[],"default_left":[1,1,1,1,1,1,0,1,1,0,0,1,1,0,0,0,0,0,0,0,0],"id":5,"left_children":[1,3,5,7,9,11,-1,13,15,-1,-1,17,19,-1,-1,-1,-1,-1,-1,-1,-1],"loss_changes":[3.2934709E0,3.5201426E0,2.797062E0,2.4677267E0,3.3706856E-1,3.2516024E0,0E0,4.1856594E0,3.5372696E0,0E0,0E0,1.3857746E0,2.5363364E0,0E0,0E0,0E0,0E0,0E0,0E0,0E0,0E0],"parents":[2147483647,0,0,1,1,2,2,3,3,4,4,5,5,7,7,8,8,11,11,12,12],"right_children":[2,4,6,8,10,12,-1,14,16,-1,-1,18,20,-1,-1,-1,-1,-1,-1,-1,-1],"split_conditions":[3.45E1,8.195E3,5.7E1,3.55E1,1.09755E4,2.65E1,-2.373802E-1,2.591E3,3.91E3,5.312025E-2,2.6658848E-1,4.0615E3,4.75E1,-6.089081E-4,-1.419281E-1,-1.7379908E-1,2.2628142E-2,-3.457469E-2,2.920449E-1,-6.1684158E-2,1.397416E-1],"split_indices":[0,1,0,4,1,4,0,1,1,0,0,1,0,0,0,0,0,0,0,0,0],"split_type":[0,0,0,0,0,0,0,0,0,0,0,0,0,0,0,0,0,0,0,0,0],"sum_hessian":[1.6771977E2,1.357646E2,3.195516E1,1.3239485E2,3.3697624E0,2.979777E1,2.1573918E0,8.300907E1,4.9385773E1,1.7219169E0,1.6478455E0,6.344919E0,2.345285E1,5.540207E1,2.7607002E1,3.9277504E1,1.010827E1,1.2011791E0,5.14374E0,1.6055723E1,7.397126E0],"tree_param":{"num_deleted":"0","num_feature":"7","num_nodes":"21","size_leaf_vector":"0"}},{"base_weights":[-1.2846005E-1,-6.3183165E-1,-9.3074955E-2,-1.026701E0,1.4691149E-1,9.3115635E-2,-1.512212E-1,-4.221357E-1,6.353852E-1,-3.4739662E-2,8.5358554E-1,-2.6793823E-1,5.431549E-2,7.467198E-2,-8.549563E-1,1.1462073E0,-1.0066906E-2,-3.012504E-1,6.898889E-1,1.120624E0,-2.7055833E-2],"categories":[],"categories_nodes":[],"categories_segments":[],"categories_sizes":[],"default_left":[1,1,1,0,1,1,1,0,0,1,1,1,1,0,0,0,0,0,0,0,0],"id":6,"left_children":[1,3,5,-1,7,9,11,-1,-1,13,15,17,19,-1,-1,-1,-1,-1,-1,-1,-1],"loss_changes":[2.8494399E0,3.39531E0,1.6783506E0,0E0,1.4981556E0,3.646779E0,2.8338919E0,0E0,0E0,3.0080917E0,1.3746014E0,2.6049E0,3.7957587E0,0E0,0E0,0E0,0E0,0E0,0E0,0E0,0E0],"parents":[2147483647,0,0,1,1,2,2,4,4,5,5,6,6,9,9,10,10,11,11,12,12],"right_children":[2,4,6,-1,8,10,12,-1,-1,14,16,18,20,-1,-1,-1,-1,-1,-1,-1,-1],"split_conditions":[7.5E0,3.5E0,1.387E3,-3.080103E-1,1.1835E3,1.3305E3,2.65E1,-1.2664072E-1,1.9061558E-1,1.286E3,3.85E1,8.5595E3,2.1655E3,2.2401595E-2,-2.5648692E-1,3.438622E-1,-3.020072E-3,-9.0375125E-2,2.0696668E-1,3.3618718E-1,-8.11675E-3],"split_indices":[0,3,1,0,1,1,0,0,0,1,4,1,1,0,0,0,0,0,0,0,0],"split_type":[0,0,0,0,0,0,0,0,0,0,0,0,0,0,0,0,0,0,0,0,0],"sum_hessian":[1.62276E2,9.551075E0,1.5272493E2,6.1262774E0,3.424797E0,3.6201706E1,1.1652322E2,1.644659E0,1.7801379E0,3.1808216E1,4.393492E0,7.4126045E1,4.2397167E1,2.8866562E1,2.9416537E0,3.0372512E0,1.356241E0,7.229712E1,1.82893E0,2.1004646E0,4.0296703E1],"tree_param":{"num_deleted":"0","num_feature":"7","num_nodes":"21","size_leaf_vector":"0"}},{"base_weights":[-9.249942E-2,-2.3566668E-1,-2.8097702E-3,-2.8711554E-1,3.2475948E-1,2.2115521E-1,-8.996767E-2,-1.5690078E-1,-5.114903E-1,7.03454E-1,-6.0701225E-2,7.4969925E-2,1.3060045E0,-1.4272186E-1,3.3544075E-1,-5.990873E-1,-5.8801763E-2,-7.8594947E-1,-2.3802204E-1,2.8624865E-1,-2.9609E-1,-4.642545E-2,1.4665201E0,-1.064192E-1,-1.039068E0,-2.993002E-1,7.497389E-1],"categories":[],"categories_nodes":[],"categories_segments":[],"categories_sizes":[],"default_left":[1,1,1,1,1,1,1,1,1,0,1,1,0,1,1,0,0,0,0,0,0,0,0,0,0,0,0],"id":7,"left_children":[1,3,5,7,9,11,13,15,17,-1,19,21,-1,23,25,-1,-1,-1,-1,-1,-1,-1,-1,-1,-1,-1,-1],"loss_changes":[2.0472324E0,1.8641016E0,1.9537457E0,1.5787911E0,8.650233E-1,4.3492746E0,1.6642952E0,1.5859705E0,1.3448176E0,0E0,3.879352E-1,4.4218745E0,0E0,1.9973937E0,2.39258E0,0E0,0E0,0E0,0E0,0E0,0E0,0E0,0E0,0E0,0E0,0E0,0E0],"parents":[2147483647,0,0,1,1,2,2,3,3,4,4,5,5,6,6,7,7,8,8,10,10,11,11,13,13,14,14],"right_children":[2,4,6,8,10,12,14,16,18,-1,20,22,-1,24,26,-1,-1,-1,-1,-1,-1,-1,-1,-1,-1,-1,-1],"split_conditions":[1.55E1,3.954E3,2.175E3,1.561E3,2.5E0,1.5E0,4.95E1,7.5E0,2.1475E3,2.1103622E-1,1.05E1,2.061E3,3.918014E-1,5.4E1,4.5585E3,-1.797262E-1,-1.764053E-2,-2.3578484E-1,-7.140662E-2,8.58746E-2,-8.882701E-2,-1.3927636E-2,4.3995604E-1,-3.192576E-2,-3.117204E-1,-8.979006E-2,2.2492167E-1],"split_indices":[0,1,1,1,3,6,4,0,1,0,0,1,0,0,1,0,0,0,0,0,0,0,0,0,0,0,0],"split_type":[0,0,0,0,0,0,0,0,0,0,0,0,0,0,0,0,0,0,0,0,0,0,0,0,0,0,0],"sum_hessian":[1.5848566E2,6.0417133E1,9.806853E1,5.57837E1,4.6334343E0,2.7042206E1,7.102632E1,3.6373688E1,1.941001E1,1.9210936E0,2.7123408E0,2.4773096E1,2.2691102E0,6.37814E1,7.24492E0,5.6770625E0,3.0696627E1,8.752146E0,1.0657864E1,1.0090258E0,1.7033151E0,2.3674435E1,1.0986613E0,6.2373936E1,1.4074634E0,2.9708662E0,4.2740536E0],"tree_param":{"num_deleted":"0","num_feature":"7","num_nodes":"27","size_leaf_vector":"0"}},{"base_weights":[-6.580144E-2,1.98639E-2,-1.888514E-1,-1.17137246E-1,1.8672588E-1,-2.6507267E-1,2.6237345E-1,-2.187662E-1,5.8679163E-1,3.277098E-1,-4.3424484E-1,-3.0626327E-1,5.428253E-1,7.2357893E-1,-1.2848316E-1,-5.5774767E-2,-7.348169E-1,3.631138E-2,9.2293817E-1,4.4449184E-2,7.308601E-1,-7.74806E-1,3.8565266E-1,-4.0255538E-1,5.9235066E-2,8.8178366E-1,1.15918584E-1,-5.674278E-1,4.470733E-1],"categories":[],"categories_nodes":[],"categories_segments":[],"categories_sizes":[],"default_left":[1,1,1,1,1,1,1,1,1,1,1,1,0,1,1,0,0,0,0,0,0,0,0,0,0,0,0,0,0],"id":8,"left_children":[1,3,5,7,9,11,13,15,17,19,21,23,-1,25,27,-1,-1,-1,-1,-1,-1,-1,-1,-1,-1,-1,-1,-1,-1],"loss_changes":[1.6547716E0,2.1534905E0,2.283806E0,3.8354704E0,3.856621E0,2.015658E0,1.8607004E0,3.8289902E0,1.226443E0,3.981106E0,2.6108615E0,1.9073968E0,0E0,3.447268E-1,1.8092141E0,0E0,0E0,0E0,0E0,0E0,0E0,0E0,0E0,0E0,0E0,0E0,0E0,0E0,0E0],"parents":[2147483647,0,0,1,1,2,2,3,3,4,4,5,5,6,6,7,7,8,8,9,9,10,10,11,11,13,13,14,14],"right_children":[2,4,6,8,10,12,14,16,18,20,22,24,-1,26,28,-1,-1,-1,-1,-1,-1,-1,-1,-1,-1,-1,-1,-1,-1],"split_conditions":[3.45E1,2.5E0,7.4585E3,3.25E1,5.1065E3,4.5E1,9.0165E3,2.95E1,2.061E3,2.25E1,3.5E0,1.5E0,1.628476E-1,1.5E0,1.22965E4,-1.673243E-2,-2.2044508E-1,1.0893415E-2,2.7688146E-1,1.3334756E-2,2.1925804E-1,-2.3244181E-1,1.15695804E-1,-1.2076662E-1,1.7770521E-2,2.645351E-1,3.4775577E-2,-1.7022835E-1,1.34122E-1],"split_indices":[4,3,1,4,1,0,1,4,1,0,2,6,0,5,1,0,0,0,0,0,0,0,0,0,0,0,0,0,0],"split_type":[0,0,0,0,0,0,0,0,0,0,0,0,0,0,0,0,0,0,0,0,0,0,0,0,0,0,0,0,0],"sum_hessian":[1.5562668E2,9.2245476E1,6.33812E1,5.081889E1,4.1426582E1,5.457491E1,8.80629E0,4.5009865E1,5.8090277E0,3.414633E1,7.28025E0,5.251819E1,2.0567207E0,3.6491172E0,5.1571727E0,3.504819E1,9.961674E0,2.6224592E0,3.1865685E0,2.0707281E1,1.343905E1,5.182563E0,2.097687E0,4.14869E1,1.1031289E1,2.5373926E0,1.1117247E0,2.933829E0,2.2233438E0],"tree_param":{"num_deleted":"0","num_feature":"7","num_nodes":"29","size_leaf_vector":"0"}},{"base_weights":[-4.6137452E-2,-4.2300695E-1,-2.3841046E-2,-8.767096E-1,2.9422906E-1,-6.7290765E-1,-1.0857369E-2,-2.41598E-1,6.2813026E-1,1.0731E0,-3.2774366E-2,-5.9589863E-2,2.2980674E-1],"categories":[],"categories_nodes":[],"categories_segments":[],"categories_sizes":[],"default_left":[1,1,1,0,1,0,1,0,0,0,1,0,0],"id":9,"left_children":[1,3,5,-1,7,-1,9,-1,-1,-1,11,-1,-1],"loss_changes":[1.2815694E0,3.0325747E0,1.2246767E0,0E0,8.7679684E-1,0E0,3.4642553E0,0E0,0E0,0E0,1.016713E0,0E0,0E0],"parents":[2147483647,0,0,1,1,2,2,4,4,6,6,10,10],"right_children":[2,4,6,-1,8,-1,10,-1,-1,-1,12,-1,-1],"split_conditions":[7.5E0,3.5E0,6.34E2,-2.630129E-1,1.1835E3,-2.018723E-1,6.99E2,-7.2479405E-2,1.8843909E-1,3.2193E-1,4.35E1,-1.787696E-2,6.8942025E-2],"split_indices":[0,3,1,0,1,0,1,0,0,0,0,0,0],"split_type":[0,0,0,0,0,0,0,0,0,0,0,0,0],"sum_hessian":[1.5271649E2,7.5264897E0,1.4519E2,4.4740143E0,3.0524757E0,1.8505785E0,1.4333942E2,1.2780182E0,1.7744576E0,1.8902572E0,1.4144916E2,1.2904391E2,1.2405252E1],"tree_param":{"num_deleted":"0","num_feature":"7","num_nodes":"13","size_leaf_vector":"0"}},{"base_weights":[-3.3528026E-2,-2.5104886E-1,6.40574E-4,2.2937098E-1,-5.640799E-1,-1.645483E-1,9.236658E-2,9.46962E-1,-3.4426394E-1,-8.458174E-1,-2.816817E-2,-3.5355803E-1,7.3606476E-2,4.6221194E-1,2.6418848E-2,-9.4544095E-1,3.731027E-1,1.1459391E-1,-1.0116794E0,6.6883135E-1,-3.675478E-1,5.2276367E-1,-4.5879978E-1,9.063949E-1,-2.0887418E-1,1.2740798E0,2.6301992E-1,-4.5677368E-2,2.8976727E-1],"categories":[],"categories_nodes":[],"categories_segments":[],"categories_sizes":[],"default_left":[1,1,1,1,1,1,1,0,1,1,1,1,1,1,1,0,0,0,0,0,0,0,0,0,0,0,0,0,0],"id":10,"left_children":[1,3,5,7,9,11,13,-1,15,17,19,21,23,25,27,-1,-1,-1,-1,-1,-1,-1,-1,-1,-1,-1,-1,-1,-1],"loss_changes":[1.1323006E0,3.2396383E0,2.025029E0,3.9773166E0,1.9105392E0,2.1739407E0,2.0835745E0,0E0,2.7949862E0,1.4480586E0,1.5347542E0,2.7092552E0,5.350943E0,1.757916E0,1.417927E0,0E0,0E0,0E0,0E0,0E0,0E0,0E0,0E0,0E0,0E0,0E0,0E0,0E0,0E0],"parents":[2147483647,0,0,1,1,2,2,3,3,4,4,5,5,6,6,8,8,9,9,10,10,11,11,12,12,13,13,14,14],"right_children":[2,4,6,8,10,12,14,-1,16,18,20,22,24,26,28,-1,-1,-1,-1,-1,-1,-1,-1,-1,-1,-1,-1,-1,-1],"split_conditions":[1.5E0,2.5E0,2.5E0,2.468E3,2.145E3,4.158E3,2.45E1,2.840886E-1,5.191E3,7.565E2,2.629E3,2.15E1,5.2975E3,1.05E1,3.3E1,-2.836323E-1,1.1193081E-1,3.4378175E-2,-3.0350384E-1,2.0064941E-1,-1.10264346E-1,1.568291E-1,-1.3763994E-1,2.7191848E-1,-6.266226E-2,3.8222396E-1,7.890598E-2,-1.3703211E-2,8.6930186E-2],"split_indices":[3,2,2,1,1,1,4,0,1,1,1,4,1,0,0,0,0,0,0,0,0,0,0,0,0,0,0,0,0],"split_type":[0,0,0,0,0,0,0,0,0,0,0,0,0,0,0,0,0,0,0,0,0,0,0,0,0,0,0,0,0],"sum_hessian":[1.513253E2,1.968177E1,1.3164352E2,7.87026E0,1.181151E1,4.6717083E1,8.4926445E1,3.2072842E0,4.6629753E0,7.3625956E0,4.448914E0,2.5775766E1,2.0941317E1,1.1942464E1,7.2983986E1,2.3639631E0,2.2990122E0,1.1297821E0,6.2328134E0,1.138984E0,3.3099303E0,2.338274E0,2.3437492E1,4.744687E0,1.619663E1,1.2896917E0,1.0652772E1,5.7946636E1,1.5037349E1],"tree_param":{"num_deleted":"0","num_feature":"7","num_nodes":"29","size_leaf_vector":"0"}},{"base_weights":[-2.1941414E-2,-9.77645E-3,-6.1858433E-1,-4.6312094E-2,3.604922E-1,-6.867534E-2,3.8298944E-1,8.139109E-1,3.7099335E-2,-1.7140863E-2,-4.9068248E-1,-3.5961676E-2,8.2098484E-1,-2.1989098E-1,1.1962005E0,-5.9262127E-1,6.273603E-1],"categories":[],"categories_nodes":[],"categories_segments":[],"categories_sizes":[],"default_left":[1,1,0,1,1,1,1,1,1,0,0,0,0,0,0,0,0],"id":11,"left_children":[1,3,-1,5,7,9,11,13,15,-1,-1,-1,-1,-1,-1,-1,-1],"loss_changes":[1.0827914E0,2.0193098E0,0E0,1.3283868E0,1.9360044E0,2.8135645E0,1.2896595E0,2.4503462E0,3.670438E0,0E0,0E0,0E0,0E0,0E0,0E0,0E0,0E0],"parents":[2147483647,0,0,1,1,3,3,4,4,5,5,6,6,7,7,8,8],"right_children":[2,4,-1,6,8,10,12,14,16,-1,-1,-1,-1,-1,-1,-1,-1],"split_conditions":[5.7E1,7.973E3,-1.855753E-1,4.65E1,2.95E1,5.2975E3,3.5E0,8.5675E3,3.85E1,-5.1422594E-3,-1.4720476E-1,-1.0788503E-2,2.4629547E-1,-6.59673E-2,3.5886016E-1,-1.7778638E-1,1.8820809E-1],"split_indices":[0,1,0,0,4,1,3,1,4,0,0,0,0,0,0,0,0],"split_type":[0,0,0,0,0,0,0,0,0,0,0,0,0,0,0,0,0],"sum_hessian":[1.4901627E2,1.4703476E2,1.9815087E0,1.346257E2,1.2409045E1,1.2875844E2,5.8672748E0,4.534534E0,7.8745112E0,1.1567331E2,1.3085123E1,3.4679797E0,2.3992953E0,1.3388284E0,3.1957054E0,3.8079724E0,4.066539E0],"tree_param":{"num_deleted":"0","num_feature":"7","num_nodes":"17","size_leaf_vector":"0"}},{"base_weights":[-1.3993353E-2,-3.6117825E-1,5.2039037E-3,-8.0816376E-1,2.4517779E-1,-5.8400905E-1,1.663117E-2,6.960089E-1,-1.3482878E-1,5.993229E-1,-1.1112748E-2,9.560565E-1,-9.766141E-3,-7.746083E-1,6.2680882E-3],"categories":[],"categories_nodes":[],"categories_segments":[],"categories_sizes":[],"default_left":[1,1,1,0,1,0,1,0,0,1,1,0,0,0,0],"id":12,"left_children":[1,3,5,-1,7,-1,9,-1,-1,11,13,-1,-1,-1,-1],"loss_changes":[9.906265E-1,2.308735E0,9.628627E-1,0E0,7.91409E-1,0E0,2.2673519E0,0E0,0E0,1.3942726E0,1.7892603E0,0E0,0E0,0E0,0E0],"parents":[2147483647,0,0,1,1,2,2,4,4,6,6,9,9,10,10],"right_children":[2,4,6,-1,8,-1,10,-1,-1,12,14,-1,-1,-1,-1],"split_conditions":[7.5E0,3.5E0,6.34E2,-2.4244913E-1,3.55E1,-1.7520273E-1,7.995E2,2.0880269E-1,-4.0448636E-2,3.65E1,8.97E2,2.8681695E-1,-2.9298423E-3,-2.323825E-1,1.8804265E-3],"split_indices":[0,3,1,0,4,0,1,0,0,4,1,0,0,0,0],"split_type":[0,0,0,0,0,0,0,0,0,0,0,0,0,0,0],"sum_hessian":[1.473492E2,6.7872286E0,1.4056198E2,3.71548E0,3.0717487E0,1.7209258E0,1.3884105E2,1.0246073E0,2.0471413E0,5.373893E0,1.3346716E2,3.029761E0,2.3441317E0,2.0010123E0,1.3146614E2],"tree_param":{"num_deleted":"0","num_feature":"7","num_nodes":"15","size_leaf_vector":"0"}},{"base_weights":[-1.200869E-2,-2.7074767E-2,3.3740872E-1,-3.4276643E-1,-1.0678021E-2,8.032226E-1,-1.5081425E-1,-8.300784E-1,2.1067621E-1,1.4044403E-1,-6.3175686E-2,-5.2921855E-1,4.2342073E-1,-2.507393E-1,4.9159288E-1,-9.5301375E-2,4.311006E-1,-8.78814E-1,-3.6829878E-2],"categories":[],"categories_nodes":[],"categories_segments":[],"categories_sizes":[],"default_left":[1,1,1,1,1,0,1,0,1,1,1,0,0,0,0,0,0,0,0],"id":13,"left_children":[1,3,5,7,9,-1,11,-1,13,15,17,-1,-1,-1,-1,-1,-1,-1,-1],"loss_changes":[7.8676254E-1,7.3414904E-1,1.526639E0,2.0642529E0,1.0920415E0,0E0,1.0627081E0,0E0,6.518167E-1,2.4743142E0,2.1598914E0,0E0,0E0,0E0,0E0,0E0,0E0,0E0,0E0],"parents":[2147483647,0,0,1,1,2,2,3,3,4,4,6,6,8,8,9,9,10,10],"right_children":[2,4,6,8,10,-1,12,-1,14,16,18,-1,-1,-1,-1,-1,-1,-1,-1],"split_conditions":[1.1191E4,7.5E0,3.75E1,3.5E0,1.387E3,2.4096678E-1,1.44805E4,-2.4902354E-1,1.1835E3,1.1865E3,1.42E3,-1.5876557E-1,1.2702623E-1,-7.522179E-2,1.4747787E-1,-2.8590413E-2,1.2933019E-1,-2.6364422E-1,-1.1048963E-2],"split_indices":[1,0,0,3,1,0,1,0,1,1,1,0,0,0,0,0,0,0,0],"split_type":[0,0,0,0,0,0,0,0,0,0,0,0,0,0,0,0,0,0,0],"sum_hessian":[1.4671574E2,1.4153557E2,5.180174E0,6.005488E0,1.3553008E2,2.3207493E0,2.8594246E0,2.9277382E0,3.0777495E0,3.4510735E1,1.0101934E2,1.7708676E0,1.088557E0,1.2053479E0,1.8724016E0,1.9426462E1,1.5084274E1,2.1484585E0,9.887088E1],"tree_param":{"num_deleted":"0","num_feature":"7","num_nodes":"19","size_leaf_vector":"0"}},{"base_weights":[-1.0374007E-2,-1.7723672E-4,-5.1495737E-1,-3.759512E-2,2.1713042E-1,-2.5109833E-3,-6.0574335E-1,6.737438E-1,6.720302E-2,-2.9108593E-2,6.1700594E-1,-8.402497E-1,2.8701705E-1,9.97573E-1,6.933755E-2,-9.033157E-1,2.1978118E-1],"categories":[],"categories_nodes":[],"categories_segments":[],"categories_sizes":[],"default_left":[1,1,0,1,1,1,1,1,1,0,0,0,0,0,0,0,0],"id":14,"left_children":[1,3,-1,5,7,9,11,13,15,-1,-1,-1,-1,-1,-1,-1,-1],"loss_changes":[7.5431275E-1,1.1849184E0,0E0,2.4764435E0,1.4201792E0,1.9637873E0,1.7539899E0,9.447863E-1,2.7493365E0,0E0,0E0,0E0,0E0,0E0,0E0,0E0,0E0],"parents":[2147483647,0,0,1,1,3,3,4,4,5,5,6,6,7,7,8,8],"right_children":[2,4,-1,6,8,10,12,14,16,-1,-1,-1,-1,-1,-1,-1,-1],"split_conditions":[5.7E1,6.4095E3,-1.5448722E-1,5.2975E3,7.201E3,4.814E3,3.8E1,3.5E0,7.4785E3,-8.732579E-3,1.8510179E-1,-2.5207493E-1,8.6105116E-2,2.992719E-1,2.0801265E-2,-2.7099472E-1,6.593435E-2],"split_indices":[0,1,0,1,1,1,0,3,1,0,0,0,0,0,0,0,0],"split_type":[0,0,0,0,0,0,0,0,0,0,0,0,0,0,0,0,0],"sum_hessian":[1.4562515E2,1.4372115E2,1.9040082E0,1.2331475E2,2.040639E1,1.1708874E2,6.2260127E0,4.180527E0,1.622586E1,1.1318251E2,3.9062304E0,4.9773917E0,1.2486211E0,2.2985225E0,1.8820047E0,1.5359088E0,1.4689953E1],"tree_param":{"num_deleted":"0","num_feature":"7","num_nodes":"17","size_leaf_vector":"0"}},{"base_weights":[-8.345023E-3,2.501638E-2,-1.6028452E-1,3.9076276E-2,-7.644372E-1,-3.9146644E-1,2.3979494E-1,2.2854222E-2,7.128108E-1,1.14229225E-1,-6.449066E-1,-9.180046E-2,6.439685E-1,-2.4469554E-1,6.824171E-2,8.544523E-1,-4.7568956E-1,-8.144618E-1,6.5525826E-3,4.6605125E-1,-4.5161822E-1,1.025594E-1,8.590876E-1],"categories":[],"categories_nodes":[],"categories_segments":[],"categories_sizes":[],"default_left":[1,1,1,1,0,1,1,1,0,1,1,1,1,0,0,0,0,0,0,0,0,0,0],"id":15,"left_children":[1,3,5,7,-1,9,11,13,-1,15,17,19,21,-1,-1,-1,-1,-1,-1,-1,-1,-1,-1],"loss_changes":[7.4184287E-1,1.3642563E0,2.5302324E0,1.2850306E0,0E0,2.2620037E0,1.4351209E0,1.4411237E0,0E0,3.2666216E0,1.2783289E0,1.5182228E0,4.6533227E-1,0E0,0E0,0E0,0E0,0E0,0E0,0E0,0E0,0E0,0E0],"parents":[2147483647,0,0,1,1,2,2,3,3,5,5,6,6,7,7,9,9,10,10,11,11,12,12],"right_children":[2,4,6,8,-1,10,12,14,-1,16,18,20,22,-1,-1,-1,-1,-1,-1,-1,-1,-1,-1],"split_conditions":[4.45E1,5.4E1,3.9015E3,4.35E1,-2.2933117E-1,1.2475E3,2.5E0,1.5E0,2.1384326E-1,4.85E1,6.05E1,1.9E1,5.707E3,-7.340866E-2,2.0472514E-2,2.563357E-1,-1.4270687E-1,-2.4433856E-1,1.965775E-3,1.3981538E-1,-1.3548547E-1,3.0767823E-2,2.5772628E-1],"split_indices":[4,0,1,4,0,1,2,3,0,4,4,0,1,0,0,0,0,0,0,0,0,0,0],"split_type":[0,0,0,0,0,0,0,0,0,0,0,0,0,0,0,0,0,0,0,0,0,0,0],"sum_hessian":[1.4456036E2,1.192188E2,2.5341558E1,1.1806658E2,1.1522229E0,1.6074562E1,9.266997E0,1.1630025E2,1.7663339E0,5.5499296E0,1.0524632E1,5.5151124E0,3.751885E0,1.6230946E1,1.000693E2,2.2625213E0,3.2874084E0,8.152555E0,2.3720767E0,2.0467086E0,3.4684038E0,1.4867661E0,2.2651188E0],"tree_param":{"num_deleted":"0","num_feature":"7","num_nodes":"23","size_leaf_vector":"0"}},{"base_weights":[-6.924559E-3,4.563334E-2,-8.8201724E-2,4.482016E-1,1.3507421E-3,-5.078188E-1,-1.1729797E-2,1.1479361E-1,1.1216422E0,-6.6309714E-1,4.1442968E-2,-8.520676E-1,-1.9233447E-1,2.6663926E-1,-1.3295431E-1,5.178306E-1,-4.9460366E-1,-1.1084049E0,2.1927845E-1,6.4549536E-1,2.1622604E-2,1.20919004E-1,-6.754363E-1,5.625152E-1,-4.035705E-1,-2.755139E-1,2.1032037E-1],"categories":[],"categories_nodes":[],"categories_segments":[],"categories_sizes":[],"default_left":[1,1,1,1,1,1,1,1,0,1,1,0,1,1,1,0,0,0,0,0,0,0,0,0,0,0,0],"id":16,"left_children":[1,3,5,7,9,11,13,15,-1,17,19,-1,21,23,25,-1,-1,-1,-1,-1,-1,-1,-1,-1,-1,-1,-1],"loss_changes":[6.204849E-1,1.5734618E0,1.8235195E0,1.8352646E0,2.1732872E0,7.880244E-1,1.6973274E0,1.9667159E0,0E0,2.0672617E0,9.0682817E-1,0E0,9.6924734E-1,3.255639E0,1.7695124E0,0E0,0E0,0E0,0E0,0E0,0E0,0E0,0E0,0E0,0E0,0E0,0E0],"parents":[2147483647,0,0,1,1,2,2,3,3,4,4,5,5,6,6,7,7,9,9,10,10,12,12,13,13,14,14],"right_children":[2,4,6,8,10,12,14,16,-1,18,20,-1,22,24,26,-1,-1,-1,-1,-1,-1,-1,-1,-1,-1,-1,-1],"split_conditions":[3.45E1,9.555E2,1.15E1,8.93E2,1.1075E3,3.5E0,2.5E0,7.61E2,3.364927E-1,1.65E1,1.147E3,-2.556203E-1,1.5E0,3.3E1,4.95E1,1.553492E-1,-1.483811E-1,-3.3252147E-1,6.578354E-2,1.9364862E-1,6.4867814E-3,3.6275703E-2,-2.026309E-1,1.6875456E-1,-1.2107115E-1,-8.265417E-2,6.309611E-2],"split_indices":[4,1,0,1,1,3,3,1,0,0,1,0,5,0,4,0,0,0,0,0,0,0,0,0,0,0,0],"split_type":[0,0,0,0,0,0,0,0,0,0,0,0,0,0,0,0,0,0,0,0,0,0,0,0,0,0,0],"sum_hessian":[1.4331065E2,8.729795E1,5.6012695E1,7.74724E0,7.955071E1,7.7648396E0,4.8247856E1,5.96469E0,1.7825495E0,3.6426039E0,7.590811E1,2.899812E0,4.8650274E0,1.4273024E1,3.397483E1,3.6806664E0,2.284024E0,2.2506235E0,1.3919803E0,1.4087032E0,7.4499405E1,3.4061263E0,1.4589014E0,1.0013205E1,4.2598186E0,2.4144985E1,9.829846E0],"tree_param":{"num_deleted":"0","num_feature":"7","num_nodes":"27","size_leaf_vector":"0"}},{"base_weights":[-7.6288786E-3,-4.5137694E-1,5.330027E-3,-3.354096E-2,-7.2921574E-1,7.5980705E-1,-8.9481445E-3,-6.8238586E-1,1.1682106E-3,6.169733E-1,-1.4704157E-2],"categories":[],"categories_nodes":[],"categories_segments":[],"categories_sizes":[],"default_left":[1,1,1,0,0,0,1,0,1,0,0],"id":17,"left_children":[1,3,5,-1,-1,-1,7,-1,9,-1,-1],"loss_changes":[8.284055E-1,4.5005232E-1,1.5209078E0,0E0,0E0,0E0,9.4729275E-1,0E0,1.3566773E0,0E0,0E0],"parents":[2147483647,0,0,1,1,2,2,6,6,8,8],"right_children":[2,4,6,-1,-1,-1,8,-1,10,-1,-1],"split_conditions":[6.53E2,3.1E1,6.985E2,-1.00622885E-2,-2.1876474E-1,2.2794212E-1,7.18E2,-2.0471577E-1,7.995E2,1.8509199E-1,-4.411247E-3],"split_indices":[1,4,1,0,0,0,1,0,1,0,0],"split_type":[0,0,0,0,0,0,0,0,0,0,0],"sum_hessian":[1.4263988E2,3.0874033E0,1.3955247E2,1.6806419E0,1.4067614E0,1.6221358E0,1.3793034E2,1.0578282E0,1.3687251E2,2.4876459E0,1.3438486E2],"tree_param":{"num_deleted":"0","num_feature":"7","num_nodes":"11","size_leaf_vector":"0"}},{"base_weights":[-5.8993E-3,-3.9530602E-1,4.949632E-3,-2.7267966E-2,-6.611167E-1,6.050921E-1,-6.638148E-3,-1.9058903E-1,1.8964007E-2,1.3271254E-1,-4.9308568E-1,1.105201E0,-1.8491283E-2],"categories":[],"categories_nodes":[],"categories_segments":[],"categories_sizes":[],"default_left":[1,1,1,0,0,0,1,1,1,0,0,0,0],"id":18,"left_children":[1,3,5,-1,-1,-1,7,9,11,-1,-1,-1,-1],"loss_changes":[6.075816E-1,3.633089E-1,9.8080057E-1,0E0,0E0,0E0,6.5723085E-1,1.7325604E0,5.0141134E0,0E0,0E0,0E0,0E0],"parents":[2147483647,0,0,1,1,2,2,6,6,7,7,8,8],"right_children":[2,4,6,-1,-1,-1,8,10,12,-1,-1,-1,-1],"split_conditions":[6.53E2,3.1E1,6.985E2,-8.18039E-3,-1.9833502E-1,1.8152764E-1,1.1865E3,9.545E2,1.2235E3,3.9813764E-2,-1.479257E-1,3.315603E-1,-5.547385E-3],"split_indices":[1,4,1,0,0,0,1,1,1,0,0,0,0],"split_type":[0,0,0,0,0,0,0,0,0,0,0,0,0],"sum_hessian":[1.4235516E2,2.8980088E0,1.3945715E2,1.677688E0,1.2203208E0,1.6714795E0,1.3778568E2,1.6046646E1,1.2173903E2,8.027892E0,8.018754E0,3.1076343E0,1.1863139E2],"tree_param":{"num_deleted":"0","num_feature":"7","num_nodes":"13","size_leaf_vector":"0"}},{"base_weights":[-3.3183657E-3,8.814765E-3,-3.31402E-1,-5.4008095E-3,3.5377973E-1,-6.008772E-1,2.1062109E-1,2.1004234E-1,-2.5168858E-2,8.910001E-1,-1.4986016E-3,-3.6296284E-1,5.0162166E-1,-1.1984E-1,6.29757E-2,-2.1773824E-1,2.563072E-1],"categories":[],"categories_nodes":[],"categories_segments":[],"categories_sizes":[],"default_left":[1,1,1,1,1,0,0,1,1,0,1,0,0,0,0,0,0],"id":19,"left_children":[1,3,5,7,9,-1,-1,11,13,-1,15,-1,-1,-1,-1,-1,-1],"loss_changes":[5.713988E-1,6.820302E-1,8.742334E-1,5.767705E-1,1.0518609E0,0E0,0E0,2.0841556E0,1.0406398E0,0E0,2.9615846E-1,0E0,0E0,0E0,0E0,0E0,0E0],"parents":[2147483647,0,0,1,1,2,2,3,3,4,4,7,7,8,8,10,10],"right_children":[2,4,6,8,10,-1,-1,12,14,-1,16,-1,-1,-1,-1,-1,-1],"split_conditions":[6.15E1,1.1191E4,4.8275E3,2.25E1,1.5E0,-1.8026318E-1,6.318633E-2,1.322E3,3.5E0,2.6730004E-1,1.5E0,-1.0888886E-1,1.504865E-1,-3.5952E-2,1.889271E-2,-6.5321475E-2,7.689217E-2],"split_indices":[4,1,1,4,2,0,0,1,2,0,5,0,0,0,0,0,0],"split_type":[0,0,0,0,0,0,0,0,0,0,0,0,0,0,0,0,0],"sum_hessian":[1.418091E2,1.376902E2,4.1189017E0,1.3318611E2,4.504089E0,2.6786077E0,1.4402941E0,1.038452E1,1.2280159E2,1.1927003E0,3.3113885E0,3.4195938E0,6.9649253E0,5.903539E1,6.37662E1,1.8853947E0,1.4259938E0],"tree_param":{"num_deleted":"0","num_feature":"7","num_nodes":"17","size_leaf_vector":"0"}},{"base_weights":[-1.3491568E-3,6.7299255E-3,-4.2577612E-1,-1.6497947E-2,2.3391111E-1,7.699341E-4,-4.8785657E-1,-7.063545E-2,6.42081E-1,-2.224515E-2,5.4317117E-1,-7.884962E-1,1.0928261E-1,4.7149098E-1,-4.7625062E-1,7.6511323E-1,5.149619E-2],"categories":[],"categories_nodes":[],"categories_segments":[],"categories_sizes":[],"default_left":[1,1,0,1,1,1,1,1,1,0,0,0,0,0,0,0,0],"id":20,"left_children":[1,3,-1,5,7,9,11,13,15,-1,-1,-1,-1,-1,-1,-1,-1],"loss_changes":[4.8998532E-1,7.446906E-1,0E0,1.0446725E0,1.672338E0,1.569592E0,9.0043855E-1,2.0709167E0,3.741758E-1,0E0,0E0,0E0,0E0,0E0,0E0,0E0,0E0],"parents":[2147483647,0,0,1,1,3,3,4,4,5,5,6,6,7,7,8,8],"right_children":[2,4,-1,6,8,10,12,14,16,-1,-1,-1,-1,-1,-1,-1,-1],"split_conditions":[5.7E1,7.8395E3,-1.2773284E-1,7.201E3,3.5E0,6.4095E3,4.1E1,2.95E1,1.5E0,-6.673545E-3,1.6295135E-1,-2.3654887E-1,3.2784786E-2,1.414473E-1,-1.428752E-1,2.2953399E-1,1.5448857E-2],"split_indices":[0,1,0,1,3,1,4,4,6,0,0,0,0,0,0,0,0],"split_type":[0,0,0,0,0,0,0,0,0,0,0,0,0,0,0,0,0],"sum_hessian":[1.4105968E2,1.3939049E2,1.6691921E0,1.2730202E2,1.2088465E1,1.237663E2,3.5357223E0,7.3966045E0,4.6918607E0,1.19648384E2,4.1179137E0,2.1385682E0,1.3971541E0,3.096096E0,4.3005085E0,3.6383843E0,1.0534761E0],"tree_param":{"num_deleted":"0","num_feature":"7","num_nodes":"17","size_leaf_vector":"0"}},{"base_weights":[-5.425873E-4,-1.4492409E-1,2.1072749E-2,2.6697564E-1,-4.176221E-1,-5.7672784E-3,3.1452087E-1,8.1905985E-1,-2.6314056E-1,-7.2095877E-1,1.0051934E-1,4.7087975E-2,-2.0178625E-1,6.259537E-2,7.4290276E-1,9.729484E-1,2.7988246E-1,-8.02745E-1,3.4228587E-1,6.0214862E-2,-8.6846817E-1,5.0481445E-1,-2.8469977E-1,2.224655E-1,-3.5387855E-2,-1.1733569E-2,-3.9889473E-1,4.8686445E-1,-2.431587E-1,9.6988463E-1,9.469044E-2],"categories":[],"categories_nodes":[],"categories_segments":[],"categories_sizes":[],"default_left":[1,1,1,1,1,1,1,1,1,1,1,1,1,1,1,0,0,0,0,0,0,0,0,0,0,0,0,0,0,0,0],"id":21,"left_children":[1,3,5,7,9,11,13,15,17,19,21,23,25,27,29,-1,-1,-1,-1,-1,-1,-1,-1,-1,-1,-1,-1,-1,-1,-1,-1],"loss_changes":[4.437356E-1,2.1910732E0,9.760264E-1,2.5524273E0,1.8845406E0,1.1938057E0,1.0740666E0,7.240152E-2,1.8527777E0,9.043517E-1,9.434414E-1,1.3218545E0,9.1182715E-1,1.1081973E0,4.6035552E-1,0E0,0E0,0E0,0E0,0E0,0E0,0E0,0E0,0E0,0E0,0E0,0E0,0E0,0E0,0E0,0E0],"parents":[2147483647,0,0,1,1,2,2,3,3,4,4,5,5,6,6,7,7,8,8,9,9,10,10,11,11,12,12,13,13,14,14],"right_children":[2,4,6,8,10,12,14,16,18,20,22,24,26,28,30,-1,-1,-1,-1,-1,-1,-1,-1,-1,-1,-1,-1,-1,-1,-1,-1],"split_conditions":[1.5E0,2.5E0,4.35E1,2.468E3,2.145E3,4.25E1,3.75E1,1.5E0,5.191E3,2.25E1,3.136E3,1.4455E3,1.9E1,2.5E0,1.0212E4,2.918845E-1,8.396474E-2,-2.408235E-1,1.02685764E-1,1.806446E-2,-2.6054046E-1,1.5144435E-1,-8.540993E-2,6.6739656E-2,-1.06163565E-2,-3.5200708E-3,-1.19668424E-1,1.4605933E-1,-7.2947614E-2,2.909654E-1,2.8407134E-2],"split_indices":[3,2,0,1,1,4,4,5,1,4,1,1,0,3,1,0,0,0,0,0,0,0,0,0,0,0,0,0,0,0,0],"split_type":[0,0,0,0,0,0,0,0,0,0,0,0,0,0,0,0,0,0,0,0,0,0,0,0,0,0,0,0,0,0,0],"sum_hessian":[1.4020544E2,1.7514063E1,1.22691376E2,6.9847913E0,1.0529271E1,1.13308075E2,9.383298E0,3.1545057E0,3.8302858E0,6.3943696E0,4.134902E0,8.984242E1,2.3465652E1,6.6302557E0,2.753042E0,1.8282062E0,1.3262997E0,1.8529087E0,1.9773769E0,1.1096618E0,5.2847075E0,1.8660183E0,2.2688837E0,2.8193693E1,6.164873E1,1.2486069E1,1.0979583E1,2.5288475E0,4.101408E0,1.6714958E0,1.0815462E0],"tree_param":{"num_deleted":"0","num_feature":"7","num_nodes":"31","size_leaf_vector":"0"}},{"base_weights":[1.2735456E-3,-7.930278E-2,4.7779568E-2,-1.3496585E-1,2.8578517E-1,2.510372E-1,-3.624049E-2,-5.796832E-2,-4.1440234E-1,-1.5365691E-1,1.0542237E0,1.6318414E-1,1.16216E0,-8.397897E-2,3.4188023E-1,-3.0732635E-1,1.5516151E-1,1.4466693E-1,-8.326253E-1,5.323322E-1,-5.153148E-1,4.55951E-2,9.279703E-1,2.6354083E-1,-1.2831667E-1,-1.2314636E-1,5.9898424E-1],"categories":[],"categories_nodes":[],"categories_segments":[],"categories_sizes":[],"default_left":[1,1,1,1,1,1,1,1,1,1,0,1,0,1,1,0,0,0,0,0,0,0,0,0,0,0,0],"id":22,"left_children":[1,3,5,7,9,11,13,15,17,19,-1,21,-1,23,25,-1,-1,-1,-1,-1,-1,-1,-1,-1,-1,-1,-1],"loss_changes":[5.2805454E-1,1.0866666E0,1.5346642E0,9.5346355E-1,2.5743432E0,1.9117509E0,1.1853786E0,2.0023499E0,2.3771048E0,1.618388E0,0E0,2.2156024E0,0E0,9.228373E-1,9.561532E-1,0E0,0E0,0E0,0E0,0E0,0E0,0E0,0E0,0E0,0E0,0E0,0E0],"parents":[2147483647,0,0,1,1,2,2,3,3,4,4,5,5,6,6,7,7,8,8,9,9,11,11,13,13,14,14],"right_children":[2,4,6,8,10,12,14,16,18,20,-1,22,-1,24,26,-1,-1,-1,-1,-1,-1,-1,-1,-1,-1,-1,-1],"split_conditions":[1.55E1,3.382E3,2.175E3,1.25E1,2.5E0,2.061E3,4.85E1,3.5E0,3.5E0,9.5E0,3.162671E-1,1.5E0,3.48648E-1,2.35E1,4.5585E3,-9.219791E-2,4.6548456E-2,4.340008E-2,-2.4978761E-1,1.5969966E-1,-1.5459445E-1,1.367853E-2,2.783911E-1,7.906225E-2,-3.8495004E-2,-3.694391E-2,1.7969528E-1],"split_indices":[0,1,1,0,2,1,4,2,2,0,0,6,0,4,1,0,0,0,0,0,0,0,0,0,0,0,0],"split_type":[0,0,0,0,0,0,0,0,0,0,0,0,0,0,0,0,0,0,0,0,0,0,0,0,0,0,0],"sum_hessian":[1.3890544E2,5.057463E1,8.833081E1,4.4430813E1,6.143817E0,2.5252718E1,6.307809E1,3.57794E1,8.651414E0,4.417595E0,1.7262219E0,2.4107323E1,1.1453949E0,5.669779E1,6.380303E0,1.6284666E1,1.9494732E1,3.9822032E0,4.6692104E0,1.3620845E0,3.0555103E0,2.1813087E1,2.2942343E0,5.8558183E0,5.084197E1,2.4571166E0,3.923186E0],"tree_param":{"num_deleted":"0","num_feature":"7","num_nodes":"27","size_leaf_vector":"0"}},{"base_weights":[6.2476257E-3,-2.730675E-1,1.9534543E-2,-6.988327E-1,1.538492E-1,-1.4522202E-2,2.331407E-1,4.7819987E-1,-1.3078204E-1,5.1659584E-2,-1.3951242E-1,4.8793292E-1,-2.5088942E-1,1.3532473E-1,-1.0420606E-1,-8.8768595E-1,-5.6861196E-2,2.8252912E-1,9.152921E-1,7.2947964E-2,-5.1006466E-1],"categories":[],"categories_nodes":[],"categories_segments":[],"categories_sizes":[],"default_left":[1,1,1,0,1,1,1,0,0,1,1,1,1,0,0,0,0,0,0,0,0],"id":23,"left_children":[1,3,5,-1,7,9,11,-1,-1,13,15,17,19,-1,-1,-1,-1,-1,-1,-1,-1],"loss_changes":[5.193921E-1,1.262932E0,9.720688E-1,0E0,4.3122888E-1,9.650128E-1,2.3878653E0,0E0,0E0,1.0108284E0,2.444962E0,8.276143E-1,6.243321E-1,0E0,0E0,0E0,0E0,0E0,0E0,0E0,0E0],"parents":[2147483647,0,0,1,1,2,2,4,4,5,5,6,6,9,9,10,10,11,11,12,12],"right_children":[2,4,6,-1,8,10,12,-1,-1,14,16,18,20,-1,-1,-1,-1,-1,-1,-1,-1],"split_conditions":[7.5E0,3.5E0,1.5E0,-2.0964982E-1,3.55E1,3.45E1,2.55E1,1.4345996E-1,-3.9234612E-2,3.1355E3,1.15E1,4.0295E3,4.6965E3,4.059742E-2,-3.126182E-2,-2.663058E-1,-1.705836E-2,8.4758736E-2,2.7458763E-1,2.188439E-2,-1.530194E-1],"split_indices":[0,3,6,0,4,4,0,0,0,1,0,1,1,0,0,0,0,0,0,0,0],"split_type":[0,0,0,0,0,0,0,0,0,0,0,0,0,0,0,0,0,0,0,0,0],"sum_hessian":[1.3751385E2,5.356609E0,1.3215724E2,2.3630264E0,2.9935825E0,1.1478782E2,1.7369423E1,1.0813104E0,1.9122722E0,7.543304E1,3.9354782E1,1.1374075E1,5.9953475E0,4.9170967E1,2.6262074E1,2.946092E0,3.640869E1,8.803776E0,2.5702994E0,2.984623E0,3.0107243E0],"tree_param":{"num_deleted":"0","num_feature":"7","num_nodes":"21","size_leaf_vector":"0"}},{"base_weights":[2.105597E-3,-1.4070898E-1,2.7195143E-2,-3.910079E-2,-8.3773655E-1,7.9201496E-1,-4.8960693E-4,-3.453062E-1,2.103652E-1,2.5404356E-2,1.1039028E0,-5.0621617E-1,2.288311E-2,1.0233862E-1,-1.1973444E0,7.897702E-1,-3.550371E-1,-5.5486057E-2,-9.595726E-1,1.1460819E0,-9.244338E-3],"categories":[],"categories_nodes":[],"categories_segments":[],"categories_sizes":[],"default_left":[1,1,1,1,0,1,1,1,1,0,0,1,1,0,0,0,0,0,0,0,0],"id":24,"left_children":[1,3,5,7,-1,9,11,13,15,-1,-1,17,19,-1,-1,-1,-1,-1,-1,-1,-1],"loss_changes":[4.9817124E-1,1.438788E0,2.5028403E0,1.5379924E0,0E0,9.592426E-1,1.3715783E0,3.5516882E0,3.9469724E0,0E0,0E0,9.9417627E-1,4.013595E0,0E0,0E0,0E0,0E0,0E0,0E0,0E0,0E0],"parents":[2147483647,0,0,1,1,2,2,3,3,5,5,6,6,7,7,8,8,11,11,12,12],"right_children":[2,4,6,8,-1,10,12,14,16,-1,-1,18,20,-1,-1,-1,-1,-1,-1,-1,-1],"split_conditions":[1.1865E3,1.1425E3,1.2235E3,2.75E1,-2.51321E-1,3.2E1,1.263E3,9.795E2,3.55E1,7.6213074E-3,3.3117086E-1,1.247E3,1.286E3,3.0701587E-2,-3.5920334E-1,2.3693107E-1,-1.0651113E-1,-1.6645817E-2,-2.878718E-1,3.438246E-1,-2.7733014E-3],"split_indices":[1,1,1,4,0,4,1,1,4,0,0,1,1,0,0,0,0,0,0,0,0],"split_type":[0,0,0,0,0,0,0,0,0,0,0,0,0,0,0,0,0,0,0,0,0],"sum_hessian":[1.369636E2,1.9777565E1,1.1718602E2,1.8183054E1,1.5945119E0,3.1292381E0,1.14056786E2,7.990718E0,1.0192336E1,1.2176777E0,1.9115604E0,4.1258297E0,1.09930954E2,5.815338E0,2.1753795E0,4.8378468E0,5.354489E0,2.6317325E0,1.4940971E0,2.0927823E0,1.0783817E2],"tree_param":{"num_deleted":"0","num_feature":"7","num_nodes":"21","size_leaf_vector":"0"}},{"base_weights":[-1.3798017E-4,-3.7808663E-1,9.900086E-3,3.2698773E-2,-5.890824E-1,-2.9757747E-1,2.2482704E-2,-5.395696E-1,3.755726E-1,6.515459E-1,1.0932196E-2,-7.8595024E-1,6.745447E-2,-1.6892826E-2,1.789783E-1],"categories":[],"categories_nodes":[],"categories_segments":[],"categories_sizes":[],"default_left":[1,1,1,0,0,1,1,1,0,0,1,0,0,0,0],"id":25,"left_children":[1,3,5,-1,-1,7,9,11,-1,-1,13,-1,-1,-1,-1],"loss_changes":[5.2483326E-1,3.2947487E-1,5.2810365E-1,0E0,0E0,1.0771686E0,9.403839E-1,7.049937E-1,0E0,0E0,6.065338E-1,0E0,0E0,0E0,0E0],"parents":[2147483647,0,0,1,1,2,2,5,5,6,6,7,7,10,10],"right_children":[2,4,6,-1,-1,8,10,12,-1,-1,14,-1,-1,-1,-1],"split_conditions":[6.53E2,4.51E2,7.5E0,9.809632E-3,-1.7672473E-1,2.8125E3,6.99E2,3.5E0,1.12671785E-1,1.9546378E-1,1.5E0,-2.3578508E-1,2.0236343E-2,-5.067848E-3,5.3693492E-2],"split_indices":[1,1,0,0,0,1,1,2,0,0,6,0,0,0,0],"split_type":[0,0,0,0,0,0,0,0,0,0,0,0,0,0,0],"sum_hessian":[1.3635045E2,2.5790734E0,1.3377136E2,1.161937E0,1.4171363E0,4.3685513E0,1.2940282E2,3.3593369E0,1.0092144E0,1.3341471E0,1.2806866E2,2.1798244E0,1.1795126E0,1.1064721E2,1.742146E1],"tree_param":{"num_deleted":"0","num_feature":"7","num_nodes":"15","size_leaf_vector":"0"}},{"base_weights":[-6.998402E-4,-3.0486947E-2,1.1516197E-1,-4.1811362E-2,5.977734E-1,7.465356E-1,5.4026496E-2,-9.480483E-3,-2.8635713E-1,-9.8025E-1,1.5258506E-1,-5.7264194E-2,4.801748E-1,-5.363624E-1,4.0204677E-1,1.0338739E0,3.42179E-2],"categories":[],"categories_nodes":[],"categories_segments":[],"categories_sizes":[],"default_left":[1,1,1,1,0,0,1,1,1,0,1,0,0,0,0,0,0],"id":26,"left_children":[1,3,5,7,-1,-1,9,11,13,-1,15,-1,-1,-1,-1,-1,-1],"loss_changes":[4.7628927E-1,8.0593276E-1,1.0491552E0,8.571483E-1,0E0,0E0,2.8826802E0,2.2991755E0,2.395373E0,0E0,2.608444E0,0E0,0E0,0E0,0E0,0E0,0E0],"parents":[2147483647,0,0,1,1,2,2,3,3,6,6,7,7,8,8,10,10],"right_children":[2,4,6,8,-1,-1,10,12,14,-1,16,-1,-1,-1,-1,-1,-1],"split_conditions":[3.45E1,1.09755E4,2.209E3,5.024E3,1.7933202E-1,2.2396068E-1,2.642E3,3.91E3,4.85E1,-2.94075E-1,3.4905E3,-1.7179258E-2,1.4405245E-1,-1.6090873E-1,1.2061404E-1,3.101622E-1,1.0265371E-2],"split_indices":[0,1,1,1,0,0,1,1,4,0,1,0,0,0,0,0,0],"split_type":[0,0,0,0,0,0,0,0,0,0,0,0,0,0,0,0,0],"sum_hessian":[1.3599002E2,1.0876445E2,2.7225567E1,1.077556E2,1.0088499E0,1.413769E0,2.5811798E1,9.6090454E1,1.1665149E1,1.4673648E0,2.4344433E1,8.8351585E1,7.738864E0,8.719411E0,2.9457378E0,1.9667511E0,2.2377682E1],"tree_param":{"num_deleted":"0","num_feature":"7","num_nodes":"17","size_leaf_vector":"0"}},{"base_weights":[2.6081537E-3,1.0593457E-2,-4.1786677E-1,-1.3016463E-2,2.5905898E-1,6.404397E-3,-3.259382E-1,-3.653661E-2,6.497171E-1,-1.0870389E-2,5.65565E-1,-6.287667E-1,1.3533653E-1,3.7314123E-1,-3.464783E-1,7.875737E-1,8.422816E-2],"categories":[],"categories_nodes":[],"categories_segments":[],"categories_sizes":[],"default_left":[1,1,0,1,1,1,1,1,1,0,0,0,0,0,0,0,0],"id":27,"left_children":[1,3,-1,5,7,9,11,13,15,-1,-1,-1,-1,-1,-1,-1,-1],"loss_changes":[4.609558E-1,7.918507E-1,0E0,7.5382483E-1,1.3761439E0,1.1406428E0,1.0975068E0,1.09604E0,3.3107233E-1,0E0,0E0,0E0,0E0,0E0,0E0,0E0,0E0],"parents":[2147483647,0,0,1,1,3,3,4,4,5,5,6,6,7,7,8,8],"right_children":[2,4,-1,6,8,10,12,14,16,-1,-1,-1,-1,-1,-1,-1,-1],"split_conditions":[5.7E1,7.973E3,-1.2536004E-1,5.55E1,3.5E0,5.25E1,1.5E0,2.95E1,3.5E0,-3.2611168E-3,1.6966951E-1,-1.8863003E-1,4.0600963E-2,1.1194237E-1,-1.039435E-1,2.3627211E-1,2.5268449E-2],"split_indices":[0,1,0,4,3,4,5,4,2,0,0,0,0,0,0,0,0],"split_type":[0,0,0,0,0,0,0,0,0,0,0,0,0,0,0,0,0],"sum_hessian":[1.3496808E2,1.3340929E2,1.5587901E0,1.226978E2,1.0711491E1,1.1645009E2,6.247708E0,6.613665E0,4.0978255E0,1.1391145E2,2.538637E0,3.5524228E0,2.6952848E0,2.7606964E0,3.8529687E0,2.9788916E0,1.1189337E0],"tree_param":{"num_deleted":"0","num_feature":"7","num_nodes":"17","size_leaf_vector":"0"}},{"base_weights":[2.8017575E-3,-3.0647838E-1,1.0852609E-2,3.8473334E-2,-4.9597144E-1,3.9651576E-1,3.3042708E-3,-1.3865206E-1,2.272026E-2,-2.4917412E-1,3.8844657E-1,6.260568E-1,-2.0936672E-3],"categories":[],"categories_nodes":[],"categories_segments":[],"categories_sizes":[],"default_left":[1,1,1,0,0,0,1,1,1,0,0,0,0],"id":28,"left_children":[1,3,5,-1,-1,-1,7,9,11,-1,-1,-1,-1],"loss_changes":[3.4042445E-1,2.4583137E-1,3.8561687E-1,0E0,0E0,0E0,3.652367E-1,1.0258017E0,1.7443048E0,0E0,0E0,0E0,0E0],"parents":[2147483647,0,0,1,1,2,2,6,6,7,7,8,8],"right_children":[2,4,6,-1,-1,-1,8,10,12,-1,-1,-1,-1],"split_conditions":[6.53E2,4.51E2,6.985E2,1.1542001E-2,-1.4879143E-1,1.1895473E-1,1.1865E3,1.5E0,1.2295E3,-7.475224E-2,1.1653397E-1,1.8781705E-1,-6.281002E-4],"split_indices":[1,1,1,0,0,0,1,6,1,0,0,0,0],"split_type":[0,0,0,0,0,0,0,0,0,0,0,0,0],"sum_hessian":[1.3438258E2,2.4689257E0,1.3191365E2,1.1579568E0,1.3109689E0,1.543092E0,1.3037056E2,1.4947034E1,1.1542353E2,1.2792066E1,2.1549685E0,3.6024303E0,1.118211E2],"tree_param":{"num_deleted":"0","num_feature":"7","num_nodes":"13","size_leaf_vector":"0"}},{"base_weights":[3.4032515E-3,1.0006548E-2,-3.4969187E-1,-5.6873625E-3,2.8619513E-1,5.1740124E-3,-4.197033E-1,8.088217E-1,-2.1432461E-2,-8.394351E-3,7.035574E-1,-6.1599094E-1,-4.036051E-2,-3.853143E-1,4.4943675E-1],"categories":[],"categories_nodes":[],"categories_segments":[],"categories_sizes":[],"default_left":[1,1,0,1,1,1,1,0,1,0,0,0,0,0,0],"id":29,"left_children":[1,3,-1,5,7,9,11,-1,13,-1,-1,-1,-1,-1,-1],"loss_changes":[3.1819254E-1,5.8012354E-1,0E0,5.744689E-1,1.1741952E0,1.1904204E0,2.1829629E-1,0E0,1.1161698E0,0E0,0E0,0E0,0E0,0E0,0E0],"parents":[2147483647,0,0,1,1,3,3,4,4,5,5,6,6,8,8],"right_children":[2,4,-1,6,8,10,12,-1,14,-1,-1,-1,-1,-1,-1],"split_conditions":[5.7E1,9.3405E3,-1.04907565E-1,8.4285E3,2.95E1,8.079E3,8.9625E3,2.4264652E-1,3.85E1,-2.5183056E-3,2.1106721E-1,-1.8479729E-1,-1.2108154E-2,-1.1559429E-1,1.3483103E-1],"split_indices":[0,1,0,1,4,1,1,0,4,0,0,0,0,0,0],"split_type":[0,0,0,0,0,0,0,0,0,0,0,0,0,0,0],"sum_hessian":[1.3396931E2,1.3246375E2,1.505568E0,1.26268196E2,6.195551E0,1.24002594E2,2.2656054E0,1.6919258E0,4.503625E0,1.22608505E2,1.3940879E0,1.0819318E0,1.1836736E0,2.642912E0,1.8607134E0],"tree_param":{"num_deleted":"0","num_feature":"7","num_nodes":"15","size_leaf_vector":"0"}},{"base_weights":[3.8470314E-3,-2.3162173E-1,1.383715E-2,-6.2707555E-1,1.1981966E-1,2.9528615E-1,-2.0390484E-3,3.0708292E-1,-6.985992E-2,7.257734E-1,-3.8817906E-1,-4.2320707E-1,1.5335725E-2,9.89162E-1,1.9999032E-1,-5.978368E-1,4.356259E-2,2.0943398E-3,-8.169733E-1,-3.382373E-1,2.4885455E-2],"categories":[],"categories_nodes":[],"categories_segments":[],"categories_sizes":[],"default_left":[1,1,1,0,1,1,1,0,0,1,1,1,1,0,0,0,0,0,0,0,0],"id":30,"left_children":[1,3,5,-1,7,9,11,-1,-1,13,15,17,19,-1,-1,-1,-1,-1,-1,-1,-1],"loss_changes":[3.1951264E-1,8.4355307E-1,5.811954E-1,0E0,1.5525642E-1,2.325097E0,9.1381127E-1,0E0,0E0,4.405315E-1,3.27958E-1,8.302434E-1,4.137441E-1,0E0,0E0,0E0,0E0,0E0,0E0,0E0,0E0],"parents":[2147483647,0,0,1,1,2,2,4,4,5,5,6,6,9,9,10,10,11,11,12,12],"right_children":[2,4,6,-1,8,10,12,-1,-1,14,16,18,20,-1,-1,-1,-1,-1,-1,-1,-1],"split_conditions":[7.5E0,3.5E0,9.5E0,-1.8812267E-1,3.55E1,3.5E0,1.15E1,9.212488E-2,-2.0957977E-2,2.95E1,1.3385E3,1.5E0,6.835E2,2.967486E-1,5.9997097E-2,-1.7935105E-1,1.30687775E-2,6.28302E-4,-2.45092E-1,-1.0147119E-1,7.465637E-3],"split_indices":[0,3,0,0,4,3,0,0,0,4,1,5,1,0,0,0,0,0,0,0,0],"split_type":[0,0,0,0,0,0,0,0,0,0,0,0,0,0,0,0,0,0,0,0,0],"sum_hessian":[1.3346391E2,4.529022E0,1.2893489E2,1.76203E0,2.7669923E0,5.9449587E0,1.2298993E2,1.0809028E0,1.6860894E0,3.6095474E0,2.335411E0,3.947368E0,1.1904256E2,1.817678E0,1.7918694E0,1.3130652E0,1.022346E0,2.375887E0,1.571481E0,2.2255194E0,1.1681704E2],"tree_param":{"num_deleted":"0","num_feature":"7","num_nodes":"21","size_leaf_vector":"0"}},{"base_weights":[1.3914355E-4,8.44242E-3,-2.4534772E-1,-1.6313741E-3,5.0022596E-1,1.8005799E-1,-6.1796534E-1,9.402927E-3,-5.087275E-1,-1.1726472E-3,3.5089886E-1],"categories":[],"categories_nodes":[],"categories_segments":[],"categories_sizes":[],"default_left":[1,1,1,1,0,0,0,1,0,0,0],"id":31,"left_children":[1,3,5,7,-1,-1,-1,9,-1,-1,-1],"loss_changes":[2.7585873E-1,6.4926505E-1,8.131325E-1,7.280519E-1,0E0,0E0,0E0,4.6084052E-1,0E0,0E0,0E0],"parents":[2147483647,0,0,1,1,2,2,3,3,7,7],"right_children":[2,4,6,8,-1,-1,-1,10,-1,-1,-1],"split_conditions":[6.15E1,5.95E1,1.95E1,5.55E1,1.5006779E-1,5.40174E-2,-1.8538961E-1,5.25E1,-1.5261826E-1,-3.5179418E-4,1.0526966E-1],"split_indices":[4,4,0,4,0,0,0,4,0,0,0],"split_type":[0,0,0,0,0,0,0,0,0,0,0],"sum_hessian":[1.3331847E2,1.2989069E2,3.4277754E0,1.2826007E2,1.6306226E0,1.8418123E0,1.585963E0,1.2648914E2,1.7709188E0,1.2365628E2,2.8328679E0],"tree_param":{"num_deleted":"0","num_feature":"7","num_nodes":"11","size_leaf_vector":"0"}},{"base_weights":[-3.4407256E-4,2.0396324E-2,-1.0632762E-1,-5.9273457E-3,4.2311537E-1,-2.6628762E-1,1.4325187E-1,-2.0557712E-1,2.7029362E-2,9.007918E-1,-4.0453205E-1,-6.541711E-2,-7.766894E-1,-1.2378285E-1,5.1239115E-1,1.3750763E-1,-4.1392523E-1,1.8618795E-1,-3.148385E-2,-1.3840444E-1,1.244825E0,6.4207196E-2,-6.666244E-1,-3.539673E-1,1.2389704E-1,3.0615264E-1,-3.9426517E-1,1.1381377E-1,6.5785104E-1],"categories":[],"categories_nodes":[],"categories_segments":[],"categories_sizes":[],"default_left":[1,1,1,1,1,1,1,1,1,1,1,1,0,1,1,0,0,0,0,0,0,0,0,0,0,0,0,0,0],"id":32,"left_children":[1,3,5,7,9,11,13,15,17,19,21,23,-1,25,27,-1,-1,-1,-1,-1,-1,-1,-1,-1,-1,-1,-1,-1,-1],"loss_changes":[2.9745278E-1,1.2024059E0,9.223064E-1,7.110983E-1,3.1153564E0,1.3687855E0,9.80195E-1,1.1512073E0,8.712116E-1,1.8604431E0,4.4041014E-1,6.462772E-1,0E0,8.4193355E-1,1.627425E-1,0E0,0E0,0E0,0E0,0E0,0E0,0E0,0E0,0E0,0E0,0E0,0E0,0E0,0E0],"parents":[2147483647,0,0,1,1,2,2,3,3,4,4,5,5,6,6,7,7,8,8,9,9,10,10,11,11,13,13,14,14],"right_children":[2,4,6,8,10,12,14,16,18,20,22,24,-1,26,28,-1,-1,-1,-1,-1,-1,-1,-1,-1,-1,-1,-1,-1,-1],"split_conditions":[4.45E1,4.15E1,3.9015E3,1.5E0,1.5E0,2.7095E3,2.5E0,2.5E0,1.387E3,2.1285E3,3.5E0,3.5E0,-2.3300683E-1,1.9E1,5.707E3,4.1252293E-2,-1.24177575E-1,5.5856388E-2,-9.445156E-3,-4.1521333E-2,3.734475E-1,1.926216E-2,-1.9998734E-1,-1.061902E-1,3.7169114E-2,9.1845796E-2,-1.18279554E-1,3.4144133E-2,1.9735532E-1],"split_indices":[4,4,1,3,6,1,2,2,1,1,3,3,0,0,1,0,0,0,0,0,0,0,0,0,0,0,0,0,0],"split_type":[0,0,0,0,0,0,0,0,0,0,0,0,0,0,0,0,0,0,0,0,0,0,0,0,0,0,0,0,0],"sum_hessian":[1.3333357E2,1.1218678E2,2.1146784E1,1.0622846E2,5.9583254E0,1.2846368E1,8.300415E0,1.4308802E1,9.191966E1,3.7218719E0,2.2364535E0,1.0027985E1,2.818383E0,5.2019825E0,3.0984328E0,5.5347667E0,8.7740345E0,2.4122738E1,6.779692E1,1.0743525E0,2.6475194E0,1.0728087E0,1.1636447E0,3.6281974E0,6.3997874E0,1.957937E0,3.2440453E0,1.3050047E0,1.7934281E0],"tree_param":{"num_deleted":"0","num_feature":"7","num_nodes":"29","size_leaf_vector":"0"}},{"base_weights":[-1.2201085E-3,3.441357E-2,-5.998914E-2,1.938229E-3,2.624532E-1,-3.2458743E-1,6.7234747E-3,-2.4168338E-1,4.5486834E-2,1.1746794E0,-2.1356666E-2,-6.175398E-1,8.077643E-2,2.180809E-1,-8.1710935E-2,-7.888973E-2,-7.9318875E-1,-1.3326685E-1,9.321691E-2,5.41208E-1,-2.421585E-1,-1.7329217E-1,-8.243747E-1,7.0960265E-1,-7.891839E-1,4.096581E-1,-3.6312163E-1,-2.2174864E-1,4.416927E-1],"categories":[],"categories_nodes":[],"categories_segments":[],"categories_sizes":[],"default_left":[1,1,1,1,1,1,1,1,1,0,1,1,1,1,1,0,0,0,0,0,0,0,0,0,0,0,0,0,0],"id":33,"left_children":[1,3,5,7,9,11,13,15,17,-1,19,21,23,25,27,-1,-1,-1,-1,-1,-1,-1,-1,-1,-1,-1,-1,-1,-1],"loss_changes":[2.813085E-1,6.189535E-1,8.970938E-1,7.9849833E-1,2.722776E0,1.264563E0,7.929212E-1,9.622608E-1,5.5686605E-1,0E0,1.2402331E0,4.1335487E-1,3.391223E0,1.5411527E0,2.2941506E0,0E0,0E0,0E0,0E0,0E0,0E0,0E0,0E0,0E0,0E0,0E0,0E0,0E0,0E0],"parents":[2147483647,0,0,1,1,2,2,3,3,4,4,5,5,6,6,7,7,8,8,10,10,11,11,12,12,13,13,14,14],"right_children":[2,4,6,8,10,12,14,16,18,-1,20,22,24,26,28,-1,-1,-1,-1,-1,-1,-1,-1,-1,-1,-1,-1,-1,-1],"split_conditions":[3.45E1,3.25E1,3.65E1,1.5E0,1.3755E3,2.3815E3,2.5E0,2.95E1,1.263E3,3.5240382E-1,1.5E0,1.3E1,4.46E3,4.65E1,3.3E1,-2.366692E-2,-2.3795663E-1,-3.9980058E-2,2.7965074E-2,1.6236241E-1,-7.264756E-2,-5.1987655E-2,-2.4731241E-1,2.128808E-1,-2.3675518E-1,1.2289744E-1,-1.08936496E-1,-6.6524595E-2,1.3250782E-1],"split_indices":[4,4,4,3,1,1,3,4,1,0,3,0,1,4,0,0,0,0,0,0,0,0,0,0,0,0,0,0,0],"split_type":[0,0,0,0,0,0,0,0,0,0,0,0,0,0,0,0,0,0,0,0,0,0,0,0,0,0,0,0,0],"sum_hessian":[1.3234442E2,8.264709E1,4.969733E1,7.322723E1,9.419859E0,9.228685E0,4.0468647E1,1.0414761E1,6.2812466E1,1.4904059E0,7.929453E0,5.053297E0,4.1753883E0,1.1505232E1,2.8963415E1,8.923701E0,1.4910586E0,1.2859673E1,4.9952793E1,1.8260053E0,6.1034474E0,2.1891618E0,2.8641353E0,2.530567E0,1.644821E0,8.874992E0,2.6302397E0,2.3304565E1,5.6588497E0],"tree_param":{"num_deleted":"0","num_feature":"7","num_nodes":"29","size_leaf_vector":"0"}},{"base_weights":[-2.8181134E-3,3.7871415E-3,-3.5791805E-1,-1.1119762E-2,1.955832E-1,6.123742E-4,-3.5101992E-1,-4.5815912E-1,3.5409078E-1,-2.134342E-2,3.210657E-1,3.3047214E-1,-9.218989E-1,1.1420554E-1,6.1591935E-1],"categories":[],"categories_nodes":[],"categories_segments":[],"categories_sizes":[],"default_left":[1,1,0,1,1,1,1,0,1,0,0,0,0,0,0],"id":34,"left_children":[1,3,-1,5,7,9,11,-1,13,-1,-1,-1,-1,-1,-1],"loss_changes":[3.119187E-1,3.7665278E-1,0E0,4.8862967E-1,1.1466104E0,8.468605E-1,1.8951797E0,0E0,4.453107E-1,0E0,0E0,0E0,0E0,0E0,0E0],"parents":[2147483647,0,0,1,1,3,3,4,4,5,5,6,6,8,8],"right_children":[2,4,-1,6,8,10,12,-1,14,-1,-1,-1,-1,-1,-1],"split_conditions":[5.7E1,4.35E1,-1.0737542E-1,3.75E1,1.5E0,7.8395E3,3.5E0,-1.3744774E-1,3.25E1,-6.403026E-3,9.631971E-2,9.914165E-2,-2.765697E-1,3.4261663E-2,1.8477581E-1],"split_indices":[0,0,0,0,3,1,3,0,4,0,0,0,0,0,0],"split_type":[0,0,0,0,0,0,0,0,0,0,0,0,0,0,0],"sum_hessian":[1.3140665E2,1.2997824E2,1.4284053E0,1.2147862E2,8.499622E0,1.1839041E2,3.0882146E0,1.2897547E0,7.209867E0,1.11672585E2,6.7178283E0,1.5996886E0,1.4885261E0,4.5121007E0,2.6977663E0],"tree_param":{"num_deleted":"0","num_feature":"7","num_nodes":"15","size_leaf_vector":"0"}},{"base_weights":[-2.9231876E-3,3.6736496E-2,-7.987306E-2,-3.15255E-3,7.208576E-1,-8.060725E-1,7.843045E-3,3.1159129E-2,-8.80168E-1,1.3407081E0,1.08996116E-1,-9.410492E-1,-2.314805E-1,3.2085153E-1,-8.305894E-2,-3.8202638E-3,1.0216444E0,4.942165E-1,-3.162842E-1,-1.533361E-1,7.588519E-1,-8.3402103E-1,-3.2324936E-2],"categories":[],"categories_nodes":[],"categories_segments":[],"categories_sizes":[],"default_left":[1,1,1,1,1,1,1,1,0,0,1,0,0,1,1,0,0,0,0,0,0,0,0],"id":35,"left_children":[1,3,5,7,9,11,13,15,-1,-1,17,-1,-1,19,21,-1,-1,-1,-1,-1,-1,-1,-1],"loss_changes":[4.046043E-1,2.3910975E0,2.8778193E0,2.5464451E0,1.6846583E0,1.5969658E-1,1.1992321E0,2.8284664E0,0E0,0E0,7.3261654E-1,0E0,0E0,2.0853822E0,1.2200569E0,0E0,0E0,0E0,0E0,0E0,0E0,0E0,0E0],"parents":[2147483647,0,0,1,1,2,2,3,3,4,4,5,5,6,6,7,7,10,10,13,13,14,14],"right_children":[2,4,6,8,10,12,14,16,-1,-1,18,-1,-1,20,22,-1,-1,-1,-1,-1,-1,-1,-1],"split_conditions":[3.554E3,3.344E3,3.792E3,3.1235E3,3.39E3,1.5E0,4.4945E3,3.024E3,-2.6405042E-1,4.0221247E-1,3E1,-2.8231478E-1,-6.944415E-2,4.076E3,4.587E3,-1.1460792E-3,3.064933E-1,1.4826496E-1,-9.488527E-2,-4.600083E-2,2.2765557E-1,-2.5020632E-1,-9.697481E-3],"split_indices":[1,1,1,1,1,5,1,1,0,0,4,0,0,1,1,0,0,0,0,0,0,0,0],"split_type":[0,0,0,0,0,0,0,0,0,0,0,0,0,0,0,0,0,0,0,0,0,0,0],"sum_hessian":[1.306171E2,8.6538216E1,4.4078884E1,8.2710976E1,3.8272367E0,3.8678117E0,4.021107E1,8.052505E1,2.1859286E0,1.3094717E0,2.5177648E0,2.6156116E0,1.2522E0,8.480386E0,3.1730686E1,7.874044E1,1.7846079E0,1.2360504E0,1.2817144E0,4.3840485E0,4.0963373E0,1.0309863E0,3.06997E1],"tree_param":{"num_deleted":"0","num_feature":"7","num_nodes":"23","size_leaf_vector":"0"}},{"base_weights":[-2.970773E-3,4.3427333E-2,-6.5586746E-2,8.588704E-3,4.3168533E-1,-9.314622E-1,-1.002655E-2,3.575739E-2,-5.594457E-1,-2.55082E-1,1.0383596E0,4.3895492E-1,-4.882296E-2,6.0256575E-3,7.0135E-1,-7.487611E-1,-1.4300275E-1,2.7277374E-1,-5.755921E-1,-1.17930904E-1,1.142469E0,-7.933266E-1,-3.915362E-3],"categories":[],"categories_nodes":[],"categories_segments":[],"categories_sizes":[],"default_left":[1,1,1,1,1,0,1,1,1,1,0,1,1,0,0,0,0,0,0,0,0,0,0],"id":36,"left_children":[1,3,5,7,9,-1,11,13,15,17,-1,19,21,-1,-1,-1,-1,-1,-1,-1,-1,-1,-1],"loss_changes":[3.8332102E-1,1.0219018E0,2.6913083E0,1.1095532E0,2.8576903E0,0E0,9.5792013E-1,1.3477165E0,1.5172851E-1,7.8664994E-1,0E0,1.849241E0,1.6815153E0,0E0,0E0,0E0,0E0,0E0,0E0,0E0,0E0,0E0,0E0],"parents":[2147483647,0,0,1,1,2,2,3,3,4,4,6,6,7,7,8,8,9,9,11,11,12,12],"right_children":[2,4,6,8,10,-1,12,14,16,18,-1,20,22,-1,-1,-1,-1,-1,-1,-1,-1,-1,-1],"split_conditions":[2.7785E3,2.5785E3,2.9665E3,2.4745E3,3E1,-2.7943867E-1,3.1235E3,2.3955E3,2.55E1,1.9E1,3.115079E-1,3.077E3,3.344E3,1.8076974E-3,2.10405E-1,-2.2462834E-1,-4.2900827E-2,8.1832126E-2,-1.7267764E-1,-3.5379272E-2,3.427407E-1,-2.37998E-1,-1.1746087E-3],"split_indices":[1,1,1,1,4,0,1,1,0,0,0,1,1,0,0,0,0,0,0,0,0,0,0],"split_type":[0,0,0,0,0,0,0,0,0,0,0,0,0,0,0,0,0,0,0,0,0,0,0],"sum_hessian":[1.2995985E2,7.482292E1,5.513694E1,6.959981E1,5.223112E0,2.3740313E0,5.276291E1,6.731712E1,2.28268E0,2.7216692E0,2.501443E0,3.3762355E0,4.9386673E1,6.540459E1,1.9125413E0,1.0206839E0,1.2619962E0,1.0845071E0,1.6371621E0,2.3491058E0,1.0271299E0,1.8614098E0,4.752526E1],"tree_param":{"num_deleted":"0","num_feature":"7","num_nodes":"23","size_leaf_vector":"0"}},{"base_weights":[-3.953539E-3,5.59605E-2,-4.241071E-2,-7.486603E-3,6.760199E-1,4.6494144E-1,-6.613668E-2,4.002196E-2,-3.9193165E-1,-1.3260859E-1,9.4291145E-1,7.564454E-1,-1.2853478E-1,-3.9267427E-1,-2.9389381E-2,-1.318286E-3,7.277278E-1,-9.0248287E-1,1.9519301E-1,-7.267959E-1,2.2587433E-1,1.1594804E-1,-1.5137127E-1],"categories":[],"categories_nodes":[],"categories_segments":[],"categories_sizes":[],"default_left":[1,1,1,1,1,1,1,1,1,0,0,0,0,1,1,0,0,0,0,0,0,0,0],"id":37,"left_children":[1,3,5,7,9,11,13,15,17,-1,-1,-1,-1,19,21,-1,-1,-1,-1,-1,-1,-1,-1],"loss_changes":[3.037053E-1,2.0334005E0,9.964093E-1,8.8801473E-1,1.1602786E0,7.3879147E-1,9.185675E-1,1.2352561E0,1.7785618E0,0E0,0E0,0E0,0E0,1.7678788E0,1.2719026E0,0E0,0E0,0E0,0E0,0E0,0E0,0E0,0E0],"parents":[2147483647,0,0,1,1,2,2,3,3,4,4,5,5,6,6,7,7,8,8,13,13,14,14],"right_children":[2,4,6,8,10,12,14,16,18,-1,-1,-1,-1,20,22,-1,-1,-1,-1,-1,-1,-1,-1],"split_conditions":[1.9245E3,1.804E3,2.15E1,1.557E3,1.65E1,3.0135E3,2.1435E3,1.5335E3,1.6335E3,-3.978258E-2,2.8287345E-1,2.2693363E-1,-3.8560435E-2,2.1E1,2.5E0,-3.9548584E-4,2.1831834E-1,-2.7074486E-1,5.8557905E-2,-2.1803878E-1,6.77623E-2,3.4784414E-2,-4.5411382E-2],"split_indices":[1,1,4,1,0,1,1,1,1,0,0,0,0,0,3,0,0,0,0,0,0,0,0],"split_type":[0,0,0,0,0,0,0,0,0,0,0,0,0,0,0,0,0,0,0,0,0,0,0],"sum_hessian":[1.297794E2,5.0557938E1,7.9221466E1,4.676107E1,3.7968645E0,2.7084353E0,7.651303E1,4.24154E1,4.3456707E0,1.0670502E0,2.7298143E0,1.6321527E0,1.0762826E0,6.7597647E0,6.9753265E1,4.095174E1,1.46366E0,2.0371153E0,2.3085556E0,4.2753468E0,2.4844182E0,3.1852053E1,3.790121E1],"tree_param":{"num_deleted":"0","num_feature":"7","num_nodes":"23","size_leaf_vector":"0"}},{"base_weights":[-1.7740872E-3,-2.0175625E-1,6.5667056E-3,7.54375E-2,-6.445574E-1,5.2488867E-2,-5.4570872E-2,-4.8113564E-1,4.5673728E-1,3.4994368E-2,6.050558E-1,-8.3161795E-1,-9.189768E-3,1.6683624E-3,2.967318E-1,3.7720102E-1,-4.3699477E-2],"categories":[],"categories_nodes":[],"categories_segments":[],"categories_sizes":[],"default_left":[1,1,1,1,0,1,1,0,0,1,0,0,1,0,0,0,0],"id":38,"left_children":[1,3,5,7,-1,9,11,-1,-1,13,-1,-1,15,-1,-1,-1,-1],"loss_changes":[2.1830949E-1,6.9177514E-1,3.5618594E-1,1.0936328E0,0E0,6.784711E-1,1.9131695E0,0E0,0E0,6.206955E-1,0E0,0E0,7.162127E-1,0E0,0E0,0E0,0E0],"parents":[2147483647,0,0,1,1,2,2,3,3,5,5,6,6,9,9,12,12],"right_children":[2,4,6,8,-1,10,12,-1,-1,14,-1,-1,16,-1,-1,-1,-1],"split_conditions":[7.5E0,1.5E0,2.7785E3,3.5E0,-1.9336723E-1,2.7445E3,2.9665E3,-1.443407E-1,1.3702118E-1,1.5E0,1.8151675E-1,-2.4948539E-1,3.1235E3,5.0050876E-4,8.9019544E-2,1.1316031E-1,-1.3109843E-2],"split_indices":[0,6,1,3,0,1,1,0,0,6,0,0,1,0,0,0,0],"split_type":[0,0,0,0,0,0,0,0,0,0,0,0,0,0,0,0,0],"sum_hessian":[1.2908592E2,4.239876E0,1.2484605E2,3.1177797E0,1.1220961E0,7.137542E1,5.347063E1,1.1611092E0,1.9566705E0,7.021569E1,1.1597275E0,1.9944835E0,5.147615E1,6.317787E1,7.0378175E0,3.4063528E0,4.8069798E1],"tree_param":{"num_deleted":"0","num_feature":"7","num_nodes":"17","size_leaf_vector":"0"}},{"base_weights":[-2.5039474E-3,-1.9166367E-1,5.1144194E-3,-5.1609606E-1,6.510063E-2,2.2080794E-1,-7.4442266E-3,2.4735004E-1,-9.826648E-2,5.6836575E-1,-3.4178808E-1,-3.477349E-1,6.1903326E-3,2.0735413E-1,9.3340003E-1,-5.2066773E-1,2.948359E-2,3.308813E-2,-7.3750204E-1,1.9580668E-1,-1.2427701E-2],"categories":[],"categories_nodes":[],"categories_segments":[],"categories_sizes":[],"default_left":[1,1,1,0,1,1,1,0,0,1,1,1,1,0,0,0,0,0,0,0,0],"id":39,"left_children":[1,3,5,-1,7,9,11,-1,-1,13,15,17,19,-1,-1,-1,-1,-1,-1,-1,-1],"loss_changes":[1.8797034E-1,4.5424074E-1,3.421601E-1,0E0,1.346688E-1,1.5530521E0,5.577931E-1,0E0,0E0,4.2200756E-1,2.3305994E-1,7.117938E-1,4.1239282E-1,0E0,0E0,0E0,0E0,0E0,0E0,0E0,0E0],"parents":[2147483647,0,0,1,1,2,2,4,4,5,5,6,6,9,9,10,10,11,11,12,12],"right_children":[2,4,6,-1,8,10,12,-1,-1,14,16,18,20,-1,-1,-1,-1,-1,-1,-1,-1],"split_conditions":[7.5E0,3.5E0,9.5E0,-1.5482882E-1,3.55E1,3.5E0,1.15E1,7.420501E-2,-2.9479945E-2,2.5E0,1.3385E3,1.5E0,9.545E2,6.2206242E-2,2.8002003E-1,-1.5620032E-1,8.845078E-3,9.926439E-3,-2.2125062E-1,5.8742005E-2,-3.7283103E-3],"split_indices":[0,3,0,0,4,3,0,0,0,3,1,5,1,0,0,0,0,0,0,0,0],"split_type":[0,0,0,0,0,0,0,0,0,0,0,0,0,0,0,0,0,0,0,0,0],"sum_hessian":[1.2875618E2,4.049569E0,1.2470661E2,1.342838E0,2.7067313E0,5.9491086E0,1.187575E2,1.0364318E0,1.6702994E0,3.6710005E0,2.2781081E0,3.6310093E0,1.15126495E2,2.6340337E0,1.0369667E0,1.2658353E0,1.012273E0,2.2994416E0,1.3315678E0,9.442438E0,1.0568405E2],"tree_param":{"num_deleted":"0","num_feature":"7","num_nodes":"21","size_leaf_vector":"0"}},{"base_weights":[-2.6995032E-3,-2.2043766E-1,7.1218302E-3,1.00619376E-1,-5.528232E-1,6.433371E-1,-5.059167E-3,2.2328208E-1,-6.693055E-2,-3.988815E-1,7.396071E-3,-5.914053E-1,1.3182958E-2,5.111391E-1,-7.423818E-3],"categories":[],"categories_nodes":[],"categories_segments":[],"categories_sizes":[],"default_left":[1,1,1,1,0,0,1,0,0,1,1,0,0,0,0],"id":40,"left_children":[1,3,5,7,-1,-1,9,-1,-1,11,13,-1,-1,-1,-1],"loss_changes":[2.784554E-1,6.55306E-1,9.7087336E-1,9.107909E-2,0E0,0E0,6.0876006E-1,0E0,0E0,3.0961502E-1,9.0487295E-1,0E0,0E0,0E0,0E0],"parents":[2147483647,0,0,1,1,2,2,3,3,6,6,9,9,10,10],"right_children":[2,4,6,8,-1,-1,10,-1,-1,12,14,-1,-1,-1,-1],"split_conditions":[7.18E2,3.55E1,7.595E2,6.455E2,-1.6584696E-1,1.9300114E-1,8.97E2,6.698463E-2,-2.0079166E-2,2.5E0,9.545E2,-1.7742158E-1,3.9548874E-3,1.5334174E-1,-2.2271455E-3],"split_indices":[1,4,1,1,0,0,1,0,0,3,1,0,0,0,0],"split_type":[0,0,0,0,0,0,0,0,0,0,0,0,0,0,0],"sum_hessian":[1.2847775E2,4.61948E0,1.2385828E2,2.704468E0,1.9150122E0,1.3534335E0,1.22504845E2,1.3693451E0,1.335123E0,2.8044882E0,1.19700356E2,1.6148001E0,1.1896882E0,2.4637837E0,1.1723657E2],"tree_param":{"num_deleted":"0","num_feature":"7","num_nodes":"15","size_leaf_vector":"0"}},{"base_weights":[-1.7035726E-3,-1.1744988E-1,1.7914075E-2,-3.621921E-2,-6.983976E-1,5.5004406E-1,-1.8656655E-3,-2.552153E-1,1.4473541E-1,8.8832283E-4,7.7607554E-1,-3.8263035E-1,1.5610408E-2,1.3377868E-1,-1.0299349E0,-1.7769285E-1,8.6533105E-1,5.374299E-3,-8.11691E-1,9.3973666E-1,-1.280664E-2],"categories":[],"categories_nodes":[],"categories_segments":[],"categories_sizes":[],"default_left":[1,1,1,1,0,1,1,1,1,0,0,1,1,0,0,0,0,0,0,0,0],"id":41,"left_children":[1,3,5,7,-1,9,11,13,15,-1,-1,17,19,-1,-1,-1,-1,-1,-1,-1,-1],"loss_changes":[2.9542685E-1,8.644219E-1,1.1727692E0,7.3422E-1,0E0,4.9496484E-1,7.2684497E-1,2.6459641E0,2.5405207E0,0E0,0E0,8.0231583E-1,2.7573287E0,0E0,0E0,0E0,0E0,0E0,0E0,0E0,0E0],"parents":[2147483647,0,0,1,1,2,2,3,3,5,5,6,6,7,7,8,8,11,11,12,12],"right_children":[2,4,6,8,-1,10,12,14,16,-1,-1,18,20,-1,-1,-1,-1,-1,-1,-1,-1],"split_conditions":[1.1865E3,1.1425E3,1.2235E3,2.75E1,-2.0951928E-1,3.2E1,1.263E3,9.795E2,1.04E3,2.6649685E-4,2.3282267E-1,1.247E3,1.286E3,4.0133603E-2,-3.0898046E-1,-5.3307857E-2,2.5959933E-1,1.6122897E-3,-2.4350731E-1,2.81921E-1,-3.8419922E-3],"split_indices":[1,1,1,4,0,4,1,1,1,0,0,1,1,0,0,0,0,0,0,0,0],"split_type":[0,0,0,0,0,0,0,0,0,0,0,0,0,0,0,0,0,0,0,0,0],"sum_hessian":[1.2817897E2,1.7853628E1,1.1032534E2,1.6595514E1,1.258113E0,2.9931386E0,1.073322E2,7.322839E0,9.2726755E0,1.1654774E0,1.8276612E0,3.7931604E0,1.0353904E2,5.425809E0,1.8970296E0,6.9267373E0,2.3459384E0,2.5104263E0,1.2827342E0,2.1321385E0,1.014069E2],"tree_param":{"num_deleted":"0","num_feature":"7","num_nodes":"21","size_leaf_vector":"0"}},{"base_weights":[-1.8784357E-3,-1.0221627E-1,1.4850684E-2,-3.2222677E-2,-6.331334E-1,4.2799297E-1,-2.2860249E-3,1.0667666E-1,-2.532147E-1,-1.1349558E-1,6.265939E-1,-4.0018007E-1,1.3506507E-2,2.2010568E-1,-4.0011513E-1,-5.023928E-1,3.4629342E-1,2.0674463E-1,8.0938345E-1,1.1892068E-1,-6.4711756E-1,7.3210126E-1,-9.014513E-3],"categories":[],"categories_nodes":[],"categories_segments":[],"categories_sizes":[],"default_left":[1,1,1,1,0,1,1,1,1,0,1,1,1,0,0,0,0,0,0,0,0,0,0],"id":42,"left_children":[1,3,5,7,-1,9,11,13,15,-1,17,19,21,-1,-1,-1,-1,-1,-1,-1,-1,-1,-1],"loss_changes":[2.1728627E-1,6.669244E-1,7.871829E-1,5.609693E-1,0E0,5.473027E-1,6.81659E-1,7.425418E-1,1.2211686E0,0E0,9.306526E-2,6.077758E-1,1.6974242E0,0E0,0E0,0E0,0E0,0E0,0E0,0E0,0E0,0E0,0E0],"parents":[2147483647,0,0,1,1,2,2,3,3,5,5,6,6,7,7,8,8,10,10,11,11,12,12],"right_children":[2,4,6,8,-1,10,12,14,16,-1,18,20,22,-1,-1,-1,-1,-1,-1,-1,-1,-1,-1],"split_conditions":[1.1865E3,1.1425E3,1.2295E3,3.5E0,-1.8994004E-1,1.1E1,1.263E3,3.9E1,4E1,-3.4048676E-2,3.5E0,1.1E1,1.286E3,6.603171E-2,-1.20034546E-1,-1.5071785E-1,1.0388803E-1,6.202339E-2,2.4281505E-1,3.5676204E-2,-1.9413528E-1,2.1963039E-1,-2.704354E-3],"split_indices":[1,1,1,3,0,0,1,4,4,0,3,0,1,0,0,0,0,0,0,0,0,0,0],"split_type":[0,0,0,0,0,0,0,0,0,0,0,0,0,0,0,0,0,0,0,0,0,0,0],"sum_hessian":[1.275434E2,1.7495985E1,1.1004742E2,1.639521E1,1.1007744E0,3.427995E0,1.0661942E2,1.0385151E1,6.0100603E0,1.0348859E0,2.393109E0,3.1410327E0,1.03478386E2,8.948096E0,1.4370549E0,4.359909E0,1.6501511E0,1.3722476E0,1.0208616E0,1.1796482E0,1.9613845E0,2.1870518E0,1.01291336E2],"tree_param":{"num_deleted":"0","num_feature":"7","num_nodes":"23","size_leaf_vector":"0"}},{"base_weights":[-1.3679422E-3,7.327814E-2,-2.3822097E-2,1.3725004E-1,-2.7278984E-1,-3.1868815E-1,4.3226867E-3,5.976864E-2,9.340398E-1,-8.063179E-1,2.1895239E-1,-5.250935E-1,4.4023967E-1,1.4409111E-1,-3.5548907E-2,1.4989094E-1,-7.6779026E-1,4.6560013E-1,-1.6885217E-1,-8.6818315E-2,-8.8219106E-1,2.9430226E-3,5.653264E-1,-1.8633044E-1,7.2174673E-3],"categories":[],"categories_nodes":[],"categories_segments":[],"categories_sizes":[],"default_left":[1,1,1,1,1,1,1,1,0,0,1,1,0,1,1,0,0,0,0,0,0,0,0,0,0],"id":43,"left_children":[1,3,5,7,9,11,13,15,-1,-1,17,19,-1,21,23,-1,-1,-1,-1,-1,-1,-1,-1,-1,-1],"loss_changes":[2.1627836E-1,6.981367E-1,8.242213E-1,1.5402361E0,1.4859068E0,1.5865722E0,5.1502043E-1,1.9520305E0,0E0,0E0,4.0225452E-1,1.0594296E0,0E0,1.2175574E0,4.6557495E-1,0E0,0E0,0E0,0E0,0E0,0E0,0E0,0E0,0E0,0E0],"parents":[2147483647,0,0,1,1,2,2,3,3,4,4,5,5,6,6,7,7,10,10,11,11,13,13,14,14],"right_children":[2,4,6,8,10,12,14,16,-1,-1,18,20,-1,22,24,-1,-1,-1,-1,-1,-1,-1,-1,-1,-1],"split_conditions":[2.55E1,4.7785E3,2.65E1,4.0415E3,3.3E1,3.45E1,2.95E1,3.4645E3,2.8021196E-1,-2.4189539E-1,8.276E3,1.95E1,1.3207191E-1,4.7895E3,3.25E1,4.4967286E-2,-2.3033708E-1,1.3968004E-1,-5.065565E-2,-2.6045496E-2,-2.6465732E-1,8.8290684E-4,1.6959792E-1,-5.5899132E-2,2.1652402E-3],"split_indices":[4,1,4,1,0,0,4,1,0,0,1,0,0,1,4,0,0,0,0,0,0,0,0,0,0],"split_type":[0,0,0,0,0,0,0,0,0,0,0,0,0,0,0,0,0,0,0,0,0,0,0,0,0],"sum_hessian":[1.2699405E2,2.8843597E1,9.815045E1,2.485286E1,3.9907384E0,7.652622E0,9.0497826E1,2.363004E1,1.2228197E0,1.6072239E0,2.3835144E0,6.258588E0,1.3940345E0,1.9506083E1,7.0991745E1,2.204787E1,1.5821676E0,1.3342881E0,1.0492263E0,3.3680341E0,2.8905535E0,1.5364658E1,4.1414237E0,1.4944596E1,5.604715E1],"tree_param":{"num_deleted":"0","num_feature":"7","num_nodes":"25","size_leaf_vector":"0"}},{"base_weights":[-2.2345257E-3,-1.0078985E-2,1.9684044E-1,3.0200141E-3,-2.690982E-1,7.3898005E-1,-1.3701367E-1,-7.050279E-3,5.299484E-1,1.1368147E-1,-4.950222E-1,-3.1994656E-1,1.5983835E-1,7.7515454E-3,-3.362781E-1,-6.850077E-1,1.3097185E-2],"categories":[],"categories_nodes":[],"categories_segments":[],"categories_sizes":[],"default_left":[1,1,1,1,1,0,1,1,0,0,1,0,0,0,0,0,0],"id":44,"left_children":[1,3,5,7,9,-1,11,13,-1,-1,15,-1,-1,-1,-1,-1,-1],"loss_changes":[2.0032158E-1,4.1862276E-1,9.8154175E-1,6.3096446E-1,5.698606E-1,0E0,2.6040596E-1,5.726417E-1,0E0,0E0,3.8752186E-1,0E0,0E0,0E0,0E0,0E0,0E0],"parents":[2147483647,0,0,1,1,2,2,3,3,4,4,6,6,7,7,10,10],"right_children":[2,4,6,8,10,-1,12,14,-1,-1,16,-1,-1,-1,-1,-1,-1],"split_conditions":[1.1191E4,8.4285E3,1.5E0,8.079E3,2.95E1,2.2169402E-1,1.5E0,7.201E3,1.5898453E-1,3.4104444E-2,4.05E1,-9.5983975E-2,4.795151E-2,2.3254638E-3,-1.0088344E-1,-2.0550232E-1,3.9291554E-3],"split_indices":[1,1,2,1,4,0,5,1,0,0,0,0,0,0,0,0,0],"split_type":[0,0,0,0,0,0,0,0,0,0,0,0,0,0,0,0,0],"sum_hessian":[1.2600635E2,1.2214274E2,3.8636088E0,1.172039E2,4.9388404E0,1.0100025E0,2.8536065E0,1.15974106E2,1.2297972E0,2.0174763E0,2.9213643E0,1.7174453E0,1.1361611E0,1.1191878E2,4.055325E0,1.8729472E0,1.0484171E0],"tree_param":{"num_deleted":"0","num_feature":"7","num_nodes":"17","size_leaf_vector":"0"}},{"base_weights":[-1.0708767E-3,-9.969527E-2,1.5428882E-2,3.3423655E-2,-3.178389E-1,3.786199E-1,5.802195E-4,-6.8770605E-1,2.6003516E-1,3.740502E-1,-5.2614784E-1,-1.0055803E-1,5.596901E-1,-3.4373945E-1,1.3982833E-2,-6.2346417E-2,5.4169405E-1,-9.137792E-1,3.6510292E-2,1.5992618E-1,7.308164E-1,-2.4134906E-3,-6.6910267E-1,5.7646704E-1,-3.938019E-3],"categories":[],"categories_nodes":[],"categories_segments":[],"categories_sizes":[],"default_left":[1,1,1,1,1,1,1,0,1,0,1,0,1,1,1,0,0,0,0,0,0,0,0,0,0],"id":45,"left_children":[1,3,5,7,9,11,13,-1,15,-1,17,-1,19,21,23,-1,-1,-1,-1,-1,-1,-1,-1,-1,-1],"loss_changes":[2.0768607E-1,5.4175764E-1,5.897217E-1,2.182908E0,1.2095401E0,4.2895186E-1,4.9442142E-1,0E0,9.469605E-1,0E0,1.3019012E0,0E0,1.0679352E-1,4.4417918E-1,1.0413657E0,0E0,0E0,0E0,0E0,0E0,0E0,0E0,0E0,0E0,0E0],"parents":[2147483647,0,0,1,1,2,2,3,3,4,4,5,5,6,6,8,8,10,10,12,12,13,13,14,14],"right_children":[2,4,6,8,10,12,14,-1,16,-1,18,-1,20,22,24,-1,-1,-1,-1,-1,-1,-1,-1,-1,-1],"split_conditions":[1.1865E3,1.3E1,1.2295E3,3.5E0,3.5E0,1.1E1,1.263E3,-2.0631182E-1,7.925E2,1.12215064E-1,2.8E1,-3.016741E-2,1.2145E3,1.247E3,1.286E3,-1.8703926E-2,1.6250822E-1,-2.7413377E-1,1.0953088E-2,4.7977854E-2,2.1924494E-1,-7.240472E-4,-2.0073082E-1,1.7294012E-1,-1.1814057E-3],"split_indices":[1,0,1,2,2,0,1,0,1,0,4,0,1,1,1,0,0,0,0,0,0,0,0,0,0],"split_type":[0,0,0,0,0,0,0,0,0,0,0,0,0,0,0,0,0,0,0,0,0,0,0,0,0],"sum_hessian":[1.2568257E2,1.7290346E1,1.0839223E2,1.1263651E1,6.0266953E0,3.2951787E0,1.05097046E2,2.206698E0,9.056953E0,1.2104818E0,4.8162136E0,1.0256308E0,2.269548E0,3.014177E0,1.0208287E2,4.5862556E0,4.470698E0,2.4821498E0,2.3340638E0,1.260193E0,1.009355E0,1.9626522E0,1.0515249E0,2.1896188E0,9.989325E1],"tree_param":{"num_deleted":"0","num_feature":"7","num_nodes":"25","size_leaf_vector":"0"}},{"base_weights":[-1.3349906E-3,-1.8055882E-2,9.443766E-2,9.232598E-3,-4.990156E-1,6.743478E-1,-3.1110592E-2,-1.7100593E-2,5.688905E-1,-8.859488E-1,-8.044779E-2,3.0952984E-2,9.4008327E-1,2.9724744E-1,-1.8504232E-1,4.950889E-3,-6.7146677E-1,1.0028807E0,1.5669517E-1,3.7855092E-1,-3.91979E-1,5.698102E-1,-1.4629665E-1,-4.176676E-1,1.6580406E-1],"categories":[],"categories_nodes":[],"categories_segments":[],"categories_sizes":[],"default_left":[1,1,1,1,1,1,1,1,1,0,1,0,0,1,1,0,0,0,0,0,0,0,0,0,0],"id":46,"left_children":[1,3,5,7,9,11,13,15,17,-1,19,-1,-1,21,23,-1,-1,-1,-1,-1,-1,-1,-1,-1,-1],"loss_changes":[2.0366828E-1,1.4248267E0,1.3974822E0,1.5333273E0,8.7263274E-1,5.537118E-1,8.8886356E-1,1.4420704E0,6.7914844E-1,0E0,7.0597965E-1,0E0,0E0,7.663073E-1,1.0362608E0,0E0,0E0,0E0,0E0,0E0,0E0,0E0,0E0,0E0,0E0],"parents":[2147483647,0,0,1,1,2,2,3,3,4,4,5,5,6,6,7,7,8,8,10,10,13,13,14,14],"right_children":[2,4,6,8,10,12,14,16,18,-1,20,-1,-1,22,24,-1,-1,-1,-1,-1,-1,-1,-1,-1,-1],"split_conditions":[6.4095E3,5.2975E3,1.9E1,4.814E3,5.9045E3,3.5E0,2.95E1,4.64E3,5.024E3,-2.6578465E-1,6.054E3,9.285896E-3,2.8202498E-1,3.9E1,4.05E1,1.4852667E-3,-2.0144004E-1,3.0086422E-1,4.7008555E-2,1.1356528E-1,-1.17593706E-1,1.7094307E-1,-4.3888997E-2,-1.2530029E-1,4.974122E-2],"split_indices":[1,1,0,1,1,3,4,1,1,0,1,0,0,0,0,0,0,0,0,0,0,0,0,0,0],"split_type":[0,0,0,0,0,0,0,0,0,0,0,0,0,0,0,0,0,0,0,0,0,0,0,0,0],"sum_hessian":[1.2511628E2,1.07210014E2,1.7906263E1,1.0238192E2,4.8280964E0,2.408789E0,1.5497475E1,9.870697E1,3.6749454E0,1.9286194E0,2.899477E0,1.0304233E0,1.3783658E0,4.6491494E0,1.0848325E1,9.6449165E1,2.2578058E0,1.092089E0,2.5828564E0,1.0853024E0,1.8141748E0,2.7032793E0,1.9458705E0,6.4086647E0,4.43966E0],"tree_param":{"num_deleted":"0","num_feature":"7","num_nodes":"25","size_leaf_vector":"0"}},{"base_weights":[4.623189E-4,-2.674063E-2,7.1911156E-2,9.742269E-3,-3.8918135E-1,5.834552E-1,-1.4281136E-2,-2.7544433E-2,6.16215E-1,-8.1679434E-1,6.95802E-2,8.060991E-1,-4.618613E-2,-9.686293E-2,3.4886444E-1,-5.4420484E-3,-7.040887E-1,1.0309323E0,1.3645469E-1,4.2373744E-1,-4.0417257E-1,3.068827E-1,1.0322319E0,4.0728468E-1,-1.5369168E-1,2.954918E-2,7.2388816E-1],"categories":[],"categories_nodes":[],"categories_segments":[],"categories_sizes":[],"default_left":[1,1,1,1,1,1,1,1,1,0,1,1,0,1,1,0,0,0,0,0,0,0,0,0,0,0,0],"id":47,"left_children":[1,3,5,7,9,11,13,15,17,-1,19,21,-1,23,25,-1,-1,-1,-1,-1,-1,-1,-1,-1,-1,-1,-1],"loss_changes":[2.4562794E-1,1.2142278E0,1.5447428E0,1.9197717E0,1.7039256E0,7.4497855E-1,9.573873E-1,1.1958423E0,8.3753085E-1,0E0,1.0054882E0,1.10394955E-1,0E0,8.0389625E-1,6.879312E-1,0E0,0E0,0E0,0E0,0E0,0E0,0E0,0E0,0E0,0E0,0E0,0E0],"parents":[2147483647,0,0,1,1,2,2,3,3,4,4,5,5,6,6,7,7,8,8,10,10,11,11,13,13,14,14],"right_children":[2,4,6,8,10,12,14,16,18,-1,20,22,-1,24,26,-1,-1,-1,-1,-1,-1,-1,-1,-1,-1,-1,-1],"split_conditions":[4.076E3,3.554E3,4.4945E3,3.344E3,3.05E1,3.15E1,4.85E1,3.1235E3,3.39E3,-2.4503832E-1,1.5E0,4.276E3,-1.385584E-2,1.65E1,1.5E0,-1.6326146E-3,-2.1122661E-1,3.092797E-1,4.0936407E-2,1.2712124E-1,-1.2125178E-1,9.206481E-2,3.0966958E-1,1.2218541E-1,-4.6107505E-2,8.864754E-3,2.1716645E-1],"split_indices":[1,1,1,1,4,4,4,1,1,0,5,1,0,0,5,0,0,0,0,0,0,0,0,0,0,0,0],"split_type":[0,0,0,0,0,0,0,0,0,0,0,0,0,0,0,0,0,0,0,0,0,0,0,0,0,0,0],"sum_hessian":[1.2438722E2,9.054099E1,3.384623E1,8.314484E1,7.396151E0,4.048643E0,2.9797586E1,7.922836E1,3.9164765E0,3.424102E0,3.972049E0,2.7839687E0,1.2646745E0,2.4874273E1,4.9233136E0,7.769805E1,1.530315E0,1.4844394E0,2.432037E0,2.3333268E0,1.6387222E0,1.602762E0,1.1812067E0,1.8951206E0,2.2979153E1,3.2418349E0,1.6814786E0],"tree_param":{"num_deleted":"0","num_feature":"7","num_nodes":"27","size_leaf_vector":"0"}},{"base_weights":[4.2432607E-3,-5.664966E-2,3.620108E-2,-5.0768554E-3,-8.127327E-1,4.1980043E-1,-9.331361E-4,2.4579303E-1,-1.1120681E-1,-2.215816E-1,5.8189076E-1,-4.0779033E-1,2.1288699E-2,-2.5155276E-1,5.579176E-1,-1.6720654E-1,7.199225E-1,1.3845739E-1,9.2310625E-1,-8.121265E-1,8.386553E-2,6.079055E-1,-6.0409224E-3],"categories":[],"categories_nodes":[],"categories_segments":[],"categories_sizes":[],"default_left":[1,1,1,1,0,1,1,1,1,0,1,1,1,0,0,0,0,0,0,0,0,0,0],"id":48,"left_children":[1,3,5,7,-1,9,11,13,15,-1,17,19,21,-1,-1,-1,-1,-1,-1,-1,-1,-1,-1],"loss_changes":[2.44393E-1,1.6824257E0,1.1724548E0,1.1321766E0,0E0,8.841547E-1,6.959551E-1,2.1037083E0,1.5096368E0,0E0,7.913244E-1,8.605986E-1,1.1744906E0,0E0,0E0,0E0,0E0,0E0,0E0,0E0,0E0,0E0,0E0],"parents":[2147483647,0,0,1,1,2,2,3,3,5,5,6,6,7,7,8,8,10,10,11,11,12,12],"right_children":[2,4,6,8,-1,10,12,14,16,-1,18,20,22,-1,-1,-1,-1,-1,-1,-1,-1,-1,-1],"split_conditions":[1.6335E3,1.557E3,1.9245E3,3.5E0,-2.4381982E-1,3.5E0,1.972E3,1.2365E3,1.5235E3,-6.647448E-2,2.95E1,3.5E0,2.15E1,-7.546583E-2,1.6737528E-1,-5.0161965E-2,2.1597676E-1,4.1537218E-2,2.7693188E-1,-2.4363796E-1,2.515966E-2,1.8237166E-1,-1.8122768E-3],"split_indices":[1,1,1,2,0,2,1,1,1,0,4,2,4,0,0,0,0,0,0,0,0,0,0],"split_type":[0,0,0,0,0,0,0,0,0,0,0,0,0,0,0,0,0,0,0,0,0,0,0],"sum_hessian":[1.235332E2,4.2252327E1,8.1280876E1,4.049674E1,1.7555882E0,6.264381E0,7.5016495E1,1.1647776E1,2.8848965E1,1.1897166E0,5.074664E0,2.9864793E0,7.203002E1,4.5661073E0,7.081668E0,2.7776278E1,1.0726869E0,2.8181102E0,2.2565541E0,1.2810934E0,1.7053859E0,2.2607465E0,6.976927E1],"tree_param":{"num_deleted":"0","num_feature":"7","num_nodes":"23","size_leaf_vector":"0"}},{"base_weights":[3.814681E-3,1.0102555E-2,-3.302976E-1,-3.1873714E-3,2.6260307E-1,6.1565973E-3,-3.2593125E-1,6.426937E-1,-2.7041996E-3,-3.3636529E-3,4.937599E-1,-5.515658E-1,1.0312807E-2,2.0185769E-1,-2.2365722E-1],"categories":[],"categories_nodes":[],"categories_segments":[],"categories_sizes":[],"default_left":[1,1,0,1,1,1,1,0,1,0,0,0,0,0,0],"id":49,"left_children":[1,3,-1,5,7,9,11,-1,13,-1,-1,-1,-1,-1,-1],"loss_changes":[2.644484E-1,4.1346443E-1,0E0,3.5726422E-1,6.2294894E-1,5.37681E-1,2.5856847E-1,0E0,2.5413463E-1,0E0,0E0,0E0,0E0,0E0,0E0],"parents":[2147483647,0,0,1,1,3,3,4,4,5,5,6,6,8,8],"right_children":[2,4,-1,6,8,10,12,-1,14,-1,-1,-1,-1,-1,-1],"split_conditions":[5.7E1,9.569E3,-9.908928E-2,8.4285E3,1.5E0,8.079E3,8.9625E3,1.9280812E-1,1.20535E4,-1.0090959E-3,1.4812797E-1,-1.6546975E-1,3.0938422E-3,6.055731E-2,-6.709717E-2],"split_indices":[0,1,0,1,2,1,1,0,1,0,0,0,0,0,0],"split_type":[0,0,0,0,0,0,0,0,0,0,0,0,0,0,0],"sum_hessian":[1.2328819E2,1.2196266E2,1.3255309E0,1.1680235E2,5.160312E0,1.144692E2,2.3331482E0,1.5365433E0,3.6237688E0,1.1325112E2,1.2180791E0,1.0130043E0,1.3201439E0,1.9265553E0,1.6972135E0],"tree_param":{"num_deleted":"0","num_feature":"7","num_nodes":"15","size_leaf_vector":"0"}}]},"name":"gbtree"},"learner_model_param":{"base_score":"5E-1","boost_from_average":"1","num_class":"0","num_feature":"7","num_target":"1"},"objective":{"name":"binary:logistic","reg_loss_param":{"scale_pos_weight":"1"}}},"version":[1,7,6]}